booster[0]:
0:[uvIndex<0.5] yes=1,no=2,missing=1
	1:[hour_x<9] yes=3,no=4,missing=3
		3:[windGust<4.23000002] yes=7,no=8,missing=7
			7:[weekday<1] yes=15,no=16,missing=15
				15:leaf=1.51055562
				16:[hour_x<8] yes=31,no=32,missing=31
					31:[hour_x<6] yes=61,no=62,missing=61
						61:leaf=0.117085434
						62:leaf=0.409677416
					32:[cloudCover<0.379999995] yes=63,no=64,missing=63
						63:leaf=1.19375002
						64:leaf=0.436363667
			8:[windGust<8.81999969] yes=17,no=18,missing=17
				17:[weekday<1] yes=33,no=34,missing=33
					33:[pressure<1027.69995] yes=65,no=66,missing=65
						65:leaf=2.67916656
						66:leaf=1.43452382
					34:[cloudCover<0.779999971] yes=67,no=68,missing=67
						67:leaf=1.12524045
						68:leaf=1.86859512
				18:[humidity<0.75999999] yes=35,no=36,missing=35
					35:[windBearing<224] yes=69,no=70,missing=69
						69:leaf=0.288741738
						70:leaf=2.0093751
					36:[weekday<1] yes=71,no=72,missing=71
						71:leaf=1.72246838
						72:leaf=1.12359917
		4:[hour_x<19] yes=9,no=10,missing=9
			9:[temperature<5.86000013] yes=19,no=20,missing=19
				19:[pressure<1027.69995] yes=37,no=38,missing=37
					37:leaf=2.97076941
					38:leaf=0.9375
				20:[pressure<992.5] yes=39,no=40,missing=39
					39:[pressure<992.159973] yes=73,no=74,missing=73
						73:leaf=0.546153843
						74:leaf=0.1875
					40:[pressure<1001.71002] yes=75,no=76,missing=75
						75:leaf=2.87948728
						76:leaf=1.97357142
			10:[weekday<1] yes=21,no=22,missing=21
				21:[pressure<1021.79999] yes=41,no=42,missing=41
					41:[apparentTemperature<-3.01999998] yes=77,no=78,missing=77
						77:leaf=3.27708316
						78:leaf=1.18489015
					42:[pressure<1027.35999] yes=79,no=80,missing=79
						79:leaf=3.38474584
						80:leaf=2.12870383
				22:[pressure<1003.79999] yes=43,no=44,missing=43
					43:[cloudCover<0.819999993] yes=81,no=82,missing=81
						81:leaf=2.2561152
						82:leaf=1.05500007
					44:[temperature<9.01000023] yes=83,no=84,missing=83
						83:leaf=0.775167823
						84:leaf=1.43852139
	2:[weekday<1] yes=5,no=6,missing=5
		5:[windSpeed<6.53999996] yes=11,no=12,missing=11
			11:[pressure<1021.90002] yes=23,no=24,missing=23
				23:[windGust<10.5900002] yes=45,no=46,missing=45
					45:[pressure<1006.71997] yes=85,no=86,missing=85
						85:leaf=2.8416667
						86:leaf=1.66180551
					46:leaf=0.775000036
				24:[dewPoint<2.91000009] yes=47,no=48,missing=47
					47:leaf=1.7852459
					48:[pressure<1024.05005] yes=87,no=88,missing=87
						87:leaf=2.71574092
						88:leaf=3.67314792
			12:[windBearing<146] yes=25,no=26,missing=25
				25:[dewPoint<5.05999994] yes=49,no=50,missing=49
					49:[pressure<1021.46997] yes=89,no=90,missing=89
						89:leaf=0.852380931
						90:leaf=0.398165137
					50:[apparentTemperature<4.73999977] yes=91,no=92,missing=91
						91:leaf=2.8125
						92:leaf=1.3203125
				26:[dewPoint<1] yes=51,no=52,missing=51
					51:[apparentTemperature<-2.80999994] yes=93,no=94,missing=93
						93:leaf=0.366666675
						94:leaf=2.9028573
					52:[pressure<1010.97998] yes=95,no=96,missing=95
						95:leaf=1.14097226
						96:leaf=2.03552628
		6:[hour_x<15] yes=13,no=14,missing=13
			13:[hour_x<9] yes=27,no=28,missing=27
				27:[windSpeed<1.89999998] yes=53,no=54,missing=53
					53:[apparentTemperature<9] yes=97,no=98,missing=97
						97:leaf=0.975000024
						98:leaf=0.241666675
					54:[temperature<7.53000021] yes=99,no=100,missing=99
						99:leaf=1.57500005
						100:leaf=2.24897957
				28:[pressure<1019.44] yes=55,no=56,missing=55
					55:[pressure<1014.33002] yes=101,no=102,missing=101
						101:leaf=3.03642702
						102:leaf=1.69142854
					56:[humidity<0.5] yes=103,no=104,missing=103
						103:leaf=1.92307699
						104:leaf=3.33167505
			14:[dewPoint<6.71999979] yes=29,no=30,missing=29
				29:[windBearing<264] yes=57,no=58,missing=57
					57:[windBearing<102] yes=105,no=106,missing=105
						105:leaf=2.14177203
						106:leaf=3.02790713
					58:[visibility<11.8900003] yes=107,no=108,missing=107
						107:leaf=2.15468764
						108:leaf=1.43846154
				30:[cloudy<1] yes=59,no=60,missing=59
					59:[windBearing<72] yes=109,no=110,missing=109
						109:leaf=0.680000007
						110:leaf=1.27291667
					60:[windGust<7.67999983] yes=111,no=112,missing=111
						111:leaf=2.24852943
						112:leaf=1.69629633
booster[1]:
0:[uvIndex<0.5] yes=1,no=2,missing=1
	1:[hour_x<8] yes=3,no=4,missing=3
		3:[windGust<4.30999994] yes=7,no=8,missing=7
			7:[weekday<1] yes=15,no=16,missing=16
				15:leaf=1.37481642
				16:[hour_x<6] yes=31,no=32,missing=31
					31:[cloudCover<0.119999997] yes=61,no=62,missing=62
						61:leaf=0.402350992
						62:leaf=0.0790381134
					32:[windBearing<133] yes=63,no=64,missing=63
						63:leaf=0.899523377
						64:leaf=0.279244632
			8:[windGust<8.81999969] yes=17,no=18,missing=17
				17:[weekday<1] yes=33,no=34,missing=33
					33:[pressure<1027.69995] yes=65,no=66,missing=66
						65:leaf=2.47529364
						66:leaf=1.29138339
					34:[cloudCover<0.479999989] yes=67,no=68,missing=67
						67:leaf=0.538778365
						68:leaf=1.465042
				18:[humidity<0.75999999] yes=35,no=36,missing=35
					35:[windBearing<224] yes=69,no=70,missing=69
						69:leaf=0.170194075
						70:leaf=1.91451919
					36:[windBearing<78] yes=71,no=72,missing=72
						71:leaf=0.137715012
						72:leaf=1.16878223
		4:[hour_x<21] yes=9,no=10,missing=10
			9:[windGust<16] yes=19,no=20,missing=19
				19:[apparentTemperature<10.6700001] yes=37,no=38,missing=38
					37:[windBearing<58] yes=73,no=74,missing=73
						73:leaf=2.27021098
						74:leaf=1.37869394
					38:[windGust<3.69000006] yes=75,no=76,missing=75
						75:leaf=2.51196599
						76:leaf=1.81514072
				20:[temperature<9.32999992] yes=39,no=40,missing=39
					39:[dewPoint<4.23999977] yes=77,no=78,missing=77
						77:leaf=2.67181158
						78:leaf=1.7602905
					40:[windBearing<225] yes=79,no=80,missing=80
						79:leaf=1.50463426
						80:leaf=0.61099577
			10:[weekday<1] yes=21,no=22,missing=21
				21:[humidity<0.639999986] yes=41,no=42,missing=42
					41:[apparentTemperature<4.07999992] yes=81,no=82,missing=81
						81:leaf=0.369410247
						82:leaf=-0.0216401145
					42:[pressure<997.900024] yes=83,no=84,missing=84
						83:leaf=0.399703324
						84:leaf=2.17340803
				22:[pressure<1006.37] yes=43,no=44,missing=43
					43:[windBearing<38] yes=85,no=86,missing=86
						85:leaf=0.133839935
						86:leaf=1.65061414
					44:[windBearing<215] yes=87,no=88,missing=88
						87:leaf=0.258367985
						88:leaf=0.968563855
	2:[weekday<1] yes=5,no=6,missing=6
		5:[windSpeed<6.53999996] yes=11,no=12,missing=12
			11:[pressure<1021.90002] yes=23,no=24,missing=23
				23:[apparentTemperature<3.99000001] yes=45,no=46,missing=45
					45:leaf=0.618000686
					46:[pressure<1006.71997] yes=89,no=90,missing=89
						89:leaf=2.40023851
						90:leaf=1.49793291
				24:[dewPoint<2.91000009] yes=47,no=48,missing=47
					47:leaf=1.60964811
					48:[pressure<1024.05005] yes=91,no=92,missing=91
						91:leaf=2.44919586
						92:leaf=3.31263542
			12:[windBearing<146] yes=25,no=26,missing=26
				25:[dewPoint<5.05999994] yes=49,no=50,missing=49
					49:[windGust<12.5299997] yes=93,no=94,missing=93
						93:leaf=0.699905634
						94:leaf=0.339373559
					50:[apparentTemperature<4.73999977] yes=95,no=96,missing=95
						95:leaf=2.6015625
						96:leaf=1.19240725
				26:[dewPoint<1] yes=51,no=52,missing=51
					51:[apparentTemperature<-2.80999994] yes=97,no=98,missing=98
						97:leaf=0.342222214
						98:leaf=2.6208663
					52:[pressure<1010.97998] yes=99,no=100,missing=99
						99:leaf=1.02845967
						100:leaf=1.83733046
		6:[hour_x<15] yes=13,no=14,missing=13
			13:[hour_x<9] yes=27,no=28,missing=28
				27:[windSpeed<1.89999998] yes=53,no=54,missing=54
					53:[apparentTemperature<9] yes=101,no=102,missing=101
						101:leaf=0.887249947
						102:leaf=0.22152777
					54:[temperature<7.53000021] yes=103,no=104,missing=103
						103:leaf=1.42465973
						104:leaf=2.0286715
				28:[hour_x<12] yes=55,no=56,missing=55
					55:[pressure<1019.44] yes=105,no=106,missing=106
						105:leaf=2.664608
						106:leaf=3.17038584
					56:[windBearing<78] yes=107,no=108,missing=107
						107:leaf=1.79473615
						108:leaf=2.59406638
			14:[pressure<1000.42999] yes=29,no=30,missing=29
				29:[windBearing<260] yes=57,no=58,missing=57
					57:leaf=3.08037305
					58:leaf=1.77481902
				30:[windBearing<102] yes=59,no=60,missing=59
					59:[windSpeed<3.97000003] yes=109,no=110,missing=110
						109:leaf=1.0469588
						110:leaf=1.66211319
					60:[humidity<0.74000001] yes=111,no=112,missing=111
						111:leaf=2.29102063
						112:leaf=1.72308695
booster[2]:
0:[uvIndex<0.5] yes=1,no=2,missing=1
	1:[hour_x<9] yes=3,no=4,missing=4
		3:[windGust<4.30999994] yes=7,no=8,missing=7
			7:[weekday<1] yes=15,no=16,missing=15
				15:leaf=1.23352277
				16:[hour_x<7] yes=31,no=32,missing=31
					31:[pressure<1008.97998] yes=61,no=62,missing=62
						61:leaf=0.812720239
						62:leaf=0.112446927
					32:[pressure<1023.59998] yes=63,no=64,missing=63
						63:leaf=1.0638808
						64:leaf=0.445185959
			8:[temperature<1.89999998] yes=17,no=18,missing=17
				17:[pressure<1000.94] yes=33,no=34,missing=33
					33:leaf=0.180431947
					34:[windSpeed<8.35999966] yes=65,no=66,missing=65
						65:leaf=2.57255292
						66:leaf=1.69070745
				18:[windSpeed<5.67999983] yes=35,no=36,missing=35
					35:[weekend<1] yes=67,no=68,missing=67
						67:leaf=1.04448068
						68:leaf=1.7017988
					36:[windGust<18.0900002] yes=69,no=70,missing=70
						69:leaf=0.651002228
						70:leaf=1.42290354
		4:[hour_x<19] yes=9,no=10,missing=9
			9:[temperature<5.86000013] yes=19,no=20,missing=19
				19:[pressure<1027.69995] yes=37,no=38,missing=37
					37:leaf=2.49635625
					38:leaf=0.763785481
				20:[pressure<995.890015] yes=39,no=40,missing=39
					39:[weekday<1] yes=71,no=72,missing=72
						71:leaf=0.308813304
						72:leaf=0.932610214
					40:[pressure<1001.71002] yes=73,no=74,missing=73
						73:leaf=2.73808503
						74:leaf=1.60591221
			10:[weekday<1] yes=21,no=22,missing=22
				21:[pressure<1021.79999] yes=41,no=42,missing=42
					41:[pressure<1018.22998] yes=75,no=76,missing=75
						75:leaf=1.52357626
						76:leaf=0.205206633
					42:[dewPoint<3.88000011] yes=77,no=78,missing=78
						77:leaf=1.96904469
						78:leaf=3.212008
				22:[pressure<1003.79999] yes=43,no=44,missing=43
					43:[humidity<0.839999974] yes=79,no=80,missing=79
						79:leaf=2.21097207
						80:leaf=1.31964421
					44:[windBearing<131] yes=81,no=82,missing=81
						81:leaf=0.260807008
						82:leaf=0.965677917
	2:[weekday<1] yes=5,no=6,missing=5
		5:[windSpeed<6.53999996] yes=11,no=12,missing=12
			11:[pressure<1021.79999] yes=23,no=24,missing=24
				23:[windGust<10.5900002] yes=45,no=46,missing=46
					45:[pressure<1006.71997] yes=83,no=84,missing=83
						83:leaf=2.40484118
						84:leaf=1.34340608
					46:leaf=0.629213274
				24:[dewPoint<2.91000009] yes=47,no=48,missing=47
					47:leaf=1.45132196
					48:[pressure<1024.05005] yes=85,no=86,missing=85
						85:leaf=2.20199752
						86:leaf=2.98750663
			12:[windBearing<146] yes=25,no=26,missing=25
				25:[dewPoint<5.1500001] yes=49,no=50,missing=49
					49:[pressure<1021.46997] yes=87,no=88,missing=88
						87:leaf=0.708825111
						88:leaf=0.321780026
					50:[pressure<1007.02002] yes=89,no=90,missing=89
						89:leaf=2.40644646
						90:leaf=1.08586586
				26:[dewPoint<1] yes=51,no=52,missing=52
					51:[apparentTemperature<-2.80999994] yes=91,no=92,missing=91
						91:leaf=0.319407165
						92:leaf=2.36626697
					52:[pressure<1010.97998] yes=93,no=94,missing=93
						93:leaf=0.927042007
						94:leaf=1.6584326
		6:[hour_x<15] yes=13,no=14,missing=13
			13:[hour_x<9] yes=27,no=28,missing=27
				27:[windSpeed<1.99000001] yes=53,no=54,missing=54
					53:[apparentTemperature<9] yes=95,no=96,missing=95
						95:leaf=0.836019039
						96:leaf=0.203067139
					54:[temperature<7.53000021] yes=97,no=98,missing=98
						97:leaf=1.28866887
						98:leaf=1.84468961
				28:[pressure<1019.44] yes=55,no=56,missing=56
					55:[pressure<1014.33002] yes=99,no=100,missing=99
						99:leaf=2.47547984
						100:leaf=1.28032696
					56:[humidity<0.5] yes=101,no=102,missing=102
						101:leaf=1.48294508
						102:leaf=2.71088386
			14:[dewPoint<6.71999979] yes=29,no=30,missing=29
				29:[windBearing<264] yes=57,no=58,missing=57
					57:[windBearing<102] yes=103,no=104,missing=103
						103:leaf=1.74112988
						104:leaf=2.49039173
					58:[visibility<11.8900003] yes=105,no=106,missing=105
						105:leaf=1.72856748
						106:leaf=1.09420168
				30:[cloudy<1] yes=59,no=60,missing=59
					59:[windBearing<71] yes=107,no=108,missing=108
						107:leaf=0.482978106
						108:leaf=1.01335025
					60:[windGust<7.67999983] yes=109,no=110,missing=110
						109:leaf=1.82295978
						110:leaf=1.3670224
booster[3]:
0:[uvIndex<0.5] yes=1,no=2,missing=2
	1:[hour_x<8] yes=3,no=4,missing=3
		3:[windGust<4.30999994] yes=7,no=8,missing=7
			7:[weekday<1] yes=15,no=16,missing=16
				15:[dewPoint<0.74000001] yes=31,no=32,missing=32
					31:leaf=0.776601374
					32:leaf=1.15248156
				16:[hour_x<6] yes=33,no=34,missing=33
					33:[cloudCover<0.119999997] yes=63,no=64,missing=64
						63:leaf=0.354303211
						64:leaf=0.0599926487
					34:[windBearing<133] yes=65,no=66,missing=65
						65:leaf=0.751608074
						66:leaf=0.223309144
			8:[windGust<8.81999969] yes=17,no=18,missing=17
				17:[hour_x<6] yes=35,no=36,missing=36
					35:[windBearing<83] yes=67,no=68,missing=68
						67:leaf=0.693823934
						68:leaf=1.57768548
					36:[temperature<1.74000001] yes=69,no=70,missing=69
						69:leaf=2.1495688
						70:leaf=0.64152503
				18:[humidity<0.75999999] yes=37,no=38,missing=37
					37:[windBearing<224] yes=71,no=72,missing=72
						71:leaf=0.0833577141
						72:leaf=1.63993132
					38:[temperature<5.78000021] yes=73,no=74,missing=73
						73:leaf=0.631009459
						74:leaf=1.09041107
		4:[hour_x<21] yes=9,no=10,missing=9
			9:[apparentTemperature<0.0700000003] yes=19,no=20,missing=19
				19:[hour_x<9] yes=39,no=40,missing=40
					39:[cloudy<1] yes=75,no=76,missing=75
						75:leaf=1.89969218
						76:leaf=0.723965585
					40:[cloudCover<0.75999999] yes=77,no=78,missing=77
						77:leaf=2.41898704
						78:leaf=0.292529076
				20:[dewPoint<0.129999995] yes=41,no=42,missing=41
					41:[apparentTemperature<5.92999983] yes=79,no=80,missing=79
						79:leaf=0.0946679711
						80:leaf=1.13490951
					42:[temperature<11.0299997] yes=81,no=82,missing=82
						81:leaf=1.23715103
						82:leaf=1.6193192
			10:[weekday<1] yes=21,no=22,missing=21
				21:[humidity<0.649999976] yes=43,no=44,missing=43
					43:[dewPoint<1.72000003] yes=83,no=84,missing=83
						83:leaf=0.147783682
						84:leaf=1.26716328
					44:[windBearing<254] yes=85,no=86,missing=85
						85:leaf=2.00311708
						86:leaf=0.905388772
				22:[pressure<1006.37] yes=45,no=46,missing=46
					45:[windBearing<38] yes=87,no=88,missing=87
						87:leaf=0.00666061044
						88:leaf=1.33686173
					46:[windBearing<215] yes=89,no=90,missing=89
						89:leaf=0.169190556
						90:leaf=0.776304901
	2:[weekday<1] yes=5,no=6,missing=5
		5:[windSpeed<6.53999996] yes=11,no=12,missing=11
			11:[pressure<1021.90002] yes=23,no=24,missing=24
				23:[windGust<10.5900002] yes=47,no=48,missing=48
					47:[pressure<1006.71997] yes=91,no=92,missing=92
						91:leaf=2.20443797
						92:leaf=1.21655309
					48:leaf=0.576777637
				24:[dewPoint<2.91000009] yes=49,no=50,missing=50
					49:leaf=1.30856895
					50:[pressure<1024.05005] yes=93,no=94,missing=94
						93:leaf=1.99268973
						94:leaf=2.69429755
			12:[windBearing<146] yes=25,no=26,missing=25
				25:[windBearing<127] yes=51,no=52,missing=51
					51:[pressure<1007.26001] yes=95,no=96,missing=96
						95:leaf=1.98068845
						96:leaf=0.855087578
					52:[apparentTemperature<5.57000017] yes=97,no=98,missing=97
						97:leaf=0.333105356
						98:leaf=0.0544635467
				26:[dewPoint<1] yes=53,no=54,missing=53
					53:[apparentTemperature<-2.80999994] yes=99,no=100,missing=99
						99:leaf=0.298114508
						100:leaf=2.13640094
					54:[pressure<1010.97998] yes=101,no=102,missing=101
						101:leaf=0.83562547
						102:leaf=1.49695361
		6:[hour_x<13] yes=13,no=14,missing=13
			13:[hour_x<9] yes=27,no=28,missing=28
				27:[windSpeed<1.99000001] yes=55,no=56,missing=55
					55:[apparentTemperature<9] yes=103,no=104,missing=103
						103:leaf=0.760017335
						104:leaf=0.186144873
					56:[temperature<7.53000021] yes=105,no=106,missing=105
						105:leaf=1.16565943
						106:leaf=1.6640625
				28:[pressure<1019.44] yes=57,no=58,missing=57
					57:[pressure<1014.33002] yes=107,no=108,missing=107
						107:leaf=2.31549001
						108:leaf=1.00262642
					58:[clear<1] yes=109,no=110,missing=109
						109:leaf=2.62614799
						110:leaf=1.83486521
			14:[pressure<1000.42999] yes=29,no=30,missing=30
				29:[windBearing<260] yes=59,no=60,missing=59
					59:leaf=2.59366822
					60:leaf=1.4580754
				30:[windBearing<143] yes=61,no=62,missing=61
					61:[apparentTemperature<6.11999989] yes=111,no=112,missing=112
						111:leaf=1.88216138
						112:leaf=1.1601516
					62:[dewPoint<1.69000006] yes=113,no=114,missing=113
						113:leaf=0.758131862
						114:leaf=1.99242711
booster[4]:
0:[uvIndex<0.5] yes=1,no=2,missing=1
	1:[windGust<5.4000001] yes=3,no=4,missing=4
		3:[apparentTemperature<10.1700001] yes=7,no=8,missing=8
			7:[weekday<1] yes=15,no=16,missing=15
				15:[precipIntensity<0.0329999998] yes=31,no=32,missing=32
					31:[humidity<0.779999971] yes=63,no=64,missing=63
						63:leaf=1.31694067
						64:leaf=0.960223317
					32:[dewPoint<3.3599999] yes=65,no=66,missing=65
						65:leaf=1.87525451
						66:leaf=0.353302777
				16:[pressure<1023.31] yes=33,no=34,missing=33
					33:[dewPoint<5.5999999] yes=67,no=68,missing=67
						67:leaf=1.308792
						68:leaf=0.235153511
					34:[apparentTemperature<6.11999989] yes=69,no=70,missing=70
						69:leaf=0.153387353
						70:leaf=0.466163546
			8:[windBearing<171] yes=17,no=18,missing=18
				17:[pressure<1027.52002] yes=35,no=36,missing=35
					35:[hour_x<17] yes=71,no=72,missing=72
						71:leaf=0.193705529
						72:leaf=0.727759778
					36:leaf=1.54726183
				18:[pressure<1023.59998] yes=37,no=38,missing=37
					37:leaf=2.6398685
					38:[hour_x<18] yes=73,no=74,missing=73
						73:leaf=1.84976375
						74:leaf=1.08687389
		4:[windGust<8.64999962] yes=9,no=10,missing=9
			9:[pressure<1022.77002] yes=19,no=20,missing=20
				19:[pressure<1009.83002] yes=39,no=40,missing=40
					39:[temperature<3.26999998] yes=75,no=76,missing=75
						75:leaf=0.496522874
						76:leaf=1.60711479
					40:[windBearing<160] yes=77,no=78,missing=77
						77:leaf=0.269491851
						78:leaf=1.36360002
				20:[windBearing<164] yes=41,no=42,missing=41
					41:[dewPoint<3.80999994] yes=79,no=80,missing=80
						79:leaf=1.54950607
						80:leaf=2.64590907
					42:[pressure<1029.17004] yes=81,no=82,missing=81
						81:leaf=1.55264521
						82:leaf=0.913117409
			10:[windGust<15.5699997] yes=21,no=22,missing=21
				21:[temperature<2] yes=43,no=44,missing=44
					43:[pressure<1003.32001] yes=83,no=84,missing=83
						83:leaf=0.337222546
						84:leaf=2.24891949
					44:[visibility<8.72000027] yes=85,no=86,missing=85
						85:leaf=1.1764673
						86:leaf=0.617341578
				22:[temperature<9.52000046] yes=45,no=46,missing=45
					45:[dewPoint<4.23999977] yes=87,no=88,missing=88
						87:leaf=1.90591049
						88:leaf=1.11706913
					46:[windBearing<210] yes=89,no=90,missing=89
						89:leaf=1.27187765
						90:leaf=0.424237639
	2:[weekday<1] yes=5,no=6,missing=5
		5:[windSpeed<6.53999996] yes=11,no=12,missing=11
			11:[pressure<1021.71002] yes=23,no=24,missing=24
				23:[pressure<1008.29999] yes=47,no=48,missing=47
					47:[hour_x<10] yes=91,no=92,missing=91
						91:leaf=2.02073503
						92:leaf=1.14257991
					48:[cloudy<1] yes=93,no=94,missing=94
						93:leaf=0.195050418
						94:leaf=0.853945673
				24:[dewPoint<2.91000009] yes=49,no=50,missing=50
					49:leaf=1.17985713
					50:[pressure<1023.84003] yes=95,no=96,missing=95
						95:leaf=1.77381694
						96:leaf=2.41856909
			12:[windBearing<224] yes=25,no=26,missing=25
				25:[dewPoint<5.11000013] yes=51,no=52,missing=51
					51:[windGust<12.7200003] yes=97,no=98,missing=97
						97:leaf=0.562437713
						98:leaf=0.246752262
					52:[apparentTemperature<4.73999977] yes=99,no=100,missing=100
						99:leaf=2.07741022
						100:leaf=0.902931333
				26:[dewPoint<1.08000004] yes=53,no=54,missing=53
					53:[apparentTemperature<-2.80999994] yes=101,no=102,missing=102
						101:leaf=0.27823934
						102:leaf=1.94630718
					54:[pressure<1010.97998] yes=103,no=104,missing=103
						103:leaf=0.719176948
						104:leaf=1.3869648
		6:[hour_x<15] yes=13,no=14,missing=13
			13:[hour_x<9] yes=27,no=28,missing=28
				27:[windSpeed<1.89999998] yes=55,no=56,missing=55
					55:[cloudCover<0.75999999] yes=105,no=106,missing=105
						105:leaf=0.170632496
						106:leaf=0.663754284
					56:[temperature<7.09000015] yes=107,no=108,missing=107
						107:leaf=0.979313493
						108:leaf=1.46443903
				28:[hour_x<12] yes=57,no=58,missing=57
					57:[apparentTemperature<6.78000021] yes=109,no=110,missing=110
						109:leaf=1.96566331
						110:leaf=2.35952377
					58:[uvIndex<1.5] yes=111,no=112,missing=111
						111:leaf=2.34589076
						112:leaf=1.76202893
			14:[pressure<1000.42999] yes=29,no=30,missing=29
				29:[windBearing<260] yes=59,no=60,missing=59
					59:leaf=2.31143451
					60:leaf=1.30478585
				30:[windBearing<120] yes=61,no=62,missing=61
					61:[cloudCover<0.790000021] yes=113,no=114,missing=113
						113:leaf=1.23530471
						114:leaf=0.747578204
					62:[windSpeed<1.85000002] yes=115,no=116,missing=116
						115:leaf=0.778141558
						116:leaf=1.63113248
booster[5]:
0:[uvIndex<0.5] yes=1,no=2,missing=2
	1:[hour_x<9] yes=3,no=4,missing=3
		3:[weekday<1] yes=7,no=8,missing=7
			7:[windBearing<118] yes=15,no=16,missing=15
				15:[windGust<4.73000002] yes=31,no=32,missing=32
					31:[cloudCover<0.819999993] yes=63,no=64,missing=63
						63:leaf=0.854748547
						64:leaf=1.68217075
					32:leaf=2.15167594
				16:[windBearing<137] yes=33,no=34,missing=33
					33:[visibility<6.73999977] yes=65,no=66,missing=66
						65:leaf=1.70343387
						66:leaf=-0.0942225084
					34:[windBearing<312] yes=67,no=68,missing=67
						67:leaf=0.844429612
						68:leaf=1.75127304
			8:[windGust<5.38000011] yes=17,no=18,missing=17
				17:[hour_x<6] yes=35,no=36,missing=35
					35:[humidity<0.930000007] yes=69,no=70,missing=69
						69:leaf=0.0275992807
						70:leaf=0.146575391
					36:[pressure<1023.59998] yes=71,no=72,missing=71
						71:leaf=0.777801454
						72:leaf=0.287141442
				18:[pressure<1022.71002] yes=37,no=38,missing=37
					37:[windBearing<88] yes=73,no=74,missing=73
						73:leaf=0.120811261
						74:leaf=0.630807996
					38:[windBearing<164] yes=75,no=76,missing=75
						75:leaf=2.47630882
						76:leaf=0.922151208
		4:[hour_x<19] yes=9,no=10,missing=9
			9:[temperature<5.86000013] yes=19,no=20,missing=20
				19:[windGust<5.48000002] yes=39,no=40,missing=39
					39:leaf=1.04127324
					40:[visibility<11.96] yes=77,no=78,missing=77
						77:leaf=2.05986309
						78:leaf=0.938163698
				20:[pressure<992.5] yes=41,no=42,missing=41
					41:[pressure<992.159973] yes=79,no=80,missing=80
						79:leaf=0.119190469
						80:leaf=-0.0922140256
					42:[humidity<0.829999983] yes=81,no=82,missing=81
						81:leaf=1.29532313
						82:leaf=0.561332405
			10:[apparentTemperature<-3.01999998] yes=21,no=22,missing=21
				21:[cloudCover<0.389999986] yes=43,no=44,missing=44
					43:leaf=-0.0611546524
					44:leaf=2.33301926
				22:[visibility<9.65999985] yes=45,no=46,missing=45
					45:[windBearing<77] yes=83,no=84,missing=84
						83:leaf=0.424627036
						84:leaf=1.29854476
					46:[windBearing<82] yes=85,no=86,missing=85
						85:leaf=1.16316617
						86:leaf=0.624958754
	2:[weekday<1] yes=5,no=6,missing=6
		5:[windGust<8.97999954] yes=11,no=12,missing=11
			11:[pressure<1021.90002] yes=23,no=24,missing=23
				23:[pressure<1007.02002] yes=47,no=48,missing=47
					47:leaf=2.08894134
					48:[pressure<1008.29999] yes=87,no=88,missing=87
						87:leaf=1.12748539
						88:leaf=0.789189935
				24:[dewPoint<2.21000004] yes=49,no=50,missing=49
					49:[apparentTemperature<4.96000004] yes=89,no=90,missing=90
						89:leaf=0.76957798
						90:leaf=1.1301049
					50:[pressure<1024.05005] yes=91,no=92,missing=91
						91:leaf=1.62062609
						92:leaf=2.19246984
			12:[windBearing<146] yes=25,no=26,missing=25
				25:[pressure<1021.46997] yes=51,no=52,missing=52
					51:leaf=0.593326032
					52:[windSpeed<9.98999977] yes=93,no=94,missing=93
						93:leaf=0.190233231
						94:leaf=0.442411155
				26:[dewPoint<1.08000004] yes=53,no=54,missing=53
					53:[humidity<0.790000021] yes=95,no=96,missing=96
						95:leaf=1.75708294
						96:leaf=0.252795607
					54:[pressure<1010.97998] yes=97,no=98,missing=98
						97:leaf=0.65938437
						98:leaf=1.18208349
		6:[hour_x<13] yes=13,no=14,missing=13
			13:[hour_x<9] yes=27,no=28,missing=28
				27:[windSpeed<1.99000001] yes=55,no=56,missing=55
					55:[apparentTemperature<9] yes=99,no=100,missing=100
						99:leaf=0.623304605
						100:leaf=0.156413272
					56:[cloudCover<0.430000007] yes=101,no=102,missing=101
						101:leaf=0.783741891
						102:leaf=1.3118453
				28:[pressure<1019.44] yes=57,no=58,missing=58
					57:[pressure<1014.33002] yes=103,no=104,missing=103
						103:leaf=1.88362372
						104:leaf=0.715269744
					58:[windGust<5.30000019] yes=105,no=106,missing=106
						105:leaf=1.82697141
						106:leaf=2.30360579
			14:[pressure<1000.42999] yes=29,no=30,missing=29
				29:[windBearing<260] yes=59,no=60,missing=60
					59:leaf=2.12452483
					60:leaf=1.18186569
				30:[windBearing<143] yes=61,no=62,missing=61
					61:[apparentTemperature<6.19000006] yes=107,no=108,missing=107
						107:leaf=1.49782038
						108:leaf=0.897237897
					62:[pressure<1005.71002] yes=109,no=110,missing=109
						109:leaf=0.797597528
						110:leaf=1.65040803
booster[6]:
0:[uvIndex<0.5] yes=1,no=2,missing=1
	1:[hour_x<8] yes=3,no=4,missing=3
		3:[weekday<1] yes=7,no=8,missing=8
			7:[windBearing<118] yes=15,no=16,missing=15
				15:[windGust<3.99000001] yes=31,no=32,missing=32
					31:leaf=0.836769104
					32:leaf=1.83744466
				16:[windGust<9.72000027] yes=33,no=34,missing=33
					33:[apparentTemperature<0.409999996] yes=63,no=64,missing=63
						63:leaf=1.65262341
						64:leaf=0.738791764
					34:[dewPoint<3.9000001] yes=65,no=66,missing=65
						65:leaf=0.0998947993
						66:leaf=1.00657642
			8:[windGust<5.38000011] yes=17,no=18,missing=17
				17:[hour_x<6] yes=35,no=36,missing=35
					35:[cloudCover<0.119999997] yes=67,no=68,missing=68
						67:leaf=0.18909578
						68:leaf=0.0324822851
					36:[windBearing<133] yes=69,no=70,missing=69
						69:leaf=0.562006235
						70:leaf=0.20426099
				18:[pressure<1022.71002] yes=37,no=38,missing=38
					37:[windGust<18.8799992] yes=71,no=72,missing=71
						71:leaf=0.356525093
						72:leaf=1.09590054
					38:[windBearing<164] yes=73,no=74,missing=73
						73:leaf=2.23641658
						74:leaf=0.789154112
		4:[hour_x<21] yes=9,no=10,missing=10
			9:[pressure<1003.02002] yes=19,no=20,missing=19
				19:[windGust<11.1000004] yes=39,no=40,missing=39
					39:[windGust<5.48000002] yes=75,no=76,missing=76
						75:leaf=0.712733626
						76:leaf=2.08921599
					40:[humidity<0.689999998] yes=77,no=78,missing=77
						77:leaf=1.97325921
						78:leaf=0.693492591
				20:[windBearing<136] yes=41,no=42,missing=41
					41:[pressure<1024.33997] yes=79,no=80,missing=80
						79:leaf=0.32452634
						80:leaf=1.44268072
					42:[pressure<1005.81] yes=81,no=82,missing=82
						81:leaf=0.313887805
						82:leaf=1.1012274
			10:[weekday<1] yes=21,no=22,missing=21
				21:[pressure<1021.79999] yes=43,no=44,missing=43
					43:[temperature<2] yes=83,no=84,missing=84
						83:leaf=2.13087916
						84:leaf=0.543848991
					44:[dewPoint<2.80999994] yes=85,no=86,missing=85
						85:leaf=1.40777254
						86:leaf=2.29445243
				22:[pressure<1006.37] yes=45,no=46,missing=46
					45:[cloudCover<0.769999981] yes=87,no=88,missing=87
						87:leaf=1.17014158
						88:leaf=0.576521754
					46:[dewPoint<7.23999977] yes=89,no=90,missing=89
						89:leaf=0.124846853
						90:leaf=0.763189912
	2:[weekday<1] yes=5,no=6,missing=5
		5:[windGust<8.97999954] yes=11,no=12,missing=11
			11:[pressure<1010.25] yes=23,no=24,missing=24
				23:[pressure<1007.02002] yes=47,no=48,missing=47
					47:leaf=1.9032563
					48:[pressure<1008.29999] yes=91,no=92,missing=91
						91:leaf=1.01748693
						92:leaf=0.672724903
				24:[dewPoint<2.21000004] yes=49,no=50,missing=50
					49:leaf=0.972525299
					50:[pressure<1027.21997] yes=93,no=94,missing=94
						93:leaf=1.48010051
						94:leaf=2.02165771
			12:[windBearing<146] yes=25,no=26,missing=25
				25:[windSpeed<8.57999992] yes=51,no=52,missing=51
					51:[temperature<8.18999958] yes=95,no=96,missing=96
						95:leaf=0.334106952
						96:leaf=0.626650989
					52:[windSpeed<9.98999977] yes=97,no=98,missing=97
						97:leaf=0.0650857985
						98:leaf=0.400627822
				26:[dewPoint<1.08000004] yes=53,no=54,missing=53
					53:[humidity<0.790000021] yes=99,no=100,missing=99
						99:leaf=1.58625543
						100:leaf=0.233836532
					54:[pressure<1010.97998] yes=101,no=102,missing=101
						101:leaf=0.594336987
						102:leaf=1.06644475
		6:[hour_x<15] yes=13,no=14,missing=13
			13:[hour_x<9] yes=27,no=28,missing=28
				27:[windSpeed<1.99000001] yes=55,no=56,missing=56
					55:[apparentTemperature<9] yes=103,no=104,missing=103
						103:leaf=0.566640556
						104:leaf=0.143378988
					56:[windBearing<73] yes=105,no=106,missing=106
						105:leaf=0.434984982
						106:leaf=1.16081035
				28:[pressure<1019.44] yes=57,no=58,missing=57
					57:[pressure<1014.33002] yes=107,no=108,missing=107
						107:leaf=1.6366154
						108:leaf=0.738901734
					58:[windGust<5.26000023] yes=109,no=110,missing=109
						109:leaf=1.50676
						110:leaf=1.98643744
			14:[dewPoint<6.71999979] yes=29,no=30,missing=29
				29:[windBearing<264] yes=59,no=60,missing=59
					59:[windBearing<102] yes=111,no=112,missing=112
						111:leaf=1.16072285
						112:leaf=1.69864428
					60:[windSpeed<1.99000001] yes=113,no=114,missing=114
						113:leaf=0.645904243
						114:leaf=1.11058474
				30:[dewPoint<8.46000004] yes=61,no=62,missing=61
					61:[windGust<4.46999979] yes=115,no=116,missing=115
						115:leaf=0.293465883
						116:leaf=0.704660594
					62:[windBearing<193] yes=117,no=118,missing=117
						117:leaf=0.0750083923
						118:leaf=1.23644388
booster[7]:
0:[uvIndex<0.5] yes=1,no=2,missing=2
	1:[hour_x<8] yes=3,no=4,missing=3
		3:[weekday<1] yes=7,no=8,missing=7
			7:[windBearing<118] yes=15,no=16,missing=15
				15:[windGust<3.99000001] yes=31,no=32,missing=32
					31:leaf=0.7623896
					32:leaf=1.65692449
				16:[windGust<9.72000027] yes=33,no=34,missing=33
					33:[apparentTemperature<0.409999996] yes=59,no=60,missing=59
						59:leaf=1.49036586
						60:leaf=0.665476561
					34:[pressure<1004.94] yes=61,no=62,missing=62
						61:leaf=0.627419174
						62:leaf=-0.108543091
			8:[cloudCover<0.779999971] yes=17,no=18,missing=18
				17:[windGust<5.63999987] yes=35,no=36,missing=36
					35:[pressure<1009.62] yes=63,no=64,missing=63
						63:leaf=0.533468246
						64:leaf=0.0690616593
					36:[windBearing<87] yes=65,no=66,missing=65
						65:leaf=-0.0946459621
						66:leaf=0.510970056
				18:[apparentTemperature<11.3599997] yes=37,no=38,missing=37
					37:[windGust<5.38000011] yes=67,no=68,missing=68
						67:leaf=0.242143229
						68:leaf=1.14088452
					38:[pressure<1021.12] yes=69,no=70,missing=69
						69:leaf=0.420969069
						70:leaf=-0.353518248
		4:[hour_x<21] yes=9,no=10,missing=9
			9:[pressure<1003.02002] yes=19,no=20,missing=19
				19:[weekday<1] yes=39,no=40,missing=39
					39:[apparentTemperature<4.55999994] yes=71,no=72,missing=71
						71:leaf=-0.0395482294
						72:leaf=0.722376287
					40:[hour_x<9] yes=73,no=74,missing=73
						73:leaf=0.527634919
						74:leaf=1.59663475
				20:[windBearing<162] yes=41,no=42,missing=42
					41:[pressure<1024.05005] yes=75,no=76,missing=75
						75:leaf=0.277893156
						76:leaf=1.02285802
					42:[windBearing<208] yes=77,no=78,missing=77
						77:leaf=1.36736405
						78:leaf=0.821437955
			10:[weekday<1] yes=21,no=22,missing=21
				21:[pressure<1021.79999] yes=43,no=44,missing=43
					43:[temperature<2] yes=79,no=80,missing=79
						79:leaf=1.9303261
						80:leaf=0.489963204
					44:[dewPoint<2.80999994] yes=81,no=82,missing=81
						81:leaf=1.27005565
						82:leaf=2.07647943
				22:[pressure<1006.37] yes=45,no=46,missing=45
					45:[visibility<7.19000006] yes=83,no=84,missing=83
						83:leaf=1.40013456
						84:leaf=0.68694669
					46:[dewPoint<7.23999977] yes=85,no=86,missing=85
						85:leaf=0.11240989
						86:leaf=0.68773818
	2:[weekday<1] yes=5,no=6,missing=6
		5:[windGust<8.97999954] yes=11,no=12,missing=11
			11:[pressure<1022.01001] yes=23,no=24,missing=23
				23:[pressure<1007.02002] yes=47,no=48,missing=47
					47:leaf=1.73407829
					48:[pressure<1008.29999] yes=87,no=88,missing=87
						87:leaf=0.918219984
						88:leaf=0.661933839
				24:[dewPoint<2.21000004] yes=49,no=50,missing=50
					49:[apparentTemperature<4.96000004] yes=89,no=90,missing=89
						89:leaf=0.611204863
						90:leaf=0.924731433
					50:[pressure<1023.40002] yes=91,no=92,missing=91
						91:leaf=1.30426645
						92:leaf=1.76772392
			12:[windBearing<146] yes=25,no=26,missing=26
				25:[pressure<1021.46997] yes=51,no=52,missing=52
					51:[visibility<10.2700005] yes=93,no=94,missing=93
						93:leaf=0.58030504
						94:leaf=0.371485442
					52:[cloudCover<0.419999987] yes=95,no=96,missing=96
						95:leaf=-0.0971520469
						96:leaf=0.211270168
				26:[dewPoint<1.08000004] yes=53,no=54,missing=53
					53:[humidity<0.790000021] yes=97,no=98,missing=98
						97:leaf=1.43203628
						98:leaf=0.216298416
					54:[pressure<1010.97998] yes=99,no=100,missing=99
						99:leaf=0.53570646
						100:leaf=0.962118626
		6:[pressure<999.059998] yes=13,no=14,missing=13
			13:[windBearing<260] yes=27,no=28,missing=27
				27:leaf=1.86343408
				28:leaf=0.96399498
			14:[windBearing<83] yes=29,no=30,missing=29
				29:[windSpeed<6.59000015] yes=55,no=56,missing=56
					55:[cloudCover<0.790000021] yes=101,no=102,missing=101
						101:leaf=0.992696762
						102:leaf=0.531451166
					56:[dewPoint<5.26000023] yes=103,no=104,missing=104
						103:leaf=1.11949909
						104:leaf=-0.0587432683
				30:[pressure<1005.71002] yes=57,no=58,missing=58
					57:[windSpeed<7.42999983] yes=105,no=106,missing=105
						105:leaf=1.56868041
						106:leaf=0.831577718
					58:[hour_x<15] yes=107,no=108,missing=108
						107:leaf=1.50866115
						108:leaf=1.12967801
booster[8]:
0:[uvIndex<0.5] yes=1,no=2,missing=1
	1:[weekday<1] yes=3,no=4,missing=4
		3:[windBearing<116] yes=7,no=8,missing=7
			7:[pressure<1020.33002] yes=15,no=16,missing=15
				15:[pressure<1006.47998] yes=31,no=32,missing=31
					31:leaf=1.56416583
					32:[windSpeed<6.03999996] yes=63,no=64,missing=63
						63:leaf=0.808073044
						64:leaf=0.254578173
				16:[windBearing<56] yes=33,no=34,missing=33
					33:leaf=1.60283554
					34:leaf=2.09834075
			8:[windBearing<146] yes=17,no=18,missing=17
				17:[visibility<9.09000015] yes=35,no=36,missing=36
					35:[humidity<0.899999976] yes=65,no=66,missing=65
						65:leaf=1.43016601
						66:leaf=0.342512369
					36:[pressure<1021.22998] yes=67,no=68,missing=68
						67:leaf=0.058811035
						68:leaf=-0.213250279
				18:[pressure<1000.94] yes=37,no=38,missing=37
					37:[apparentTemperature<4.55999994] yes=69,no=70,missing=69
						69:leaf=-0.0317368694
						70:leaf=0.736433744
					38:[temperature<2] yes=71,no=72,missing=72
						71:leaf=1.59633672
						72:leaf=0.863583267
		4:[windGust<5.4000001] yes=9,no=10,missing=9
			9:[apparentTemperature<9.27000046] yes=19,no=20,missing=19
				19:[windSpeed<1.28999996] yes=39,no=40,missing=40
					39:[hour_x<9] yes=73,no=74,missing=73
						73:leaf=0.133629903
						74:leaf=1.02099335
					40:[pressure<1011.78998] yes=75,no=76,missing=76
						75:leaf=0.603800714
						76:leaf=0.0745978802
				20:[windBearing<171] yes=41,no=42,missing=41
					41:[pressure<1027.52002] yes=77,no=78,missing=78
						77:leaf=0.209657699
						78:leaf=1.2393316
					42:[pressure<1023.59998] yes=79,no=80,missing=79
						79:leaf=2.07308555
						80:leaf=0.93118763
			10:[windGust<7.63000011] yes=21,no=22,missing=21
				21:[pressure<1024.42004] yes=43,no=44,missing=43
					43:[pressure<1009.83002] yes=81,no=82,missing=81
						81:leaf=1.14363086
						82:leaf=0.454676479
					44:[pressure<1034.39001] yes=83,no=84,missing=83
						83:leaf=1.44974065
						84:leaf=0.196479797
				22:[windGust<18.0900002] yes=45,no=46,missing=45
					45:[visibility<8.65999985] yes=85,no=86,missing=86
						85:leaf=0.877629399
						86:leaf=0.382195562
					46:[temperature<9.13000011] yes=87,no=88,missing=87
						87:leaf=1.48415709
						88:leaf=0.285327345
	2:[weekday<1] yes=5,no=6,missing=6
		5:[windGust<8.97999954] yes=11,no=12,missing=11
			11:[pressure<1010.25] yes=23,no=24,missing=23
				23:[pressure<1007.02002] yes=47,no=48,missing=47
					47:leaf=1.57994032
					48:[pressure<1008.29999] yes=89,no=90,missing=89
						89:leaf=0.828637421
						90:leaf=0.5416857
				24:[dewPoint<2.21000004] yes=49,no=50,missing=50
					49:[apparentTemperature<4.96000004] yes=91,no=92,missing=92
						91:leaf=0.555640876
						92:leaf=0.834408939
					50:[pressure<1027.21997] yes=93,no=94,missing=93
						93:leaf=1.20356643
						94:leaf=1.6509558
			12:[windBearing<146] yes=25,no=26,missing=25
				25:[windGust<13.1300001] yes=51,no=52,missing=52
					51:[hour_x<9] yes=95,no=96,missing=96
						95:leaf=-0.0663253143
						96:leaf=0.407666028
					52:[uvIndex<2.5] yes=97,no=98,missing=97
						97:leaf=-0.00394849805
						98:leaf=0.227144957
				26:[dewPoint<1.08000004] yes=53,no=54,missing=53
					53:[humidity<0.790000021] yes=99,no=100,missing=99
						99:leaf=1.29281032
						100:leaf=0.200076416
					54:[pressure<1010.97998] yes=101,no=102,missing=101
						101:leaf=0.482859701
						102:leaf=0.867998302
		6:[hour_x<13] yes=13,no=14,missing=13
			13:[hour_x<9] yes=27,no=28,missing=27
				27:[windSpeed<1.99000001] yes=55,no=56,missing=56
					55:[humidity<0.819999993] yes=103,no=104,missing=103
						103:leaf=0.530026555
						104:leaf=0.128488794
					56:[temperature<7.53000021] yes=105,no=106,missing=106
						105:leaf=0.59165138
						106:leaf=0.985296905
				28:[pressure<1019.44] yes=57,no=58,missing=57
					57:[pressure<1014.33002] yes=107,no=108,missing=107
						107:leaf=1.39457631
						108:leaf=0.475297183
					58:[clear<1] yes=109,no=110,missing=109
						109:leaf=1.61507928
						110:leaf=0.96409446
			14:[pressure<1000.42999] yes=29,no=30,missing=29
				29:[windBearing<260] yes=59,no=60,missing=59
					59:leaf=1.5816164
					60:leaf=0.859801292
				30:[pressure<1004.56] yes=61,no=62,missing=61
					61:[pressure<1003.02002] yes=111,no=112,missing=111
						111:leaf=0.635951757
						112:leaf=-0.20324634
					62:[windBearing<144] yes=113,no=114,missing=114
						113:leaf=0.734608114
						114:leaf=1.19581282
booster[9]:
0:[uvIndex<0.5] yes=1,no=2,missing=1
	1:[hour_x<8] yes=3,no=4,missing=3
		3:[weekday<1] yes=7,no=8,missing=7
			7:[windBearing<118] yes=15,no=16,missing=15
				15:[windGust<3.99000001] yes=31,no=32,missing=32
					31:leaf=0.6227929
					32:leaf=1.34022629
				16:[windBearing<314] yes=33,no=34,missing=34
					33:[humidity<0.889999986] yes=63,no=64,missing=63
						63:leaf=0.311086774
						64:leaf=0.964900315
					34:[windGust<3.93000007] yes=65,no=66,missing=65
						65:leaf=0.49870944
						66:leaf=1.43943083
			8:[cloudCover<0.779999971] yes=17,no=18,missing=17
				17:[apparentTemperature<-4.19000006] yes=35,no=36,missing=36
					35:leaf=1.3272723
					36:[dewPoint<2.80999994] yes=67,no=68,missing=67
						67:leaf=0.0732349306
						68:leaf=0.342243582
				18:[apparentTemperature<11.3599997] yes=37,no=38,missing=38
					37:[windGust<5.38000011] yes=69,no=70,missing=69
						69:leaf=0.210280061
						70:leaf=0.944845319
					38:[pressure<1021.12] yes=71,no=72,missing=72
						71:leaf=0.349200219
						72:leaf=-0.356242627
		4:[hour_x<19] yes=9,no=10,missing=9
			9:[hour_x<9] yes=19,no=20,missing=19
				19:[apparentTemperature<-2.80999994] yes=39,no=40,missing=40
					39:[cloudy<1] yes=73,no=74,missing=73
						73:leaf=1.23703134
						74:leaf=-0.121840477
					40:[temperature<2] yes=75,no=76,missing=76
						75:leaf=1.31851637
						76:leaf=0.437370539
				20:[temperature<5.78000021] yes=41,no=42,missing=42
					41:[pressure<1027.69995] yes=77,no=78,missing=78
						77:leaf=1.459512
						78:leaf=0.359214842
					42:[cloudCover<0.860000014] yes=79,no=80,missing=80
						79:leaf=0.753537238
						80:leaf=1.3380636
			10:[weekday<1] yes=21,no=22,missing=21
				21:[pressure<1021.79999] yes=43,no=44,missing=43
					43:[humidity<0.670000017] yes=81,no=82,missing=81
						81:leaf=-0.128938079
						82:leaf=0.739901662
					44:[dewPoint<2.80999994] yes=83,no=84,missing=83
						83:leaf=1.03695381
						84:leaf=1.75576818
				22:[pressure<1003.79999] yes=45,no=46,missing=45
					45:[pressure<995.22998] yes=85,no=86,missing=85
						85:leaf=0.365958631
						86:leaf=1.1187408
					46:[windBearing<136] yes=87,no=88,missing=87
						87:leaf=-0.0284808613
						88:leaf=0.446138948
	2:[weekday<1] yes=5,no=6,missing=6
		5:[windGust<8.97999954] yes=11,no=12,missing=11
			11:[pressure<1022.19] yes=23,no=24,missing=23
				23:[pressure<1007.02002] yes=47,no=48,missing=47
					47:leaf=1.43949878
					48:[windSpeed<6.76999998] yes=89,no=90,missing=89
						89:leaf=0.686428487
						90:leaf=0.450102955
				24:[dewPoint<2.21000004] yes=49,no=50,missing=50
					49:[humidity<0.680000007] yes=91,no=92,missing=91
						91:leaf=0.758886516
						92:leaf=0.524394214
					50:[pressure<1027.21997] yes=93,no=94,missing=93
						93:leaf=1.13189638
						94:leaf=1.48944938
			12:[windBearing<146] yes=25,no=26,missing=25
				25:[windBearing<128] yes=51,no=52,missing=51
					51:[visibility<10.2700005] yes=95,no=96,missing=95
						95:leaf=0.509634078
						96:leaf=0.296863407
					52:[windSpeed<9.98999977] yes=97,no=98,missing=97
						97:leaf=0.0995208472
						98:leaf=0.323098361
				26:[dewPoint<1.08000004] yes=53,no=54,missing=54
					53:[humidity<0.790000021] yes=99,no=100,missing=99
						99:leaf=1.16712046
						100:leaf=0.185070679
					54:[pressure<1010.97998] yes=101,no=102,missing=101
						101:leaf=0.435226291
						102:leaf=0.783085346
		6:[hour_x<12] yes=13,no=14,missing=13
			13:[hour_x<9] yes=27,no=28,missing=28
				27:[windSpeed<1.99000001] yes=55,no=56,missing=56
					55:[apparentTemperature<9] yes=103,no=104,missing=103
						103:leaf=0.351694554
						104:leaf=-0.00499841385
					56:[temperature<7.53000021] yes=105,no=106,missing=105
						105:leaf=0.535175502
						106:leaf=0.888816953
				28:[windGust<3.07999992] yes=57,no=58,missing=58
					57:[apparentTemperature<5.82999992] yes=107,no=108,missing=107
						107:leaf=-0.148097292
						108:leaf=0.898635209
					58:[pressure<1019.44] yes=109,no=110,missing=110
						109:leaf=1.18038845
						110:leaf=1.50001228
			14:[pressure<1000.42999] yes=29,no=30,missing=30
				29:[windBearing<260] yes=59,no=60,missing=59
					59:[visibility<7.67999983] yes=111,no=112,missing=111
						111:leaf=1.13050079
						112:leaf=1.54924333
					60:leaf=0.777260303
				30:[pressure<1005.81] yes=61,no=62,missing=62
					61:[windBearing<292] yes=113,no=114,missing=113
						113:leaf=0.221883699
						114:leaf=0.7330634
					62:[windBearing<144] yes=115,no=116,missing=116
						115:leaf=0.670791388
						116:leaf=1.11890709
booster[10]:
0:[uvIndex<0.5] yes=1,no=2,missing=1
	1:[hour_x<8] yes=3,no=4,missing=3
		3:[weekday<1] yes=7,no=8,missing=8
			7:[windBearing<118] yes=15,no=16,missing=15
				15:[windGust<3.99000001] yes=31,no=32,missing=31
					31:leaf=0.567432582
					32:leaf=1.20855463
				16:[windGust<9.72000027] yes=33,no=34,missing=33
					33:[apparentTemperature<0.50999999] yes=63,no=64,missing=63
						63:leaf=1.10305917
						64:leaf=0.463061392
					34:[precipProbability<0.0199999996] yes=65,no=66,missing=65
						65:leaf=-0.0331462026
						66:leaf=0.611614764
			8:[cloudCover<0.779999971] yes=17,no=18,missing=17
				17:[windBearing<87] yes=35,no=36,missing=35
					35:[apparentTemperature<5.82999992] yes=67,no=68,missing=67
						67:leaf=-0.338509947
						68:leaf=0.244429901
					36:[windGust<5.26000023] yes=69,no=70,missing=69
						69:leaf=0.057584662
						70:leaf=0.377463907
				18:[apparentTemperature<11.3599997] yes=37,no=38,missing=37
					37:[windGust<5.38000011] yes=71,no=72,missing=71
						71:leaf=0.189664289
						72:leaf=0.850958824
					38:[pressure<1021.12] yes=73,no=74,missing=73
						73:leaf=0.319268793
						74:leaf=-0.322399527
		4:[hour_x<21] yes=9,no=10,missing=10
			9:[apparentTemperature<0.0700000003] yes=19,no=20,missing=19
				19:[hour_x<9] yes=39,no=40,missing=40
					39:[temperature<3.48000002] yes=75,no=76,missing=75
						75:leaf=0.342008799
						76:leaf=1.44744229
					40:[cloudCover<0.75999999] yes=77,no=78,missing=77
						77:leaf=1.45996892
						78:leaf=0.00434227008
				20:[visibility<9.01000023] yes=41,no=42,missing=41
					41:[windGust<4.55999994] yes=79,no=80,missing=80
						79:leaf=0.23323302
						80:leaf=1.03150237
					42:[cloudCover<0.600000024] yes=81,no=82,missing=82
						81:leaf=0.754537284
						82:leaf=0.443774521
			10:[weekday<1] yes=21,no=22,missing=21
				21:[pressure<1021.79999] yes=43,no=44,missing=44
					43:[temperature<2] yes=83,no=84,missing=83
						83:leaf=1.52876699
						84:leaf=0.341189772
					44:[pressure<1033.25] yes=85,no=86,missing=85
						85:leaf=1.27091527
						86:leaf=0.570036054
				22:[pressure<1006.37] yes=45,no=46,missing=45
					45:[windBearing<38] yes=87,no=88,missing=87
						87:leaf=-0.368443847
						88:leaf=0.661254466
					46:[windBearing<215] yes=89,no=90,missing=89
						89:leaf=-0.0494847856
						90:leaf=0.395231068
	2:[weekday<1] yes=5,no=6,missing=5
		5:[windGust<8.97999954] yes=11,no=12,missing=12
			11:[pressure<1010.25] yes=23,no=24,missing=23
				23:[pressure<1007.02002] yes=47,no=48,missing=47
					47:leaf=1.31154335
					48:[pressure<1008.63] yes=91,no=92,missing=91
						91:leaf=0.675087392
						92:leaf=0.426218241
				24:[dewPoint<2.21000004] yes=49,no=50,missing=50
					49:[apparentTemperature<5.86999989] yes=93,no=94,missing=93
						93:leaf=0.500337124
						94:leaf=0.69624114
					50:[pressure<1023.40002] yes=95,no=96,missing=95
						95:leaf=0.939078152
						96:leaf=1.302966
			12:[windBearing<146] yes=25,no=26,missing=25
				25:[windSpeed<8.57999992] yes=51,no=52,missing=52
					51:[temperature<8.18999958] yes=97,no=98,missing=97
						97:leaf=0.224135384
						98:leaf=0.462296933
					52:[windSpeed<9.98999977] yes=99,no=100,missing=99
						99:leaf=0.0212498885
						100:leaf=0.292583525
				26:[dewPoint<1.08000004] yes=53,no=54,missing=53
					53:[humidity<0.790000021] yes=101,no=102,missing=101
						101:leaf=1.0536505
						102:leaf=0.171190381
					54:[temperature<9.26000023] yes=103,no=104,missing=103
						103:leaf=0.304244876
						104:leaf=0.624991596
		6:[pressure<999.059998] yes=13,no=14,missing=13
			13:[windBearing<260] yes=27,no=28,missing=27
				27:[windGust<11.1499996] yes=55,no=56,missing=55
					55:leaf=1.57027137
					56:[windGust<12.4099998] yes=105,no=106,missing=105
						105:leaf=0.707322419
						106:leaf=1.29974318
				28:[precipIntensity<0.762000024] yes=57,no=58,missing=58
					57:leaf=0.734191477
					58:leaf=0.20927763
			14:[windBearing<83] yes=29,no=30,missing=30
				29:[windSpeed<6.65999985] yes=59,no=60,missing=59
					59:[windGust<4.46999979] yes=107,no=108,missing=107
						107:leaf=0.0627567917
						108:leaf=0.695335805
					60:[dewPoint<5.26000023] yes=109,no=110,missing=109
						109:leaf=0.875597
						110:leaf=-0.212550119
				30:[temperature<8.28999996] yes=61,no=62,missing=62
					61:[windGust<12.6199999] yes=111,no=112,missing=112
						111:leaf=0.550415933
						112:leaf=1.03857076
					62:[hour_x<15] yes=113,no=114,missing=113
						113:leaf=1.13792551
						114:leaf=0.805381954
booster[11]:
0:[uvIndex<0.5] yes=1,no=2,missing=1
	1:[hour_x<9] yes=3,no=4,missing=4
		3:[weekday<1] yes=7,no=8,missing=7
			7:[windBearing<118] yes=15,no=16,missing=16
				15:[windGust<5.07000017] yes=31,no=32,missing=32
					31:[humidity<0.910000026] yes=63,no=64,missing=64
						63:leaf=0.832630336
						64:leaf=0.482784182
					32:[hour_x<8] yes=65,no=66,missing=65
						65:leaf=1.13990033
						66:leaf=1.62850308
				16:[windBearing<288] yes=33,no=34,missing=33
					33:[humidity<0.889999986] yes=67,no=68,missing=67
						67:leaf=0.219767049
						68:leaf=0.827773571
					34:[windGust<3.93000007] yes=69,no=70,missing=69
						69:leaf=0.460610062
						70:leaf=1.19060886
			8:[cloudCover<0.779999971] yes=17,no=18,missing=17
				17:[apparentTemperature<-3.8499999] yes=35,no=36,missing=35
					35:[hour_x<4] yes=71,no=72,missing=71
						71:leaf=1.17589355
						72:leaf=0.367696434
					36:[windBearing<88] yes=73,no=74,missing=73
						73:leaf=-0.0517868586
						74:leaf=0.226164058
				18:[windGust<17.5699997] yes=37,no=38,missing=37
					37:[windBearing<155] yes=75,no=76,missing=75
						75:leaf=0.916837335
						76:leaf=0.305057615
					38:[apparentTemperature<11.5299997] yes=77,no=78,missing=77
						77:leaf=1.34778821
						78:leaf=-0.0123556377
		4:[hour_x<18] yes=9,no=10,missing=9
			9:[windBearing<314] yes=19,no=20,missing=19
				19:[visibility<6.0999999] yes=39,no=40,missing=39
					39:[humidity<0.810000002] yes=79,no=80,missing=79
						79:leaf=1.74827278
						80:leaf=0.501557946
					40:[cloudCover<0.689999998] yes=81,no=82,missing=81
						81:leaf=1.04260266
						82:leaf=0.654040039
				20:[apparentTemperature<10.1999998] yes=41,no=42,missing=41
					41:[dewPoint<2.3599999] yes=83,no=84,missing=84
						83:leaf=-0.157858357
						84:leaf=-0.0149035156
					42:[apparentTemperature<12.2399998] yes=85,no=86,missing=86
						85:leaf=0.479086071
						86:leaf=0.0471932404
			10:[visibility<9.28999996] yes=21,no=22,missing=21
				21:[humidity<0.870000005] yes=43,no=44,missing=43
					43:[dewPoint<7.59000015] yes=87,no=88,missing=87
						87:leaf=1.11673534
						88:leaf=0.458905369
					44:[pressure<987.289978] yes=89,no=90,missing=89
						89:leaf=1.27011776
						90:leaf=0.347047776
				22:[apparentTemperature<-1.16999996] yes=45,no=46,missing=46
					45:[pressure<997.900024] yes=91,no=92,missing=91
						91:leaf=-0.194148362
						92:leaf=1.26136529
					46:[windGust<8.64999962] yes=93,no=94,missing=94
						93:leaf=0.484206408
						94:leaf=0.194098175
	2:[weekday<1] yes=5,no=6,missing=5
		5:[windGust<8.97999954] yes=11,no=12,missing=11
			11:[pressure<1022.19] yes=23,no=24,missing=23
				23:[pressure<1007.02002] yes=47,no=48,missing=47
					47:leaf=1.19496357
					48:[windSpeed<5.92999983] yes=95,no=96,missing=95
						95:leaf=0.571052134
						96:leaf=0.404308319
				24:[dewPoint<2.21000004] yes=49,no=50,missing=50
					49:[hour_x<14] yes=97,no=98,missing=98
						97:leaf=0.51627332
						98:leaf=0.697502077
					50:[windSpeed<3.72000003] yes=99,no=100,missing=99
						99:leaf=0.881617248
						100:leaf=1.18718004
			12:[windBearing<146] yes=25,no=26,missing=26
				25:[windGust<13.1300001] yes=51,no=52,missing=52
					51:[hour_x<9] yes=101,no=102,missing=101
						101:leaf=-0.085625127
						102:leaf=0.316771716
					52:[uvIndex<2.5] yes=103,no=104,missing=104
						103:leaf=-0.0171645451
						104:leaf=0.166465983
				26:[dewPoint<1.08000004] yes=53,no=54,missing=53
					53:[humidity<0.790000021] yes=105,no=106,missing=105
						105:leaf=0.951212406
						106:leaf=0.158351108
					54:[pressure<1010.97998] yes=107,no=108,missing=107
						107:leaf=0.342340112
						108:leaf=0.655100524
		6:[hour_x<12] yes=13,no=14,missing=13
			13:[hour_x<9] yes=27,no=28,missing=28
				27:[apparentTemperature<6.92999983] yes=55,no=56,missing=55
					55:[temperature<7.53000021] yes=109,no=110,missing=109
						109:leaf=0.430358797
						110:leaf=0.83289206
					56:[apparentTemperature<11.3599997] yes=111,no=112,missing=111
						111:leaf=0.119515277
						112:leaf=0.621925771
				28:[windGust<3.0999999] yes=57,no=58,missing=58
					57:[apparentTemperature<5.82999992] yes=113,no=114,missing=113
						113:leaf=-0.183858737
						114:leaf=0.716082633
					58:[pressure<1019.44] yes=115,no=116,missing=115
						115:leaf=0.961656988
						116:leaf=1.24636686
			14:[windBearing<264] yes=29,no=30,missing=29
				29:[apparentTemperature<6.32000017] yes=59,no=60,missing=59
					59:[dewPoint<5.28999996] yes=117,no=118,missing=118
						117:leaf=1.18348408
						118:leaf=0.357459873
					60:[windBearing<141] yes=119,no=120,missing=119
						119:leaf=0.470512778
						120:leaf=0.919983208
				30:[apparentTemperature<13.6099997] yes=61,no=62,missing=61
					61:[windSpeed<12.29] yes=121,no=122,missing=121
						121:leaf=0.495043337
						122:leaf=1.14719856
					62:leaf=1.45983684
booster[12]:
0:[uvIndex<0.5] yes=1,no=2,missing=1
	1:[windGust<5.4000001] yes=3,no=4,missing=3
		3:[apparentTemperature<10.1700001] yes=7,no=8,missing=7
			7:[weekday<1] yes=15,no=16,missing=16
				15:[windBearing<208] yes=31,no=32,missing=31
					31:[precipIntensity<0.0329999998] yes=63,no=64,missing=63
						63:leaf=0.639842868
						64:leaf=0.964622974
					32:[apparentTemperature<1.70000005] yes=65,no=66,missing=65
						65:leaf=0.215031534
						66:leaf=0.441231102
				16:[windSpeed<1.19000006] yes=33,no=34,missing=34
					33:[cloudCover<0.5] yes=67,no=68,missing=67
						67:leaf=0.746914923
						68:leaf=-0.188445315
					34:[pressure<1011.78998] yes=69,no=70,missing=70
						69:leaf=0.428095341
						70:leaf=0.00747445319
			8:[windBearing<171] yes=17,no=18,missing=17
				17:[hour_x<17] yes=35,no=36,missing=36
					35:[cloudCover<0.189999998] yes=71,no=72,missing=72
						71:leaf=-0.480046272
						72:leaf=-0.136470258
					36:[pressure<1027.43005] yes=73,no=74,missing=74
						73:leaf=0.133481592
						74:leaf=0.771217585
				18:[pressure<1023.59998] yes=37,no=38,missing=37
					37:leaf=1.63816071
					38:[windGust<4.78000021] yes=75,no=76,missing=75
						75:leaf=0.865965188
						76:leaf=-0.00156570284
		4:[windGust<7.86999989] yes=9,no=10,missing=9
			9:[pressure<1024.42004] yes=19,no=20,missing=20
				19:[pressure<1009.83002] yes=39,no=40,missing=39
					39:[pressure<995.22998] yes=77,no=78,missing=77
						77:leaf=0.139556512
						78:leaf=0.886823475
					40:[humidity<0.779999971] yes=79,no=80,missing=80
						79:leaf=0.684214771
						80:leaf=0.177566394
				20:[pressure<1029.06995] yes=41,no=42,missing=41
					41:[apparentTemperature<11.1899996] yes=81,no=82,missing=81
						81:leaf=1.37469625
						82:leaf=0.788394988
					42:[windGust<7.15999985] yes=83,no=84,missing=83
						83:leaf=0.304364175
						84:leaf=0.598472357
			10:[windGust<15.5699997] yes=21,no=22,missing=21
				21:[temperature<2] yes=43,no=44,missing=44
					43:[pressure<1003.32001] yes=85,no=86,missing=85
						85:leaf=0.00430760393
						86:leaf=1.22523153
					44:[windGust<11.3000002] yes=87,no=88,missing=88
						87:leaf=0.400594622
						88:leaf=0.119000591
				22:[temperature<9.52000046] yes=45,no=46,missing=45
					45:[dewPoint<4.23999977] yes=89,no=90,missing=89
						89:leaf=1.06417394
						90:leaf=0.56560117
					46:[windBearing<210] yes=91,no=92,missing=91
						91:leaf=0.689840019
						92:leaf=0.0247468501
	2:[weekend<1] yes=5,no=6,missing=6
		5:[pressure<1000.42999] yes=11,no=12,missing=11
			11:[windBearing<260] yes=23,no=24,missing=23
				23:[windGust<11.1499996] yes=47,no=48,missing=47
					47:[apparentTemperature<-0.620000005] yes=93,no=94,missing=94
						93:leaf=0.377588272
						94:leaf=1.30711114
					48:[apparentTemperature<2.01999998] yes=95,no=96,missing=96
						95:leaf=0.835399806
						96:leaf=1.15088737
				24:[dewPoint<2.1400001] yes=49,no=50,missing=49
					49:leaf=0.647096336
					50:leaf=0.413224071
			12:[windBearing<83] yes=25,no=26,missing=25
				25:[windSpeed<6.71000004] yes=51,no=52,missing=51
					51:[windGust<4.46999979] yes=97,no=98,missing=98
						97:leaf=0.00781235425
						98:leaf=0.558196008
					52:[dewPoint<5.26000023] yes=99,no=100,missing=100
						99:leaf=0.709820867
						100:leaf=-0.302302718
				26:[pressure<1005.71002] yes=53,no=54,missing=53
					53:[windGust<12.5299997] yes=101,no=102,missing=101
						101:leaf=0.0920262411
						102:leaf=0.696238577
					54:[windGust<5.4000001] yes=103,no=104,missing=103
						103:leaf=0.721206307
						104:leaf=0.947919488
		6:[windGust<8.97999954] yes=13,no=14,missing=13
			13:[pressure<1010.25] yes=27,no=28,missing=28
				27:[pressure<1007.02002] yes=55,no=56,missing=55
					55:leaf=1.08874226
					56:[pressure<1008.29999] yes=105,no=106,missing=105
						105:leaf=0.560065091
						106:leaf=0.342478931
				28:[dewPoint<2.21000004] yes=57,no=58,missing=58
					57:[apparentTemperature<4.80999994] yes=107,no=108,missing=107
						107:leaf=0.35438633
						108:leaf=0.555481732
					58:[pressure<1027.21997] yes=109,no=110,missing=110
						109:leaf=0.793638408
						110:leaf=1.10479176
			14:[windBearing<146] yes=29,no=30,missing=29
				29:[windBearing<128] yes=59,no=60,missing=60
					59:[hour_x<10] yes=111,no=112,missing=111
						111:leaf=-0.0451384559
						112:leaf=0.307826698
					60:[cloudCover<0.5] yes=113,no=114,missing=113
						113:leaf=-0.101583898
						114:leaf=0.124311425
				30:[dewPoint<1.08000004] yes=61,no=62,missing=62
					61:[humidity<0.790000021] yes=115,no=116,missing=115
						115:leaf=0.858733356
						116:leaf=0.146474764
					62:[pressure<1010.97998] yes=117,no=118,missing=118
						117:leaf=0.308568686
						118:leaf=0.591014564
booster[13]:
0:[uvIndex<0.5] yes=1,no=2,missing=1
	1:[weekday<1] yes=3,no=4,missing=4
		3:[windBearing<116] yes=7,no=8,missing=7
			7:[pressure<1020.33002] yes=15,no=16,missing=15
				15:[pressure<1006.47998] yes=31,no=32,missing=31
					31:[dewPoint<5.5999999] yes=63,no=64,missing=64
						63:leaf=0.926925659
						64:leaf=1.50177991
					32:[pressure<1008.63] yes=65,no=66,missing=65
						65:leaf=0.615585029
						66:leaf=0.378131002
				16:[windBearing<53] yes=33,no=34,missing=34
					33:leaf=1.07345927
					34:leaf=1.45161271
			8:[windBearing<146] yes=17,no=18,missing=17
				17:[visibility<9.09000015] yes=35,no=36,missing=35
					35:[humidity<0.899999976] yes=67,no=68,missing=67
						67:leaf=0.995920837
						68:leaf=0.0791870356
					36:[pressure<1021.22998] yes=69,no=70,missing=69
						69:leaf=-0.027477337
						70:leaf=-0.278392643
				18:[pressure<1000.94] yes=37,no=38,missing=38
					37:[apparentTemperature<4.55999994] yes=71,no=72,missing=72
						71:leaf=-0.14319168
						72:leaf=0.523663104
					38:[apparentTemperature<-0.330000013] yes=73,no=74,missing=73
						73:leaf=0.857490003
						74:leaf=0.515322566
		4:[windBearing<136] yes=9,no=10,missing=9
			9:[pressure<1009.83002] yes=19,no=20,missing=20
				19:[apparentTemperature<1.48000002] yes=39,no=40,missing=39
					39:[pressure<991.380005] yes=75,no=76,missing=76
						75:leaf=0.847088337
						76:leaf=-0.05885607
					40:[windSpeed<2.18000007] yes=77,no=78,missing=77
						77:leaf=0.505827129
						78:leaf=1.20099223
				20:[pressure<1015.15002] yes=41,no=42,missing=42
					41:[hour_x<7] yes=79,no=80,missing=79
						79:leaf=-0.0783287957
						80:leaf=0.239048511
					42:[cloudCover<0.180000007] yes=81,no=82,missing=81
						81:leaf=-0.554158628
						82:leaf=-0.151847735
			10:[humidity<0.810000002] yes=21,no=22,missing=21
				21:[apparentTemperature<1.38] yes=43,no=44,missing=44
					43:[visibility<11.1999998] yes=83,no=84,missing=83
						83:leaf=0.724825799
						84:leaf=1.35113859
					44:[cloudCover<0.879999995] yes=85,no=86,missing=85
						85:leaf=0.388009101
						86:leaf=1.1787039
				22:[windGust<5.30000019] yes=45,no=46,missing=45
					45:[pressure<1023.52002] yes=87,no=88,missing=88
						87:leaf=0.50358206
						88:leaf=0.0247835834
					46:[windGust<7.15999985] yes=89,no=90,missing=89
						89:leaf=0.805027306
						90:leaf=0.227964088
	2:[weekday<1] yes=5,no=6,missing=6
		5:[windGust<9.55000019] yes=11,no=12,missing=11
			11:[pressure<1022.19] yes=23,no=24,missing=23
				23:[pressure<1007.02002] yes=47,no=48,missing=47
					47:leaf=0.991966069
					48:[pressure<1008.29999] yes=91,no=92,missing=91
						91:leaf=0.50489831
						92:leaf=0.363549888
				24:[dewPoint<2.21000004] yes=49,no=50,missing=49
					49:[hour_x<14] yes=93,no=94,missing=94
						93:leaf=0.416885853
						94:leaf=0.579574466
					50:[windSpeed<4.26999998] yes=95,no=96,missing=95
						95:leaf=0.728403747
						96:leaf=0.987695873
			12:[windBearing<146] yes=25,no=26,missing=25
				25:[windGust<13.1300001] yes=51,no=52,missing=51
					51:[hour_x<9] yes=97,no=98,missing=98
						97:leaf=-0.0885265991
						98:leaf=0.259959072
					52:[windSpeed<9.98999977] yes=99,no=100,missing=99
						99:leaf=0.0351282544
						100:leaf=0.239998251
				26:[dewPoint<1.08000004] yes=53,no=54,missing=53
					53:[humidity<0.790000021] yes=101,no=102,missing=101
						101:leaf=0.775245249
						102:leaf=0.135489151
					54:[temperature<9.26000023] yes=103,no=104,missing=104
						103:leaf=0.191163465
						104:leaf=0.475381672
		6:[hour_x<13] yes=13,no=14,missing=13
			13:[hour_x<9] yes=27,no=28,missing=27
				27:[apparentTemperature<6.92999983] yes=55,no=56,missing=55
					55:[dewPoint<6.34000015] yes=105,no=106,missing=106
						105:leaf=0.467363089
						106:leaf=1.26062441
					56:[apparentTemperature<11.3599997] yes=107,no=108,missing=107
						107:leaf=0.0355939195
						108:leaf=0.4873676
				28:[windGust<8.13000011] yes=57,no=58,missing=58
					57:[clear<1] yes=109,no=110,missing=109
						109:leaf=1.02250707
						110:leaf=0.438046694
					58:[pressure<1019.44] yes=111,no=112,missing=111
						111:leaf=0.609115064
						112:leaf=1.05799496
			14:[windGust<5.4000001] yes=29,no=30,missing=29
				29:[windSpeed<3.24000001] yes=59,no=60,missing=60
					59:[windBearing<250] yes=113,no=114,missing=113
						113:leaf=0.807381094
						114:leaf=0.20656839
					60:[windSpeed<3.66000009] yes=115,no=116,missing=115
						115:leaf=-0.0751968697
						116:leaf=0.432716131
				30:[cloudCover<0.620000005] yes=61,no=62,missing=61
					61:[uvIndex<2.5] yes=117,no=118,missing=117
						117:leaf=0.889797866
						118:leaf=1.267524
					62:[windSpeed<12.4099998] yes=119,no=120,missing=120
						119:leaf=0.60067004
						120:leaf=1.11705315
booster[14]:
0:[uvIndex<0.5] yes=1,no=2,missing=1
	1:[hour_x<8] yes=3,no=4,missing=3
		3:[weekday<1] yes=7,no=8,missing=7
			7:[windBearing<118] yes=15,no=16,missing=15
				15:[windGust<6.36999989] yes=31,no=32,missing=32
					31:[windGust<3.99000001] yes=63,no=64,missing=63
						63:leaf=0.370402426
						64:leaf=0.59239459
					32:leaf=0.903069973
				16:[windBearing<137] yes=33,no=34,missing=33
					33:[visibility<6.73999977] yes=65,no=66,missing=65
						65:leaf=0.900105894
						66:leaf=-0.134102553
					34:[apparentTemperature<-2.19000006] yes=67,no=68,missing=67
						67:leaf=-0.00356374867
						68:leaf=0.468074888
			8:[cloudCover<0.800000012] yes=17,no=18,missing=17
				17:[apparentTemperature<-3.8499999] yes=35,no=36,missing=36
					35:[windSpeed<8.35999966] yes=69,no=70,missing=69
						69:leaf=1.43605423
						70:leaf=0.684663475
					36:[dewPoint<2.80999994] yes=71,no=72,missing=71
						71:leaf=0.00214437093
						72:leaf=0.210314274
				18:[windSpeed<12.29] yes=37,no=38,missing=37
					37:[pressure<1023.31] yes=73,no=74,missing=73
						73:leaf=0.103218116
						74:leaf=0.609035909
					38:leaf=1.23063862
		4:[hour_x<21] yes=9,no=10,missing=9
			9:[pressure<1003.02002] yes=19,no=20,missing=20
				19:[windGust<11.1000004] yes=39,no=40,missing=39
					39:[windGust<5.48000002] yes=75,no=76,missing=76
						75:leaf=0.35053283
						76:leaf=1.23007405
					40:[pressure<995.890015] yes=77,no=78,missing=77
						77:leaf=0.060505297
						78:leaf=0.760366797
				20:[pressure<1005.81] yes=41,no=42,missing=41
					41:[visibility<11.7299995] yes=79,no=80,missing=79
						79:leaf=-0.256468087
						80:leaf=0.420106739
					42:[windBearing<162] yes=81,no=82,missing=81
						81:leaf=0.264327735
						82:leaf=0.5520069
			10:[weekday<1] yes=21,no=22,missing=21
				21:[pressure<1021.79999] yes=43,no=44,missing=43
					43:[temperature<2] yes=83,no=84,missing=84
						83:leaf=1.07014549
						84:leaf=0.209285602
					44:[pressure<1033.25] yes=85,no=86,missing=85
						85:leaf=0.937916458
						86:leaf=0.373093218
				22:[pressure<1006.37] yes=45,no=46,missing=45
					45:[cloudCover<0.769999981] yes=87,no=88,missing=87
						87:leaf=0.574360728
						88:leaf=0.128552243
					46:[humidity<0.819999993] yes=89,no=90,missing=89
						89:leaf=-0.139178038
						90:leaf=0.263494313
	2:[weekday<1] yes=5,no=6,missing=5
		5:[windGust<9.55000019] yes=11,no=12,missing=12
			11:[pressure<1010.25] yes=23,no=24,missing=24
				23:[pressure<1007.02002] yes=47,no=48,missing=47
					47:leaf=0.903790474
					48:[pressure<1008.29999] yes=91,no=92,missing=91
						91:leaf=0.455610603
						92:leaf=0.273159713
				24:[windSpeed<3.4000001] yes=49,no=50,missing=49
					49:[pressure<1033.85999] yes=93,no=94,missing=93
						93:leaf=0.606331646
						94:leaf=0.40842405
					50:[pressure<1027.21997] yes=95,no=96,missing=95
						95:leaf=0.669958413
						96:leaf=0.94220227
			12:[windBearing<146] yes=25,no=26,missing=25
				25:[windBearing<129] yes=51,no=52,missing=52
					51:[hour_x<10] yes=97,no=98,missing=97
						97:leaf=-0.0655620545
						98:leaf=0.249495104
					52:[windSpeed<9.98999977] yes=99,no=100,missing=99
						99:leaf=0.0340283737
						100:leaf=0.217331752
				26:[windBearing<292] yes=53,no=54,missing=53
					53:[pressure<1007.02002] yes=101,no=102,missing=101
						101:leaf=0.300913066
						102:leaf=0.609907389
					54:[windGust<10.6400003] yes=103,no=104,missing=103
						103:leaf=0.374959797
						104:leaf=0.0884960294
		6:[pressure<1000.42999] yes=13,no=14,missing=14
			13:[windBearing<246] yes=27,no=28,missing=27
				27:[pressure<990.580017] yes=55,no=56,missing=56
					55:[visibility<4.96999979] yes=105,no=106,missing=105
						105:leaf=0.386533439
						106:leaf=0.770563722
					56:[windBearing<130] yes=107,no=108,missing=107
						107:leaf=1.15789568
						108:leaf=0.84740144
				28:[dewPoint<2.1400001] yes=57,no=58,missing=57
					57:[windBearing<308] yes=109,no=110,missing=109
						109:leaf=0.612955749
						110:leaf=0.155271158
					58:leaf=0.321973652
			14:[windBearing<83] yes=29,no=30,missing=29
				29:[windSpeed<6.59000015] yes=59,no=60,missing=60
					59:[windGust<4.46999979] yes=111,no=112,missing=111
						111:leaf=-0.0768774599
						112:leaf=0.446341276
					60:[dewPoint<5.26000023] yes=113,no=114,missing=114
						113:leaf=0.592675865
						114:leaf=-0.276008517
				30:[pressure<1005.71002] yes=61,no=62,missing=61
					61:[windGust<12.5299997] yes=115,no=116,missing=116
						115:leaf=0.0237266347
						116:leaf=0.567901552
					62:[windSpeed<1.38999999] yes=117,no=118,missing=118
						117:leaf=0.146508142
						118:leaf=0.713583767
booster[15]:
0:[uvIndex<0.5] yes=1,no=2,missing=2
	1:[weekday<1] yes=3,no=4,missing=3
		3:[windBearing<116] yes=7,no=8,missing=7
			7:[pressure<1020.33002] yes=15,no=16,missing=16
				15:[pressure<1008.48999] yes=31,no=32,missing=31
					31:[dewPoint<5.5999999] yes=63,no=64,missing=63
						63:leaf=0.715549529
						64:leaf=1.35039723
					32:[windSpeed<6.03999996] yes=65,no=66,missing=65
						65:leaf=0.373103797
						66:leaf=0.0314650722
				16:[dewPoint<2.3599999] yes=33,no=34,missing=34
					33:leaf=0.807624936
					34:leaf=1.16522253
			8:[windBearing<146] yes=17,no=18,missing=17
				17:[visibility<9.09000015] yes=35,no=36,missing=36
					35:[humidity<0.899999976] yes=67,no=68,missing=67
						67:leaf=0.826011598
						68:leaf=0.0833056942
					36:[apparentTemperature<4.42999983] yes=69,no=70,missing=70
						69:leaf=-0.113483608
						70:leaf=-0.332220525
				18:[pressure<1003.58002] yes=37,no=38,missing=37
					37:[windGust<8.97999954] yes=71,no=72,missing=72
						71:leaf=0.946683228
						72:leaf=0.0216485169
					38:[apparentTemperature<-0.769999981] yes=73,no=74,missing=73
						73:leaf=0.947895229
						74:leaf=0.410262197
		4:[windBearing<88] yes=9,no=10,missing=9
			9:[pressure<987.890015] yes=19,no=20,missing=19
				19:[windBearing<60] yes=39,no=40,missing=39
					39:leaf=1.31666887
					40:leaf=0.254279494
				20:[dewPoint<6.40999985] yes=41,no=42,missing=42
					41:[dewPoint<0.610000014] yes=75,no=76,missing=75
						75:leaf=0.421412945
						76:leaf=-0.309165329
					42:[pressure<1009.62] yes=77,no=78,missing=77
						77:leaf=0.939600468
						78:leaf=0.0568576045
			10:[windGust<2.99000001] yes=21,no=22,missing=21
				21:[humidity<0.689999998] yes=43,no=44,missing=43
					43:[hour_x<20] yes=79,no=80,missing=79
						79:leaf=0.803706467
						80:leaf=-0.276754469
					44:[dewPoint<4.30999994] yes=81,no=82,missing=81
						81:leaf=0.0562235005
						82:leaf=-0.372469634
				22:[cloudCover<0.879999995] yes=45,no=46,missing=46
					45:[windGust<8.31999969] yes=83,no=84,missing=83
						83:leaf=0.404304981
						84:leaf=0.21536541
					46:[windSpeed<7.71000004] yes=85,no=86,missing=85
						85:leaf=0.355179131
						86:leaf=1.12808943
	2:[weekday<1] yes=5,no=6,missing=6
		5:[windGust<9.55000019] yes=11,no=12,missing=11
			11:[pressure<1010.25] yes=23,no=24,missing=23
				23:[pressure<1007.02002] yes=47,no=48,missing=48
					47:leaf=0.823453426
					48:[pressure<1008.63] yes=87,no=88,missing=87
						87:leaf=0.407669514
						88:leaf=0.242998242
				24:[dewPoint<2.21000004] yes=49,no=50,missing=49
					49:[hour_x<14] yes=89,no=90,missing=89
						89:leaf=0.334445894
						90:leaf=0.479601055
					50:[pressure<1027.21997] yes=91,no=92,missing=91
						91:leaf=0.583012998
						92:leaf=0.818103492
			12:[windGust<16.6299992] yes=25,no=26,missing=25
				25:[pressure<1024.42004] yes=51,no=52,missing=51
					51:[pressure<1009.62] yes=93,no=94,missing=94
						93:leaf=0.263128966
						94:leaf=0.0859299824
					52:[dewPoint<2.73000002] yes=95,no=96,missing=95
						95:leaf=0.163119972
						96:leaf=0.509645045
				26:[cloudCover<0.769999981] yes=53,no=54,missing=53
					53:[pressure<988.599976] yes=97,no=98,missing=98
						97:leaf=0.316699892
						98:leaf=0.673004687
					54:[cloudCover<0.810000002] yes=99,no=100,missing=99
						99:leaf=0.0967688039
						100:leaf=-0.0229514837
		6:[hour_x<12] yes=13,no=14,missing=13
			13:[hour_x<9] yes=27,no=28,missing=28
				27:[apparentTemperature<8.07999992] yes=55,no=56,missing=56
					55:[humidity<0.839999974] yes=101,no=102,missing=101
						101:leaf=0.528232694
						102:leaf=0.179751024
					56:[windBearing<215] yes=103,no=104,missing=103
						103:leaf=-0.261800408
						104:leaf=0.198751792
				28:[windGust<3.25] yes=57,no=58,missing=58
					57:[visibility<9.69999981] yes=105,no=106,missing=106
						105:leaf=0.0388470963
						106:leaf=0.613162279
					58:[pressure<1019.44] yes=107,no=108,missing=108
						107:leaf=0.649290025
						108:leaf=0.885423481
			14:[pressure<1000.42999] yes=29,no=30,missing=30
				29:[visibility<10.0299997] yes=59,no=60,missing=59
					59:[windBearing<141] yes=109,no=110,missing=109
						109:leaf=0.678188026
						110:leaf=0.421527475
					60:[windBearing<130] yes=111,no=112,missing=111
						111:leaf=1.09455347
						112:leaf=0.794549048
				30:[pressure<1005.81] yes=61,no=62,missing=61
					61:[windBearing<318] yes=113,no=114,missing=114
						113:leaf=0.0728136078
						114:leaf=0.837692916
					62:[apparentTemperature<6.32000017] yes=115,no=116,missing=116
						115:leaf=0.819745839
						116:leaf=0.455316603
booster[16]:
0:[uvIndex<0.5] yes=1,no=2,missing=2
	1:[windGust<5.4000001] yes=3,no=4,missing=3
		3:[apparentTemperature<10.1700001] yes=7,no=8,missing=7
			7:[pressure<1023.31] yes=15,no=16,missing=16
				15:[pressure<1022.77002] yes=31,no=32,missing=32
					31:[dewPoint<4.90999985] yes=63,no=64,missing=63
						63:leaf=0.446380466
						64:leaf=-0.00280361553
					32:[cloudCover<0.119999997] yes=65,no=66,missing=66
						65:leaf=-0.778961897
						66:leaf=1.51495767
				16:[weekday<1] yes=33,no=34,missing=34
					33:[temperature<4.26999998] yes=67,no=68,missing=68
						67:leaf=0.0935800597
						68:leaf=0.448518366
					34:[pressure<1025.66003] yes=69,no=70,missing=69
						69:leaf=-0.184153125
						70:leaf=0.0282089151
			8:[windGust<3.69000006] yes=17,no=18,missing=18
				17:[dewPoint<6.21000004] yes=35,no=36,missing=35
					35:[pressure<1035.66003] yes=71,no=72,missing=71
						71:leaf=1.27549922
						72:leaf=0.688805997
					36:[hour_x<17] yes=73,no=74,missing=73
						73:leaf=-0.112851731
						74:leaf=0.115348123
				18:[apparentTemperature<14.2600002] yes=37,no=38,missing=37
					37:[hour_x<17] yes=75,no=76,missing=75
						75:leaf=-0.439045519
						76:leaf=0.0390146151
					38:[apparentTemperature<14.9200001] yes=77,no=78,missing=77
						77:leaf=0.302371979
						78:leaf=1.06232226
		4:[windGust<8.18000031] yes=9,no=10,missing=9
			9:[pressure<1022.71002] yes=19,no=20,missing=19
				19:[pressure<1014.33002] yes=39,no=40,missing=39
					39:[dewPoint<7.48000002] yes=79,no=80,missing=79
						79:leaf=0.531825542
						80:leaf=0.0278816801
					40:[windBearing<156] yes=81,no=82,missing=82
						81:leaf=-0.293500394
						82:leaf=0.27484563
				20:[windBearing<167] yes=41,no=42,missing=42
					41:[hour_x<5] yes=83,no=84,missing=83
						83:leaf=1.66655409
						84:leaf=0.908438027
					42:[pressure<1025.32996] yes=85,no=86,missing=85
						85:leaf=0.0923860669
						86:leaf=0.571683347
			10:[windGust<14.8299999] yes=21,no=22,missing=21
				21:[pressure<1033] yes=43,no=44,missing=43
					43:[temperature<2] yes=87,no=88,missing=88
						87:leaf=0.74831146
						88:leaf=0.120998099
					44:[hour_x<5] yes=89,no=90,missing=90
						89:leaf=1.25807166
						90:leaf=0.447310179
				22:[temperature<9.52000046] yes=45,no=46,missing=46
					45:[cloudCover<0.860000014] yes=91,no=92,missing=91
						91:leaf=0.521061838
						92:leaf=1.12483609
					46:[pressure<1000.01001] yes=93,no=94,missing=93
						93:leaf=0.536376894
						94:leaf=-0.017861614
	2:[weekday<1] yes=5,no=6,missing=5
		5:[windGust<9.55000019] yes=11,no=12,missing=11
			11:[pressure<1022.19] yes=23,no=24,missing=24
				23:[pressure<1007.02002] yes=47,no=48,missing=47
					47:leaf=0.750257671
					48:[dewPoint<4.76999998] yes=95,no=96,missing=95
						95:leaf=0.446471989
						96:leaf=0.283611327
				24:[windSpeed<3.24000001] yes=49,no=50,missing=50
					49:[pressure<1033.96997] yes=97,no=98,missing=98
						97:leaf=0.471369803
						98:leaf=0.304702014
					50:[hour_x<9] yes=99,no=100,missing=100
						99:leaf=0.150167614
						100:leaf=0.712783456
			12:[windGust<16.6299992] yes=25,no=26,missing=26
				25:[pressure<1024.42004] yes=51,no=52,missing=51
					51:[pressure<1009.62] yes=101,no=102,missing=102
						101:leaf=0.237247378
						102:leaf=0.0774020925
					52:[dewPoint<2.73000002] yes=103,no=104,missing=104
						103:leaf=0.147895426
						104:leaf=0.460804045
				26:[cloudCover<0.779999971] yes=53,no=54,missing=53
					53:[pressure<988.599976] yes=105,no=106,missing=106
						105:leaf=0.288557947
						106:leaf=0.60734576
					54:[cloudCover<0.810000002] yes=107,no=108,missing=107
						107:leaf=0.0533493347
						108:leaf=-0.02123015
		6:[pressure<999.059998] yes=13,no=14,missing=13
			13:[windGust<11.1499996] yes=27,no=28,missing=27
				27:[apparentTemperature<-0.620000005] yes=55,no=56,missing=56
					55:leaf=0.217224225
					56:[windSpeed<2.6400001] yes=109,no=110,missing=110
						109:leaf=0.727007151
						110:leaf=1.00860023
				28:[apparentTemperature<2.01999998] yes=57,no=58,missing=57
					57:[pressure<988.599976] yes=111,no=112,missing=112
						111:leaf=0.72082752
						112:leaf=0.428165883
					58:[visibility<8.71000004] yes=113,no=114,missing=114
						113:leaf=0.495412976
						114:leaf=0.865855336
			14:[windBearing<83] yes=29,no=30,missing=29
				29:[windSpeed<6.71000004] yes=59,no=60,missing=60
					59:[windGust<4.46999979] yes=115,no=116,missing=115
						115:leaf=-0.115065768
						116:leaf=0.344001025
					60:[dewPoint<5.26000023] yes=117,no=118,missing=118
						117:leaf=0.480384916
						118:leaf=-0.3583664
				30:[temperature<8.28999996] yes=61,no=62,missing=61
					61:[windGust<12.6199999] yes=119,no=120,missing=119
						119:leaf=0.20801568
						120:leaf=0.579425395
					62:[hour_x<12] yes=121,no=122,missing=121
						121:leaf=0.713231146
						122:leaf=0.498699635
booster[17]:
0:[uvIndex<0.5] yes=1,no=2,missing=1
	1:[hour_x<8] yes=3,no=4,missing=3
		3:[cloudCover<0.469999999] yes=7,no=8,missing=7
			7:[windBearing<334] yes=15,no=16,missing=15
				15:[temperature<6.36000013] yes=31,no=32,missing=32
					31:[humidity<0.790000021] yes=63,no=64,missing=63
						63:leaf=0.434177727
						64:leaf=-0.0113051524
					32:[windBearing<224] yes=65,no=66,missing=65
						65:leaf=-0.465914875
						66:leaf=-0.0543590896
				16:[windGust<4.9000001] yes=33,no=34,missing=34
					33:[weekday<1] yes=67,no=68,missing=67
						67:leaf=0.00833358802
						68:leaf=-0.0485919379
					34:leaf=0.71272105
			8:[apparentTemperature<7.23999977] yes=17,no=18,missing=17
				17:[windGust<16.7800007] yes=35,no=36,missing=36
					35:[apparentTemperature<5.98000002] yes=69,no=70,missing=69
						69:leaf=0.162892655
						70:leaf=0.503338993
					36:[hour_x<6] yes=71,no=72,missing=71
						71:leaf=1.25530648
						72:leaf=0.179207623
				18:[pressure<1000.01001] yes=37,no=38,missing=37
					37:[windBearing<242] yes=73,no=74,missing=73
						73:leaf=0.42391035
						74:leaf=0.70269233
					38:[windGust<11.1999998] yes=75,no=76,missing=75
						75:leaf=0.167625561
						76:leaf=-0.254627198
		4:[hour_x<19] yes=9,no=10,missing=9
			9:[windBearing<314] yes=19,no=20,missing=19
				19:[hour_x<9] yes=39,no=40,missing=39
					39:[windSpeed<7.3499999] yes=77,no=78,missing=78
						77:leaf=0.16214475
						78:leaf=0.475543559
					40:[windSpeed<17.6499996] yes=79,no=80,missing=79
						79:leaf=0.497638553
						80:leaf=-0.0417235456
				20:[apparentTemperature<0.720000029] yes=41,no=42,missing=41
					41:leaf=0.682877123
					42:[windSpeed<6.28999996] yes=81,no=82,missing=81
						81:leaf=0.15022479
						82:leaf=-0.188154981
			10:[humidity<0.639999986] yes=21,no=22,missing=21
				21:[pressure<1032.07996] yes=43,no=44,missing=43
					43:[apparentTemperature<4.07999992] yes=83,no=84,missing=84
						83:leaf=-0.0331413671
						84:leaf=-0.285769939
					44:leaf=0.426980883
				22:[weekday<1] yes=45,no=46,missing=45
					45:[pressure<997.900024] yes=85,no=86,missing=86
						85:leaf=-0.199229836
						86:leaf=0.556667984
					46:[pressure<1002.76001] yes=87,no=88,missing=88
						87:leaf=0.48038879
						88:leaf=0.115445234
	2:[weekday<1] yes=5,no=6,missing=5
		5:[windGust<9.55000019] yes=11,no=12,missing=11
			11:[pressure<1010.25] yes=23,no=24,missing=24
				23:[pressure<1007.02002] yes=47,no=48,missing=48
					47:leaf=0.683568001
					48:[pressure<1008.63] yes=89,no=90,missing=90
						89:leaf=0.335300803
						90:leaf=0.191330895
				24:[windSpeed<3.28999996] yes=49,no=50,missing=50
					49:[dewPoint<1.80999994] yes=91,no=92,missing=91
						91:leaf=0.298830628
						92:leaf=0.445786089
					50:[hour_x<10] yes=93,no=94,missing=94
						93:leaf=0.340364844
						94:leaf=0.642635226
			12:[windGust<16.6299992] yes=25,no=26,missing=25
				25:[pressure<1024.42004] yes=51,no=52,missing=51
					51:[pressure<1009.62] yes=95,no=96,missing=96
						95:leaf=0.213911563
						96:leaf=0.0697205067
					52:[dewPoint<2.73000002] yes=97,no=98,missing=97
						97:leaf=0.134091824
						98:leaf=0.416643679
				26:[cloudCover<0.74000001] yes=53,no=54,missing=53
					53:[apparentTemperature<12.3900003] yes=99,no=100,missing=99
						99:leaf=0.574849069
						100:leaf=0.124187805
					54:[cloudCover<0.779999971] yes=101,no=102,missing=101
						101:leaf=0.32018587
						102:leaf=0.0238744002
		6:[pressure<1000.42999] yes=13,no=14,missing=14
			13:[windBearing<246] yes=27,no=28,missing=27
				27:[pressure<990.580017] yes=55,no=56,missing=55
					55:[hour_x<16] yes=103,no=104,missing=103
						103:leaf=0.418546647
						104:leaf=0.670667827
					56:[windBearing<130] yes=105,no=106,missing=105
						105:leaf=0.878853142
						106:leaf=0.623671651
				28:[dewPoint<2.01999998] yes=57,no=58,missing=57
					57:[pressure<999.059998] yes=107,no=108,missing=107
						107:leaf=0.471133292
						108:leaf=0.0974598899
					58:[precipIntensity<0.762000024] yes=109,no=110,missing=109
						109:leaf=0.256751865
						110:leaf=0.06478367
			14:[windBearing<144] yes=29,no=30,missing=29
				29:[pressure<1028.62] yes=59,no=60,missing=60
					59:[windBearing<83] yes=111,no=112,missing=111
						111:leaf=0.217907593
						112:leaf=0.494690627
					60:[windSpeed<3.07999992] yes=113,no=114,missing=114
						113:leaf=-0.0856524333
						114:leaf=-0.620188415
				30:[windBearing<260] yes=61,no=62,missing=61
					61:[humidity<0.779999971] yes=115,no=116,missing=116
						115:leaf=0.660352945
						116:leaf=0.354373097
					62:[cloudCover<0.620000005] yes=117,no=118,missing=117
						117:leaf=0.639540851
						118:leaf=0.27008754
booster[18]:
0:[uvIndex<0.5] yes=1,no=2,missing=1
	1:[windGust<18.0900002] yes=3,no=4,missing=4
		3:[visibility<9.80000019] yes=7,no=8,missing=7
			7:[windGust<5.63999987] yes=15,no=16,missing=15
				15:[pressure<1009.62] yes=31,no=32,missing=32
					31:[precipIntensity<0.0786999986] yes=63,no=64,missing=63
						63:leaf=0.225388154
						64:leaf=0.544127643
					32:[weekday<1] yes=65,no=66,missing=66
						65:leaf=0.352128774
						66:leaf=-0.0161844473
				16:[pressure<1022.77002] yes=33,no=34,missing=34
					33:[windBearing<206] yes=67,no=68,missing=67
						67:leaf=0.469735533
						68:leaf=0.0889034048
					34:[apparentTemperature<7.48999977] yes=69,no=70,missing=69
						69:leaf=0.889559746
						70:leaf=0.423605531
			8:[apparentTemperature<12.1800003] yes=17,no=18,missing=18
				17:[weekday<1] yes=35,no=36,missing=35
					35:[windBearing<116] yes=71,no=72,missing=71
						71:leaf=0.638014138
						72:leaf=0.127814546
					36:[windBearing<131] yes=73,no=74,missing=74
						73:leaf=-0.176654428
						74:leaf=0.130004615
				18:[windGust<4.78000021] yes=37,no=38,missing=37
					37:[hour_x<18] yes=75,no=76,missing=75
						75:leaf=0.932259023
						76:leaf=0.391408175
					38:[windGust<5.4000001] yes=77,no=78,missing=77
						77:leaf=-0.134705111
						78:leaf=0.42571193
		4:[temperature<9.13000011] yes=9,no=10,missing=9
			9:[pressure<1006.37] yes=19,no=20,missing=19
				19:[hour_x<18] yes=39,no=40,missing=39
					39:[apparentTemperature<-0.439999998] yes=79,no=80,missing=80
						79:leaf=0.720840693
						80:leaf=1.20074928
					40:[windBearing<222] yes=81,no=82,missing=81
						81:leaf=0.238564536
						82:leaf=0.654995501
				20:[windGust<19.9099998] yes=41,no=42,missing=41
					41:[windBearing<275] yes=83,no=84,missing=84
						83:leaf=0.834257603
						84:leaf=0.199939758
					42:[humidity<0.699999988] yes=85,no=86,missing=85
						85:leaf=-0.348965198
						86:leaf=0.111595593
			10:[windBearing<225] yes=21,no=22,missing=21
				21:[cloudCover<0.720000029] yes=43,no=44,missing=43
					43:[humidity<0.839999974] yes=87,no=88,missing=88
						87:leaf=-0.0432669632
						88:leaf=-0.240324378
					44:[visibility<12.0200005] yes=89,no=90,missing=89
						89:leaf=0.622114122
						90:leaf=0.315704554
				22:[weekday<1] yes=45,no=46,missing=46
					45:leaf=0.284181327
					46:[dewPoint<4.13000011] yes=91,no=92,missing=91
						91:leaf=0.000444857258
						92:leaf=-0.237238154
	2:[weekday<1] yes=5,no=6,missing=5
		5:[windGust<9.55000019] yes=11,no=12,missing=11
			11:[pressure<1010.25] yes=23,no=24,missing=24
				23:[pressure<1007.02002] yes=47,no=48,missing=47
					47:leaf=0.62280637
					48:[pressure<1008.29999] yes=93,no=94,missing=93
						93:leaf=0.305879653
						94:leaf=0.174729332
				24:[windSpeed<3.28999996] yes=49,no=50,missing=50
					49:[pressure<1033.96997] yes=95,no=96,missing=95
						95:leaf=0.385777414
						96:leaf=0.242977187
					50:[pressure<1027.35999] yes=97,no=98,missing=98
						97:leaf=0.445701659
						98:leaf=0.635231912
			12:[windGust<16.6299992] yes=25,no=26,missing=25
				25:[dewPoint<3.25999999] yes=51,no=52,missing=51
					51:[cloudCover<0.370000005] yes=99,no=100,missing=100
						99:leaf=0.222465068
						100:leaf=0.0640751645
					52:[pressure<1024.42004] yes=101,no=102,missing=101
						101:leaf=0.181374773
						102:leaf=0.394181997
				26:[cloudCover<0.74000001] yes=53,no=54,missing=54
					53:[pressure<988.599976] yes=103,no=104,missing=103
						103:leaf=0.261725873
						104:leaf=0.534683704
					54:[cloudCover<0.779999971] yes=105,no=106,missing=105
						105:leaf=0.28985247
						106:leaf=0.021752242
		6:[hour_x<13] yes=13,no=14,missing=13
			13:[cloudCover<0.0799999982] yes=27,no=28,missing=28
				27:[apparentTemperature<11.9099998] yes=55,no=56,missing=56
					55:[apparentTemperature<11.3599997] yes=107,no=108,missing=107
						107:leaf=0.0635014549
						108:leaf=0.233400732
					56:[apparentTemperature<12.4399996] yes=109,no=110,missing=109
						109:leaf=-0.756322324
						110:leaf=-0.342561722
				28:[apparentTemperature<11.6700001] yes=57,no=58,missing=58
					57:[pressure<996.210022] yes=111,no=112,missing=111
						111:leaf=0.908423424
						112:leaf=0.429721564
					58:[windBearing<136] yes=113,no=114,missing=114
						113:leaf=-0.234920785
						114:leaf=0.780535579
			14:[windGust<5.4000001] yes=29,no=30,missing=29
				29:[windGust<3.86999989] yes=59,no=60,missing=59
					59:[cloudCover<0.400000006] yes=115,no=116,missing=115
						115:leaf=0.98650974
						116:leaf=0.237946302
					60:[pressure<1030.10999] yes=117,no=118,missing=117
						117:leaf=-0.0130881285
						118:leaf=0.358215094
				30:[humidity<0.670000017] yes=61,no=62,missing=61
					61:[pressure<1005.81] yes=119,no=120,missing=120
						119:leaf=0.188738331
						120:leaf=0.767164171
					62:[windGust<8.22999954] yes=121,no=122,missing=121
						121:leaf=0.490716755
						122:leaf=0.173634842
booster[19]:
0:[hour_x<9] yes=1,no=2,missing=2
	1:[weekday<1] yes=3,no=4,missing=3
		3:[windBearing<116] yes=7,no=8,missing=7
			7:[windGust<4.84000015] yes=15,no=16,missing=16
				15:[hour_x<8] yes=31,no=32,missing=31
					31:[cloudCover<0.689999998] yes=63,no=64,missing=63
						63:leaf=0.214901075
						64:leaf=0.355294734
					32:[cloudCover<0.800000012] yes=65,no=66,missing=65
						65:leaf=0.102575757
						66:leaf=0.0147752287
				16:[dewPoint<5.5999999] yes=33,no=34,missing=34
					33:[apparentTemperature<-0.330000013] yes=67,no=68,missing=67
						67:leaf=0.250201523
						68:leaf=0.667196095
					34:leaf=1.16290522
			8:[visibility<11.7799997] yes=17,no=18,missing=18
				17:[windGust<9.72000027] yes=35,no=36,missing=35
					35:[apparentTemperature<0.50999999] yes=69,no=70,missing=69
						69:leaf=0.531637788
						70:leaf=0.156299099
					36:[dewPoint<3.9000001] yes=71,no=72,missing=71
						71:leaf=-0.16958645
						72:leaf=0.392240614
				18:[pressure<998.440002] yes=37,no=38,missing=38
					37:[hour_x<1] yes=73,no=74,missing=73
						73:leaf=-0.0917454138
						74:leaf=0.355576277
					38:[dewPoint<1.72000003] yes=75,no=76,missing=76
						75:leaf=0.636536658
						76:leaf=1.37398243
		4:[windBearing<88] yes=9,no=10,missing=10
			9:[windSpeed<3.55999994] yes=19,no=20,missing=19
				19:[visibility<3.94000006] yes=39,no=40,missing=39
					39:[apparentTemperature<7.65999985] yes=77,no=78,missing=77
						77:leaf=-0.125190541
						78:leaf=0.134374976
					40:[pressure<1009.83002] yes=79,no=80,missing=79
						79:leaf=0.690018594
						80:leaf=0.0755122453
				20:[dewPoint<1.25999999] yes=41,no=42,missing=41
					41:[temperature<4.75] yes=81,no=82,missing=82
						81:leaf=0.200798824
						82:leaf=-0.126381412
					42:[apparentTemperature<5.51999998] yes=83,no=84,missing=83
						83:leaf=-0.431462288
						84:leaf=-0.165382922
			10:[windSpeed<3.0999999] yes=21,no=22,missing=22
				21:[temperature<9.01000023] yes=43,no=44,missing=44
					43:[temperature<8.52999973] yes=85,no=86,missing=85
						85:leaf=-0.0146096721
						86:leaf=0.418428808
					44:[apparentTemperature<9] yes=87,no=88,missing=88
						87:leaf=-0.21071665
						88:leaf=-0.488202006
				22:[hour_x<6] yes=45,no=46,missing=45
					45:[temperature<9.56999969] yes=89,no=90,missing=89
						89:leaf=0.389502674
						90:leaf=0.0560319014
					46:[hour_x<8] yes=91,no=92,missing=91
						91:leaf=-0.07276427
						92:leaf=0.249496683
	2:[hour_x<18] yes=5,no=6,missing=5
		5:[weekday<1] yes=11,no=12,missing=11
			11:[dewPoint<3.43000007] yes=23,no=24,missing=24
				23:[temperature<6.76999998] yes=47,no=48,missing=47
					47:[pressure<1005.71002] yes=93,no=94,missing=93
						93:leaf=0.00469401199
						94:leaf=0.390102297
					48:[pressure<1024.42004] yes=95,no=96,missing=96
						95:leaf=0.0249470919
						96:leaf=0.250849098
				24:[pressure<1022.19] yes=49,no=50,missing=50
					49:[hour_x<12] yes=97,no=98,missing=97
						97:leaf=0.310495466
						98:leaf=0.198447973
					50:[pressure<1024.42004] yes=99,no=100,missing=100
						99:leaf=0.39279753
						100:leaf=0.52954179
			12:[pressure<998.440002] yes=25,no=26,missing=26
				25:[uvIndex<0.5] yes=51,no=52,missing=52
					51:[dewPoint<3.16000009] yes=101,no=102,missing=101
						101:leaf=1.01577711
						102:leaf=0.163212061
					52:[windGust<14.6199999] yes=103,no=104,missing=104
						103:leaf=0.694485843
						104:leaf=0.431696981
				26:[windBearing<138] yes=53,no=54,missing=54
					53:[apparentTemperature<11.2299995] yes=105,no=106,missing=105
						105:leaf=0.305773228
						106:leaf=-0.187890962
					54:[windBearing<263] yes=107,no=108,missing=107
						107:leaf=0.503577232
						108:leaf=0.30952248
		6:[visibility<9.17000008] yes=13,no=14,missing=13
			13:[humidity<0.870000005] yes=27,no=28,missing=28
				27:[hour_x<22] yes=55,no=56,missing=55
					55:[cloudCover<0.150000006] yes=109,no=110,missing=110
						109:leaf=1.06139946
						110:leaf=0.587017
					56:[apparentTemperature<5.42000008] yes=111,no=112,missing=111
						111:leaf=0.560282588
						112:leaf=-0.410959631
				28:[pressure<987.289978] yes=57,no=58,missing=58
					57:[hour_x<20] yes=113,no=114,missing=114
						113:leaf=1.01286888
						114:leaf=0.273505539
					58:[windGust<10.5900002] yes=115,no=116,missing=116
						115:leaf=0.235618025
						116:leaf=-0.232882366
			14:[apparentTemperature<-1.16999996] yes=29,no=30,missing=29
				29:[hour_x<22] yes=59,no=60,missing=59
					59:[weekday<1] yes=117,no=118,missing=117
						117:leaf=0.705926359
						118:leaf=1.31216896
					60:[dewPoint<-0.529999971] yes=119,no=120,missing=119
						119:leaf=0.75934422
						120:leaf=-0.215778545
				30:[windGust<8.64999962] yes=61,no=62,missing=61
					61:[weekday<1] yes=121,no=122,missing=121
						121:leaf=0.471110404
						122:leaf=0.128433004
					62:[windBearing<269] yes=123,no=124,missing=123
						123:leaf=-0.103464104
						124:leaf=0.251548827
booster[20]:
0:[hour_x<9] yes=1,no=2,missing=2
	1:[weekday<1] yes=3,no=4,missing=3
		3:[windBearing<116] yes=7,no=8,missing=7
			7:[windGust<4.84000015] yes=15,no=16,missing=16
				15:[windSpeed<2.91000009] yes=31,no=32,missing=31
					31:[apparentTemperature<2.26999998] yes=63,no=64,missing=63
						63:leaf=0.124853395
						64:leaf=0.030721793
					32:leaf=0.286890805
				16:[dewPoint<5.5999999] yes=33,no=34,missing=34
					33:[uvIndex<0.5] yes=65,no=66,missing=66
						65:leaf=0.598076522
						66:leaf=0.142203137
					34:leaf=1.0632273
			8:[visibility<11.7799997] yes=17,no=18,missing=17
				17:[windGust<9.72000027] yes=35,no=36,missing=35
					35:[apparentTemperature<0.50999999] yes=67,no=68,missing=67
						67:leaf=0.479390681
						68:leaf=0.14078331
					36:[dewPoint<3.9000001] yes=69,no=70,missing=69
						69:leaf=-0.152766809
						70:leaf=0.354076713
				18:[pressure<998.440002] yes=37,no=38,missing=38
					37:[hour_x<1] yes=71,no=72,missing=72
						71:leaf=-0.0844057873
						72:leaf=0.324463338
					38:[dewPoint<1.72000003] yes=73,no=74,missing=74
						73:leaf=0.579955518
						74:leaf=1.25375867
		4:[windBearing<88] yes=9,no=10,missing=10
			9:[windSpeed<3.55999994] yes=19,no=20,missing=19
				19:[visibility<3.94000006] yes=39,no=40,missing=39
					39:[dewPoint<8.09000015] yes=75,no=76,missing=76
						75:leaf=-0.185814202
						76:leaf=0.0550177284
					40:[pressure<1009.83002] yes=77,no=78,missing=77
						77:leaf=0.62964195
						78:leaf=0.0694712549
				20:[dewPoint<1.25999999] yes=41,no=42,missing=42
					41:[windSpeed<7.3499999] yes=79,no=80,missing=79
						79:leaf=-0.0328932144
						80:leaf=0.383051485
					42:[temperature<8.72999954] yes=81,no=82,missing=81
						81:leaf=-0.367216438
						82:leaf=-0.103550605
			10:[windSpeed<3.04999995] yes=21,no=22,missing=21
				21:[windBearing<94] yes=43,no=44,missing=43
					43:leaf=0.518065095
					44:[temperature<9.01000023] yes=83,no=84,missing=84
						83:leaf=-0.0124930395
						84:leaf=-0.40329501
				22:[pressure<1022.71002] yes=45,no=46,missing=46
					45:[temperature<9.06000042] yes=85,no=86,missing=85
						85:leaf=0.172588035
						86:leaf=-0.120320737
					46:[windBearing<164] yes=87,no=88,missing=87
						87:leaf=1.09444392
						88:leaf=0.223231897
	2:[hour_x<18] yes=5,no=6,missing=5
		5:[cloudCover<0.689999998] yes=11,no=12,missing=11
			11:[windBearing<155] yes=23,no=24,missing=24
				23:[windGust<4.61999989] yes=47,no=48,missing=47
					47:[apparentTemperature<11.9099998] yes=89,no=90,missing=90
						89:leaf=-0.00971385185
						90:leaf=-0.448325306
					48:[apparentTemperature<6.26999998] yes=91,no=92,missing=91
						91:leaf=0.615456045
						92:leaf=0.290799558
				24:[dewPoint<5.17999983] yes=49,no=50,missing=50
					49:[visibility<9.69999981] yes=93,no=94,missing=93
						93:leaf=0.0791612789
						94:leaf=0.4567568
					50:[dewPoint<7.76999998] yes=95,no=96,missing=95
						95:leaf=0.84395951
						96:leaf=0.44575271
			12:[windGust<8.22999954] yes=25,no=26,missing=25
				25:[humidity<0.629999995] yes=51,no=52,missing=51
					51:[apparentTemperature<11.79] yes=97,no=98,missing=98
						97:leaf=0.244119391
						98:leaf=0.0307415277
					52:[windBearing<90] yes=99,no=100,missing=99
						99:leaf=0.262687713
						100:leaf=0.491315126
				26:[windGust<11.8699999] yes=53,no=54,missing=53
					53:[pressure<1020.65002] yes=101,no=102,missing=101
						101:leaf=-0.219833046
						102:leaf=0.194046348
					54:[cloudCover<0.870000005] yes=103,no=104,missing=103
						103:leaf=0.245400652
						104:leaf=0.583453059
		6:[visibility<9.28999996] yes=13,no=14,missing=13
			13:[humidity<0.870000005] yes=27,no=28,missing=27
				27:[dewPoint<8.71000004] yes=55,no=56,missing=55
					55:[visibility<8.34000015] yes=105,no=106,missing=105
						105:leaf=0.444273293
						106:leaf=0.693043888
					56:leaf=-0.29399094
				28:[apparentTemperature<4.98999977] yes=57,no=58,missing=57
					57:[windBearing<229] yes=107,no=108,missing=107
						107:leaf=0.617353916
						108:leaf=-0.0711176917
					58:[dewPoint<7.38000011] yes=109,no=110,missing=109
						109:leaf=-0.276148826
						110:leaf=0.230574951
			14:[apparentTemperature<-1.16999996] yes=29,no=30,missing=30
				29:[hour_x<22] yes=59,no=60,missing=59
					59:[weekday<1] yes=111,no=112,missing=111
						111:leaf=0.639486074
						112:leaf=1.19032466
					60:[dewPoint<-0.529999971] yes=113,no=114,missing=114
						113:leaf=0.689250886
						114:leaf=-0.195279628
				30:[windGust<8.64999962] yes=61,no=62,missing=61
					61:[weekday<1] yes=115,no=116,missing=115
						115:leaf=0.424307197
						116:leaf=0.114889063
					62:[pressure<1003.79999] yes=117,no=118,missing=117
						117:leaf=0.310083479
						118:leaf=-0.0793192908
booster[21]:
0:[hour_x<9] yes=1,no=2,missing=2
	1:[windGust<5.44000006] yes=3,no=4,missing=3
		3:[temperature<9.09000015] yes=7,no=8,missing=7
			7:[dewPoint<6.34000015] yes=15,no=16,missing=16
				15:[weekday<1] yes=31,no=32,missing=32
					31:[dewPoint<0.939999998] yes=61,no=62,missing=61
						61:leaf=-0.030377334
						62:leaf=0.185292572
					32:[hour_x<6] yes=63,no=64,missing=63
						63:leaf=-0.0785523355
						64:leaf=0.0893797353
				16:[hour_x<1] yes=33,no=34,missing=34
					33:leaf=0.0159349274
					34:leaf=0.830790639
			8:[apparentTemperature<9.27000046] yes=17,no=18,missing=18
				17:[windSpeed<1.78999996] yes=35,no=36,missing=35
					35:leaf=-0.164665818
					36:leaf=-0.434515715
				18:leaf=-0.108548544
		4:[pressure<1025.46997] yes=9,no=10,missing=9
			9:[pressure<1009.83002] yes=19,no=20,missing=19
				19:[dewPoint<1.50999999] yes=37,no=38,missing=37
					37:[windGust<15.0600004] yes=65,no=66,missing=66
						65:leaf=-0.0996398255
						66:leaf=0.345318973
					38:[temperature<8.69999981] yes=67,no=68,missing=67
						67:leaf=0.504669309
						68:leaf=0.0409948751
				20:[apparentTemperature<-2.80999994] yes=39,no=40,missing=39
					39:[dewPoint<-0.629999995] yes=69,no=70,missing=69
						69:leaf=0.946944058
						70:leaf=0.389527619
					40:[windGust<9.17000008] yes=71,no=72,missing=72
						71:leaf=0.129406124
						72:leaf=-0.150815323
			10:[pressure<1029.06995] yes=21,no=22,missing=22
				21:[apparentTemperature<10.6700001] yes=41,no=42,missing=41
					41:[pressure<1026.22998] yes=73,no=74,missing=73
						73:leaf=1.05433691
						74:leaf=0.576955497
					42:leaf=-0.424720913
				22:[windBearing<276] yes=43,no=44,missing=43
					43:[humidity<0.889999986] yes=75,no=76,missing=76
						75:leaf=0.16895853
						76:leaf=-0.279359281
					44:[hour_x<5] yes=77,no=78,missing=78
						77:leaf=0.872550309
						78:leaf=0.157711118
	2:[hour_x<18] yes=5,no=6,missing=5
		5:[weekday<1] yes=11,no=12,missing=11
			11:[dewPoint<3.43000007] yes=23,no=24,missing=24
				23:[temperature<5.28999996] yes=45,no=46,missing=45
					45:[pressure<1004.69] yes=79,no=80,missing=79
						79:leaf=-0.0312571898
						80:leaf=0.482598037
					46:[dewPoint<1.88999999] yes=81,no=82,missing=81
						81:leaf=0.14624773
						82:leaf=-0.00672068959
				24:[pressure<1022.19] yes=47,no=48,missing=48
					47:[pressure<1007.77002] yes=83,no=84,missing=83
						83:leaf=0.240686342
						84:leaf=0.145260811
					48:[pressure<1024.42004] yes=85,no=86,missing=86
						85:leaf=0.31539014
						86:leaf=0.442580074
			12:[visibility<10.0299997] yes=25,no=26,missing=25
				25:[windSpeed<1.63999999] yes=49,no=50,missing=50
					49:[visibility<9.98999977] yes=87,no=88,missing=88
						87:leaf=-0.246432707
						88:leaf=0.157042235
					50:[pressure<996.210022] yes=89,no=90,missing=89
						89:leaf=0.553635538
						90:leaf=0.25053075
				26:[windBearing<81] yes=51,no=52,missing=51
					51:[dewPoint<1.65999997] yes=91,no=92,missing=91
						91:leaf=0.536206722
						92:leaf=0.0647875145
					52:[windBearing<260] yes=93,no=94,missing=94
						93:leaf=0.465960085
						94:leaf=0.312916666
		6:[humidity<0.680000007] yes=13,no=14,missing=13
			13:[pressure<1031.43994] yes=27,no=28,missing=27
				27:[windGust<4.53000021] yes=53,no=54,missing=53
					53:[apparentTemperature<10.4300003] yes=95,no=96,missing=95
						95:leaf=-0.608895361
						96:leaf=0.559556603
					54:[windGust<8.44999981] yes=97,no=98,missing=97
						97:leaf=0.109764233
						98:leaf=-0.19357267
				28:[humidity<0.639999986] yes=55,no=56,missing=55
					55:[windGust<4.46999979] yes=99,no=100,missing=100
						99:leaf=0.316171378
						100:leaf=-0.0781856626
					56:[cloudy<1] yes=101,no=102,missing=102
						101:leaf=-0.0100990869
						102:leaf=0.615278542
			14:[dewPoint<1.13999999] yes=29,no=30,missing=30
				29:[hour_x<22] yes=57,no=58,missing=57
					57:[pressure<1003.02002] yes=103,no=104,missing=103
						103:leaf=1.1001147
						104:leaf=0.50585258
					58:[pressure<1004.21997] yes=105,no=106,missing=105
						105:leaf=-0.162129551
						106:leaf=0.489530057
				30:[cloudCover<0.360000014] yes=59,no=60,missing=60
