booster[0]:
0:[hour_x<9] yes=1,no=2,missing=1
	1:[pressure<1003.23999] yes=3,no=4,missing=3
		3:[dewPoint<3.98000002] yes=7,no=8,missing=7
			7:[windBearing<88] yes=15,no=16,missing=15
				15:[pressure<994.099976] yes=31,no=32,missing=31
					31:[visibility<5.28999996] yes=63,no=64,missing=63
						63:leaf=0.0285714306
						64:leaf=0.156410262
					32:[weekday<1] yes=65,no=66,missing=65
						65:leaf=-0.042857144
						66:leaf=0.0250000004
				16:[pressure<999.140015] yes=33,no=34,missing=33
					33:[weekday<1] yes=67,no=68,missing=67
						67:leaf=0.223076925
						68:leaf=0.500714302
					34:[windGust<9.30000019] yes=69,no=70,missing=69
						69:leaf=-0.0461538471
						70:leaf=0.267592609
			8:[cloudCover<0.649999976] yes=17,no=18,missing=17
				17:[dewPoint<7.78000021] yes=35,no=36,missing=35
					35:[hour_x<4] yes=71,no=72,missing=71
						71:leaf=1.16000009
						72:leaf=0.100000001
					36:leaf=0.144000009
				18:[pressure<1000.12] yes=37,no=38,missing=37
					37:leaf=0.692452848
					38:[hour_x<1] yes=73,no=74,missing=73
						73:leaf=0.4909091
						74:leaf=1.37575758
		4:[weekday<1] yes=9,no=10,missing=9
			9:[pressure<1027.69995] yes=19,no=20,missing=19
				19:[temperature<4.92999983] yes=39,no=40,missing=39
					39:[pressure<1003.47998] yes=75,no=76,missing=75
						75:leaf=0.387500018
						76:leaf=0.0725000054
					40:[pressure<1022.56] yes=77,no=78,missing=77
						77:leaf=0.334234238
						78:leaf=0.814634144
				20:[cloudCover<0.639999986] yes=41,no=42,missing=41
					41:leaf=0.548809528
					42:leaf=1.07282615
			10:[windGust<4.48000002] yes=21,no=22,missing=21
				21:[temperature<4.05999994] yes=43,no=44,missing=43
					43:[visibility<8.42000008] yes=79,no=80,missing=79
						79:leaf=0.475862086
						80:leaf=0.138175681
					44:[windGust<3.94000006] yes=81,no=82,missing=81
						81:leaf=0.394244611
						82:leaf=0.818367422
				22:[pressure<1007.32001] yes=45,no=46,missing=45
					45:[dewPoint<6.32000017] yes=83,no=84,missing=83
						83:leaf=0.238414645
						84:leaf=1.14375007
					46:[pressure<1035.02002] yes=85,no=86,missing=85
						85:leaf=0.0895762742
						86:leaf=0.452173918
	2:[windGust<3.11999989] yes=5,no=6,missing=5
		5:[weekday<1] yes=11,no=12,missing=11
			11:[pressure<1009.29999] yes=23,no=24,missing=23
				23:[precipIntensity<0.89410001] yes=47,no=48,missing=47
					47:[dewPoint<2.73000002] yes=87,no=88,missing=87
						87:leaf=0.137500003
						88:leaf=0.0400000028
					48:leaf=-0.042857144
				24:[hour_x<17] yes=49,no=50,missing=49
					49:leaf=1.08974361
					50:leaf=0.755172431
			12:[windBearing<227] yes=25,no=26,missing=25
				25:[pressure<1017.69] yes=51,no=52,missing=51
					51:leaf=0.540000021
					52:[pressure<1025.59998] yes=89,no=90,missing=89
						89:leaf=0.012931034
						90:leaf=0.148913041
				26:[pressure<1036.32996] yes=53,no=54,missing=53
					53:[apparentTemperature<9.81999969] yes=91,no=92,missing=91
						91:leaf=0.411842108
						92:leaf=0.112500004
					54:[hour_x<22] yes=93,no=94,missing=93
						93:leaf=0.125
						94:leaf=0.925000012
		6:[weekday<1] yes=13,no=14,missing=13
			13:[pressure<1011.95001] yes=27,no=28,missing=27
				27:[apparentTemperature<2.03999996] yes=55,no=56,missing=55
					55:[dewPoint<-0.5] yes=95,no=96,missing=95
						95:leaf=-0.022499999
						96:leaf=0.170394748
					56:[windGust<5.98999977] yes=97,no=98,missing=97
						97:leaf=0.178030297
						98:leaf=0.44201389
				28:[windGust<4.67000008] yes=57,no=58,missing=57
					57:[apparentTemperature<6.23999977] yes=99,no=100,missing=99
						99:leaf=0.787500024
						100:leaf=0.352631569
					58:[hour_x<12] yes=101,no=102,missing=101
						101:leaf=0.26231885
						102:leaf=0.0655647442
			14:[hour_x<18] yes=29,no=30,missing=29
				29:[windSpeed<4.73000002] yes=59,no=60,missing=59
					59:[visibility<8] yes=103,no=104,missing=103
						103:leaf=0.0993421078
						104:leaf=0.0121428575
					60:[windGust<7.80999994] yes=105,no=106,missing=105
						105:leaf=0.358231723
						106:leaf=0.0497404858
				30:[windSpeed<10.6999998] yes=61,no=62,missing=61
					61:[pressure<1028.39001] yes=107,no=108,missing=107
						107:leaf=0.109181821
						108:leaf=0.238926172
					62:[dewPoint<3.73000002] yes=109,no=110,missing=109
						109:leaf=0.00500000035
						110:leaf=0.608035743
booster[1]:
0:[hour_x<9] yes=1,no=2,missing=1
	1:[pressure<1003.23999] yes=3,no=4,missing=3
		3:[dewPoint<3.98000002] yes=7,no=8,missing=8
			7:[windBearing<88] yes=15,no=16,missing=15
				15:[cloudCover<0.779999971] yes=31,no=32,missing=32
					31:[visibility<5.28999996] yes=63,no=64,missing=64
						63:leaf=0.0287946463
						64:leaf=0.141170308
					32:leaf=-0.0391841084
				16:[pressure<999.630005] yes=33,no=34,missing=33
					33:[weekday<1] yes=65,no=66,missing=66
						65:leaf=0.206376985
						66:leaf=0.438217938
					34:[cloudCover<0.50999999] yes=67,no=68,missing=68
						67:leaf=0.283125013
						68:leaf=0.046571251
			8:[apparentTemperature<10.8100004] yes=17,no=18,missing=17
				17:[visibility<11.6000004] yes=35,no=36,missing=36
					35:[windSpeed<15.21] yes=69,no=70,missing=69
						69:leaf=0.817516804
						70:leaf=0.113733292
					36:[cloudCover<0.620000005] yes=71,no=72,missing=72
						71:leaf=0.0700000003
						72:leaf=1.25592959
				18:[cloudCover<0.639999986] yes=37,no=38,missing=37
					37:leaf=0.129142866
					38:[apparentTemperature<12.8699999] yes=73,no=74,missing=73
						73:leaf=0.653848827
						74:leaf=0.0756818205
		4:[weekday<1] yes=9,no=10,missing=9
			9:[pressure<1027.69995] yes=19,no=20,missing=20
				19:[temperature<4.92999983] yes=39,no=40,missing=40
					39:[pressure<1003.47998] yes=75,no=76,missing=76
						75:leaf=0.358437508
						76:leaf=0.065322496
					40:[pressure<1022.56] yes=77,no=78,missing=78
						77:leaf=0.301111907
						78:leaf=0.735157669
				20:[cloudCover<0.639999986] yes=41,no=42,missing=42
					41:leaf=0.495235264
					42:leaf=0.967875779
			10:[windGust<4.48000002] yes=21,no=22,missing=21
				21:[temperature<4.05999994] yes=43,no=44,missing=44
					43:[visibility<8.42000008] yes=79,no=80,missing=79
						79:leaf=0.429916769
						80:leaf=0.124451473
					44:[cloudy<1] yes=81,no=82,missing=81
						81:leaf=0.730754554
						82:leaf=0.35228318
				22:[pressure<1007.32001] yes=45,no=46,missing=46
					45:[precipProbability<0.0399999991] yes=83,no=84,missing=83
						83:leaf=0.214863926
						84:leaf=1.04367197
					46:[pressure<1035.02002] yes=85,no=86,missing=85
						85:leaf=0.0806338117
						86:leaf=0.408922493
	2:[windGust<3.11999989] yes=5,no=6,missing=6
		5:[weekday<1] yes=11,no=12,missing=11
			11:[pressure<1009.29999] yes=23,no=24,missing=23
				23:[precipIntensity<0.89410001] yes=47,no=48,missing=47
					47:[dewPoint<2.73000002] yes=87,no=88,missing=87
						87:leaf=0.127187893
						88:leaf=0.0367999971
					48:leaf=-0.0391836725
				24:[hour_x<17] yes=49,no=50,missing=49
					49:leaf=0.983563542
					50:leaf=0.682259262
			12:[windBearing<227] yes=25,no=26,missing=26
				25:[pressure<1017.69] yes=51,no=52,missing=52
					51:leaf=0.496800035
					52:[pressure<1025.59998] yes=89,no=90,missing=89
						89:leaf=0.0116602164
						90:leaf=0.134345472
				26:[pressure<1036.32996] yes=53,no=54,missing=53
					53:[apparentTemperature<9.81999969] yes=91,no=92,missing=92
						91:leaf=0.371741682
						92:leaf=0.10181246
					54:[hour_x<22] yes=93,no=94,missing=93
						93:leaf=0.118749999
						94:leaf=0.841749966
		6:[weekday<1] yes=13,no=14,missing=14
			13:[dewPoint<0.140000001] yes=27,no=28,missing=28
				27:[hour_x<10] yes=55,no=56,missing=55
					55:[precipIntensity<0.688300014] yes=95,no=96,missing=96
						95:leaf=-0.0508212559
						96:leaf=0.219806775
					56:[hour_x<20] yes=97,no=98,missing=97
						97:leaf=-0.00976343453
						98:leaf=0.0753287375
				28:[pressure<1025.59998] yes=57,no=58,missing=57
					57:[apparentTemperature<3.82999992] yes=99,no=100,missing=100
						99:leaf=0.134700194
						100:leaf=0.312609375
					58:[windGust<3.75] yes=101,no=102,missing=102
						101:leaf=0.715312541
						102:leaf=0.0486510657
			14:[hour_x<18] yes=29,no=30,missing=29
				29:[windSpeed<4.73000002] yes=59,no=60,missing=59
					59:[windGust<7.09000015] yes=103,no=104,missing=103
						103:leaf=0.00753876055
						104:leaf=0.078657575
					60:[windGust<7.80999994] yes=105,no=106,missing=105
						105:leaf=0.322626978
						106:leaf=0.0447750427
				30:[windSpeed<10.6999998] yes=61,no=62,missing=61
					61:[windGust<10.0100002] yes=107,no=108,missing=108
						107:leaf=0.153010532
						108:leaf=0.0391605087
					62:[dewPoint<4.71000004] yes=109,no=110,missing=110
						109:leaf=0.0975593925
						110:leaf=0.619680226
booster[2]:
0:[hour_x<9] yes=1,no=2,missing=1
	1:[pressure<1003.23999] yes=3,no=4,missing=4
		3:[dewPoint<3.98000002] yes=7,no=8,missing=8
			7:[windBearing<88] yes=15,no=16,missing=15
				15:[weekday<1] yes=31,no=32,missing=32
					31:leaf=-0.0358250365
					32:[visibility<5.28999996] yes=63,no=64,missing=64
						63:leaf=0.0262751114
						64:leaf=0.12741527
				16:[pressure<999.140015] yes=33,no=34,missing=33
					33:[weekday<1] yes=65,no=66,missing=66
						65:leaf=0.183435127
						66:leaf=0.408162415
					34:[windGust<9.30000019] yes=67,no=68,missing=67
						67:leaf=-0.0461923815
						68:leaf=0.218240336
			8:[apparentTemperature<10.8100004] yes=17,no=18,missing=17
				17:[visibility<9.80000019] yes=35,no=36,missing=36
					35:[hour_x<4] yes=69,no=70,missing=70
						69:leaf=0.703334272
						70:leaf=0.0993812606
					36:[cloudCover<0.620000005] yes=71,no=72,missing=72
						71:leaf=0.0872088894
						72:leaf=1.14241874
				18:[cloudCover<0.639999986] yes=37,no=38,missing=37
					37:leaf=0.116843559
					38:[apparentTemperature<12.8699999] yes=73,no=74,missing=73
						73:leaf=0.589984596
						74:leaf=0.0700056776
		4:[weekday<1] yes=9,no=10,missing=10
			9:[pressure<1027.69995] yes=19,no=20,missing=19
				19:[temperature<4.92999983] yes=39,no=40,missing=39
					39:[pressure<1003.47998] yes=75,no=76,missing=76
						75:leaf=0.331554711
						76:leaf=0.0588555411
					40:[pressure<1022.56] yes=77,no=78,missing=77
						77:leaf=0.271272004
						78:leaf=0.663434923
				20:[cloudCover<0.639999986] yes=41,no=42,missing=41
					41:leaf=0.44689092
					42:leaf=0.873192251
			10:[windGust<4.48000002] yes=21,no=22,missing=22
				21:[dewPoint<1.83000004] yes=43,no=44,missing=43
					43:[visibility<7.0999999] yes=79,no=80,missing=80
						79:leaf=0.350016803
						80:leaf=0.083243534
					44:[cloudCover<0.140000001] yes=81,no=82,missing=81
						81:leaf=-0.111234307
						82:leaf=0.429401368
				22:[pressure<1021.14001] yes=45,no=46,missing=46
					45:[temperature<9.35999966] yes=83,no=84,missing=83
						83:leaf=0.149385989
						84:leaf=0.408384293
					46:[pressure<1035.02002] yes=85,no=86,missing=85
						85:leaf=0.0151880402
						86:leaf=0.369808167
	2:[windGust<3.11999989] yes=5,no=6,missing=5
		5:[weekday<1] yes=11,no=12,missing=11
			11:[pressure<1009.29999] yes=23,no=24,missing=23
				23:[precipIntensity<0.89410001] yes=47,no=48,missing=48
					47:[dewPoint<2.73000002] yes=87,no=88,missing=87
						87:leaf=0.117648415
						88:leaf=0.033855997
					48:leaf=-0.0358251445
				24:[hour_x<17] yes=49,no=50,missing=49
					49:leaf=0.887729108
					50:[windGust<2.86999989] yes=89,no=90,missing=89
						89:leaf=0.640631616
						90:leaf=0.304692656
			12:[windBearing<227] yes=25,no=26,missing=25
				25:[pressure<1017.69] yes=51,no=52,missing=51
					51:leaf=0.457056016
					52:[pressure<1025.59998] yes=91,no=92,missing=91
						91:leaf=0.0105143068
						92:leaf=0.121202961
				26:[pressure<1036.32996] yes=53,no=54,missing=54
					53:[apparentTemperature<9.81999969] yes=93,no=94,missing=93
						93:leaf=0.335545808
						94:leaf=0.0921403095
					54:[hour_x<22] yes=95,no=96,missing=96
						95:leaf=0.112812497
						96:leaf=0.765992582
		6:[weekday<1] yes=13,no=14,missing=14
			13:[pressure<1011.95001] yes=27,no=28,missing=27
				27:[apparentTemperature<2.03999996] yes=55,no=56,missing=55
					55:[cloudCover<0.790000021] yes=97,no=98,missing=97
						97:leaf=0.057326179
						98:leaf=0.206381425
					56:[windGust<5.98999977] yes=99,no=100,missing=99
						99:leaf=0.134022653
						100:leaf=0.367693335
				28:[windGust<4.03999996] yes=57,no=58,missing=57
					57:[apparentTemperature<5.86999989] yes=101,no=102,missing=101
						101:leaf=0.724753916
						102:leaf=0.360725611
					58:[hour_x<12] yes=103,no=104,missing=104
						103:leaf=0.231532529
						104:leaf=0.0494636372
			14:[apparentTemperature<6.73999977] yes=29,no=30,missing=29
				29:[uvIndex<2.5] yes=59,no=60,missing=59
					59:[pressure<1001.66998] yes=105,no=106,missing=105
						105:leaf=-0.00336865382
						106:leaf=0.143097892
					60:[humidity<0.720000029] yes=107,no=108,missing=108
						107:leaf=0.891396165
						108:leaf=0.152683839
				30:[visibility<8.36999989] yes=61,no=62,missing=61
					61:[apparentTemperature<12.2200003] yes=109,no=110,missing=110
						109:leaf=0.0756440237
						110:leaf=0.915267646
					62:[windGust<19.6100006] yes=111,no=112,missing=111
						111:leaf=0.0306774732
						112:leaf=0.406683892
booster[3]:
0:[hour_x<9] yes=1,no=2,missing=1
	1:[pressure<1003.23999] yes=3,no=4,missing=3
		3:[dewPoint<3.98000002] yes=7,no=8,missing=8
			7:[windBearing<88] yes=15,no=16,missing=15
				15:[weekday<1] yes=31,no=32,missing=31
					31:leaf=-0.0327544622
					32:[visibility<5.28999996] yes=63,no=64,missing=63
						63:leaf=0.023976028
						64:leaf=0.115000404
				16:[pressure<999.140015] yes=33,no=34,missing=33
					33:[weekday<1] yes=65,no=66,missing=65
						65:leaf=0.166502461
						66:leaf=0.36792925
					34:[hour_x<6] yes=67,no=68,missing=67
						67:leaf=0.085157007
						68:leaf=0.293619573
			8:[apparentTemperature<10.8100004] yes=17,no=18,missing=17
				17:[visibility<9.80000019] yes=35,no=36,missing=36
					35:[hour_x<4] yes=69,no=70,missing=69
						69:leaf=0.635512769
						70:leaf=0.0914308205
					36:[cloudCover<0.620000005] yes=71,no=72,missing=72
						71:leaf=0.081394963
						72:leaf=1.03240907
				18:[cloudCover<0.639999986] yes=37,no=38,missing=37
					37:leaf=0.105715588
					38:[apparentTemperature<12.8699999] yes=73,no=74,missing=74
						73:leaf=0.53235817
						74:leaf=0.0647549331
		4:[weekday<1] yes=9,no=10,missing=9
			9:[pressure<1027.69995] yes=19,no=20,missing=19
				19:[temperature<4.92999983] yes=39,no=40,missing=40
					39:[pressure<1003.47998] yes=75,no=76,missing=75
						75:leaf=0.306688219
						76:leaf=0.0530288778
					40:[pressure<1022.56] yes=77,no=78,missing=78
						77:leaf=0.244389206
						78:leaf=0.598709702
				20:[cloudCover<0.639999986] yes=41,no=42,missing=41
					41:leaf=0.403265864
					42:leaf=0.787771225
			10:[windGust<4.48000002] yes=21,no=22,missing=22
				21:[temperature<4.17000008] yes=43,no=44,missing=44
					43:[pressure<1028.81995] yes=79,no=80,missing=79
						79:leaf=0.23001194
						80:leaf=0.0438959002
					44:[windGust<3.94000006] yes=81,no=82,missing=82
						81:leaf=0.278392076
						82:leaf=0.67123431
				22:[pressure<1020.52002] yes=45,no=46,missing=46
					45:[temperature<9.35999966] yes=83,no=84,missing=84
						83:leaf=0.138216361
						84:leaf=0.493872136
					46:[pressure<1035.02002] yes=85,no=86,missing=85
						85:leaf=0.0182921719
						86:leaf=0.334435195
	2:[windGust<3.11999989] yes=5,no=6,missing=6
		5:[weekday<1] yes=11,no=12,missing=11
			11:[pressure<1009.29999] yes=23,no=24,missing=23
				23:[precipIntensity<0.89410001] yes=47,no=48,missing=48
					47:[dewPoint<2.73000002] yes=87,no=88,missing=88
						87:leaf=0.108824782
						88:leaf=0.0311475229
					48:leaf=-0.0327543654
				24:[hour_x<17] yes=49,no=50,missing=49
					49:leaf=0.801232338
					50:[windGust<2.86999989] yes=89,no=90,missing=89
						89:leaf=0.579032421
						90:leaf=0.281840682
			12:[windBearing<227] yes=25,no=26,missing=26
				25:[pressure<1017.69] yes=51,no=52,missing=52
					51:leaf=0.420491517
					52:[pressure<1025.59998] yes=91,no=92,missing=91
						91:leaf=0.00948099419
						92:leaf=0.109346166
				26:[pressure<1036.32996] yes=53,no=54,missing=54
					53:[apparentTemperature<9.81999969] yes=93,no=94,missing=93
						93:leaf=0.302874237
						94:leaf=0.08338698
					54:[hour_x<22] yes=95,no=96,missing=96
						95:leaf=0.107171871
						96:leaf=0.697053254
		6:[weekday<1] yes=13,no=14,missing=14
			13:[dewPoint<0.140000001] yes=27,no=28,missing=28
				27:[windSpeed<6.5999999] yes=55,no=56,missing=56
					55:leaf=0.130284712
					56:[precipIntensity<0.866100013] yes=97,no=98,missing=97
						97:leaf=-0.00796921644
						98:leaf=0.0876633376
				28:[pressure<1025.59998] yes=57,no=58,missing=57
					57:[apparentTemperature<3.96000004] yes=99,no=100,missing=100
						99:leaf=0.113898516
						100:leaf=0.259647399
					58:[pressure<1033.19995] yes=101,no=102,missing=101
						101:leaf=0.035621576
						102:leaf=0.595440686
			14:[hour_x<18] yes=29,no=30,missing=29
				29:[uvIndex<1.5] yes=59,no=60,missing=59
					59:[visibility<11.9300003] yes=103,no=104,missing=103
						103:leaf=0.0038477499
						104:leaf=0.0796375945
					60:[dewPoint<4.71000004] yes=105,no=106,missing=105
						105:leaf=0.159272343
						106:leaf=0.0259934217
				30:[windSpeed<10.6999998] yes=61,no=62,missing=61
					61:[pressure<1028.39001] yes=107,no=108,missing=107
						107:leaf=0.0769356117
						108:leaf=0.192705646
					62:[dewPoint<3.73000002] yes=109,no=110,missing=109
						109:leaf=-0.00947066676
						110:leaf=0.481750548
booster[4]:
0:[hour_x<9] yes=1,no=2,missing=1
	1:[pressure<1003.23999] yes=3,no=4,missing=3
		3:[dewPoint<3.98000002] yes=7,no=8,missing=8
			7:[windBearing<88] yes=15,no=16,missing=15
				15:[weekday<1] yes=31,no=32,missing=32
					31:leaf=-0.0299467891
					32:[visibility<5.28999996] yes=63,no=64,missing=64
						63:leaf=0.0218781419
						64:leaf=0.103795253
				16:[pressure<999.630005] yes=33,no=34,missing=33
					33:[hour_x<3] yes=65,no=66,missing=65
						65:leaf=0.206065342
						66:leaf=0.343000591
					34:[cloudCover<0.50999999] yes=67,no=68,missing=67
						67:leaf=0.216144398
						68:leaf=0.0234126244
			8:[apparentTemperature<10.8100004] yes=17,no=18,missing=17
				17:[visibility<9.80000019] yes=35,no=36,missing=36
					35:[humidity<0.839999974] yes=69,no=70,missing=69
						69:leaf=0.752024233
						70:leaf=0.355941057
					36:[cloudCover<0.620000005] yes=71,no=72,missing=72
						71:leaf=0.0759686306
						72:leaf=0.93299228
				18:[cloudCover<0.639999986] yes=37,no=38,missing=37
					37:leaf=0.0956474021
					38:[apparentTemperature<12.8699999] yes=73,no=74,missing=73
						73:leaf=0.480360359
						74:leaf=0.059898641
		4:[weekday<1] yes=9,no=10,missing=9
			9:[pressure<1027.69995] yes=19,no=20,missing=20
				19:[temperature<4.92999983] yes=39,no=40,missing=39
					39:[pressure<1003.47998] yes=75,no=76,missing=76
						75:leaf=0.283686489
						76:leaf=0.0477790013
					40:[pressure<1022.56] yes=77,no=78,missing=77
						77:leaf=0.220170453
						78:leaf=0.540298879
				20:[cloudCover<0.639999986] yes=41,no=42,missing=42
					41:leaf=0.36389938
					42:leaf=0.710706949
			10:[windGust<4.48000002] yes=21,no=22,missing=21
				21:[dewPoint<1.83000004] yes=43,no=44,missing=43
					43:[visibility<7.0999999] yes=79,no=80,missing=80
						79:leaf=0.292907894
						80:leaf=0.0603867956
					44:[cloudCover<0.140000001] yes=81,no=82,missing=82
						81:leaf=-0.128204718
						82:leaf=0.354478955
				22:[pressure<1007.32001] yes=45,no=46,missing=45
					45:[dewPoint<6.32000017] yes=83,no=84,missing=84
						83:leaf=0.160732597
						84:leaf=0.87340337
					46:[pressure<1035.02002] yes=85,no=86,missing=86
						85:leaf=0.0570678301
						86:leaf=0.302445859
	2:[windGust<3.11999989] yes=5,no=6,missing=5
		5:[weekday<1] yes=11,no=12,missing=12
			11:[pressure<1009.29999] yes=23,no=24,missing=23
				23:[precipIntensity<0.89410001] yes=47,no=48,missing=48
					47:[dewPoint<2.73000002] yes=87,no=88,missing=87
						87:leaf=0.100662924
						88:leaf=0.0286557134
					48:leaf=-0.0299470853
				24:[uvIndex<1.5] yes=49,no=50,missing=50
					49:[apparentTemperature<2.70000005] yes=89,no=90,missing=90
						89:leaf=0.269874364
						90:leaf=0.560084939
					50:leaf=0.774822354
			12:[windBearing<227] yes=25,no=26,missing=25
				25:[pressure<1017.69] yes=51,no=52,missing=52
					51:leaf=0.386852205
					52:[hour_x<19] yes=91,no=92,missing=91
						91:leaf=-0.0172834154
						92:leaf=0.0831752717
				26:[pressure<1036.32996] yes=53,no=54,missing=53
					53:[cloudCover<0.769999981] yes=93,no=94,missing=93
						93:leaf=0.138891205
						94:leaf=0.352346838
					54:[hour_x<22] yes=95,no=96,missing=95
						95:leaf=0.10181313
						96:leaf=0.634318411
		6:[apparentTemperature<6.69999981] yes=13,no=14,missing=13
			13:[windGust<5.61999989] yes=27,no=28,missing=27
				27:[windSpeed<5.26999998] yes=55,no=56,missing=56
					55:[pressure<997.73999] yes=97,no=98,missing=97
						97:leaf=-0.0221156143
						98:leaf=0.223749861
					56:[hour_x<13] yes=99,no=100,missing=99
						99:leaf=1.50358951
						100:leaf=0.0602892637
				28:[cloudCover<0.790000021] yes=57,no=58,missing=57
					57:[dewPoint<4.42999983] yes=101,no=102,missing=101
						101:leaf=0.036294546
						102:leaf=0.150892019
					58:[visibility<9.60999966] yes=103,no=104,missing=104
						103:leaf=0.0513125025
						104:leaf=0.226685315
			14:[pressure<1018.32001] yes=29,no=30,missing=29
				29:[apparentTemperature<12.1199999] yes=59,no=60,missing=59
					59:[weekday<1] yes=105,no=106,missing=105
						105:leaf=0.192804039
						106:leaf=0.0741585717
					60:[cloudy<1] yes=107,no=108,missing=108
						107:leaf=0.318977207
						108:leaf=0.91547519
				30:[dewPoint<10.8800001] yes=61,no=62,missing=61
					61:[windBearing<273] yes=109,no=110,missing=109
						109:leaf=-0.000844647002
						110:leaf=0.0702520758
					62:[apparentTemperature<15.9499998] yes=111,no=112,missing=111
						111:leaf=0.278618902
						112:leaf=0.00270893308
booster[5]:
0:[hour_x<9] yes=1,no=2,missing=1
	1:[pressure<1003.23999] yes=3,no=4,missing=3
		3:[dewPoint<3.98000002] yes=7,no=8,missing=8
			7:[windBearing<88] yes=15,no=16,missing=15
				15:[weekday<1] yes=31,no=32,missing=32
					31:leaf=-0.0273799244
					32:[visibility<5.28999996] yes=63,no=64,missing=64
						63:leaf=0.0199638009
						64:leaf=0.0936818868
				16:[pressure<999.140015] yes=33,no=34,missing=33
					33:[weekday<1] yes=65,no=66,missing=66
						65:leaf=0.132111713
						66:leaf=0.300786227
					34:[windGust<9.30000019] yes=67,no=68,missing=67
						67:leaf=-0.0535538495
						68:leaf=0.164204523
			8:[apparentTemperature<10.8100004] yes=17,no=18,missing=17
				17:[pressure<1000.12] yes=35,no=36,missing=36
					35:leaf=0.342776865
					36:[windSpeed<19.7000008] yes=69,no=70,missing=69
						69:leaf=0.812303364
						70:leaf=0.434401006
				18:[cloudCover<0.639999986] yes=37,no=38,missing=37
					37:leaf=0.0865381435
					38:[apparentTemperature<12.8699999] yes=71,no=72,missing=71
						71:leaf=0.43344149
						72:leaf=0.0554062389
		4:[weekday<1] yes=9,no=10,missing=9
			9:[pressure<1027.69995] yes=19,no=20,missing=19
				19:[temperature<4.92999983] yes=39,no=40,missing=39
					39:[pressure<1003.47998] yes=73,no=74,missing=74
						73:leaf=0.262410015
						74:leaf=0.0430488437
					40:[pressure<1022.56] yes=75,no=76,missing=75
						75:leaf=0.198351726
						76:leaf=0.487586826
				20:[cloudCover<0.639999986] yes=41,no=42,missing=41
					41:leaf=0.328375816
					42:leaf=0.641180933
			10:[windGust<4.48000002] yes=21,no=22,missing=21
				21:[dewPoint<1.83000004] yes=43,no=44,missing=44
					43:[visibility<7.0999999] yes=77,no=78,missing=77
						77:leaf=0.264701933
						78:leaf=0.0543984771
					44:[pressure<1035.91003] yes=79,no=80,missing=79
						79:leaf=0.342127115
						80:leaf=0.0305450149
				22:[pressure<1021.14001] yes=45,no=46,missing=45
					45:[temperature<9.35999966] yes=81,no=82,missing=82
						81:leaf=0.113072775
						82:leaf=0.30996713
					46:[hour_x<7] yes=83,no=84,missing=83
						83:leaf=-0.0211343225
						84:leaf=0.137888923
	2:[windGust<3.11999989] yes=5,no=6,missing=6
		5:[weekday<1] yes=11,no=12,missing=11
			11:[pressure<1009.29999] yes=23,no=24,missing=23
				23:[precipIntensity<0.89410001] yes=47,no=48,missing=48
					47:[dewPoint<2.73000002] yes=85,no=86,missing=85
						85:leaf=0.0931131989
						86:leaf=0.0263632592
					48:leaf=-0.0273802076
				24:[uvIndex<1.5] yes=49,no=50,missing=49
					49:[apparentTemperature<2.70000005] yes=87,no=88,missing=88
						87:leaf=0.249633789
						88:leaf=0.505476713
					50:leaf=0.700439274
			12:[windBearing<227] yes=25,no=26,missing=25
				25:[pressure<1018.03003] yes=51,no=52,missing=52
					51:[windSpeed<1.12] yes=89,no=90,missing=89
						89:leaf=0.369457334
						90:leaf=0.0897790566
					52:[pressure<1025.59998] yes=91,no=92,missing=91
						91:leaf=-0.0117596416
						92:leaf=0.0929148123
				26:[pressure<1036.32996] yes=53,no=54,missing=53
					53:[apparentTemperature<9.81999969] yes=93,no=94,missing=93
						93:leaf=0.25199607
						94:leaf=0.0590687208
					54:[hour_x<22] yes=95,no=96,missing=95
						95:leaf=0.0967226028
						96:leaf=0.577229738
		6:[dewPoint<7.34000015] yes=13,no=14,missing=13
			13:[pressure<1001.40997] yes=27,no=28,missing=27
				27:[temperature<2.91000009] yes=55,no=56,missing=56
					55:[cloudCover<0.680000007] yes=97,no=98,missing=97
						97:leaf=0.154238373
						98:leaf=0.423219025
					56:[apparentTemperature<-0.25999999] yes=99,no=100,missing=100
						99:leaf=0.0765219629
						100:leaf=-0.0254010838
				28:[pressure<1024.60999] yes=57,no=58,missing=57
					57:[windGust<7.80999994] yes=101,no=102,missing=101
						101:leaf=0.22354947
						102:leaf=0.0847665593
					58:[temperature<5.92000008] yes=103,no=104,missing=103
						103:leaf=0.359489441
						104:leaf=0.0418582708
			14:[pressure<1001.87] yes=29,no=30,missing=29
				29:[visibility<10.0900002] yes=59,no=60,missing=60
					59:[windBearing<234] yes=105,no=106,missing=105
						105:leaf=0.156230226
						106:leaf=0.0433381386
					60:[windBearing<231] yes=107,no=108,missing=108
						107:leaf=0.413957268
						108:leaf=0.244917631
				30:[dewPoint<10.8800001] yes=61,no=62,missing=61
					61:[windGust<5.57999992] yes=109,no=110,missing=110
						109:leaf=0.0613954775
						110:leaf=-0.0388231687
					62:[apparentTemperature<15.9499998] yes=111,no=112,missing=111
						111:leaf=0.251917899
						112:leaf=0.00245309132
booster[6]:
0:[hour_x<9] yes=1,no=2,missing=1
	1:[pressure<1003.23999] yes=3,no=4,missing=4
		3:[dewPoint<3.98000002] yes=7,no=8,missing=7
			7:[windBearing<88] yes=15,no=16,missing=15
				15:[weekday<1] yes=31,no=32,missing=31
					31:leaf=-0.025033135
					32:[visibility<5.28999996] yes=63,no=64,missing=63
						63:leaf=0.0182169676
						64:leaf=0.0845538601
				16:[pressure<999.140015] yes=33,no=34,missing=33
					33:[precipIntensity<0.459699988] yes=65,no=66,missing=66
						65:leaf=0.219718561
						66:leaf=0.373177797
					34:[hour_x<6] yes=67,no=68,missing=68
						67:leaf=0.0558506548
						68:leaf=0.22836642
			8:[visibility<12.3100004] yes=17,no=18,missing=17
				17:[precipIntensity<0.137199998] yes=35,no=36,missing=35
					35:[windBearing<207] yes=69,no=70,missing=70
						69:leaf=0.349033087
						70:leaf=0.0802073032
					36:[pressure<1000.71002] yes=71,no=72,missing=72
						71:leaf=0.371407568
						72:leaf=0.633595586
				18:[pressure<990.840027] yes=37,no=38,missing=37
					37:leaf=0.108816341
					38:leaf=0.787389994
		4:[weekday<1] yes=9,no=10,missing=9
			9:[pressure<1027.69995] yes=19,no=20,missing=19
				19:[temperature<4.92999983] yes=39,no=40,missing=39
					39:[windSpeed<1.75] yes=73,no=74,missing=74
						73:leaf=0.15052177
						74:leaf=0.0304701123
					40:[pressure<1022.56] yes=75,no=76,missing=75
						75:leaf=0.178695261
						76:leaf=0.440017313
				20:[cloudCover<0.639999986] yes=41,no=42,missing=42
					41:leaf=0.29632014
					42:[pressure<1032.96997] yes=77,no=78,missing=77
						77:leaf=0.611005723
						78:leaf=0.400180161
			10:[windGust<4.48000002] yes=21,no=22,missing=22
				21:[windGust<3.9000001] yes=43,no=44,missing=44
					43:[visibility<8.42000008] yes=79,no=80,missing=80
						79:leaf=0.343957633
						80:leaf=0.0982474834
					44:[dewPoint<3.19000006] yes=81,no=82,missing=82
						81:leaf=0.0696251914
						82:leaf=0.703131855
				22:[pressure<1020.52002] yes=45,no=46,missing=46
					45:[temperature<9.35999966] yes=83,no=84,missing=83
						83:leaf=0.105151854
						84:leaf=0.371278375
					46:[windBearing<304] yes=85,no=86,missing=85
						85:leaf=0.00806801394
						86:leaf=0.312233776
	2:[windGust<3.11999989] yes=5,no=6,missing=6
		5:[weekday<1] yes=11,no=12,missing=11
			11:[pressure<1009.29999] yes=23,no=24,missing=24
				23:[precipIntensity<0.89410001] yes=47,no=48,missing=47
					47:[dewPoint<2.73000002] yes=87,no=88,missing=88
						87:leaf=0.0861297101
						88:leaf=0.0242541935
					48:leaf=-0.025033066
				24:[hour_x<17] yes=49,no=50,missing=49
					49:leaf=0.594127357
					50:leaf=0.407941908
			12:[windBearing<227] yes=25,no=26,missing=25
				25:[pressure<1018.03003] yes=51,no=52,missing=52
					51:[windSpeed<1.12] yes=89,no=90,missing=89
						89:leaf=0.338669211
						90:leaf=0.0825967193
					52:[pressure<1025.59998] yes=91,no=92,missing=91
						91:leaf=-0.010605881
						92:leaf=0.0838253275
				26:[pressure<1036.32996] yes=53,no=54,missing=53
					53:[cloudCover<0.769999981] yes=93,no=94,missing=94
						93:leaf=0.108496785
						94:leaf=0.298485488
					54:[humidity<0.75999999] yes=95,no=96,missing=95
						95:leaf=0.0918863788
						96:leaf=0.525279045
		6:[hour_x<18] yes=13,no=14,missing=14
			13:[pressure<1025.43994] yes=27,no=28,missing=27
				27:[apparentTemperature<3.02999997] yes=55,no=56,missing=55
					55:[windGust<9.48999977] yes=97,no=98,missing=97
						97:leaf=0.0976711661
						98:leaf=-0.00523309829
					56:[humidity<0.75] yes=99,no=100,missing=99
						99:leaf=0.140233487
						100:leaf=0.0287707206
				28:[dewPoint<2.26999998] yes=57,no=58,missing=58
					57:[weekday<1] yes=101,no=102,missing=101
						101:leaf=0.61807698
						102:leaf=-0.00318143587
					58:[humidity<0.579999983] yes=103,no=104,missing=104
						103:leaf=0.0454649031
						104:leaf=-0.0223297346
			14:[cloudCover<0.800000012] yes=29,no=30,missing=30
				29:[temperature<9.22999954] yes=59,no=60,missing=59
					59:[windGust<4.86000013] yes=105,no=106,missing=105
						105:leaf=0.139923766
						106:leaf=0.0215050783
					60:[pressure<1010.32001] yes=107,no=108,missing=107
						107:leaf=0.473606437
						108:leaf=0.0865425095
				30:[dewPoint<1.07000005] yes=61,no=62,missing=61
					61:[weekday<1] yes=109,no=110,missing=110
						109:leaf=0.122089006
						110:leaf=0.803784013
					62:[windSpeed<10.5900002] yes=111,no=112,missing=111
						111:leaf=0.1279044
						112:leaf=0.396156967
booster[7]:
0:[hour_x<9] yes=1,no=2,missing=1
	1:[pressure<1003.23999] yes=3,no=4,missing=3
		3:[apparentTemperature<2.03999996] yes=7,no=8,missing=8
			7:[windBearing<88] yes=15,no=16,missing=15
				15:[weekday<1] yes=31,no=32,missing=32
					31:leaf=-0.0228873733
					32:[visibility<5.28999996] yes=63,no=64,missing=63
						63:leaf=0.0166229811
						64:leaf=0.0763152912
				16:[pressure<999.630005] yes=33,no=34,missing=34
					33:[precipProbability<0.870000005] yes=65,no=66,missing=65
						65:leaf=0.18284592
						66:leaf=0.301439822
					34:[cloudCover<0.50999999] yes=67,no=68,missing=68
						67:leaf=0.165456474
						68:leaf=0.00865172036
			8:[apparentTemperature<10.8100004] yes=17,no=18,missing=17
				17:[windSpeed<7.57999992] yes=35,no=36,missing=36
					35:leaf=0.293943346
					36:[windSpeed<14.75] yes=69,no=70,missing=69
						69:leaf=0.737521887
						70:leaf=0.382567495
				18:[cloudCover<0.639999986] yes=37,no=38,missing=37
					37:leaf=0.0678842664
					38:[apparentTemperature<12.8699999] yes=71,no=72,missing=71
						71:leaf=0.354949087
						72:leaf=0.0241205133
		4:[weekday<1] yes=9,no=10,missing=10
			9:[pressure<1027.69995] yes=19,no=20,missing=20
				19:[temperature<4.92999983] yes=39,no=40,missing=39
					39:[pressure<1003.47998] yes=73,no=74,missing=74
						73:leaf=0.24044399
						74:leaf=0.0342098251
					40:[pressure<1022.56] yes=75,no=76,missing=75
						75:leaf=0.160986751
						76:leaf=0.397088856
				20:[cloudCover<0.639999986] yes=41,no=42,missing=41
					41:leaf=0.267393678
					42:[pressure<1032.96997] yes=77,no=78,missing=77
						77:leaf=0.551556408
						78:leaf=0.364163935
			10:[windGust<5.90999985] yes=21,no=22,missing=21
				21:[cloudCover<0.140000001] yes=43,no=44,missing=44
					43:[dewPoint<-0.280000001] yes=79,no=80,missing=79
						79:leaf=0.233446836
						80:leaf=-0.125086173
					44:[dewPoint<1.83000004] yes=81,no=82,missing=82
						81:leaf=0.0753834173
						82:leaf=0.231381297
				22:[pressure<1007.32001] yes=45,no=46,missing=45
					45:[precipProbability<0.0399999991] yes=83,no=84,missing=84
						83:leaf=0.119911052
						84:leaf=0.737371504
					46:[pressure<1021.28003] yes=85,no=86,missing=85
						85:leaf=0.0727275237
						86:leaf=0.000707885309
	2:[windGust<3.11999989] yes=5,no=6,missing=5
		5:[weekday<1] yes=11,no=12,missing=11
			11:[pressure<1009.29999] yes=23,no=24,missing=24
				23:[precipIntensity<0.89410001] yes=47,no=48,missing=47
					47:[dewPoint<2.73000002] yes=87,no=88,missing=87
						87:leaf=0.0796699896
						88:leaf=0.0223138612
					48:leaf=-0.0228873733
				24:[uvIndex<1.5] yes=49,no=50,missing=50
					49:[apparentTemperature<3.33999991] yes=89,no=90,missing=89
						89:leaf=0.234886646
						90:leaf=0.415474147
					50:leaf=0.576161087
			12:[windBearing<227] yes=25,no=26,missing=26
				25:[pressure<1018.03003] yes=51,no=52,missing=52
					51:[windSpeed<1.12] yes=91,no=92,missing=92
						91:leaf=0.310446769
						92:leaf=0.0759889707
					52:[pressure<1025.59998] yes=93,no=94,missing=93
						93:leaf=-0.00956528913
						94:leaf=0.0756250173
				26:[pressure<1036.32996] yes=53,no=54,missing=54
					53:[apparentTemperature<9.81999969] yes=95,no=96,missing=95
						95:leaf=0.209895879
						96:leaf=0.0403001718
					54:[hour_x<22] yes=97,no=98,missing=98
						97:leaf=0.0872921795
						98:leaf=0.478004128
		6:[apparentTemperature<6.69999981] yes=13,no=14,missing=13
			13:[windGust<5.61999989] yes=27,no=28,missing=27
				27:[windSpeed<5.26999998] yes=55,no=56,missing=56
					55:[windBearing<273] yes=99,no=100,missing=99
						99:leaf=0.111855865
						100:leaf=0.401203454
					56:[hour_x<13] yes=101,no=102,missing=101
						101:leaf=1.33121669
						102:leaf=0.0287920721
				28:[apparentTemperature<3.82999992] yes=57,no=58,missing=58
					57:[pressure<1028.64001] yes=103,no=104,missing=103
						103:leaf=0.0150552811
						104:leaf=0.382749528
					58:[windSpeed<10.8100004] yes=105,no=106,missing=105
						105:leaf=0.0745867714
						106:leaf=0.276460737
			14:[pressure<1018.32001] yes=29,no=30,missing=29
				29:[apparentTemperature<12.1199999] yes=59,no=60,missing=60
					59:[pressure<1008.39001] yes=107,no=108,missing=108
						107:leaf=0.0199043714
						108:leaf=0.11519406
					60:[cloudy<1] yes=109,no=110,missing=110
						109:leaf=0.258204669
						110:leaf=0.798210025
				30:[dewPoint<10.8800001] yes=61,no=62,missing=61
					61:[windBearing<273] yes=111,no=112,missing=111
						111:leaf=-0.0099847205
						112:leaf=0.054094661
					62:[apparentTemperature<15.9499998] yes=113,no=114,missing=113
						113:leaf=0.21993573
						114:leaf=0.0043303296
booster[8]:
0:[hour_x<9] yes=1,no=2,missing=1
	1:[windSpeed<10.0799999] yes=3,no=4,missing=4
		3:[weekday<1] yes=7,no=8,missing=7
			7:[pressure<1027.69995] yes=15,no=16,missing=15
				15:[apparentTemperature<3.02999997] yes=31,no=32,missing=31
					31:[windGust<11.4700003] yes=63,no=64,missing=63
						63:leaf=0.0164106768
						64:leaf=0.135383099
					32:[pressure<1022.56] yes=65,no=66,missing=65
						65:leaf=0.19169946
						66:leaf=0.350865901
				16:[cloudCover<0.639999986] yes=33,no=34,missing=33
					33:leaf=0.241290912
					34:leaf=0.47251901
			8:[windGust<5.76999998] yes=17,no=18,missing=17
				17:[pressure<1028.81995] yes=35,no=36,missing=35
					35:[pressure<1028.22998] yes=67,no=68,missing=68
						67:leaf=0.171987206
						68:leaf=0.582594097
					36:[pressure<1035.02002] yes=69,no=70,missing=69
						69:leaf=-0.0432040356
						70:leaf=0.197613761
				18:[pressure<1021.14001] yes=37,no=38,missing=37
					37:[windGust<18.6100006] yes=71,no=72,missing=71
						71:leaf=0.0916381776
						72:leaf=0.439452142
					38:[windBearing<187] yes=73,no=74,missing=73
						73:leaf=-0.0626915321
						74:leaf=0.00373788411
		4:[precipIntensity<0.0786999986] yes=9,no=10,missing=10
			9:[windBearing<316] yes=19,no=20,missing=19
				19:[dewPoint<0.660000026] yes=39,no=40,missing=40
					39:[dewPoint<-0.439999998] yes=75,no=76,missing=75
						75:leaf=0.139505073
						76:leaf=0.354989529
					40:[cloudCover<0.699999988] yes=77,no=78,missing=77
						77:leaf=-0.0101683568
						78:leaf=0.120799795
				20:[weekday<1] yes=41,no=42,missing=41
					41:[hour_x<8] yes=79,no=80,missing=79
						79:leaf=0.00473923702
						80:leaf=0.0729856789
					42:leaf=0.608937919
			10:[cloudCover<0.779999971] yes=21,no=22,missing=21
				21:[pressure<999.630005] yes=43,no=44,missing=44
					43:[hour_x<8] yes=81,no=82,missing=81
						81:leaf=0.304693431
						82:leaf=0.0957293361
					44:[apparentTemperature<0.889999986] yes=83,no=84,missing=83
						83:leaf=0.0912148952
						84:leaf=0.667515874
				22:[windGust<20.2299995] yes=45,no=46,missing=45
					45:[apparentTemperature<1.76999998] yes=85,no=86,missing=85
						85:leaf=0.0535907522
						86:leaf=0.137765348
					46:[windBearing<265] yes=87,no=88,missing=87
						87:leaf=-0.00657790899
						88:leaf=0.0288943779
	2:[windGust<3.11999989] yes=5,no=6,missing=5
		5:[weekday<1] yes=11,no=12,missing=11
			11:[pressure<1009.29999] yes=23,no=24,missing=24
				23:[precipIntensity<0.89410001] yes=47,no=48,missing=48
					47:[dewPoint<2.73000002] yes=89,no=90,missing=89
						89:leaf=0.0736947358
						90:leaf=0.0205287542
					48:leaf=-0.0209256019
				24:[hour_x<17] yes=49,no=50,missing=49
					49:leaf=0.486330658
					50:[windGust<2.86999989] yes=91,no=92,missing=91
						91:leaf=0.344518512
						92:leaf=0.159876034
			12:[cloudCover<0.569999993] yes=25,no=26,missing=25
				25:[windGust<2.86999989] yes=51,no=52,missing=51
					51:[hour_x<19] yes=93,no=94,missing=94
						93:leaf=-0.0684717521
						94:leaf=0.0278848018
					52:[temperature<5.65999985] yes=95,no=96,missing=95
						95:leaf=0.179379076
						96:leaf=0.0523866713
				26:[windGust<2.19000006] yes=53,no=54,missing=53
					53:[cloudCover<0.730000019] yes=97,no=98,missing=97
						97:leaf=0.474081844
						98:leaf=0.229541928
					54:[windBearing<216] yes=99,no=100,missing=99
						99:leaf=0.00208653905
						100:leaf=0.187469408
		6:[weekday<1] yes=13,no=14,missing=13
			13:[dewPoint<0.140000001] yes=27,no=28,missing=27
				27:[hour_x<20] yes=55,no=56,missing=56
					55:[precipIntensity<0.866100013] yes=101,no=102,missing=101
						101:leaf=-0.0407092683
						102:leaf=0.0674898028
					56:[windSpeed<6.80999994] yes=103,no=104,missing=103
						103:leaf=0.112718694
						104:leaf=0.0196512751
				28:[pressure<1025.59998] yes=57,no=58,missing=57
					57:[pressure<1024.19995] yes=105,no=106,missing=105
						105:leaf=0.127861336
						106:leaf=0.356950045
					58:[pressure<1033.19995] yes=107,no=108,missing=108
						107:leaf=0.00955391489
						108:leaf=0.458333939
			14:[windGust<17.3400002] yes=29,no=30,missing=29
				29:[windGust<9.72999954] yes=59,no=60,missing=59
					59:[dewPoint<2.63000011] yes=109,no=110,missing=110
						109:leaf=0.216998741
						110:leaf=0.0331733711
					60:[visibility<11.0100002] yes=111,no=112,missing=111
						111:leaf=-0.0220599808
						112:leaf=0.036323525
				30:[windBearing<210] yes=61,no=62,missing=61
					61:[apparentTemperature<1.80999994] yes=113,no=114,missing=114
						113:leaf=0.0318731479
						114:leaf=0.464545727
					62:[dewPoint<3.29999995] yes=115,no=116,missing=115
						115:leaf=-0.0358505957
						116:leaf=0.116865456
booster[9]:
0:[hour_x<9] yes=1,no=2,missing=1
	1:[pressure<1003.23999] yes=3,no=4,missing=4
		3:[apparentTemperature<2.03999996] yes=7,no=8,missing=8
			7:[windBearing<88] yes=15,no=16,missing=16
				15:[pressure<994.099976] yes=31,no=32,missing=31
					31:[visibility<5.28999996] yes=61,no=62,missing=61
						61:leaf=0.00491966214
						62:leaf=0.0599505901
					32:[weekday<1] yes=63,no=64,missing=63
						63:leaf=-0.0223322287
						64:leaf=0.00736426143
				16:[pressure<999.140015] yes=33,no=34,missing=33
					33:[weekday<1] yes=65,no=66,missing=66
						65:leaf=0.0702600107
						66:leaf=0.210978031
					34:[windGust<9.30000019] yes=67,no=68,missing=67
						67:leaf=-0.0574063435
						68:leaf=0.111046374
			8:[visibility<12.9200001] yes=17,no=18,missing=18
				17:[precipIntensity<0.0786999986] yes=35,no=36,missing=35
					35:[cloudCover<0.649999976] yes=69,no=70,missing=69
						69:leaf=0.0437754989
						70:leaf=0.288264841
					36:[apparentTemperature<10.7200003] yes=71,no=72,missing=72
						71:leaf=0.457181931
						72:leaf=0.242904231
				18:leaf=0.601130486
		4:[apparentTemperature<6.86000013] yes=9,no=10,missing=10
			9:[temperature<2.80999994] yes=19,no=20,missing=19
				19:[pressure<1007.96002] yes=37,no=38,missing=37
					37:[hour_x<7] yes=73,no=74,missing=74
						73:leaf=0.112186804
						74:leaf=0.212490723
					38:[visibility<7.0999999] yes=75,no=76,missing=76
						75:leaf=0.126392812
						76:leaf=-0.0167825762
				20:[visibility<11.2299995] yes=39,no=40,missing=39
					39:[visibility<9.98999977] yes=77,no=78,missing=78
						77:leaf=0.0990980715
						78:leaf=0.205915764
					40:[humidity<0.889999986] yes=79,no=80,missing=79
						79:leaf=0.0750369504
						80:leaf=-0.0516728647
			10:[pressure<1031.59998] yes=21,no=22,missing=22
				21:[windSpeed<2.82999992] yes=41,no=42,missing=41
					41:[pressure<1016.94] yes=81,no=82,missing=81
						81:leaf=0.149187535
						82:leaf=0.0215576682
					42:[pressure<1009.97998] yes=83,no=84,missing=83
						83:leaf=-0.121073119
						84:leaf=0.00895763468
				22:[humidity<0.850000024] yes=43,no=44,missing=43
					43:leaf=-0.243575141
					44:[hour_x<8] yes=85,no=86,missing=85
						85:leaf=-0.0577725247
						86:leaf=0.00667060632
	2:[windGust<3.11999989] yes=5,no=6,missing=5
		5:[weekday<1] yes=11,no=12,missing=11
			11:[pressure<1009.29999] yes=23,no=24,missing=24
				23:[precipIntensity<0.89410001] yes=45,no=46,missing=45
					45:[dewPoint<2.73000002] yes=87,no=88,missing=87
						87:leaf=0.0681676343
						88:leaf=0.0188864563
					46:leaf=-0.0191319752
				24:[uvIndex<1.5] yes=47,no=48,missing=48
					47:[apparentTemperature<3.33999991] yes=89,no=90,missing=90
						89:leaf=0.193471476
						90:leaf=0.33662343
					48:leaf=0.474161834
			12:[cloudCover<0.569999993] yes=25,no=26,missing=26
				25:[windGust<2.86999989] yes=49,no=50,missing=49
					49:[windSpeed<1.26999998] yes=91,no=92,missing=92
						91:leaf=0.0514358096
						92:leaf=-0.0401183106
					50:[temperature<5.65999985] yes=93,no=94,missing=94
						93:leaf=0.16238527
						94:leaf=0.0474972427
				26:[windGust<2.19000006] yes=51,no=52,missing=51
					51:[cloudCover<0.730000019] yes=95,no=96,missing=95
						95:leaf=0.430983543
						96:leaf=0.207862973
					52:[windBearing<216] yes=97,no=98,missing=97
						97:leaf=0.00188533531
						98:leaf=0.169574603
		6:[weekday<1] yes=13,no=14,missing=13
			13:[dewPoint<-0.119999997] yes=27,no=28,missing=28
				27:[hour_x<19] yes=53,no=54,missing=54
					53:[dewPoint<-0.349999994] yes=99,no=100,missing=99
						99:leaf=-0.0507556759
						100:leaf=0.0170551576
					54:[windBearing<133] yes=101,no=102,missing=101
						101:leaf=0.109564818
						102:leaf=0.00886212941
				28:[pressure<1025.39001] yes=55,no=56,missing=55
					55:[pressure<1024.19995] yes=103,no=104,missing=104
						103:leaf=0.112732649
						104:leaf=0.334637284
					56:[pressure<1033.19995] yes=105,no=106,missing=105
						105:leaf=0.00937664695
						106:leaf=0.416319937
			14:[hour_x<18] yes=29,no=30,missing=29
				29:[uvIndex<1.5] yes=57,no=58,missing=57
					57:[windBearing<236] yes=107,no=108,missing=107
						107:leaf=-0.0341314487
						108:leaf=0.0144428927
					58:[dewPoint<4.71000004] yes=109,no=110,missing=109
						109:leaf=0.0982382074
						110:leaf=0.00422162516
				30:[windSpeed<10.6999998] yes=59,no=60,missing=59
					59:[windGust<10.0100002] yes=111,no=112,missing=112
						111:leaf=0.0769322142
						112:leaf=-0.00654606242
					60:[dewPoint<4.71000004] yes=113,no=114,missing=113
						113:leaf=0.0257431567
						114:leaf=0.377114385
booster[10]:
0:[hour_x<9] yes=1,no=2,missing=1
	1:[pressure<1003.23999] yes=3,no=4,missing=3
		3:[apparentTemperature<2.03999996] yes=7,no=8,missing=7
			7:[windBearing<88] yes=15,no=16,missing=15
				15:[pressure<994.099976] yes=31,no=32,missing=32
					31:[pressure<991.25] yes=61,no=62,missing=61
						61:leaf=-0.0390428565
						62:leaf=0.0504507311
					32:[weekday<1] yes=63,no=64,missing=63
						63:leaf=-0.0204182491
						64:leaf=0.00699604768
				16:[pressure<999.140015] yes=33,no=34,missing=33
					33:[weekend<1] yes=65,no=66,missing=66
						65:leaf=0.190165326
						66:leaf=0.0637744516
					34:[hour_x<6] yes=67,no=68,missing=67
						67:leaf=0.0278475229
						68:leaf=0.164265588
			8:[visibility<12.9200001] yes=17,no=18,missing=17
				17:[precipIntensity<0.0786999986] yes=35,no=36,missing=35
					35:[cloudCover<0.649999976] yes=69,no=70,missing=70
						69:leaf=0.0395730622
						70:leaf=0.2626414
					36:[apparentTemperature<10.7200003] yes=71,no=72,missing=71
						71:leaf=0.412938446
						72:leaf=0.219192177
				18:leaf=0.544357002
		4:[weekend<1] yes=9,no=10,missing=10
			9:[cloudCover<0.980000019] yes=19,no=20,missing=19
				19:[pressure<1035.02002] yes=37,no=38,missing=37
					37:[pressure<1028.81995] yes=73,no=74,missing=73
						73:leaf=0.0755051374
						74:leaf=-0.0341430828
					38:[cloudCover<0.589999974] yes=75,no=76,missing=75
						75:leaf=0.276924103
						76:leaf=-0.0156072471
				20:[cloudy<1] yes=39,no=40,missing=40
					39:leaf=0.421646982
					40:leaf=-0.0549977124
			10:[pressure<1022.34998] yes=21,no=22,missing=22
				21:[temperature<4.92999983] yes=41,no=42,missing=41
					41:[dewPoint<0.660000026] yes=77,no=78,missing=77
						77:leaf=0.20576416
						78:leaf=-0.00851683971
					42:[windGust<13.6300001] yes=79,no=80,missing=79
						79:leaf=0.135545835
						80:leaf=0.0380129106
				22:[windBearing<304] yes=43,no=44,missing=43
					43:[cloudCover<0.639999986] yes=81,no=82,missing=82
						81:leaf=0.216921881
						82:leaf=0.358867437
					44:[windGust<6.5] yes=83,no=84,missing=84
						83:leaf=0.10530623
						84:leaf=0.00593911763
	2:[windGust<3.02999997] yes=5,no=6,missing=6
		5:[weekday<1] yes=11,no=12,missing=11
			11:[pressure<1009.29999] yes=23,no=24,missing=24
				23:[apparentTemperature<2.6400001] yes=45,no=46,missing=45
					45:leaf=-0.0163259543
					46:leaf=0.067160055
				24:[uvIndex<0.5] yes=47,no=48,missing=47
					47:[cloudCover<0.779999971] yes=85,no=86,missing=86
						85:leaf=0.288086742
						86:leaf=0.118185796
					48:leaf=0.410792828
			12:[cloudCover<0.569999993] yes=25,no=26,missing=26
				25:[windGust<2.86999989] yes=49,no=50,missing=49
					49:[hour_x<19] yes=87,no=88,missing=88
						87:leaf=-0.0598781817
						88:leaf=0.0251552742
					50:[windSpeed<2] yes=89,no=90,missing=89
						89:leaf=0.169867992
						90:leaf=0.0164286774
				26:[windGust<2.19000006] yes=51,no=52,missing=51
					51:[cloudCover<0.730000019] yes=91,no=92,missing=91
						91:leaf=0.391803235
						92:leaf=0.188231468
					52:[windBearing<216] yes=93,no=94,missing=93
						93:leaf=0.00870376732
						94:leaf=0.153387949
		6:[dewPoint<7.34000015] yes=13,no=14,missing=13
			13:[pressure<1001.40997] yes=27,no=28,missing=27
				27:[temperature<2.91000009] yes=53,no=54,missing=54
					53:[cloudCover<0.680000007] yes=95,no=96,missing=96
						95:leaf=0.115051024
						96:leaf=0.351015419
					54:[visibility<15.1400003] yes=97,no=98,missing=97
						97:leaf=-0.0337730274
						98:leaf=0.0633665249
				28:[pressure<1034.69995] yes=55,no=56,missing=56
					55:[pressure<1034] yes=99,no=100,missing=99
						99:leaf=0.0678448007
						100:leaf=0.253661931
					56:[windGust<6.75] yes=101,no=102,missing=101
						101:leaf=-0.0425615758
						102:leaf=0.137162492
			14:[weekday<1] yes=29,no=30,missing=29
				29:[apparentTemperature<10.8500004] yes=57,no=58,missing=57
					57:[hour_x<11] yes=103,no=104,missing=103
						103:leaf=-0.131530628
						104:leaf=0.0395083278
					58:[hour_x<10] yes=105,no=106,missing=105
						105:leaf=0.321566701
						106:leaf=0.172968581
				30:[dewPoint<10.8800001] yes=59,no=60,missing=60
					59:[windGust<5.73999977] yes=107,no=108,missing=108
						107:leaf=0.0285687987
						108:leaf=-0.0415066965
					60:[pressure<1029] yes=109,no=110,missing=109
						109:leaf=0.166500613
						110:leaf=-0.0695815757
booster[11]:
0:[weekday<1] yes=1,no=2,missing=2
	1:[pressure<1033.19995] yes=3,no=4,missing=4
		3:[hour_x<11] yes=7,no=8,missing=8
			7:[humidity<0.850000024] yes=15,no=16,missing=15
				15:[pressure<1022.46997] yes=29,no=30,missing=29
					29:[pressure<1004.08002] yes=53,no=54,missing=53
						53:leaf=0.232407361
						54:leaf=0.0758854598
					30:[cloudCover<0.639999986] yes=55,no=56,missing=56
						55:leaf=0.16669476
						56:leaf=0.357849985
				16:[dewPoint<3.77999997] yes=31,no=32,missing=31
					31:[dewPoint<0.970000029] yes=57,no=58,missing=58
						57:leaf=0.0671810061
						58:leaf=-0.0118985772
					32:[windBearing<81] yes=59,no=60,missing=59
						59:leaf=-0.113705888
						60:leaf=0.154518872
			8:[pressure<1011.95001] yes=17,no=18,missing=17
				17:[pressure<1008.25] yes=33,no=34,missing=34
					33:[windSpeed<7] yes=61,no=62,missing=61
						61:leaf=-0.0517109744
						62:leaf=0.134694114
					34:[hour_x<14] yes=63,no=64,missing=64
						63:leaf=-0.0868824646
						64:leaf=0.239224955
				18:[pressure<1016.52002] yes=35,no=36,missing=35
					35:[windBearing<208] yes=65,no=66,missing=65
						65:leaf=0.125333071
						66:leaf=-0.0777245685
					36:[windBearing<138] yes=67,no=68,missing=67
						67:leaf=-0.0101843188
						68:leaf=0.0500320792
		4:[uvIndex<1.5] yes=9,no=10,missing=10
			9:[cloudCover<0.649999976] yes=19,no=20,missing=20
				19:leaf=0.14719449
				20:leaf=0.27527979
			10:leaf=0.422882795
	2:[apparentTemperature<6.28999996] yes=5,no=6,missing=6
		5:[uvIndex<2.5] yes=11,no=12,missing=11
			11:[temperature<9.21000004] yes=21,no=22,missing=21
				21:[windGust<5.76999998] yes=37,no=38,missing=37
					37:[windSpeed<5.11000013] yes=69,no=70,missing=69
						69:leaf=0.107772604
						70:leaf=0.713130772
					38:[uvIndex<0.5] yes=71,no=72,missing=72
						71:leaf=0.0456289947
						72:leaf=-0.0192417819
				22:[humidity<0.720000029] yes=39,no=40,missing=39
					39:[cloudCover<0.910000026] yes=73,no=74,missing=73
						73:leaf=-0.0272725951
						74:leaf=0.347342461
					40:[cloudy<1] yes=75,no=76,missing=75
						75:leaf=0.522627115
						76:leaf=0.061524421
			12:[visibility<6.9000001] yes=23,no=24,missing=23
				23:[windGust<16.1900005] yes=41,no=42,missing=41
					41:[cloudCover<0.879999995] yes=77,no=78,missing=77
						77:leaf=-0.113685012
						78:leaf=-0.0235635582
					42:[temperature<6.67000008] yes=79,no=80,missing=79
						79:leaf=-0.0100993412
						80:leaf=0.0836999938
				24:[pressure<1023.17999] yes=43,no=44,missing=43
					43:[hour_x<13] yes=81,no=82,missing=81
						81:leaf=1.04174507
						82:leaf=0.427057028
					44:[apparentTemperature<6.19000006] yes=83,no=84,missing=83
						83:leaf=-0.0268003885
						84:leaf=0.458082289
		6:[pressure<1018.32001] yes=13,no=14,missing=14
			13:[pressure<1014.09003] yes=25,no=26,missing=25
				25:[hour_x<8] yes=45,no=46,missing=45
					45:[precipIntensity<0.165099993] yes=85,no=86,missing=86
						85:leaf=0.0744882748
						86:leaf=0.368329495
					46:[hour_x<18] yes=87,no=88,missing=87
						87:leaf=-0.0457895547
						88:leaf=0.0728963017
				26:[apparentTemperature<11.5699997] yes=47,no=48,missing=47
					47:[visibility<8] yes=89,no=90,missing=89
						89:leaf=0.350871176
						90:leaf=0.0195421223
					48:leaf=0.71730274
			14:[hour_x<13] yes=27,no=28,missing=27
				27:[windGust<15.9399996] yes=49,no=50,missing=49
					49:[pressure<1035.77002] yes=91,no=92,missing=92
						91:leaf=-0.0247366633
						92:leaf=-0.0808737725
					50:[apparentTemperature<11.3599997] yes=93,no=94,missing=93
						93:leaf=-0.0492971838
						94:leaf=0.161658123
				28:[pressure<1032.81995] yes=51,no=52,missing=52
					51:[windSpeed<6.05000019] yes=95,no=96,missing=96
						95:leaf=-0.00144900708
						96:leaf=0.121861577
					52:[humidity<0.699999988] yes=97,no=98,missing=98
						97:leaf=0.0315085612
						98:leaf=0.250332206
booster[12]:
0:[hour_x<9] yes=1,no=2,missing=1
	1:[windSpeed<9.97000027] yes=3,no=4,missing=4
		3:[weekday<1] yes=7,no=8,missing=7
			7:[pressure<1027.69995] yes=15,no=16,missing=16
				15:[temperature<5.03000021] yes=31,no=32,missing=31
					31:[hour_x<7] yes=61,no=62,missing=61
						61:leaf=0.0117506245
						62:leaf=0.103342965
					32:[pressure<1022.34998] yes=63,no=64,missing=63
						63:leaf=0.118506588
						64:leaf=0.243853882
				16:[cloudCover<0.639999986] yes=33,no=34,missing=34
					33:leaf=0.161943302
					34:[pressure<1032.81995] yes=65,no=66,missing=65
						65:leaf=0.368612319
						66:leaf=0.230071545
			8:[windGust<5.76999998] yes=17,no=18,missing=18
				17:[cloudCover<0.140000001] yes=35,no=36,missing=35
					35:[dewPoint<-0.280000001] yes=67,no=68,missing=67
						67:leaf=0.179814026
						68:leaf=-0.137690708
					36:[windGust<3.81999993] yes=69,no=70,missing=69
						69:leaf=0.0672445446
						70:leaf=0.213597998
				18:[pressure<1021.28003] yes=37,no=38,missing=38
					37:[windGust<18.6100006] yes=71,no=72,missing=72
						71:leaf=0.0580479875
						72:leaf=0.318675935
					38:[dewPoint<4.11000013] yes=73,no=74,missing=73
						73:leaf=-0.0626542196
						74:leaf=-0.00269531319
		4:[temperature<8.32999992] yes=9,no=10,missing=10
			9:[dewPoint<0.660000026] yes=19,no=20,missing=19
				19:leaf=0.272658587
				20:[precipProbability<0.870000005] yes=39,no=40,missing=39
					39:[cloudCover<0.519999981] yes=75,no=76,missing=76
						75:leaf=-0.108399883
						76:leaf=0.0286495183
					40:[pressure<999.630005] yes=77,no=78,missing=78
						77:leaf=0.204328164
						78:leaf=0.0621723831
			10:[cloudCover<0.649999976] yes=21,no=22,missing=22
				21:[precipIntensity<0.0786999986] yes=41,no=42,missing=41
					41:[humidity<0.779999971] yes=79,no=80,missing=79
						79:leaf=-0.0758181736
						80:leaf=0.0405492745
					42:[hour_x<2] yes=81,no=82,missing=81
						81:leaf=-0.0743414611
						82:leaf=0.507378042
				22:[apparentTemperature<11.2700005] yes=43,no=44,missing=43
					43:[pressure<1000.12] yes=83,no=84,missing=84
						83:leaf=0.0939412117
						84:leaf=0.450752735
					44:[visibility<10.9799995] yes=85,no=86,missing=86
						85:leaf=0.226231441
						86:leaf=0.0668283775
	2:[windGust<3.02999997] yes=5,no=6,missing=5
		5:[weekday<1] yes=11,no=12,missing=12
			11:[apparentTemperature<3.20000005] yes=23,no=24,missing=23
				23:[dewPoint<1.48000002] yes=45,no=46,missing=45
					45:leaf=0.107632399
					46:[cloudy<1] yes=87,no=88,missing=87
						87:leaf=-0.0108830016
						88:leaf=0.0100507978
				24:[windBearing<280] yes=47,no=48,missing=47
					47:leaf=0.24991487
					48:leaf=0.362588972
			12:[cloudCover<0.569999993] yes=25,no=26,missing=25
				25:[windGust<2.86999989] yes=49,no=50,missing=49
					49:[windSpeed<1.26999998] yes=89,no=90,missing=90
						89:leaf=0.0357468277
						90:leaf=-0.0402603187
					50:[windSpeed<2] yes=91,no=92,missing=91
						91:leaf=0.144417614
						92:leaf=0.0095581254
				26:[windGust<2.19000006] yes=51,no=52,missing=52
					51:[cloudCover<0.730000019] yes=93,no=94,missing=93
						93:leaf=0.339907229
						94:leaf=0.14369373
					52:[windBearing<216] yes=95,no=96,missing=95
						95:leaf=0.00335244089
						96:leaf=0.12579219
		6:[windBearing<209] yes=13,no=14,missing=13
			13:[windGust<17] yes=27,no=28,missing=28
				27:[apparentTemperature<6.94999981] yes=53,no=54,missing=53
					53:[windGust<7.75] yes=97,no=98,missing=97
						97:leaf=0.125354424
						98:leaf=0.0273292195
					54:[windSpeed<6.11999989] yes=99,no=100,missing=99
						99:leaf=-0.00224396656
						100:leaf=0.116031565
				28:[apparentTemperature<1.80999994] yes=55,no=56,missing=56
					55:[pressure<1013.06] yes=101,no=102,missing=101
						101:leaf=-0.0611001328
						102:leaf=0.0570423566
					56:[temperature<8.82999992] yes=103,no=104,missing=103
						103:leaf=0.504541337
						104:leaf=0.291229039
			14:[cloudCover<0.5] yes=29,no=30,missing=29
				29:[windGust<3.70000005] yes=57,no=58,missing=58
					57:[dewPoint<4.03000021] yes=105,no=106,missing=105
						105:leaf=0.179354027
						106:leaf=-0.0279627796
					58:[apparentTemperature<12.8699999] yes=107,no=108,missing=107
						107:leaf=-0.0535328686
						108:leaf=0.0217996854
				30:[humidity<0.860000014] yes=59,no=60,missing=59
					59:[hour_x<22] yes=109,no=110,missing=110
						109:leaf=0.0349224918
						110:leaf=0.17082572
					60:[dewPoint<11.2299995] yes=111,no=112,missing=112
						111:leaf=-0.0463769101
						112:leaf=0.19645685
booster[13]:
0:[weekday<1] yes=1,no=2,missing=2
	1:[pressure<1033.19995] yes=3,no=4,missing=4
		3:[hour_x<11] yes=7,no=8,missing=7
			7:[humidity<0.850000024] yes=15,no=16,missing=15
				15:[pressure<1022.03998] yes=31,no=32,missing=32
					31:[pressure<1004.08002] yes=55,no=56,missing=55
						55:leaf=0.198728681
						56:leaf=0.0518673733
					32:[windGust<11.9499998] yes=57,no=58,missing=58
						57:leaf=0.197535694
						58:leaf=0.472587556
				16:[dewPoint<9.06999969] yes=33,no=34,missing=33
					33:[uvIndex<0.5] yes=59,no=60,missing=60
						59:leaf=0.0476640165
						60:leaf=-0.0687991455
					34:leaf=0.211430907
			8:[pressure<1011.95001] yes=17,no=18,missing=17
				17:[pressure<1008.25] yes=35,no=36,missing=36
					35:[visibility<6.9000001] yes=61,no=62,missing=61
						61:leaf=0.345024675
						62:leaf=0.00689479802
					36:[hour_x<14] yes=63,no=64,missing=63
						63:leaf=-0.0818411559
						64:leaf=0.206717446
				18:[windBearing<38] yes=37,no=38,missing=37
					37:[hour_x<16] yes=65,no=66,missing=65
						65:leaf=-0.000249944424
						66:leaf=0.129622355
					38:[temperature<8.14000034] yes=67,no=68,missing=67
						67:leaf=-0.0367064774
						68:leaf=0.0194189176
		4:[uvIndex<1.5] yes=9,no=10,missing=10
			9:[cloudCover<0.649999976] yes=19,no=20,missing=19
				19:leaf=0.118623592
				20:leaf=0.22728835
			10:[cloudCover<0.810000002] yes=21,no=22,missing=21
				21:leaf=0.369027436
				22:leaf=0.175790548
	2:[apparentTemperature<5.76999998] yes=5,no=6,missing=6
		5:[temperature<8.77000046] yes=11,no=12,missing=11
			11:[windGust<9.40999985] yes=23,no=24,missing=24
				23:[uvIndex<2.5] yes=39,no=40,missing=40
					39:[windSpeed<3.36999989] yes=69,no=70,missing=69
						69:leaf=0.0567050949
						70:leaf=0.140918955
					40:[hour_x<12] yes=71,no=72,missing=71
						71:leaf=1.0015763
						72:leaf=0.0416986123
				24:[uvIndex<2.5] yes=41,no=42,missing=41
					41:[hour_x<9] yes=73,no=74,missing=74
						73:leaf=0.034716174
						74:leaf=-0.0153263481
					42:[apparentTemperature<2.06999993] yes=75,no=76,missing=75
						75:leaf=-0.00916430634
						76:leaf=0.472414315
			12:[humidity<0.720000029] yes=25,no=26,missing=25
				25:[cloudCover<0.340000004] yes=43,no=44,missing=44
					43:leaf=-0.128644526
					44:[temperature<9.51000023] yes=77,no=78,missing=77
						77:leaf=0.144775689
						78:leaf=0.00394049706
				26:[windSpeed<9.97000027] yes=45,no=46,missing=45
					45:[cloudy<1] yes=79,no=80,missing=80
						79:leaf=0.209852919
						80:leaf=-0.0945739001
					46:[windGust<15.9399996] yes=81,no=82,missing=81
						81:leaf=0.594226837
						82:leaf=0.364138216
		6:[windGust<17.7000008] yes=13,no=14,missing=13
			13:[temperature<7.94999981] yes=27,no=28,missing=28
				27:[hour_x<8] yes=47,no=48,missing=47
					47:[windGust<4.86000013] yes=83,no=84,missing=83
						83:leaf=0.318112254
						84:leaf=0.0147097725
					48:[humidity<0.769999981] yes=85,no=86,missing=85
						85:leaf=0.266481668
						86:leaf=0.0520137548
				28:[visibility<8.36999989] yes=49,no=50,missing=50
					49:[apparentTemperature<12.29] yes=87,no=88,missing=87
						87:leaf=0.0169200804
						88:leaf=0.483783722
					50:[dewPoint<2.05999994] yes=89,no=90,missing=90
						89:leaf=0.109700046
						90:leaf=-0.000937146542
			14:[dewPoint<6.55000019] yes=29,no=30,missing=29
				29:[hour_x<18] yes=51,no=52,missing=51
					51:[pressure<1003.23999] yes=91,no=92,missing=92
						91:leaf=0.0063023055
						92:leaf=-0.092663072
					52:leaf=0.146480307
				30:[dewPoint<8.64999962] yes=53,no=54,missing=53
					53:[windSpeed<18.5300007] yes=93,no=94,missing=93
						93:leaf=0.366598815
						94:leaf=-0.0012763933
					54:[apparentTemperature<12.1199999] yes=95,no=96,missing=95
						95:leaf=0.0219345745
						96:leaf=-0.0718371049
booster[14]:
0:[weekday<1] yes=1,no=2,missing=1
	1:[pressure<1033.19995] yes=3,no=4,missing=3
		3:[hour_x<11] yes=7,no=8,missing=8
			7:[humidity<0.850000024] yes=15,no=16,missing=15
				15:[pressure<1022.03998] yes=31,no=32,missing=32
					31:[pressure<1004.08002] yes=57,no=58,missing=57
						57:leaf=0.179261371
						58:leaf=0.046729099
					32:[cloudCover<0.639999986] yes=59,no=60,missing=60
						59:leaf=0.117449775
						60:leaf=0.264156848
				16:[dewPoint<9.06999969] yes=33,no=34,missing=33
					33:[uvIndex<0.5] yes=61,no=62,missing=62
						61:leaf=0.0429220609
						62:leaf=-0.0622468404
					34:leaf=0.191798031
			8:[pressure<1011.95001] yes=17,no=18,missing=17
				17:[dewPoint<5.53999996] yes=35,no=36,missing=35
					35:[windBearing<281] yes=63,no=64,missing=64
						63:leaf=0.0347901955
						64:leaf=0.172443599
					36:[dewPoint<5.96999979] yes=65,no=66,missing=65
						65:leaf=0.363363296
						66:leaf=0.0680453926
				18:[windBearing<58] yes=37,no=38,missing=38
					37:[hour_x<17] yes=67,no=68,missing=67
						67:leaf=-0.033007592
						68:leaf=0.0938690007
					38:[windBearing<85] yes=69,no=70,missing=69
						69:leaf=-0.0821129754
						70:leaf=0.00153054472
		4:[uvIndex<0.5] yes=9,no=10,missing=9
			9:[cloudCover<0.649999976] yes=19,no=20,missing=19
				19:leaf=0.107839502
				20:leaf=0.186149254
			10:[dewPoint<1.75999999] yes=21,no=22,missing=22
				21:[dewPoint<1.39999998] yes=39,no=40,missing=39
					39:leaf=0.263090193
					40:leaf=0.117479824
				22:leaf=0.384047717
	2:[apparentTemperature<5.76999998] yes=5,no=6,missing=5
		5:[temperature<8.60000038] yes=11,no=12,missing=12
			11:[windGust<9.40999985] yes=23,no=24,missing=23
				23:[uvIndex<2.5] yes=41,no=42,missing=41
					41:[visibility<10.7299995] yes=71,no=72,missing=72
						71:leaf=0.109552085
						72:leaf=0.0250256117
					42:leaf=0.767875135
				24:[uvIndex<2.5] yes=43,no=44,missing=43
					43:[hour_x<9] yes=73,no=74,missing=74
						73:leaf=0.0302914772
						74:leaf=-0.0171979424
					44:[apparentTemperature<2.06999993] yes=75,no=76,missing=75
						75:leaf=-0.00830517244
						76:leaf=0.430421919
			12:[dewPoint<4.76000023] yes=25,no=26,missing=26
				25:[windGust<6.32999992] yes=45,no=46,missing=45
					45:[hour_x<13] yes=77,no=78,missing=78
						77:leaf=0.715877652
						78:leaf=0.105483845
					46:[dewPoint<3.04999995] yes=79,no=80,missing=79
						79:leaf=-0.0464585349
						80:leaf=0.12329372
				26:[windSpeed<9.97000027] yes=47,no=48,missing=48
					47:[dewPoint<5.30999994] yes=81,no=82,missing=81
						81:leaf=0.16589053
						82:leaf=-0.00903356913
					48:[windGust<15.9399996] yes=83,no=84,missing=83
						83:leaf=0.538105607
						84:leaf=0.325276583
		6:[pressure<1018.32001] yes=13,no=14,missing=13
			13:[pressure<1014.09003] yes=27,no=28,missing=28
				27:[hour_x<8] yes=49,no=50,missing=49
					49:[precipIntensity<0.165099993] yes=85,no=86,missing=85
						85:leaf=0.0630322844
						86:leaf=0.277955741
					50:[hour_x<17] yes=87,no=88,missing=87
						87:leaf=-0.0558950268
						88:leaf=0.0437776521
				28:[windBearing<218] yes=51,no=52,missing=52
					51:[temperature<7.05000019] yes=89,no=90,missing=90
						89:leaf=0.269133419
						90:leaf=-0.00953420624
					52:[windSpeed<3.46000004] yes=91,no=92,missing=92
						91:leaf=-0.000632862735
						92:leaf=0.515440583
			14:[dewPoint<4.71000004] yes=29,no=30,missing=29
				29:[apparentTemperature<6.73999977] yes=53,no=54,missing=53
					53:[temperature<9.31000042] yes=93,no=94,missing=93
						93:leaf=0.0597373247
						94:leaf=0.412448972
					54:[temperature<8.67000008] yes=95,no=96,missing=96
						95:leaf=0.108822897
						96:leaf=-0.0102582322
				30:[dewPoint<10.8800001] yes=55,no=56,missing=56
					55:[humidity<0.620000005] yes=97,no=98,missing=97
						97:leaf=0.0522669964
						98:leaf=-0.0227682833
					56:[apparentTemperature<15.9499998] yes=99,no=100,missing=99
						99:leaf=0.162874743
						100:leaf=-0.0118490485
booster[15]:
0:[hour_x<9] yes=1,no=2,missing=1
	1:[pressure<1035.98999] yes=3,no=4,missing=3
		3:[pressure<1035.37] yes=7,no=8,missing=8
			7:[rain<1] yes=15,no=16,missing=15
				15:[weekday<1] yes=29,no=30,missing=30
					29:[pressure<1027.69995] yes=57,no=58,missing=57
						57:leaf=0.0635105222
						58:leaf=0.194833726
					30:[pressure<1028.81995] yes=59,no=60,missing=60
						59:leaf=0.0488621965
						60:leaf=-0.0271470938
				16:[dewPoint<5.42999983] yes=31,no=32,missing=31
					31:[pressure<999.140015] yes=61,no=62,missing=61
						61:leaf=0.157665879
						62:leaf=0.0391957797
					32:[apparentTemperature<6.78000021] yes=63,no=64,missing=63
						63:leaf=0.34397921
						64:leaf=0.124971367
			8:[temperature<7.92000008] yes=17,no=18,missing=17
				17:[humidity<0.870000005] yes=33,no=34,missing=33
					33:leaf=0.481210798
					34:[pressure<1035.65002] yes=65,no=66,missing=65
						65:leaf=-0.180758104
						66:leaf=0.333079219
				18:[pressure<1035.69995] yes=35,no=36,missing=35
					35:leaf=0.306192666
					36:[humidity<0.75999999] yes=67,no=68,missing=67
						67:leaf=-0.0429810546
						68:leaf=-0.222624853
		4:[humidity<0.819999993] yes=9,no=10,missing=9
			9:leaf=0.446434408
			10:[windBearing<247] yes=19,no=20,missing=20
				19:[apparentTemperature<0.129999995] yes=37,no=38,missing=37
					37:leaf=-0.0781770274
					38:[apparentTemperature<4.69999981] yes=69,no=70,missing=69
						69:leaf=-0.196112677
						70:leaf=-0.0746273547
				20:[hour_x<8] yes=39,no=40,missing=39
					39:leaf=-0.0955521092
					40:leaf=0.00633661775
	2:[windGust<3.02999997] yes=5,no=6,missing=6
		5:[cloudCover<0.569999993] yes=11,no=12,missing=12
			11:[windGust<2.86999989] yes=21,no=22,missing=21
				21:[windSpeed<1.26999998] yes=41,no=42,missing=41
					41:[temperature<9.39000034] yes=71,no=72,missing=71
						71:leaf=0.0612736009
						72:leaf=-0.0403661206
					42:[pressure<1020.96997] yes=73,no=74,missing=73
						73:leaf=-0.00881124195
						74:leaf=-0.0637303218
				22:[windBearing<94] yes=43,no=44,missing=44
					43:[apparentTemperature<1.88999999] yes=75,no=76,missing=75
						75:leaf=-0.0618805997
						76:leaf=0.00317617669
					44:[pressure<1026.27002] yes=77,no=78,missing=77
						77:leaf=0.151199445
						78:leaf=0.00361369853
			12:[pressure<1025.59998] yes=23,no=24,missing=24
				23:[windSpeed<1.15999997] yes=45,no=46,missing=45
					45:[apparentTemperature<8.09000015] yes=79,no=80,missing=79
						79:leaf=0.114529215
						80:leaf=-0.0356672667
					46:[pressure<1018.03003] yes=81,no=82,missing=81
						81:leaf=-0.00184813968
						82:leaf=-0.0594763421
				24:[apparentTemperature<2.16000009] yes=47,no=48,missing=47
					47:[apparentTemperature<2.03999996] yes=83,no=84,missing=84
						83:leaf=-0.0729554519
						84:leaf=0.0339193195
					48:[temperature<9.72000027] yes=85,no=86,missing=85
						85:leaf=0.220394537
						86:leaf=0.0578393526
		6:[humidity<0.829999983] yes=13,no=14,missing=13
			13:[temperature<9.60999966] yes=25,no=26,missing=26
				25:[temperature<9.31000042] yes=49,no=50,missing=50
					49:[windGust<5.61999989] yes=87,no=88,missing=87
						87:leaf=0.123761296
						88:leaf=0.0257048253
					50:[windBearing<146] yes=89,no=90,missing=90
						89:leaf=0.0159129407
						90:leaf=0.248287201
				26:[visibility<8.07999992] yes=51,no=52,missing=51
					51:[apparentTemperature<10.7799997] yes=91,no=92,missing=92
						91:leaf=-0.0107817575
						92:leaf=0.469163567
					52:[hour_x<18] yes=93,no=94,missing=93
						93:leaf=-0.00752101978
						94:leaf=0.0714674369
			14:[windGust<6.96000004] yes=27,no=28,missing=28
				27:[windSpeed<4.86999989] yes=53,no=54,missing=53
					53:[hour_x<14] yes=95,no=96,missing=95
						95:leaf=-0.0263468865
						96:leaf=0.0507598817
					54:[cloudCover<0.479999989] yes=97,no=98,missing=97
						97:leaf=0.0165821388
						98:leaf=0.340134233
				28:[weekday<1] yes=55,no=56,missing=56
					55:[windBearing<268] yes=99,no=100,missing=99
						99:leaf=0.0849666819
						100:leaf=-0.0514485016
					56:[dewPoint<11.2299995] yes=101,no=102,missing=101
						101:leaf=-0.0593520068
						102:leaf=0.136700079
booster[16]:
0:[weekday<1] yes=1,no=2,missing=2
	1:[pressure<1033.19995] yes=3,no=4,missing=3
		3:[dewPoint<-0.119999997] yes=7,no=8,missing=8
			7:[uvIndex<0.5] yes=15,no=16,missing=15
				15:[windBearing<255] yes=31,no=32,missing=31
					31:[apparentTemperature<5.13999987] yes=61,no=62,missing=61
						61:leaf=0.032569211
						62:leaf=0.14215444
					32:[humidity<0.800000012] yes=63,no=64,missing=63
						63:leaf=-0.0534780696
						64:leaf=0.00488914037
				16:[dewPoint<-0.349999994] yes=33,no=34,missing=33
					33:[pressure<1011.38] yes=65,no=66,missing=65
						65:leaf=-0.0223458838
						66:leaf=-0.072213985
					34:[hour_x<16] yes=67,no=68,missing=68
						67:leaf=0.0649316534
						68:leaf=-0.0257363673
			8:[windGust<6.57999992] yes=17,no=18,missing=18
				17:[windBearing<225] yes=35,no=36,missing=35
					35:[windBearing<61] yes=69,no=70,missing=70
						69:leaf=0.0596296899
						70:leaf=-0.0520281009
					36:[windBearing<277] yes=71,no=72,missing=71
						71:leaf=0.161597952
						72:leaf=0.0429577157
				18:[dewPoint<2.82999992] yes=37,no=38,missing=37
					37:[windGust<10.6999998] yes=73,no=74,missing=73
						73:leaf=0.118939772
						74:leaf=0.0226494446
					38:[pressure<1025.59998] yes=75,no=76,missing=75
						75:leaf=0.148861989
						76:leaf=0.00776750967
		4:[uvIndex<1.5] yes=9,no=10,missing=9
			9:[cloudCover<0.649999976] yes=19,no=20,missing=19
				19:[visibility<10.0299997] yes=39,no=40,missing=40
					39:[hour_x<1] yes=77,no=78,missing=77
						77:leaf=0.0477623008
						78:leaf=0.00227065082
					40:leaf=0.088066496
				20:[pressure<1034] yes=41,no=42,missing=41
					41:leaf=0.178029925
					42:[visibility<10.8100004] yes=79,no=80,missing=80
						79:leaf=0.137764037
						80:leaf=-0.00022149086
			10:[dewPoint<2.11999989] yes=21,no=22,missing=21
				21:[apparentTemperature<5.6500001] yes=43,no=44,missing=43
					43:leaf=0.0925882831
					44:leaf=0.247807249
				22:leaf=0.41968599
	2:[apparentTemperature<5.76999998] yes=5,no=6,missing=6
		5:[temperature<8.60000038] yes=11,no=12,missing=12
			11:[windGust<9.40999985] yes=23,no=24,missing=23
				23:[windSpeed<3.36999989] yes=45,no=46,missing=45
					45:[dewPoint<3.32999992] yes=81,no=82,missing=82
						81:leaf=0.0158051271
						82:leaf=0.124212779
					46:[windGust<5.76999998] yes=83,no=84,missing=83
						83:leaf=0.244435355
						84:leaf=0.0542895906
				24:[uvIndex<2.5] yes=47,no=48,missing=47
					47:[precipProbability<0.99000001] yes=85,no=86,missing=85
						85:leaf=-0.00846196339
						86:leaf=0.0402403362
					48:[apparentTemperature<2.06999993] yes=87,no=88,missing=87
						87:leaf=-0.00727834878
						88:leaf=0.390822381
			12:[dewPoint<4.76000023] yes=25,no=26,missing=26
				25:[windGust<6.32999992] yes=49,no=50,missing=49
					49:[hour_x<13] yes=89,no=90,missing=89
						89:leaf=0.655356109
						90:leaf=0.0931932479
					50:[windGust<17.3400002] yes=91,no=92,missing=91
						91:leaf=-0.0253143292
						92:leaf=0.124641255
				26:[windSpeed<9.97000027] yes=51,no=52,missing=52
					51:[dewPoint<5.30999994] yes=93,no=94,missing=93
						93:leaf=0.136236832
						94:leaf=-0.011371511
					52:[cloudCover<0.649999976] yes=95,no=96,missing=96
						95:leaf=0.0213618521
						96:leaf=0.367567867
		6:[windGust<17.7000008] yes=13,no=14,missing=13
			13:[temperature<7.94999981] yes=27,no=28,missing=28
				27:[windSpeed<2.46000004] yes=53,no=54,missing=53
					53:[pressure<1017.69] yes=97,no=98,missing=97
						97:leaf=0.192730308
						98:leaf=0.0324027166
					54:[windGust<4.73000002] yes=99,no=100,missing=99
						99:leaf=0.302421123
						100:leaf=-0.0105971461
				28:[hour_x<13] yes=55,no=56,missing=55
					55:[dewPoint<2.05999994] yes=101,no=102,missing=102
						101:leaf=0.760542095
						102:leaf=-0.0211038645
					56:[uvIndex<1.5] yes=103,no=104,missing=103
						103:leaf=-0.000164921687
						104:leaf=0.0619542673
			14:[pressure<1001.98999] yes=29,no=30,missing=29
				29:[apparentTemperature<10.8100004] yes=57,no=58,missing=57
					57:leaf=0.369387567
					58:[visibility<11.7200003] yes=105,no=106,missing=105
						105:leaf=5.03622978e-05
						106:leaf=0.219201371
				30:[hour_x<18] yes=59,no=60,missing=59
					59:[pressure<1003.23999] yes=107,no=108,missing=107
						107:leaf=-0.0357995965
						108:leaf=-0.0846970007
					60:leaf=0.162222445
booster[17]:
0:[hour_x<9] yes=1,no=2,missing=1
	1:[pressure<1035.98999] yes=3,no=4,missing=3
		3:[pressure<1035.37] yes=7,no=8,missing=8
			7:[pressure<1003.23999] yes=15,no=16,missing=15
				15:[dewPoint<3.48000002] yes=29,no=30,missing=29
					29:[apparentTemperature<-0.349999994] yes=57,no=58,missing=58
						57:leaf=0.0841851309
						58:leaf=0.0281073339
					30:[visibility<12.9200001] yes=59,no=60,missing=60
						59:leaf=0.126985431
						60:leaf=0.303645492
				16:[cloudCover<0.980000019] yes=31,no=32,missing=32
					31:[weekday<1] yes=61,no=62,missing=61
						61:leaf=0.0767422691
						62:leaf=0.0241928902
					32:[pressure<1024.29004] yes=63,no=64,missing=63
						63:leaf=0.263550252
						64:leaf=0.00390310818
			8:[temperature<7.92000008] yes=17,no=18,missing=17
				17:[humidity<0.870000005] yes=33,no=34,missing=33
					33:leaf=0.421736717
					34:[pressure<1035.65002] yes=65,no=66,missing=65
						65:leaf=-0.174076229
						66:leaf=0.289646834
				18:[pressure<1035.69995] yes=35,no=36,missing=35
					35:leaf=0.287186742
					36:[pressure<1035.77002] yes=67,no=68,missing=67
						67:leaf=-0.0523366332
						68:leaf=-0.208582923
		4:[humidity<0.819999993] yes=9,no=10,missing=9
			9:leaf=0.402950764
			10:[windBearing<249] yes=19,no=20,missing=20
				19:[apparentTemperature<0.129999995] yes=37,no=38,missing=37
					37:leaf=-0.0731872693
					38:[apparentTemperature<4.69999981] yes=69,no=70,missing=69
						69:leaf=-0.183861807
						70:leaf=-0.0969907567
				20:[hour_x<8] yes=39,no=40,missing=40
					39:leaf=-0.0836661011
					40:leaf=0.00439974666
	2:[windGust<3.02999997] yes=5,no=6,missing=6
		5:[cloudCover<0.569999993] yes=11,no=12,missing=11
			11:[windGust<2.86999989] yes=21,no=22,missing=21
				21:[windSpeed<1.26999998] yes=41,no=42,missing=42
					41:[temperature<9.39000034] yes=71,no=72,missing=71
						71:leaf=0.0528985336
						72:leaf=-0.0367633626
					42:[pressure<1020.96997] yes=73,no=74,missing=74
						73:leaf=-0.00837681442
						74:leaf=-0.0600905828
				22:[windBearing<94] yes=43,no=44,missing=44
					43:[apparentTemperature<1.88999999] yes=75,no=76,missing=75
						75:leaf=-0.059576828
						76:leaf=0.000656965363
					44:[pressure<1030.48999] yes=77,no=78,missing=77
						77:leaf=0.124160282
						78:leaf=-0.0133820921
			12:[pressure<1025.59998] yes=23,no=24,missing=23
				23:[windSpeed<1.15999997] yes=45,no=46,missing=46
					45:[apparentTemperature<5.86999989] yes=79,no=80,missing=79
						79:leaf=-0.0194971021
						80:leaf=0.102471352
					46:[weekday<1] yes=81,no=82,missing=82
						81:leaf=0.00756498892
						82:leaf=-0.0497050546
				24:[apparentTemperature<2.70000005] yes=47,no=48,missing=47
					47:[apparentTemperature<2.03999996] yes=83,no=84,missing=83
						83:leaf=-0.0686693117
						84:leaf=0.0439936034
					48:[temperature<9.72000027] yes=85,no=86,missing=85
						85:leaf=0.188119918
						86:leaf=0.0483151153
		6:[pressure<998.52002] yes=13,no=14,missing=13
			13:[apparentTemperature<-1.02999997] yes=25,no=26,missing=26
				25:[weekday<1] yes=49,no=50,missing=49
					49:leaf=0.122050576
					50:leaf=0.257639527
				26:[apparentTemperature<10.4200001] yes=51,no=52,missing=51
					51:[visibility<15.1400003] yes=87,no=88,missing=87
						87:leaf=-0.0501100235
						88:leaf=0.0381004661
					52:[hour_x<10] yes=89,no=90,missing=89
						89:leaf=0.225437507
						90:leaf=0.0874544829
			14:[apparentTemperature<5.92000008] yes=27,no=28,missing=27
				27:[windGust<5.61999989] yes=53,no=54,missing=53
					53:[uvIndex<1.5] yes=91,no=92,missing=92
						91:leaf=0.0650882348
						92:leaf=0.769476235
					54:[humidity<0.639999986] yes=93,no=94,missing=93
						93:leaf=-0.0225283168
						94:leaf=0.046398323
				28:[hour_x<13] yes=55,no=56,missing=56
					55:[dewPoint<2.00999999] yes=95,no=96,missing=96
						95:leaf=0.617277026
						96:leaf=-0.0315477028
					56:[windGust<6.69999981] yes=97,no=98,missing=98
						97:leaf=-0.00556991016
						98:leaf=0.0493019037
booster[18]:
0:[weekday<1] yes=1,no=2,missing=1
	1:[pressure<1033.19995] yes=3,no=4,missing=4
		3:[dewPoint<5.53999996] yes=7,no=8,missing=8
			7:[pressure<1024.08997] yes=15,no=16,missing=16
				15:[dewPoint<3.1400001] yes=31,no=32,missing=31
					31:[apparentTemperature<10.1599998] yes=59,no=60,missing=60
						59:leaf=-0.0061099804
						60:leaf=0.225182563
					32:[windBearing<262] yes=61,no=62,missing=61
						61:leaf=0.0356265157
						62:leaf=0.20577161
				16:[pressure<1025.59998] yes=33,no=34,missing=33
					33:[apparentTemperature<4.28000021] yes=63,no=64,missing=63
						63:leaf=0.280332774
						64:leaf=0.143220648
					34:[dewPoint<2.07999992] yes=65,no=66,missing=65
						65:leaf=0.105081461
						66:leaf=-0.0267812703
			8:[hour_x<17] yes=17,no=18,missing=18
				17:[windBearing<82] yes=35,no=36,missing=35
					35:[pressure<1010.16998] yes=67,no=68,missing=67
						67:leaf=-0.14453879
						68:leaf=-0.0442003421
					36:[cloudCover<0.529999971] yes=69,no=70,missing=69
						69:leaf=-0.146442086
						70:leaf=0.112948231
				18:[apparentTemperature<6.19000006] yes=37,no=38,missing=38
					37:[pressure<1009.88] yes=71,no=72,missing=71
						71:leaf=0.212838218
						72:leaf=0.0122611141
					38:leaf=0.384756446
		4:[uvIndex<0.5] yes=9,no=10,missing=10
			9:[windBearing<204] yes=19,no=20,missing=19
				19:leaf=0.135685369
				20:[hour_x<18] yes=39,no=40,missing=39
					39:[pressure<1034.08997] yes=73,no=74,missing=73
						73:leaf=0.109642901
						74:leaf=0.0430074856
					40:[humidity<0.769999981] yes=75,no=76,missing=75
						75:leaf=0.0126630235
						76:leaf=0.0648868084
			10:[dewPoint<1.75999999] yes=21,no=22,missing=22
				21:[dewPoint<1.39999998] yes=41,no=42,missing=41
					41:[visibility<10.8299999] yes=77,no=78,missing=77
						77:leaf=0.194993556
						78:leaf=0.102899492
					42:leaf=0.059444692
				22:leaf=0.277313471
	2:[apparentTemperature<5.76999998] yes=5,no=6,missing=6
		5:[temperature<8.67000008] yes=11,no=12,missing=12
			11:[windGust<9.40999985] yes=23,no=24,missing=23
				23:[uvIndex<2.5] yes=43,no=44,missing=43
					43:[cloudCover<0.119999997] yes=79,no=80,missing=79
						79:leaf=-0.0960459113
						80:leaf=0.0676148757
					44:[hour_x<12] yes=81,no=82,missing=81
						81:leaf=0.724470317
						82:leaf=-0.0149820568
				24:[uvIndex<2.5] yes=45,no=46,missing=45
					45:[hour_x<9] yes=83,no=84,missing=84
						83:leaf=0.0196744781
						84:leaf=-0.0177741796
					46:[visibility<6.80999994] yes=85,no=86,missing=86
						85:leaf=-0.0233108699
						86:leaf=0.334215492
			12:[dewPoint<4.76000023] yes=25,no=26,missing=26
				25:[cloudCover<0.340000004] yes=47,no=48,missing=47
					47:leaf=-0.119715631
					48:[windGust<18.2700005] yes=87,no=88,missing=87
						87:leaf=0.0352943353
						88:leaf=0.19570303
				26:[windSpeed<9.97000027] yes=49,no=50,missing=50
					49:[windGust<17.7000008] yes=89,no=90,missing=89
						89:leaf=-0.0380327404
						90:leaf=0.166263089
					50:[windGust<15.8000002] yes=91,no=92,missing=91
						91:leaf=0.435321003
						92:leaf=0.241014868
		6:[pressure<1018.32001] yes=13,no=14,missing=14
			13:[pressure<1014.09003] yes=27,no=28,missing=27
				27:[hour_x<8] yes=51,no=52,missing=52
					51:[visibility<12.75] yes=93,no=94,missing=93
						93:leaf=0.0577137247
						94:leaf=0.290340513
					52:[hour_x<17] yes=95,no=96,missing=95
						95:leaf=-0.0507451184
						96:leaf=0.0323068313
				28:[windBearing<219] yes=53,no=54,missing=53
					53:[cloudCover<0.720000029] yes=97,no=98,missing=97
						97:leaf=-0.0597207136
						98:leaf=0.113527708
					54:[windSpeed<3.46000004] yes=99,no=100,missing=99
						99:leaf=0.00232415204
						100:leaf=0.445348799
			14:[windGust<2.19000006] yes=29,no=30,missing=30
				29:[hour_x<22] yes=55,no=56,missing=56
					55:[dewPoint<4.94999981] yes=101,no=102,missing=101
						101:leaf=0.0198530313
						102:leaf=0.152946129
					56:leaf=0.222199038
				30:[dewPoint<4.13000011] yes=57,no=58,missing=58
					57:[windSpeed<5.26999998] yes=103,no=104,missing=103
						103:leaf=0.0162995514
						104:leaf=0.190808639
					58:[temperature<9.26000023] yes=105,no=106,missing=105
						105:leaf=-0.055239547
						106:leaf=-0.000725481426
booster[19]:
0:[weekday<1] yes=1,no=2,missing=2
	1:[pressure<1033.19995] yes=3,no=4,missing=3
		3:[dewPoint<-0.119999997] yes=7,no=8,missing=7
			7:[uvIndex<0.5] yes=15,no=16,missing=15
				15:[windBearing<255] yes=31,no=32,missing=32
					31:[apparentTemperature<5.13999987] yes=59,no=60,missing=59
						59:leaf=0.025212029
						60:leaf=0.133073136
					32:[pressure<1002.14001] yes=61,no=62,missing=62
						61:leaf=0.020299878
						62:leaf=-0.0437478609
				16:[dewPoint<-0.349999994] yes=33,no=34,missing=33
					33:[pressure<1011.38] yes=63,no=64,missing=63
						63:leaf=-0.01763965
						64:leaf=-0.0623056889
					34:[hour_x<16] yes=65,no=66,missing=65
						65:leaf=0.0607584231
						66:leaf=-0.0212051477
			8:[windGust<6.57999992] yes=17,no=18,missing=17
				17:[windBearing<225] yes=35,no=36,missing=35
					35:[windBearing<61] yes=67,no=68,missing=67
						67:leaf=0.0488289557
						68:leaf=-0.0485810414
					36:[windSpeed<2.88000011] yes=69,no=70,missing=69
						69:leaf=0.0230181441
						70:leaf=0.132335499
				18:[cloudCover<0.819999993] yes=37,no=38,missing=38
					37:[temperature<8.14000034] yes=71,no=72,missing=71
						71:leaf=0.0216607712
						72:leaf=0.0878802761
					38:[pressure<993.719971] yes=73,no=74,missing=73
						73:leaf=-0.0708482489
						74:leaf=0.163525477
		4:[uvIndex<0.5] yes=9,no=10,missing=9
			9:[windBearing<204] yes=19,no=20,missing=19
				19:leaf=0.122762956
				20:[hour_x<18] yes=39,no=40,missing=39
					39:[hour_x<2] yes=75,no=76,missing=75
						75:leaf=0.0598815046
						76:leaf=0.107589357
					40:[humidity<0.769999981] yes=77,no=78,missing=77
						77:leaf=0.011607782
						78:leaf=0.0596958473
			10:[dewPoint<1.75999999] yes=21,no=22,missing=21
				21:[dewPoint<1.39999998] yes=41,no=42,missing=41
					41:[windSpeed<0.560000002] yes=79,no=80,missing=80
						79:leaf=0.0723782554
						80:leaf=0.173659012
					42:leaf=0.0549863577
				22:leaf=0.252101988
	2:[apparentTemperature<5.76999998] yes=5,no=6,missing=6
		5:[temperature<8.60000038] yes=11,no=12,missing=11
			11:[windGust<9.40999985] yes=23,no=24,missing=24
				23:[cloudCover<0.140000001] yes=43,no=44,missing=43
					43:[dewPoint<1.07000005] yes=81,no=82,missing=81
						81:leaf=0.113351934
						82:leaf=-0.102919199
					44:[humidity<0.670000017] yes=83,no=84,missing=83
						83:leaf=0.31416598
						84:leaf=0.0580652617
				24:[precipIntensity<0.446999997] yes=45,no=46,missing=45
					45:[dewPoint<0.860000014] yes=85,no=86,missing=86
						85:leaf=0.0245518703
						86:leaf=-0.0171135552
					46:[hour_x<15] yes=87,no=88,missing=87
						87:leaf=0.0768715069
						88:leaf=-0.0575866699
			12:[dewPoint<4.76000023] yes=25,no=26,missing=26
				25:[windGust<6.32999992] yes=47,no=48,missing=47
					47:[hour_x<13] yes=89,no=90,missing=89
						89:leaf=0.54841733
						90:leaf=0.0667031184
					48:[dewPoint<3.04999995] yes=91,no=92,missing=91
						91:leaf=-0.0474727638
						92:leaf=0.0853700638
				26:[windSpeed<9.97000027] yes=49,no=50,missing=50
					49:[windGust<17.7000008] yes=93,no=94,missing=94
						93:leaf=0.0112363864
						94:leaf=0.152962044
					50:[windGust<15.6899996] yes=95,no=96,missing=95
						95:leaf=0.406830937
						96:leaf=0.222215876
		6:[pressure<1018.32001] yes=13,no=14,missing=14
			13:[pressure<1014.09003] yes=27,no=28,missing=28
				27:[hour_x<8] yes=51,no=52,missing=52
					51:[precipIntensity<0.165099993] yes=97,no=98,missing=97
						97:leaf=0.0366952643
						98:leaf=0.18767181
					52:[hour_x<17] yes=99,no=100,missing=99
						99:leaf=-0.045702517
						100:leaf=0.0291026328
				28:[apparentTemperature<11.5699997] yes=53,no=54,missing=54
					53:[dewPoint<5.46000004] yes=101,no=102,missing=102
						101:leaf=-0.0657857284
						102:leaf=0.125495985
					54:[pressure<1015.5] yes=103,no=104,missing=104
						103:leaf=0.146043912
						104:leaf=0.523275077
			14:[hour_x<18] yes=29,no=30,missing=29
				29:[windBearing<85] yes=55,no=56,missing=55
					55:[dewPoint<1.71000004] yes=105,no=106,missing=105
						105:leaf=-0.231696725
						106:leaf=-0.0490282103
					56:[windBearing<86] yes=107,no=108,missing=107
						107:leaf=0.592622399
						108:leaf=-0.0117682619
				30:[pressure<1031.59998] yes=57,no=58,missing=58
					57:[hour_x<21] yes=109,no=110,missing=109
						109:leaf=0.0431880467
						110:leaf=-0.0553534999
					58:[windBearing<227] yes=111,no=112,missing=112
						111:leaf=0.0300920643
						112:leaf=0.153578401
booster[20]:
0:[hour_x<9] yes=1,no=2,missing=1
	1:[pressure<1035.98999] yes=3,no=4,missing=3
		3:[pressure<1035.02002] yes=7,no=8,missing=7
			7:[pressure<1033.19995] yes=15,no=16,missing=15
				15:[cloudCover<0.140000001] yes=29,no=30,missing=29
					29:[dewPoint<1.55999994] yes=57,no=58,missing=58
						57:leaf=0.0227025095
						58:leaf=-0.133167192
					30:[cloudy<1] yes=59,no=60,missing=59
						59:leaf=0.0746627823
						60:leaf=0.0286871027
				16:[hour_x<7] yes=31,no=32,missing=32
					31:[weekday<1] yes=61,no=62,missing=61
						61:leaf=0.0547488108
						62:leaf=-0.120794654
					32:[windSpeed<4.21000004] yes=63,no=64,missing=63
						63:leaf=0.114418946
						64:leaf=-0.0382408611
			8:[dewPoint<4.59000015] yes=17,no=18,missing=17
				17:[visibility<15.1400003] yes=33,no=34,missing=33
					33:[hour_x<1] yes=65,no=66,missing=66
						65:leaf=-0.135819346
						66:leaf=0.243813068
					34:leaf=-0.204530194
				18:[apparentTemperature<5.3499999] yes=35,no=36,missing=35
					35:[apparentTemperature<5.17999983] yes=67,no=68,missing=67
						67:leaf=-0.0122684874
						68:leaf=0.0215412304
					36:leaf=-0.192418307
		4:[humidity<0.819999993] yes=9,no=10,missing=9
			9:leaf=0.360660255
			10:[windBearing<249] yes=19,no=20,missing=20
				19:[apparentTemperature<0.129999995] yes=37,no=38,missing=37
					37:leaf=-0.0773867294
					38:leaf=-0.169296682
				20:[hour_x<8] yes=39,no=40,missing=40
					39:leaf=-0.0839821473
					40:leaf=0.00753008714
	2:[humidity<0.829999983] yes=5,no=6,missing=6
		5:[temperature<9.68000031] yes=11,no=12,missing=11
			11:[windGust<5.61999989] yes=21,no=22,missing=21
				21:[windSpeed<5.26999998] yes=41,no=42,missing=42
					41:[pressure<1031.59998] yes=69,no=70,missing=69
						69:leaf=0.00516588241
						70:leaf=0.135017216
					42:[hour_x<13] yes=71,no=72,missing=71
						71:leaf=0.811175048
						72:leaf=-0.0710627213
				22:[temperature<9.21000004] yes=43,no=44,missing=44
					43:[cloudCover<0.769999981] yes=73,no=74,missing=74
						73:leaf=-0.0106698303
						74:leaf=0.048888281
					44:[windBearing<147] yes=75,no=76,missing=76
						75:leaf=0.00193493161
						76:leaf=0.170371845
			12:[visibility<8.23999977] yes=23,no=24,missing=23
				23:[pressure<1018.03003] yes=45,no=46,missing=45
					45:[cloudy<1] yes=77,no=78,missing=77
						77:leaf=-0.0930559188
						78:leaf=0.345390528
					46:[apparentTemperature<7.53999996] yes=79,no=80,missing=79
						79:leaf=0.0149965761
						80:leaf=-0.0941603482
				24:[hour_x<18] yes=47,no=48,missing=47
					47:[weekday<1] yes=81,no=82,missing=81
						81:leaf=0.0274446849
						82:leaf=-0.0175942313
					48:[dewPoint<10.8800001] yes=83,no=84,missing=83
						83:leaf=0.0341395251
						84:leaf=0.306792706
		6:[windGust<6.96000004] yes=13,no=14,missing=14
			13:[windSpeed<4.86999989] yes=25,no=26,missing=25
				25:[pressure<997.73999] yes=49,no=50,missing=49
					49:[apparentTemperature<-0.790000021] yes=85,no=86,missing=85
						85:leaf=0.10650605
						86:leaf=-0.0973636135
					50:[pressure<1011.70001] yes=87,no=88,missing=87
						87:leaf=0.0961223245
						88:leaf=-0.0070318128
				26:[cloudCover<0.479999989] yes=51,no=52,missing=51
					51:[hour_x<21] yes=89,no=90,missing=89
						89:leaf=0.040258944
						90:leaf=-0.0433840044
					52:leaf=0.269026399
			14:[weekday<1] yes=27,no=28,missing=27
				27:[humidity<0.899999976] yes=53,no=54,missing=54
					53:[windBearing<274] yes=91,no=92,missing=91
						91:leaf=0.0603969954
						92:leaf=-0.0432043485
					54:[apparentTemperature<-2.80999994] yes=93,no=94,missing=93
						93:leaf=-0.104768112
						94:leaf=-0.00884108525
				28:[dewPoint<11.2299995] yes=55,no=56,missing=55
					55:[windBearing<123] yes=95,no=96,missing=95
						95:leaf=-0.0169861577
						96:leaf=-0.0717256591
					56:[windGust<9.30000019] yes=97,no=98,missing=97
						97:leaf=0.245320201
						98:leaf=0.0307267066
booster[21]:
0:[windBearing<324] yes=1,no=2,missing=1
	1:[weekday<1] yes=3,no=4,missing=3
		3:[pressure<1024.08997] yes=7,no=8,missing=7
			7:[dewPoint<3.1400001] yes=13,no=14,missing=13
				13:[windBearing<318] yes=25,no=26,missing=25
					25:[windGust<16.4500008] yes=47,no=48,missing=48
						47:leaf=-0.00240305089
						48:leaf=-0.0696757063
					26:[hour_x<12] yes=49,no=50,missing=49
						49:leaf=0.0409563854
						50:leaf=0.195883885
				14:[hour_x<19] yes=27,no=28,missing=27
					27:[windBearing<73] yes=51,no=52,missing=51
						51:leaf=-0.0952592641
						52:leaf=0.0680906326
					28:[humidity<0.819999993] yes=53,no=54,missing=53
						53:leaf=0.297080845
						54:leaf=0.173468843
			8:[dewPoint<3.57999992] yes=15,no=16,missing=15
				15:[pressure<1024.42004] yes=29,no=30,missing=30
					29:[hour_x<12] yes=55,no=56,missing=55
						55:leaf=0.264616162
						56:leaf=0.0515197627
					30:[cloudCover<0.649999976] yes=57,no=58,missing=57
						57:leaf=0.0311544091
						58:leaf=0.122264028
				16:[pressure<1025.59998] yes=31,no=32,missing=31
					31:[windBearing<56] yes=59,no=60,missing=59
						59:leaf=0.0586828999
						60:leaf=0.13270244
					32:[pressure<1027.69995] yes=61,no=62,missing=61
						61:leaf=-0.0621737428
						62:leaf=-0.00104424451
		4:[apparentTemperature<5.76999998] yes=9,no=10,missing=9
			9:[temperature<8.60000038] yes=17,no=18,missing=17
				17:[windGust<5.76999998] yes=33,no=34,missing=33
					33:[temperature<8.02000046] yes=63,no=64,missing=64
						63:leaf=0.0503420532
						64:leaf=0.834534943
					34:[hour_x<22] yes=65,no=66,missing=65
						65:leaf=-0.00339953275
						66:leaf=0.117040671
				18:[dewPoint<4.42999983] yes=35,no=36,missing=35
					35:[uvIndex<2.5] yes=67,no=68,missing=68
						67:leaf=0.0108047975
						68:leaf=0.303431183
					36:[cloudy<1] yes=69,no=70,missing=69
						69:leaf=0.237976655
						70:leaf=0.0250923987
			10:[temperature<7.94999981] yes=19,no=20,missing=19
				19:[windSpeed<2.46000004] yes=37,no=38,missing=37
					37:[uvIndex<0.5] yes=71,no=72,missing=72
						71:leaf=0.058216162
						72:leaf=-0.122319959
					38:[windGust<4.73000002] yes=73,no=74,missing=73
						73:leaf=0.246696636
						74:leaf=-0.0122607937
				20:[pressure<1001.98999] yes=39,no=40,missing=39
					39:[windGust<17.6100006] yes=75,no=76,missing=75
						75:leaf=-0.0108922729
						76:leaf=0.130890727
					40:[hour_x<13] yes=77,no=78,missing=77
						77:leaf=-0.0166747887
						78:leaf=0.0120728379
	2:[humidity<0.569999993] yes=5,no=6,missing=5
		5:leaf=0.135748655
		6:[cloudCover<0.810000002] yes=11,no=12,missing=11
			11:[visibility<12.5200005] yes=21,no=22,missing=21
				21:[temperature<2.74000001] yes=41,no=42,missing=42
					41:[cloudCover<0.449999988] yes=79,no=80,missing=79
						79:leaf=-0.0326713473
						80:leaf=0.0661268234
					42:[windSpeed<5.05999994] yes=81,no=82,missing=82
						81:leaf=-0.0627188906
						82:leaf=-0.111671649
				22:[pressure<1004.54999] yes=43,no=44,missing=43
					43:[hour_x<2] yes=83,no=84,missing=83
						83:leaf=0.0476091318
						84:leaf=0.135233402
					44:[pressure<1035.98999] yes=85,no=86,missing=85
						85:leaf=-0.0566926599
						86:leaf=0.0226649195
			12:[dewPoint<3.20000005] yes=23,no=24,missing=23
				23:leaf=0.0545583442
				24:[apparentTemperature<10.1199999] yes=45,no=46,missing=45
					45:leaf=0.0168753248
					46:leaf=0.00489401398
booster[22]:
0:[hour_x<9] yes=1,no=2,missing=1
	1:[pressure<1035.98999] yes=3,no=4,missing=3
		3:[pressure<1035.37] yes=7,no=8,missing=7
			7:[pressure<1002.98999] yes=15,no=16,missing=15
				15:[precipProbability<0.270000011] yes=29,no=30,missing=29
					29:[hour_x<7] yes=57,no=58,missing=58
						57:leaf=0.0219363701
						58:leaf=0.0910825133
					30:[hour_x<2] yes=59,no=60,missing=59
						59:leaf=-0.0133139286
						60:leaf=0.138618112
				16:[cloudCover<0.980000019] yes=31,no=32,missing=32
					31:[hour_x<7] yes=61,no=62,missing=61
						61:leaf=0.0102174291
						62:leaf=0.0502157025
					32:[pressure<1016.94] yes=63,no=64,missing=63
						63:leaf=0.234331682
						64:leaf=0.0141867129
			8:[temperature<7.92000008] yes=17,no=18,missing=18
				17:[humidity<0.870000005] yes=33,no=34,missing=33
					33:[apparentTemperature<6.19000006] yes=65,no=66,missing=65
						65:leaf=0.345810831
						66:leaf=0.0970460698
					34:[windGust<3.96000004] yes=67,no=68,missing=67
						67:leaf=0.239728019
						68:leaf=-0.158446357
				18:[pressure<1035.69995] yes=35,no=36,missing=36
					35:leaf=0.252596319
					36:[windBearing<267] yes=69,no=70,missing=69
						69:leaf=-0.176350027
						70:leaf=-0.0158533808
		4:[humidity<0.819999993] yes=9,no=10,missing=9
			9:leaf=0.327780098
			10:[windBearing<249] yes=19,no=20,missing=19
				19:[dewPoint<1.09000003] yes=37,no=38,missing=37
					37:leaf=-0.0752231032
					38:leaf=-0.157896861
				20:[hour_x<8] yes=39,no=40,missing=39
					39:leaf=-0.08106713
					40:leaf=0.00424274197
	2:[humidity<0.829999983] yes=5,no=6,missing=6
		5:[temperature<9.68000031] yes=11,no=12,missing=11
			11:[windGust<7.75] yes=21,no=22,missing=22
				21:[windSpeed<5.28999996] yes=41,no=42,missing=41
					41:[pressure<1031.59998] yes=71,no=72,missing=71
						71:leaf=-0.0032433786
						72:leaf=0.10967388
					42:[cloudCover<0.409999996] yes=73,no=74,missing=73
						73:leaf=0.577127695
						74:leaf=0.126090929
				22:[hour_x<22] yes=43,no=44,missing=44
					43:[windSpeed<7.23000002] yes=75,no=76,missing=75
						75:leaf=-0.0322891399
						76:leaf=0.022934949
					44:[temperature<6.30000019] yes=77,no=78,missing=77
						77:leaf=0.299766749
						78:leaf=0.0238360222
			12:[visibility<8.23999977] yes=23,no=24,missing=23
				23:[pressure<1018.03003] yes=45,no=46,missing=45
					45:[hour_x<13] yes=79,no=80,missing=79
						79:leaf=-0.0843696594
						80:leaf=0.310199946
					46:[apparentTemperature<7.53999996] yes=81,no=82,missing=81
						81:leaf=0.0186609179
						82:leaf=-0.0837706178
				24:[dewPoint<5.42999983] yes=47,no=48,missing=47
					47:[windBearing<91] yes=83,no=84,missing=83
						83:leaf=-0.0801077113
						84:leaf=-0.00728505943
					48:[dewPoint<5.6500001] yes=85,no=86,missing=85
						85:leaf=0.10632652
						86:leaf=0.00637030089
		6:[windGust<6.96000004] yes=13,no=14,missing=14
			13:[windSpeed<4.86999989] yes=25,no=26,missing=25
				25:[pressure<997.73999] yes=49,no=50,missing=49
					49:[humidity<0.959999979] yes=87,no=88,missing=87
						87:leaf=-0.0956791788
						88:leaf=0.0766624287
					50:[pressure<1005.54999] yes=89,no=90,missing=89
						89:leaf=0.239428386
						90:leaf=0.00902665686
				26:[cloudCover<0.479999989] yes=51,no=52,missing=51
					51:[hour_x<21] yes=91,no=92,missing=92
						91:leaf=0.0376423299
						92:leaf=-0.0437319353
					52:leaf=0.240833357
			14:[weekday<1] yes=27,no=28,missing=28
				27:[humidity<0.899999976] yes=53,no=54,missing=53
					53:[windGust<7.44999981] yes=93,no=94,missing=93
						93:leaf=-0.073327601
						94:leaf=0.0496710055
					54:[apparentTemperature<-2.80999994] yes=95,no=96,missing=95
						95:leaf=-0.0898156837
						96:leaf=-0.00491524953
				28:[dewPoint<11.2299995] yes=55,no=56,missing=55
					55:[pressure<1010.90002] yes=97,no=98,missing=98
						97:leaf=-0.027439151
						98:leaf=-0.0754224211
					56:[windGust<9.30000019] yes=99,no=100,missing=99
						99:leaf=0.224728733
						100:leaf=0.0269223098
booster[23]:
0:[dewPoint<-0.349999994] yes=1,no=2,missing=1
	1:[windSpeed<0.920000017] yes=3,no=4,missing=4
		3:leaf=0.13422595
		4:[clear<1] yes=7,no=8,missing=8
			7:[apparentTemperature<5.13999987] yes=13,no=14,missing=14
				13:[cloudCover<0.400000006] yes=25,no=26,missing=25
					25:[dewPoint<-0.5] yes=47,no=48,missing=47
						47:leaf=0.0112190712
						48:leaf=0.101278141
					26:[hour_x<19] yes=49,no=50,missing=49
						49:leaf=-0.0468368493
						50:leaf=0.00225367164
				14:[temperature<9.21000004] yes=27,no=28,missing=27
					27:[windGust<2.5] yes=51,no=52,missing=52
						51:leaf=0.00915951747
						52:leaf=0.144649908
					28:[windSpeed<9.89999962] yes=53,no=54,missing=53
						53:leaf=0.00736039598
						54:leaf=-0.0755812973
			8:[windBearing<221] yes=15,no=16,missing=15
				15:leaf=-0.128564104
				16:[apparentTemperature<-2.1099999] yes=29,no=30,missing=30
					29:leaf=-0.0169193354
					30:[windGust<3] yes=55,no=56,missing=55
						55:leaf=-0.0652471706
						56:leaf=-0.0345449299
	2:[weekday<1] yes=5,no=6,missing=5
		5:[pressure<1009.45001] yes=9,no=10,missing=10
			9:[windGust<7.5999999] yes=17,no=18,missing=17
				17:[hour_x<19] yes=31,no=32,missing=31
					31:[apparentTemperature<3.66000009] yes=57,no=58,missing=57
						57:leaf=-0.0302007832
						58:leaf=-0.112573802
					32:[dewPoint<2.99000001] yes=59,no=60,missing=59
						59:leaf=-0.0513027906
						60:leaf=0.204824403
				18:[temperature<8.46000004] yes=33,no=34,missing=33
					33:[humidity<0.779999971] yes=61,no=62,missing=62
						61:leaf=-0.12362849
						62:leaf=0.0244679172
					34:[dewPoint<4.38000011] yes=63,no=64,missing=63
						63:leaf=0.210104987
						64:leaf=0.0763400868
			10:[pressure<1011.95001] yes=19,no=20,missing=19
				19:[hour_x<14] yes=35,no=36,missing=35
					35:[windBearing<89] yes=65,no=66,missing=66
						65:leaf=-0.0970780477
						66:leaf=-0.224899366
					36:[windBearing<77] yes=67,no=68,missing=67
						67:leaf=0.257786065
						68:leaf=0.116679721
				20:[hour_x<13] yes=37,no=38,missing=37
					37:[windBearing<318] yes=69,no=70,missing=69
						69:leaf=0.0970596597
						70:leaf=-0.0215394311
					38:[pressure<1033.19995] yes=71,no=72,missing=71
						71:leaf=-0.0192918982
						72:leaf=0.081967853
		6:[apparentTemperature<5.76999998] yes=11,no=12,missing=12
			11:[temperature<8.77000046] yes=21,no=22,missing=22
				21:[windGust<5.76999998] yes=39,no=40,missing=39
					39:[windSpeed<5.11000013] yes=73,no=74,missing=73
						73:leaf=0.0394989662
						74:leaf=0.47617498
					40:[hour_x<22] yes=75,no=76,missing=75
						75:leaf=-0.00391656812
						76:leaf=0.0901089832
				22:[dewPoint<3.88000011] yes=41,no=42,missing=42
