booster[0]:
0:[hour_x<9] yes=1,no=2,missing=1
	1:[windGust<11.0699997] yes=3,no=4,missing=3
		3:[hour_x<5] yes=7,no=8,missing=7
			7:[pressure<1032.88] yes=15,no=16,missing=15
				15:[windSpeed<2.55999994] yes=31,no=32,missing=31
					31:[dewPoint<0.560000002] yes=61,no=62,missing=61
						61:leaf=0.557500005
						62:leaf=0.193656728
					32:[windBearing<78] yes=63,no=64,missing=63
						63:leaf=1.12352943
						64:leaf=0.549834967
				16:[windGust<3.69000006] yes=33,no=34,missing=33
					33:leaf=0.75333333
					34:[humidity<0.860000014] yes=65,no=66,missing=65
						65:leaf=0.905000031
						66:leaf=1.77407396
			8:[visibility<3.69000006] yes=17,no=18,missing=17
				17:[temperature<9.14000034] yes=35,no=36,missing=35
					35:[humidity<0.959999979] yes=67,no=68,missing=67
						67:leaf=0.143749997
						68:leaf=0.075000003
					36:[hour_x<8] yes=69,no=70,missing=69
						69:leaf=0.0333333351
						70:leaf=-0.0250000004
				18:[hour_x<8] yes=37,no=38,missing=37
					37:[pressure<1035.12] yes=71,no=72,missing=71
						71:leaf=1.10367894
						72:leaf=1.75312507
					38:[windGust<3.5999999] yes=73,no=74,missing=73
						73:leaf=1.09500003
						74:leaf=0.60504204
		4:[pressure<1021.16998] yes=9,no=10,missing=9
			9:[dewPoint<1.13] yes=19,no=20,missing=19
				19:[windSpeed<7.17999983] yes=39,no=40,missing=39
					39:[weekday<1] yes=75,no=76,missing=75
						75:leaf=1.36190474
						76:leaf=2.02923083
					40:[temperature<1.50999999] yes=77,no=78,missing=77
						77:leaf=0.280000001
						78:leaf=1.38900006
				20:[windGust<16.9300003] yes=41,no=42,missing=41
					41:[precipProbability<0.639999986] yes=79,no=80,missing=79
						79:leaf=0.78687501
						80:leaf=1.30706525
					42:[apparentTemperature<-3.94000006] yes=81,no=82,missing=81
						81:leaf=-0.0400000028
						82:leaf=1.62624109
			10:[apparentTemperature<-1.36000001] yes=21,no=22,missing=21
				21:[dewPoint<0.560000002] yes=43,no=44,missing=43
					43:leaf=2.00588226
					44:leaf=0.225000009
				22:[windBearing<206] yes=45,no=46,missing=45
					45:[pressure<1025.04004] yes=83,no=84,missing=83
						83:leaf=0.358730167
						84:leaf=0.0874999985
					46:[hour_x<4] yes=85,no=86,missing=85
						85:leaf=0.461538464
						86:leaf=1.57500005
	2:[temperature<9.85999966] yes=5,no=6,missing=5
		5:[apparentTemperature<-0.0299999993] yes=11,no=12,missing=11
			11:[pressure<1004.29999] yes=23,no=24,missing=23
				23:[apparentTemperature<-0.529999971] yes=47,no=48,missing=47
					47:[weekday<1] yes=87,no=88,missing=87
						87:leaf=1.29062498
						88:leaf=2.03958344
					48:[weekday<1] yes=89,no=90,missing=89
						89:leaf=1.19500005
						90:leaf=0.412499994
				24:[apparentTemperature<-0.529999971] yes=49,no=50,missing=49
					49:[pressure<1007.06] yes=91,no=92,missing=91
						91:leaf=0.0538461581
						92:leaf=0.412499994
					50:[dewPoint<0.819999993] yes=93,no=94,missing=93
						93:leaf=0.137500003
						94:leaf=0.965624988
			12:[dewPoint<8.06000042] yes=25,no=26,missing=25
				25:[uvIndex<1.5] yes=51,no=52,missing=51
					51:[pressure<1032.27002] yes=95,no=96,missing=95
						95:leaf=0.381576657
						96:leaf=0.752430558
					52:[windSpeed<3.46000004] yes=97,no=98,missing=97
						97:leaf=1.3191781
						98:leaf=0.497270107
				26:[pressure<1009.95001] yes=53,no=54,missing=53
					53:[apparentTemperature<7.78000021] yes=99,no=100,missing=99
						99:leaf=0.174999997
						100:leaf=-0.0125000002
					54:[temperature<9.77000046] yes=101,no=102,missing=101
						101:leaf=1.62187505
						102:leaf=0.6875
		6:[pressure<1001.83002] yes=13,no=14,missing=13
			13:[visibility<11.8400002] yes=27,no=28,missing=27
				27:[apparentTemperature<8.71000004] yes=55,no=56,missing=55
					55:leaf=0.474999994
					56:leaf=1.70694447
				28:leaf=-0.0400000028
			14:[windBearing<82] yes=29,no=30,missing=29
				29:[cloudCover<0.680000007] yes=57,no=58,missing=57
					57:[windBearing<76] yes=103,no=104,missing=103
						103:leaf=0.0726190433
						104:leaf=0.427272767
					58:[pressure<1011.75] yes=105,no=106,missing=105
						105:leaf=0.180357143
						106:leaf=0.726530612
				30:[windGust<4.57999992] yes=59,no=60,missing=59
					59:[hour_x<14] yes=107,no=108,missing=107
						107:leaf=0.461274534
						108:leaf=0.10854701
					60:[hour_x<22] yes=109,no=110,missing=109
						109:leaf=0.0647189394
						110:leaf=0.265277773
booster[1]:
0:[hour_x<9] yes=1,no=2,missing=2
	1:[windGust<11.0699997] yes=3,no=4,missing=3
		3:[hour_x<5] yes=7,no=8,missing=7
			7:[pressure<1033.12] yes=15,no=16,missing=15
				15:[windSpeed<2.55999994] yes=31,no=32,missing=32
					31:[dewPoint<0.560000002] yes=59,no=60,missing=60
						59:leaf=0.504537523
						60:leaf=0.174435541
					32:[windBearing<78] yes=61,no=62,missing=62
						61:leaf=1.01337945
						62:leaf=0.498676866
				16:[windGust<3.69000006] yes=33,no=34,missing=34
					33:leaf=0.679674089
					34:[humidity<0.870000005] yes=63,no=64,missing=63
						63:leaf=0.876634896
						64:leaf=1.65290129
			8:[visibility<3.69000006] yes=17,no=18,missing=18
				17:[temperature<9.14000034] yes=35,no=36,missing=36
					35:[apparentTemperature<7.53000021] yes=65,no=66,missing=66
						65:leaf=0.127620205
						66:leaf=0.0534375384
					36:[hour_x<8] yes=67,no=68,missing=68
						67:leaf=0.03111111
						68:leaf=-0.022916697
				18:[hour_x<8] yes=37,no=38,missing=37
					37:[weekday<1] yes=69,no=70,missing=70
						69:leaf=0.670177639
						70:leaf=1.18471634
					38:[cloudCover<0.430000007] yes=71,no=72,missing=72
						71:leaf=0.919782162
						72:leaf=0.514900863
		4:[pressure<1021.16998] yes=9,no=10,missing=9
			9:[dewPoint<3.48000002] yes=19,no=20,missing=19
				19:[weekday<1] yes=39,no=40,missing=40
					39:[pressure<1003.53998] yes=73,no=74,missing=74
						73:leaf=1.22717726
						74:leaf=-0.0230590142
					40:[pressure<1018.09998] yes=75,no=76,missing=75
						75:leaf=1.61742651
						76:leaf=1.01431715
				20:[visibility<6.01999998] yes=41,no=42,missing=41
					41:[pressure<1000.62] yes=77,no=78,missing=78
						77:leaf=-0.149352193
						78:leaf=0.765838861
					42:[temperature<6.26000023] yes=79,no=80,missing=79
						79:leaf=0.163373336
						80:leaf=1.26914299
			10:[apparentTemperature<-1.36000001] yes=21,no=22,missing=21
				21:[dewPoint<0.560000002] yes=43,no=44,missing=43
					43:leaf=1.81709349
					44:leaf=0.213750005
				22:[windBearing<206] yes=45,no=46,missing=45
					45:[pressure<1025.04004] yes=81,no=82,missing=81
						81:leaf=0.323426574
						82:leaf=0.0791875049
					46:[hour_x<4] yes=83,no=84,missing=83
						83:leaf=0.418934911
						84:leaf=1.44375002
	2:[temperature<9.85999966] yes=5,no=6,missing=6
		5:[apparentTemperature<0.109999999] yes=11,no=12,missing=11
			11:[pressure<1004.29999] yes=23,no=24,missing=23
				23:[apparentTemperature<-0.219999999] yes=47,no=48,missing=47
					47:[weekday<1] yes=85,no=86,missing=86
						85:leaf=1.17945933
						86:leaf=1.80670965
					48:[weekday<1] yes=87,no=88,missing=87
						87:leaf=0.943210602
						88:leaf=0.168236956
				24:[apparentTemperature<-0.75999999] yes=49,no=50,missing=50
					49:[pressure<1007.06] yes=89,no=90,missing=89
						89:leaf=0.00756412977
						90:leaf=0.372187495
					50:[dewPoint<0.819999993] yes=91,no=92,missing=91
						91:leaf=0.244201347
						92:leaf=0.880899429
			12:[dewPoint<8.06000042] yes=25,no=26,missing=25
				25:[uvIndex<1.5] yes=51,no=52,missing=51
					51:[hour_x<22] yes=93,no=94,missing=93
						93:leaf=0.322291672
						94:leaf=0.58791256
					52:[windSpeed<3.46000004] yes=95,no=96,missing=95
						95:leaf=1.1890676
						96:leaf=0.447686017
				26:[pressure<1009.95001] yes=53,no=54,missing=53
					53:[apparentTemperature<7.78000021] yes=97,no=98,missing=98
						97:leaf=0.166250005
						98:leaf=-0.0115626631
					54:[humidity<0.930000007] yes=99,no=100,missing=100
						99:leaf=0.843883991
						100:leaf=1.55028856
		6:[pressure<1001.83002] yes=13,no=14,missing=14
			13:[visibility<11.8400002] yes=27,no=28,missing=27
				27:leaf=1.52373505
				28:leaf=-0.0368000008
			14:[windBearing<82] yes=29,no=30,missing=30
				29:[cloudCover<0.680000007] yes=55,no=56,missing=55
					55:[windBearing<76] yes=101,no=102,missing=102
						101:leaf=0.0655300543
						102:leaf=0.38842988
					56:[pressure<1011.75] yes=103,no=104,missing=103
						103:leaf=0.162965566
						104:leaf=0.655360281
				30:[windGust<4.57999992] yes=57,no=58,missing=58
					57:[hour_x<14] yes=105,no=106,missing=105
						105:leaf=0.415599316
						106:leaf=0.097785078
					58:[hour_x<22] yes=107,no=108,missing=107
						107:leaf=0.0582562499
						108:leaf=0.239486888
booster[2]:
0:[hour_x<9] yes=1,no=2,missing=2
	1:[windGust<9.93999958] yes=3,no=4,missing=3
		3:[pressure<1034.22998] yes=7,no=8,missing=8
			7:[dewPoint<1.13] yes=15,no=16,missing=15
				15:[hour_x<5] yes=29,no=30,missing=30
					29:[visibility<9.27000046] yes=57,no=58,missing=57
						57:leaf=0.0378319286
						58:leaf=0.59844929
					30:[pressure<1024.72998] yes=59,no=60,missing=59
						59:leaf=1.43270874
						60:leaf=0.790578723
				16:[pressure<1010.39001] yes=31,no=32,missing=31
					31:[windGust<7.25] yes=61,no=62,missing=61
						61:leaf=0.0552988648
						62:leaf=0.385447502
					32:[pressure<1013.65002] yes=63,no=64,missing=63
						63:leaf=1.73011327
						64:leaf=0.464298218
			8:[windGust<5.69999981] yes=17,no=18,missing=17
				17:[dewPoint<2.66000009] yes=33,no=34,missing=34
					33:[windGust<3.98000002] yes=65,no=66,missing=65
						65:leaf=0.562958896
						66:leaf=1.44880593
					34:[temperature<7.94000006] yes=67,no=68,missing=67
						67:leaf=1.4737072
						68:leaf=0.635881364
				18:[humidity<0.839999974] yes=35,no=36,missing=35
					35:leaf=-0.134995282
					36:[temperature<6.15999985] yes=69,no=70,missing=70
						69:leaf=0.669649065
						70:leaf=0.349832386
		4:[pressure<1021.16998] yes=9,no=10,missing=9
			9:[dewPoint<1.13] yes=19,no=20,missing=19
				19:[windSpeed<7.17999983] yes=37,no=38,missing=37
					37:[windSpeed<3.86999989] yes=71,no=72,missing=72
						71:leaf=0.110161021
						72:leaf=1.57331216
					38:[temperature<1.50999999] yes=73,no=74,missing=73
						73:leaf=0.176455081
						74:leaf=1.11179924
				20:[windBearing<74] yes=39,no=40,missing=39
					39:[weekday<1] yes=75,no=76,missing=75
						75:leaf=-0.0842545256
						76:leaf=0.125099316
					40:[visibility<6.71000004] yes=77,no=78,missing=78
						77:leaf=0.59625721
						78:leaf=1.14709592
			10:[apparentTemperature<0.680000007] yes=21,no=22,missing=21
				21:[dewPoint<0.560000002] yes=41,no=42,missing=41
					41:leaf=1.71380675
					42:leaf=0.20306249
				22:[windBearing<206] yes=43,no=44,missing=43
					43:[cloudCover<0.970000029] yes=79,no=80,missing=79
						79:leaf=0.188166007
						80:leaf=1.15040457
					44:[cloudCover<0.790000021] yes=81,no=82,missing=81
						81:leaf=0.827351213
						82:leaf=0.0516272187
	2:[apparentTemperature<10.0200005] yes=5,no=6,missing=6
		5:[apparentTemperature<0.109999999] yes=11,no=12,missing=11
			11:[pressure<1004.29999] yes=23,no=24,missing=23
				23:[apparentTemperature<-0.529999971] yes=45,no=46,missing=45
					45:[weekday<1] yes=83,no=84,missing=84
						83:leaf=1.05905461
						84:leaf=1.67098141
					46:[weekday<1] yes=85,no=86,missing=86
						85:leaf=1.00706899
						86:leaf=0.250328064
				24:[apparentTemperature<-0.75999999] yes=47,no=48,missing=47
					47:[hour_x<11] yes=87,no=88,missing=87
						87:leaf=0.0398027338
						88:leaf=0.347835332
					48:[dewPoint<0.819999993] yes=89,no=90,missing=89
						89:leaf=0.223851308
						90:leaf=0.797445834
			12:[hour_x<22] yes=25,no=26,missing=26
				25:[uvIndex<1.5] yes=49,no=50,missing=49
					49:[weekend<1] yes=91,no=92,missing=92
						91:leaf=0.205151752
						92:leaf=0.490543097
					50:[windSpeed<3.46000004] yes=93,no=94,missing=94
						93:leaf=1.05564117
						94:leaf=0.39729932
				26:[windBearing<141] yes=51,no=52,missing=52
					51:[dewPoint<7.09000015] yes=95,no=96,missing=95
						95:leaf=0.26230067
						96:leaf=1.45136333
					52:[precipIntensity<1.61039996] yes=97,no=98,missing=97
						97:leaf=0.804610848
						98:leaf=-0.132254034
		6:[pressure<989.859985] yes=13,no=14,missing=14
			13:leaf=1.43289995
			14:[windBearing<82] yes=27,no=28,missing=28
				27:[dewPoint<5.36999989] yes=53,no=54,missing=53
					53:[weekday<1] yes=99,no=100,missing=100
						99:leaf=0.264195055
						100:leaf=-0.0555798225
					54:[cloudCover<0.689999998] yes=101,no=102,missing=101
						101:leaf=0.161384389
						102:leaf=0.686121106
				28:[windGust<4.57999992] yes=55,no=56,missing=56
					55:[hour_x<14] yes=103,no=104,missing=104
						103:leaf=0.355554312
						104:leaf=0.0853545889
					56:[pressure<1001.83002] yes=105,no=106,missing=106
						105:leaf=0.653846443
						106:leaf=0.0554008447
booster[3]:
0:[hour_x<9] yes=1,no=2,missing=1
	1:[windGust<11.0699997] yes=3,no=4,missing=4
		3:[hour_x<5] yes=7,no=8,missing=7
			7:[pressure<1028.93994] yes=15,no=16,missing=15
				15:[dewPoint<8.06000042] yes=29,no=30,missing=29
					29:[windGust<7.25] yes=57,no=58,missing=57
						57:leaf=0.165320203
						58:leaf=0.498017371
					30:[apparentTemperature<7.34000015] yes=59,no=60,missing=59
						59:leaf=1.49689043
						60:leaf=-0.0810248032
				16:[windBearing<284] yes=31,no=32,missing=31
					31:[humidity<0.889999986] yes=61,no=62,missing=61
						61:leaf=0.631813586
						62:leaf=1.0011183
					32:[windSpeed<2.50999999] yes=63,no=64,missing=63
						63:leaf=-0.031844832
						64:leaf=0.00627171993
			8:[pressure<1023.02002] yes=17,no=18,missing=17
				17:[windGust<8.60999966] yes=33,no=34,missing=33
					33:[cloudCover<0.819999993] yes=65,no=66,missing=65
						65:leaf=0.00808116794
						66:leaf=0.515597403
					34:[dewPoint<6.25] yes=67,no=68,missing=67
						67:leaf=0.696142375
						68:leaf=1.68872094
				18:[uvIndex<0.5] yes=35,no=36,missing=35
					35:[windGust<2.3599999] yes=69,no=70,missing=69
						69:leaf=0.247129515
						70:leaf=1.04363728
					36:[windSpeed<2.8599999] yes=71,no=72,missing=71
						71:leaf=0.594399214
						72:leaf=0.113278151
		4:[pressure<1021.16998] yes=9,no=10,missing=9
			9:[dewPoint<3.48000002] yes=19,no=20,missing=19
				19:[weekday<1] yes=37,no=38,missing=38
					37:[pressure<1003.53998] yes=73,no=74,missing=74
						73:leaf=0.97605145
						74:leaf=-0.109086864
					38:[windBearing<255] yes=75,no=76,missing=76
						75:leaf=1.01427782
						76:leaf=1.46741664
				20:[visibility<6.01999998] yes=39,no=40,missing=39
					39:[pressure<1000.62] yes=77,no=78,missing=78
						77:leaf=-0.191413864
						78:leaf=0.656871259
					40:[temperature<6.26000023] yes=79,no=80,missing=79
						79:leaf=0.0454312898
						80:leaf=1.0310725
			10:[apparentTemperature<-1.36000001] yes=21,no=22,missing=21
				21:[dewPoint<0.560000002] yes=41,no=42,missing=41
					41:leaf=1.48477352
					42:leaf=0.192909375
				22:[windBearing<206] yes=43,no=44,missing=43
					43:[pressure<1025.04004] yes=81,no=82,missing=81
						81:leaf=0.273079365
						82:leaf=0.0537889116
					44:[dewPoint<6.25] yes=83,no=84,missing=84
						83:leaf=1.25449157
						84:leaf=0.333728641
	2:[temperature<9.85999966] yes=5,no=6,missing=6
		5:[apparentTemperature<0.109999999] yes=11,no=12,missing=12
			11:[pressure<1004.29999] yes=23,no=24,missing=24
				23:[apparentTemperature<-0.529999971] yes=45,no=46,missing=45
					45:[weekday<1] yes=85,no=86,missing=85
						85:leaf=0.959768593
						86:leaf=1.51084459
					46:[weekday<1] yes=87,no=88,missing=87
						87:leaf=0.915517151
						88:leaf=0.229467466
				24:[apparentTemperature<-0.75999999] yes=47,no=48,missing=47
					47:[pressure<1007.06] yes=89,no=90,missing=89
						89:leaf=0.00322201266
						90:leaf=0.303921878
					48:[humidity<0.75999999] yes=91,no=92,missing=91
						91:leaf=0.0859815404
						92:leaf=0.695396364
			12:[dewPoint<8.06000042] yes=25,no=26,missing=26
				25:[uvIndex<1.5] yes=49,no=50,missing=49
					49:[pressure<1032.27002] yes=93,no=94,missing=93
						93:leaf=0.271501631
						94:leaf=0.588586986
					50:[windSpeed<3.46000004] yes=95,no=96,missing=96
						95:leaf=0.967671394
						96:leaf=0.363430262
				26:[pressure<1009.95001] yes=51,no=52,missing=52
					51:[apparentTemperature<7.78000021] yes=97,no=98,missing=97
						97:leaf=0.14767991
						98:leaf=-0.0260816813
					52:[temperature<9.77000046] yes=99,no=100,missing=99
						99:leaf=1.2561872
						100:leaf=0.542848766
		6:[pressure<989.859985] yes=13,no=14,missing=14
			13:leaf=1.29066181
			14:[windBearing<82] yes=27,no=28,missing=28
				27:[dewPoint<5.3499999] yes=53,no=54,missing=53
					53:[weekday<1] yes=101,no=102,missing=101
						101:leaf=0.228994802
						102:leaf=-0.051339753
					54:[pressure<1011.75] yes=103,no=104,missing=103
						103:leaf=0.0567956567
						104:leaf=0.537754834
				28:[windGust<4.30000019] yes=55,no=56,missing=56
					55:[hour_x<13] yes=105,no=106,missing=105
						105:leaf=0.433569193
						106:leaf=0.0849178359
					56:[pressure<1002.31] yes=107,no=108,missing=108
						107:leaf=0.535025001
						108:leaf=0.0552118681
booster[4]:
0:[hour_x<9] yes=1,no=2,missing=1
	1:[windGust<11.0699997] yes=3,no=4,missing=4
		3:[visibility<3.51999998] yes=7,no=8,missing=7
			7:[cloudCover<0.930000007] yes=15,no=16,missing=16
				15:[temperature<9.14000034] yes=31,no=32,missing=31
					31:[cloudCover<0.819999993] yes=59,no=60,missing=59
						59:leaf=0.0933192894
						60:leaf=0.0607138686
					32:[hour_x<8] yes=61,no=62,missing=61
						61:leaf=0.0248116981
						62:leaf=-0.0262886137
				16:leaf=-0.170997947
			8:[hour_x<5] yes=17,no=18,missing=17
				17:[pressure<1032.88] yes=33,no=34,missing=33
					33:[humidity<0.949999988] yes=63,no=64,missing=63
						63:leaf=0.326621532
						64:leaf=1.19421029
					34:[windGust<3.69000006] yes=65,no=66,missing=66
						65:leaf=0.462800026
						66:leaf=0.927140653
				18:[humidity<0.850000024] yes=35,no=36,missing=36
					35:[pressure<1023.02002] yes=67,no=68,missing=67
						67:leaf=0.119731203
						68:leaf=0.667644918
					36:[pressure<1006.84003] yes=69,no=70,missing=70
						69:leaf=-0.0835555494
						70:leaf=0.8687253
		4:[pressure<1021.16998] yes=9,no=10,missing=9
			9:[windGust<18.9099998] yes=19,no=20,missing=20
				19:[dewPoint<1.13] yes=37,no=38,missing=37
					37:[temperature<1.50999999] yes=71,no=72,missing=71
						71:leaf=0.0811952427
						72:leaf=1.15756118
					38:[windBearing<70] yes=73,no=74,missing=73
						73:leaf=-0.0247032512
						74:leaf=0.791916609
				20:[humidity<0.819999993] yes=39,no=40,missing=39
					39:[apparentTemperature<1.29999995] yes=75,no=76,missing=75
						75:leaf=1.51669765
						76:leaf=0.838380277
					40:[hour_x<8] yes=77,no=78,missing=77
						77:leaf=0.833729446
						78:leaf=-0.0983299986
			10:[apparentTemperature<-1.36000001] yes=21,no=22,missing=21
				21:[dewPoint<0.560000002] yes=41,no=42,missing=41
					41:leaf=1.34503007
					42:leaf=0.183263898
				22:[windBearing<215] yes=43,no=44,missing=44
					43:[hour_x<5] yes=79,no=80,missing=79
						79:leaf=0.119795762
						80:leaf=0.342868418
					44:[hour_x<2] yes=81,no=82,missing=82
						81:leaf=0.477614135
						82:leaf=1.00495589
	2:[temperature<9.77000046] yes=5,no=6,missing=5
		5:[apparentTemperature<0.200000003] yes=11,no=12,missing=11
			11:[pressure<1004.29999] yes=23,no=24,missing=23
				23:[apparentTemperature<-0.219999999] yes=45,no=46,missing=45
					45:[weekday<1] yes=83,no=84,missing=83
						83:leaf=0.876465619
						84:leaf=1.33861709
					46:[weekday<1] yes=85,no=86,missing=85
						85:leaf=0.823302448
						86:leaf=0.109726883
				24:[apparentTemperature<-0.75999999] yes=47,no=48,missing=47
					47:[hour_x<11] yes=87,no=88,missing=87
						87:leaf=0.0297731794
						88:leaf=0.284249276
					48:[dewPoint<0.819999993] yes=89,no=90,missing=89
						89:leaf=0.195673689
						90:leaf=0.670055807
			12:[hour_x<22] yes=25,no=26,missing=25
				25:[weekday<1] yes=49,no=50,missing=49
					49:[pressure<1005.34998] yes=91,no=92,missing=91
						91:leaf=1.19241416
						92:leaf=0.373398125
					50:[humidity<0.75] yes=93,no=94,missing=94
						93:leaf=0.100683369
						94:leaf=0.338990003
				26:[pressure<1005.69] yes=51,no=52,missing=51
					51:[temperature<5.28999996] yes=95,no=96,missing=96
						95:leaf=0.105023935
						96:leaf=1.27389967
					52:[windBearing<206] yes=97,no=98,missing=97
						97:leaf=0.202505141
						98:leaf=0.697333276
		6:[pressure<1001.83002] yes=13,no=14,missing=13
			13:[visibility<11.8400002] yes=27,no=28,missing=27
				27:[apparentTemperature<8.71000004] yes=53,no=54,missing=54
					53:leaf=0.39596799
					54:leaf=1.15625584
				28:leaf=-0.128965721
			14:[windBearing<82] yes=29,no=30,missing=29
				29:[dewPoint<5.11999989] yes=55,no=56,missing=55
					55:[cloudCover<0.800000012] yes=99,no=100,missing=99
						99:leaf=0.00919519365
						100:leaf=0.249384567
					56:[cloudCover<0.680000007] yes=101,no=102,missing=102
						101:leaf=0.142828211
						102:leaf=0.519624531
				30:[windGust<4.30000019] yes=57,no=58,missing=57
					57:[hour_x<14] yes=103,no=104,missing=104
						103:leaf=0.369133621
						104:leaf=0.0575949848
					58:[hour_x<22] yes=105,no=106,missing=105
						105:leaf=0.0429864302
						106:leaf=0.200702652
booster[5]:
0:[hour_x<9] yes=1,no=2,missing=2
	1:[windGust<9.93999958] yes=3,no=4,missing=4
		3:[pressure<1034.43994] yes=7,no=8,missing=7
			7:[cloudCover<0.280000001] yes=15,no=16,missing=16
				15:[visibility<7.19000006] yes=31,no=32,missing=31
					31:[hour_x<5] yes=59,no=60,missing=60
						59:leaf=0.0101809977
						60:leaf=1.315359
					32:[cloudCover<0.140000001] yes=61,no=62,missing=61
						61:leaf=0.864877164
						62:leaf=0.409885257
				16:[visibility<3.51999998] yes=33,no=34,missing=33
					33:[cloudCover<0.930000007] yes=63,no=64,missing=64
						63:leaf=0.0609356761
						64:leaf=-0.154581979
					34:[humidity<0.949999988] yes=65,no=66,missing=66
						65:leaf=0.322733879
						66:leaf=1.01671064
			8:[cloudCover<0.639999986] yes=17,no=18,missing=17
				17:[temperature<6.26000023] yes=35,no=36,missing=35
					35:[pressure<1035.64001] yes=67,no=68,missing=67
						67:leaf=0.971834838
						68:leaf=0.400357008
					36:[temperature<7.23000002] yes=69,no=70,missing=69
						69:leaf=0.190153971
						70:leaf=-0.19377327
				18:[visibility<10.5100002] yes=37,no=38,missing=37
					37:[hour_x<6] yes=71,no=72,missing=72
						71:leaf=0.281479657
						72:leaf=-0.23452495
					38:[windGust<4.44000006] yes=73,no=74,missing=73
						73:leaf=1.38953745
						74:leaf=0.368192941
		4:[pressure<1018.09998] yes=9,no=10,missing=9
			9:[pressure<1005.15002] yes=19,no=20,missing=19
				19:[visibility<7.67999983] yes=39,no=40,missing=40
					39:[cloudCover<0.75999999] yes=75,no=76,missing=75
						75:leaf=0.773295641
						76:leaf=-0.125283614
					40:[windBearing<206] yes=77,no=78,missing=78
						77:leaf=0.541146517
						78:leaf=0.904773414
				20:[cloudCover<0.680000007] yes=41,no=42,missing=41
					41:[dewPoint<1.20000005] yes=79,no=80,missing=80
						79:leaf=1.16355371
						80:leaf=0.257502437
					42:[uvIndex<0.5] yes=81,no=82,missing=82
						81:leaf=1.31370759
						82:leaf=0.477774233
			10:[temperature<4.23999977] yes=21,no=22,missing=22
				21:[pressure<1018.82001] yes=43,no=44,missing=43
					43:[apparentTemperature<-3.94000006] yes=83,no=84,missing=84
						83:leaf=-0.00912704505
						84:leaf=0.390652478
					44:[dewPoint<0.560000002] yes=85,no=86,missing=86
						85:leaf=1.2922467
						86:leaf=0.174100325
				22:[windBearing<206] yes=45,no=46,missing=45
					45:[visibility<6.44999981] yes=87,no=88,missing=87
						87:leaf=0.924441993
						88:leaf=0.147974238
					46:[humidity<0.709999979] yes=89,no=90,missing=90
						89:leaf=1.06651103
						90:leaf=0.484519571
	2:[apparentTemperature<9.48999977] yes=5,no=6,missing=5
		5:[humidity<0.730000019] yes=11,no=12,missing=11
			11:[weekday<1] yes=23,no=24,missing=24
				23:[humidity<0.680000007] yes=47,no=48,missing=48
					47:[dewPoint<2.69000006] yes=91,no=92,missing=91
						91:leaf=0.340474308
						92:leaf=-0.0333967172
					48:[cloudCover<0.879999995] yes=93,no=94,missing=93
						93:leaf=0.650061727
						94:leaf=0.139662102
				24:[windGust<6.5] yes=49,no=50,missing=50
					49:[windGust<4.88000011] yes=95,no=96,missing=95
						95:leaf=0.0549404696
						96:leaf=0.735627353
					50:[temperature<8.61999989] yes=97,no=98,missing=97
						97:leaf=-0.0314206146
						98:leaf=0.109792762
			12:[pressure<1007.32001] yes=25,no=26,missing=26
				25:[windGust<5.36999989] yes=51,no=52,missing=51
					51:[weekday<1] yes=99,no=100,missing=100
						99:leaf=-0.167129025
						100:leaf=1.63027501
					52:[temperature<3.27999997] yes=101,no=102,missing=102
						101:leaf=1.12768805
						102:leaf=0.412199706
				26:[apparentTemperature<4.01999998] yes=53,no=54,missing=54
					53:[pressure<1034.43994] yes=103,no=104,missing=103
						103:leaf=0.354244173
						104:leaf=1.03789485
					54:[dewPoint<8.06000042] yes=105,no=106,missing=105
						105:leaf=0.178286314
						106:leaf=0.857895553
		6:[pressure<1001.83002] yes=13,no=14,missing=13
			13:[humidity<0.779999971] yes=27,no=28,missing=28
				27:leaf=-0.118648462
				28:leaf=1.0438422
			14:[windGust<6.34000015] yes=29,no=30,missing=29
				29:[apparentTemperature<11.6099997] yes=55,no=56,missing=55
					55:[pressure<1034.43994] yes=107,no=108,missing=107
						107:leaf=0.326862007
						108:leaf=-0.0480138399
					56:[hour_x<12] yes=109,no=110,missing=109
						109:leaf=0.207936242
						110:leaf=0.0220958907
				30:[hour_x<22] yes=57,no=58,missing=57
					57:[windBearing<14] yes=111,no=112,missing=112
						111:leaf=0.47809568
						112:leaf=0.0178963672
					58:[apparentTemperature<11.3400002] yes=113,no=114,missing=114
						113:leaf=0.0168813914
						114:leaf=0.553083658
booster[6]:
0:[hour_x<9] yes=1,no=2,missing=1
	1:[windGust<9.93999958] yes=3,no=4,missing=3
		3:[pressure<1034.22998] yes=7,no=8,missing=7
			7:[dewPoint<1.13] yes=15,no=16,missing=16
				15:[hour_x<5] yes=31,no=32,missing=32
					31:[windGust<3.95000005] yes=59,no=60,missing=59
						59:leaf=0.152326271
						60:leaf=0.533836484
					32:[pressure<1024.72998] yes=61,no=62,missing=61
						61:leaf=1.04645717
						62:leaf=0.503899693
				16:[cloudCover<0.140000001] yes=33,no=34,missing=34
					33:leaf=0.851856172
					34:[pressure<1010.39001] yes=63,no=64,missing=63
						63:leaf=0.0378580652
						64:leaf=0.306690961
			8:[windSpeed<1.41999996] yes=17,no=18,missing=18
				17:[apparentTemperature<8.61999989] yes=35,no=36,missing=35
					35:leaf=1.4011153
					36:leaf=0.280131817
				18:[dewPoint<3.99000001] yes=37,no=38,missing=37
					37:[dewPoint<2.66000009] yes=65,no=66,missing=65
						65:leaf=0.449104279
						66:leaf=0.882747173
					38:[cloudCover<0.660000026] yes=67,no=68,missing=67
						67:leaf=0.00666616997
						68:leaf=0.54310149
		4:[pressure<1024.97998] yes=9,no=10,missing=10
			9:[humidity<0.670000017] yes=19,no=20,missing=19
				19:[pressure<1019.21997] yes=39,no=40,missing=39
					39:leaf=0.907386482
					40:[windBearing<131] yes=69,no=70,missing=69
						69:leaf=0.0615676045
						70:leaf=0.193218574
				20:[dewPoint<1.13] yes=41,no=42,missing=41
					41:[windSpeed<7.17999983] yes=71,no=72,missing=72
						71:leaf=1.10310817
						72:leaf=0.743853629
					42:[windBearing<74] yes=73,no=74,missing=73
						73:leaf=-0.0461035781
						74:leaf=0.70314759
			10:[pressure<1025.96997] yes=21,no=22,missing=21
				21:[dewPoint<2.75] yes=43,no=44,missing=44
					43:[cloudCover<0.850000024] yes=75,no=76,missing=75
						75:leaf=0.180025771
						76:leaf=0.793287754
					44:[windGust<11.0699997] yes=77,no=78,missing=77
						77:leaf=-0.161933348
						78:leaf=-0.0198306348
				22:[dewPoint<1.38] yes=45,no=46,missing=45
					45:leaf=0.215175912
					46:leaf=0.489478558
	2:[apparentTemperature<5.71000004] yes=5,no=6,missing=6
		5:[humidity<0.810000002] yes=11,no=12,missing=12
			11:[weekday<1] yes=23,no=24,missing=23
				23:[pressure<1005.59998] yes=47,no=48,missing=47
					47:leaf=0.962408662
					48:[pressure<1022.5] yes=79,no=80,missing=80
						79:leaf=0.223056987
						80:leaf=0.540594995
				24:[dewPoint<1.96000004] yes=49,no=50,missing=50
					49:[uvIndex<2.5] yes=81,no=82,missing=82
						81:leaf=-0.0113818971
						82:leaf=0.556640327
					50:[pressure<1022.77002] yes=83,no=84,missing=83
						83:leaf=0.29665029
						84:leaf=-0.115097694
			12:[windBearing<89] yes=25,no=26,missing=26
				25:[windSpeed<1.71000004] yes=51,no=52,missing=52
					51:[dewPoint<4.0999999] yes=85,no=86,missing=85
						85:leaf=0.273289174
						86:leaf=1.47493827
					52:[windGust<6.8499999] yes=87,no=88,missing=87
						87:leaf=-0.0664462
						88:leaf=0.229499742
				26:[windBearing<296] yes=53,no=54,missing=53
					53:[pressure<1004.96002] yes=89,no=90,missing=89
						89:leaf=0.894553125
						90:leaf=0.455542892
					54:[cloudCover<0.389999986] yes=91,no=92,missing=91
						91:leaf=0.660372317
						92:leaf=-0.00136552728
		6:[pressure<998.640015] yes=13,no=14,missing=14
			13:[humidity<0.74000001] yes=27,no=28,missing=27
				27:leaf=0.258014679
				28:leaf=1.0665524
			14:[windBearing<51] yes=29,no=30,missing=30
				29:[hour_x<20] yes=55,no=56,missing=55
					55:[weekday<1] yes=93,no=94,missing=93
						93:leaf=0.619806468
						94:leaf=-0.0482907407
					56:leaf=1.28119469
				30:[hour_x<13] yes=57,no=58,missing=58
					57:[windGust<3.75999999] yes=95,no=96,missing=95
						95:leaf=0.553515792
						96:leaf=0.126351073
					58:[precipProbability<0.550000012] yes=97,no=98,missing=97
						97:leaf=0.0585860573
						98:leaf=0.351042926
booster[7]:
0:[hour_x<9] yes=1,no=2,missing=2
	1:[windGust<16.3999996] yes=3,no=4,missing=3
		3:[hour_x<5] yes=7,no=8,missing=7
			7:[apparentTemperature<-0.75999999] yes=15,no=16,missing=16
				15:[windBearing<283] yes=31,no=32,missing=31
					31:[visibility<9.32999992] yes=55,no=56,missing=55
						55:leaf=-0.145691499
						56:leaf=0.401060909
					32:[cloudCover<0.540000021] yes=57,no=58,missing=57
						57:leaf=0.443603098
						58:leaf=1.16887128
				16:[pressure<1031.93994] yes=33,no=34,missing=33
					33:[pressure<1022.59003] yes=59,no=60,missing=60
						59:leaf=0.318497002
						60:leaf=0.0961908326
					34:[windGust<3.69000006] yes=61,no=62,missing=62
						61:leaf=0.321158737
						62:leaf=0.670555294
			8:[uvIndex<0.5] yes=17,no=18,missing=17
				17:[weekday<1] yes=35,no=36,missing=35
					35:[dewPoint<3.55999994] yes=63,no=64,missing=64
						63:leaf=0.236510321
						64:leaf=0.65631634
					36:[apparentTemperature<6.36000013] yes=65,no=66,missing=65
						65:leaf=0.750260532
						66:leaf=0.316779792
				18:[windSpeed<3.0999999] yes=37,no=38,missing=37
					37:[cloudCover<0.800000012] yes=67,no=68,missing=68
						67:leaf=0.186911866
						68:leaf=0.775312841
					38:[apparentTemperature<4.5] yes=69,no=70,missing=69
						69:leaf=0.271055281
						70:leaf=-0.143880874
		4:[visibility<7.67999983] yes=9,no=10,missing=9
			9:[cloudCover<0.639999986] yes=19,no=20,missing=20
				19:leaf=0.590103626
				20:leaf=-0.426583916
			10:[apparentTemperature<-3.43000007] yes=21,no=22,missing=21
				21:[weekday<1] yes=39,no=40,missing=40
					39:leaf=-0.274641812
					40:leaf=0.538848817
				22:[dewPoint<6.09000015] yes=41,no=42,missing=41
					41:[precipIntensity<0.937300026] yes=71,no=72,missing=71
						71:leaf=1.12347019
						72:leaf=0.449769586
					42:[weekday<1] yes=73,no=74,missing=73
						73:leaf=1.00544059
						74:leaf=0.601605594
	2:[apparentTemperature<10.0200005] yes=5,no=6,missing=6
		5:[humidity<0.730000019] yes=11,no=12,missing=12
			11:[weekday<1] yes=23,no=24,missing=23
				23:[humidity<0.680000007] yes=43,no=44,missing=43
					43:[dewPoint<2.69000006] yes=75,no=76,missing=75
						75:leaf=0.280622095
						76:leaf=-0.0504908375
					44:[cloudCover<0.870000005] yes=77,no=78,missing=77
						77:leaf=0.54926461
						78:leaf=0.128336489
				24:[windGust<6.5] yes=45,no=46,missing=45
					45:[windGust<4.88000011] yes=79,no=80,missing=79
						79:leaf=0.0363445841
						80:leaf=0.6471228
					46:[visibility<8.42000008] yes=81,no=82,missing=81
						81:leaf=0.122285083
						82:leaf=-0.0199562162
			12:[pressure<1007.32001] yes=25,no=26,missing=25
				25:[windGust<6.34000015] yes=47,no=48,missing=47
					47:[temperature<5.28999996] yes=83,no=84,missing=84
						83:leaf=-0.238280609
						84:leaf=1.21343076
					48:[temperature<3.27999997] yes=85,no=86,missing=86
						85:leaf=0.932953656
						86:leaf=0.314482301
				26:[apparentTemperature<4.01999998] yes=49,no=50,missing=50
					49:[pressure<1034.43994] yes=87,no=88,missing=88
						87:leaf=0.288299292
						88:leaf=0.89124769
					50:[windBearing<51] yes=89,no=90,missing=90
						89:leaf=0.529647171
						90:leaf=0.126446083
		6:[pressure<1001.83002] yes=13,no=14,missing=14
			13:[humidity<0.779999971] yes=27,no=28,missing=27
				27:leaf=-0.113843344
				28:leaf=0.854259789
			14:[windGust<6.34000015] yes=29,no=30,missing=30
				29:[apparentTemperature<11.6099997] yes=51,no=52,missing=52
					51:[cloudCover<0.75999999] yes=91,no=92,missing=91
						91:leaf=0.102845661
						92:leaf=0.395145208
					52:[pressure<1030.28003] yes=93,no=94,missing=93
						93:leaf=-0.0356322527
						94:leaf=0.0860578641
				30:[windBearing<14] yes=53,no=54,missing=54
					53:leaf=0.395753056
					54:[hour_x<22] yes=95,no=96,missing=95
						95:leaf=0.00921149738
						96:leaf=0.125273004
booster[8]:
0:[hour_x<9] yes=1,no=2,missing=1
	1:[windGust<8.10000038] yes=3,no=4,missing=4
		3:[windGust<5.69999981] yes=7,no=8,missing=7
			7:[pressure<1017.42999] yes=15,no=16,missing=15
				15:[apparentTemperature<6.92000008] yes=31,no=32,missing=32
					31:[cloudCover<0.860000014] yes=59,no=60,missing=59
						59:leaf=-0.00508329412
						60:leaf=-0.188414037
					32:leaf=0.941665947
				16:[dewPoint<3.31999993] yes=33,no=34,missing=33
					33:[visibility<7.19000006] yes=61,no=62,missing=61
						61:leaf=0.861195683
						62:leaf=0.32826668
					34:[uvIndex<0.5] yes=63,no=64,missing=63
						63:leaf=0.971749425
						64:leaf=0.317126751
			8:[weekday<1] yes=17,no=18,missing=18
				17:[windSpeed<4.48000002] yes=35,no=36,missing=35
					35:[windGust<6.30000019] yes=65,no=66,missing=66
						65:leaf=0.145080864
						66:leaf=0.481792599
					36:leaf=-0.216812924
				18:[windBearing<70] yes=37,no=38,missing=38
					37:[pressure<1010.39001] yes=67,no=68,missing=67
						67:leaf=0.0291867591
						68:leaf=1.18943822
					38:[windGust<7.3499999] yes=69,no=70,missing=69
						69:leaf=-0.115662992
						70:leaf=0.107854128
		4:[temperature<3.1500001] yes=9,no=10,missing=9
			9:[weekday<1] yes=19,no=20,missing=19
				19:[cloudCover<0.270000011] yes=39,no=40,missing=39
					39:leaf=0.124858856
					40:leaf=0.559241116
				20:[temperature<1.50999999] yes=41,no=42,missing=41
					41:leaf=-0.016162701
					42:[visibility<11.3000002] yes=71,no=72,missing=71
						71:leaf=1.0495137
						72:leaf=0.633859932
			10:[windGust<16.3999996] yes=21,no=22,missing=22
				21:[pressure<1019.34998] yes=43,no=44,missing=44
					43:[dewPoint<6.19999981] yes=73,no=74,missing=73
						73:leaf=0.371576846
						74:leaf=0.951808453
					44:[windBearing<194] yes=75,no=76,missing=76
						75:leaf=0.0794308409
						76:leaf=0.367589891
				22:[windBearing<202] yes=45,no=46,missing=45
					45:[hour_x<2] yes=77,no=78,missing=77
						77:leaf=-0.401926666
						78:leaf=0.450786322
					46:[apparentTemperature<-3.43000007] yes=79,no=80,missing=79
						79:leaf=-0.25175488
						80:leaf=0.817755044
	2:[apparentTemperature<10.0200005] yes=5,no=6,missing=5
		5:[humidity<0.730000019] yes=11,no=12,missing=11
			11:[weekday<1] yes=23,no=24,missing=24
				23:[precipProbability<0.959999979] yes=47,no=48,missing=47
					47:[temperature<9.14000034] yes=81,no=82,missing=81
						81:leaf=0.344351828
						82:leaf=0.105416052
					48:[windSpeed<8.09000015] yes=83,no=84,missing=83
						83:leaf=0.409294754
						84:leaf=-0.239796802
				24:[windGust<6.5] yes=49,no=50,missing=50
					49:[windGust<4.88000011] yes=85,no=86,missing=85
						85:leaf=0.0327561647
						86:leaf=0.583951294
					50:[pressure<1020.52002] yes=87,no=88,missing=88
						87:leaf=0.0436330438
						88:leaf=-0.0988008007
			12:[pressure<1007.53003] yes=25,no=26,missing=25
				25:[windGust<5.9000001] yes=51,no=52,missing=52
					51:[temperature<5.28999996] yes=89,no=90,missing=89
						89:leaf=-0.224483356
						90:leaf=1.09550178
					52:[hour_x<21] yes=91,no=92,missing=91
						91:leaf=0.231486186
						92:leaf=0.590655208
				26:[dewPoint<8.06000042] yes=53,no=54,missing=53
					53:[apparentTemperature<4.01999998] yes=93,no=94,missing=93
						93:leaf=0.308624417
						94:leaf=0.122043349
					54:[pressure<1009.95001] yes=95,no=96,missing=95
						95:leaf=-0.0791566744
						96:leaf=0.856927216
		6:[pressure<1001.83002] yes=13,no=14,missing=14
			13:[humidity<0.779999971] yes=27,no=28,missing=27
				27:leaf=-0.104735792
				28:leaf=0.771274507
			14:[windGust<6.34000015] yes=29,no=30,missing=30
				29:[apparentTemperature<11.6099997] yes=55,no=56,missing=55
					55:[pressure<1034.43994] yes=97,no=98,missing=97
						97:leaf=0.258621544
						98:leaf=-0.0699922591
					56:[hour_x<12] yes=99,no=100,missing=99
						99:leaf=0.161405176
						100:leaf=0.00988417957
				30:[windBearing<14] yes=57,no=58,missing=58
					57:leaf=0.366071582
					58:[windBearing<253] yes=101,no=102,missing=101
						101:leaf=-0.00429968117
						102:leaf=0.0553124733
booster[9]:
0:[hour_x<9] yes=1,no=2,missing=1
	1:[windGust<9.93999958] yes=3,no=4,missing=4
		3:[pressure<1028.72998] yes=7,no=8,missing=8
			7:[dewPoint<1.61000001] yes=15,no=16,missing=15
				15:[hour_x<6] yes=31,no=32,missing=31
					31:[windGust<3.95000005] yes=59,no=60,missing=59
						59:leaf=0.114066899
						60:leaf=0.436563402
					32:[humidity<0.850000024] yes=61,no=62,missing=61
						61:leaf=1.25964141
						62:leaf=0.485710293
				16:[dewPoint<3.44000006] yes=33,no=34,missing=33
					33:[cloudCover<0.610000014] yes=63,no=64,missing=64
						63:leaf=0.0472222455
						64:leaf=-0.145225868
					34:[weekday<1] yes=65,no=66,missing=65
						65:leaf=0.732780397
						66:leaf=0.105745368
			8:[windGust<5.69999981] yes=17,no=18,missing=17
				17:[dewPoint<2.75] yes=35,no=36,missing=36
					35:[windBearing<187] yes=67,no=68,missing=68
						67:leaf=-0.35332346
						68:leaf=0.394800991
					36:[uvIndex<0.5] yes=69,no=70,missing=69
						69:leaf=0.837635159
						70:leaf=0.303985208
				18:[windBearing<234] yes=37,no=38,missing=37
					37:[humidity<0.800000012] yes=71,no=72,missing=71
						71:leaf=-0.235110596
						72:leaf=0.0858567581
					38:[pressure<1034.89001] yes=73,no=74,missing=73
						73:leaf=0.310538977
						74:leaf=0.0141161159
		4:[temperature<3.22000003] yes=9,no=10,missing=9
			9:[apparentTemperature<-2.11999989] yes=19,no=20,missing=20
				19:[hour_x<2] yes=39,no=40,missing=40
					39:[apparentTemperature<-3.94000006] yes=75,no=76,missing=76
						75:leaf=-0.135542765
						76:leaf=0.505546093
					40:[pressure<1005.15002] yes=77,no=78,missing=78
						77:leaf=0.512840927
						78:leaf=0.911257386
				20:[visibility<14.6099997] yes=41,no=42,missing=41
					41:[hour_x<8] yes=79,no=80,missing=79
						79:leaf=1.02708137
						80:leaf=0.412424296
					42:[hour_x<1] yes=81,no=82,missing=82
						81:leaf=0.492221981
						82:leaf=0.00862812996
			10:[windGust<16.9300003] yes=21,no=22,missing=21
				21:[hour_x<5] yes=43,no=44,missing=43
					43:[visibility<9.89999962] yes=83,no=84,missing=83
						83:leaf=0.423317522
						84:leaf=0.0805850103
					44:[windBearing<126] yes=85,no=86,missing=86
						85:leaf=0.760106981
						86:leaf=0.333652586
				22:[dewPoint<6.15999985] yes=45,no=46,missing=46
					45:[weekday<1] yes=87,no=88,missing=87
						87:leaf=-0.193425298
						88:leaf=0.919889927
					46:[windBearing<201] yes=89,no=90,missing=89
						89:leaf=-0.242451116
						90:leaf=0.544841945
	2:[apparentTemperature<10.0200005] yes=5,no=6,missing=5
		5:[hour_x<22] yes=11,no=12,missing=11
			11:[weekday<1] yes=23,no=24,missing=23
				23:[pressure<1005.69] yes=47,no=48,missing=48
					47:[apparentTemperature<-0.0900000036] yes=91,no=92,missing=92
						91:leaf=0.584568858
						92:leaf=0.874971509
					48:[pressure<1011.87] yes=93,no=94,missing=93
						93:leaf=-0.00264948281
						94:leaf=0.289017648
				24:[uvIndex<1.5] yes=49,no=50,missing=49
					49:[hour_x<20] yes=95,no=96,missing=96
						95:leaf=0.00728387479
						96:leaf=0.227692321
					50:[windSpeed<3.46000004] yes=97,no=98,missing=97
						97:leaf=0.714786708
						98:leaf=0.180371091
			12:[windGust<14.54] yes=25,no=26,missing=25
				25:[windBearing<216] yes=51,no=52,missing=51
					51:[temperature<8.28999996] yes=99,no=100,missing=100
						99:leaf=0.115993761
						100:leaf=0.879299581
					52:[cloudCover<0.519999981] yes=101,no=102,missing=101
						101:leaf=0.764104843
						102:leaf=0.228828892
				26:[pressure<1002.31] yes=53,no=54,missing=53
					53:leaf=1.18200731
					54:leaf=0.649932384
		6:[pressure<1001.83002] yes=13,no=14,missing=13
			13:[humidity<0.779999971] yes=27,no=28,missing=27
				27:leaf=-0.0963570401
				28:leaf=0.696350753
			14:[windBearing<70] yes=29,no=30,missing=30
				29:[visibility<10.1899996] yes=55,no=56,missing=55
					55:[cloudCover<0.689999998] yes=103,no=104,missing=103
						103:leaf=0.109318696
						104:leaf=0.616372168
					56:[weekday<1] yes=105,no=106,missing=106
						105:leaf=0.202472314
						106:leaf=-0.027780218
				30:[windSpeed<2.6500001] yes=57,no=58,missing=57
					57:[hour_x<14] yes=107,no=108,missing=108
						107:leaf=0.476903439
						108:leaf=0.0211473163
					58:[windSpeed<2.99000001] yes=109,no=110,missing=109
						109:leaf=-0.0973023474
						110:leaf=0.035600502
booster[10]:
0:[hour_x<9] yes=1,no=2,missing=1
	1:[windGust<8.10000038] yes=3,no=4,missing=4
		3:[pressure<1028.72998] yes=7,no=8,missing=7
			7:[cloudCover<0.49000001] yes=15,no=16,missing=15
				15:[hour_x<6] yes=31,no=32,missing=31
					31:[windBearing<220] yes=57,no=58,missing=57
						57:leaf=-0.0507270209
						58:leaf=0.309604496
					32:[visibility<9.27000046] yes=59,no=60,missing=59
						59:leaf=0.987299085
						60:leaf=0.347100526
				16:[weekday<1] yes=33,no=34,missing=33
					33:[apparentTemperature<2.83999991] yes=61,no=62,missing=61
						61:leaf=-0.087390922
						62:leaf=0.702901542
					34:[windBearing<70] yes=63,no=64,missing=63
						63:leaf=0.462801695
						64:leaf=-0.101489976
			8:[windGust<5.69999981] yes=17,no=18,missing=17
				17:[dewPoint<2.75] yes=35,no=36,missing=36
					35:[windBearing<187] yes=65,no=66,missing=66
						65:leaf=-0.321203172
						66:leaf=0.355587661
					36:[windBearing<234] yes=67,no=68,missing=68
						67:leaf=0.323119044
						68:leaf=0.790435255
				18:[hour_x<8] yes=37,no=38,missing=37
					37:[apparentTemperature<2.3599999] yes=69,no=70,missing=69
						69:leaf=0.279336035
						70:leaf=0.116028346
					38:[humidity<0.839999974] yes=71,no=72,missing=71
						71:leaf=-0.235440686
						72:leaf=0.10827937
		4:[temperature<3.1500001] yes=9,no=10,missing=9
			9:[cloudCover<0.209999993] yes=19,no=20,missing=19
				19:leaf=1.08696222
				20:[cloudCover<0.660000026] yes=39,no=40,missing=39
					39:[pressure<1009.09998] yes=73,no=74,missing=73
						73:leaf=0.596271932
						74:leaf=0.25441283
					40:leaf=0.857991219
			10:[windGust<16.3999996] yes=21,no=22,missing=21
				21:[windBearing<130] yes=41,no=42,missing=42
					41:[dewPoint<6.25] yes=75,no=76,missing=76
						75:leaf=0.348875403
						76:leaf=1.13930082
					42:[windGust<14.9700003] yes=77,no=78,missing=78
						77:leaf=0.278926343
						78:leaf=-0.070750162
				22:[visibility<7.67999983] yes=43,no=44,missing=43
					43:[cloudCover<0.639999986] yes=79,no=80,missing=79
						79:leaf=0.433670908
						80:leaf=-0.364764482
					44:[apparentTemperature<-3.43000007] yes=81,no=82,missing=81
						81:leaf=-0.223441109
						82:leaf=0.673493505
	2:[apparentTemperature<5.71000004] yes=5,no=6,missing=6
		5:[humidity<0.810000002] yes=11,no=12,missing=11
			11:[weekday<1] yes=23,no=24,missing=23
				23:[pressure<1005.59998] yes=45,no=46,missing=46
					45:leaf=0.729350388
					46:[rain<1] yes=83,no=84,missing=84
						83:leaf=0.323199898
						84:leaf=0.0293381158
				24:[windGust<17.1100006] yes=47,no=48,missing=47
					47:[temperature<8.61999989] yes=85,no=86,missing=85
						85:leaf=-0.0188246258
						86:leaf=0.258717507
					48:[hour_x<21] yes=87,no=88,missing=87
						87:leaf=0.124461129
						88:leaf=1.11805284
			12:[windBearing<90] yes=25,no=26,missing=26
				25:[windSpeed<1.71000004] yes=49,no=50,missing=49
					49:[apparentTemperature<4.07000017] yes=89,no=90,missing=90
						89:leaf=-0.315402985
						90:leaf=0.881571114
					50:[windBearing<73] yes=91,no=92,missing=91
						91:leaf=-0.0705164894
						92:leaf=0.187569961
				26:[windBearing<296] yes=51,no=52,missing=51
					51:[windSpeed<2.95000005] yes=93,no=94,missing=94
						93:leaf=0.137243316
						94:leaf=0.512825429
					52:[cloudCover<0.689999998] yes=95,no=96,missing=95
						95:leaf=0.350522339
						96:leaf=-0.111864738
		6:[pressure<998.51001] yes=13,no=14,missing=14
			13:[apparentTemperature<8.28999996] yes=27,no=28,missing=27
				27:leaf=0.952679336
				28:leaf=0.627677381
			14:[windBearing<51] yes=29,no=30,missing=30
				29:[hour_x<20] yes=53,no=54,missing=53
					53:[weekday<1] yes=97,no=98,missing=97
						97:leaf=0.462191314
						98:leaf=-0.0716502145
					54:leaf=0.990781307
				30:[hour_x<14] yes=55,no=56,missing=56
					55:[windSpeed<2.18000007] yes=99,no=100,missing=99
						99:leaf=0.471022218
						100:leaf=0.0943079293
					56:[pressure<1029.22998] yes=101,no=102,missing=101
						101:leaf=-0.0020280655
						102:leaf=0.107711099
booster[11]:
0:[hour_x<9] yes=1,no=2,missing=2
	1:[hour_x<5] yes=3,no=4,missing=4
		3:[windSpeed<2.3599999] yes=7,no=8,missing=7
			7:[windGust<2.3599999] yes=15,no=16,missing=15
				15:[apparentTemperature<3.69000006] yes=31,no=32,missing=31
					31:[windSpeed<2.02999997] yes=55,no=56,missing=55
						55:leaf=0.261414707
						56:leaf=0.127353936
					32:leaf=-0.124675527
				16:[weekday<1] yes=33,no=34,missing=33
					33:[pressure<1009.09998] yes=57,no=58,missing=58
						57:leaf=-0.023892168
						58:leaf=0.531009078
					34:[precipIntensity<0.0278999992] yes=59,no=60,missing=60
						59:leaf=-0.140136525
						60:leaf=0.343613952
			8:[windGust<18.9099998] yes=17,no=18,missing=18
				17:[cloudCover<0.159999996] yes=35,no=36,missing=35
					35:leaf=0.667927682
					36:[dewPoint<8.22000027] yes=61,no=62,missing=62
						61:leaf=0.202111274
						62:leaf=0.51485461
				18:[apparentTemperature<11.7299995] yes=37,no=38,missing=37
					37:[cloudCover<0.620000005] yes=63,no=64,missing=64
						63:leaf=0.289806813
						64:leaf=0.777887523
					38:leaf=0.325800121
		4:[windSpeed<5.53000021] yes=9,no=10,missing=10
			9:[pressure<1023.02002] yes=19,no=20,missing=19
				19:[hour_x<6] yes=39,no=40,missing=40
					39:[windGust<7.30000019] yes=65,no=66,missing=65
						65:leaf=0.0909855291
						66:leaf=0.543104947
					40:[cloudCover<0.819999993] yes=67,no=68,missing=67
						67:leaf=-0.122638285
						68:leaf=0.230020747
				20:[hour_x<8] yes=41,no=42,missing=42
					41:[windGust<2.30999994] yes=69,no=70,missing=69
						69:leaf=-0.119552635
						70:leaf=0.540670335
					42:[pressure<1023.56] yes=71,no=72,missing=71
						71:leaf=0.828195691
						72:leaf=0.102906741
			10:[weekday<1] yes=21,no=22,missing=22
				21:[apparentTemperature<4.23000002] yes=43,no=44,missing=43
					43:[temperature<2.95000005] yes=73,no=74,missing=73
						73:leaf=0.438383788
						74:leaf=-0.0835128203
					44:[pressure<1025.04004] yes=75,no=76,missing=75
						75:leaf=0.719238281
						76:leaf=-0.00485823164
				22:[uvIndex<0.5] yes=45,no=46,missing=45
					45:[pressure<1005.15002] yes=77,no=78,missing=78
						77:leaf=0.478667825
						78:leaf=0.728392541
					46:[pressure<1004.29999] yes=79,no=80,missing=79
						79:leaf=-0.249969751
						80:leaf=0.264340073
	2:[apparentTemperature<5.71000004] yes=5,no=6,missing=5
		5:[pressure<1035.19995] yes=11,no=12,missing=12
			11:[humidity<0.790000021] yes=23,no=24,missing=23
				23:[weekday<1] yes=47,no=48,missing=48
					47:[cloudCover<0.75] yes=81,no=82,missing=81
						81:leaf=0.383411735
						82:leaf=0.1251975
					48:[hour_x<21] yes=83,no=84,missing=83
						83:leaf=0.0212759953
						84:leaf=0.262707919
				24:[uvIndex<1.5] yes=49,no=50,missing=49
					49:[windSpeed<3.03999996] yes=85,no=86,missing=85
						85:leaf=0.0206545256
						86:leaf=0.265957475
					50:[windGust<5.36999989] yes=87,no=88,missing=87
						87:leaf=1.18030393
						88:leaf=0.368708789
			12:[cloudCover<0.519999981] yes=25,no=26,missing=25
				25:leaf=1.18641412
				26:leaf=0.234227136
		6:[pressure<998.51001] yes=13,no=14,missing=13
			13:[apparentTemperature<8.28999996] yes=27,no=28,missing=27
				27:leaf=0.866072297
				28:leaf=0.566871166
			14:[windBearing<70] yes=29,no=30,missing=30
				29:[hour_x<20] yes=51,no=52,missing=52
					51:[apparentTemperature<7.78000021] yes=89,no=90,missing=90
						89:leaf=0.351927131
						90:leaf=0.0627996922
					52:[apparentTemperature<7.0999999] yes=91,no=92,missing=92
						91:leaf=-0.125071838
						92:leaf=1.05819547
				30:[windGust<3.1099999] yes=53,no=54,missing=53
					53:[pressure<1021.64001] yes=93,no=94,missing=93
						93:leaf=-0.123663619
						94:leaf=0.271002382
					54:[hour_x<15] yes=95,no=96,missing=95
						95:leaf=0.0832180008
						96:leaf=-0.00156849273
booster[12]:
0:[hour_x<9] yes=1,no=2,missing=2
	1:[visibility<2.3499999] yes=3,no=4,missing=3
		3:[apparentTemperature<7.59000015] yes=7,no=8,missing=7
			7:[cloudCover<0.930000007] yes=15,no=16,missing=15
				15:[humidity<0.709999979] yes=29,no=30,missing=29
					29:leaf=0.424598694
					30:[dewPoint<3.44000006] yes=53,no=54,missing=54
						53:leaf=0.0389734991
						54:leaf=-0.0184912868
				16:[apparentTemperature<4.61999989] yes=31,no=32,missing=31
					31:leaf=-0.226880953
					32:leaf=-0.137894467
			8:leaf=-0.40058884
		4:[hour_x<6] yes=9,no=10,missing=9
			9:[windBearing<217] yes=17,no=18,missing=17
				17:[dewPoint<7.21000004] yes=33,no=34,missing=34
					33:[precipProbability<0.180000007] yes=55,no=56,missing=55
						55:leaf=-0.0104368562
						56:leaf=0.289326161
					34:[apparentTemperature<7.34000015] yes=57,no=58,missing=58
						57:leaf=1.02876198
						58:leaf=-0.0303616971
				18:[windGust<16.3999996] yes=35,no=36,missing=35
					35:[windGust<15.3500004] yes=59,no=60,missing=59
						59:leaf=0.285710305
						60:leaf=-0.363616079
					36:[apparentTemperature<1.29999995] yes=61,no=62,missing=62
						61:leaf=0.702248514
						62:leaf=0.384637564
			10:[hour_x<8] yes=19,no=20,missing=19
				19:[weekday<1] yes=37,no=38,missing=37
					37:[temperature<7.82999992] yes=63,no=64,missing=63
						63:leaf=0.0833674595
						64:leaf=0.557983279
					38:[apparentTemperature<1.39999998] yes=65,no=66,missing=65
						65:leaf=0.781948507
						66:leaf=0.466380566
				20:[windSpeed<5.61000013] yes=39,no=40,missing=40
					39:[windGust<4.44000006] yes=67,no=68,missing=67
						67:leaf=0.275810093
						68:leaf=-0.0669155344
					40:[visibility<10.75] yes=69,no=70,missing=69
						69:leaf=0.494413942
						70:leaf=0.216116101
	2:[apparentTemperature<5.71000004] yes=5,no=6,missing=5
		5:[pressure<1033.83997] yes=11,no=12,missing=12
			11:[windGust<4.19000006] yes=21,no=22,missing=21
				21:[windBearing<252] yes=41,no=42,missing=41
					41:[visibility<9.97999954] yes=71,no=72,missing=71
						71:leaf=-0.254211307
						72:leaf=-0.0383782387
					42:[weekday<1] yes=73,no=74,missing=73
						73:leaf=-0.116517834
						74:leaf=0.536080122
				22:[windGust<5.61999989] yes=43,no=44,missing=43
					43:[pressure<1007.06] yes=75,no=76,missing=76
						75:leaf=0.988131225
						76:leaf=0.0643813983
					44:[weekday<1] yes=77,no=78,missing=77
						77:leaf=0.230741426
						78:leaf=0.106534399
			12:[dewPoint<3.01999998] yes=23,no=24,missing=23
				23:[pressure<1035.12] yes=45,no=46,missing=46
					45:[windSpeed<3.43000007] yes=79,no=80,missing=79
						79:leaf=0.469881266
						80:leaf=-0.00122308731
					46:[cloudCover<0.519999981] yes=81,no=82,missing=81
						81:leaf=1.07963812
						82:leaf=0.094417572
				24:[hour_x<10] yes=47,no=48,missing=47
					47:leaf=-0.21720174
					48:leaf=0.215343624
		6:[pressure<998.51001] yes=13,no=14,missing=13
			13:[apparentTemperature<8.28999996] yes=25,no=26,missing=25
				25:leaf=0.787338972
				26:leaf=0.51195544
			14:[windBearing<70] yes=27,no=28,missing=27
				27:[hour_x<20] yes=49,no=50,missing=50
					49:[weekday<1] yes=83,no=84,missing=83
						83:leaf=0.298059464
						84:leaf=0.0340247713
					50:[apparentTemperature<7.0999999] yes=85,no=86,missing=86
						85:leaf=-0.113701679
						86:leaf=0.9586007
				28:[windGust<3.1099999] yes=51,no=52,missing=52
					51:[cloudCover<0.819999993] yes=87,no=88,missing=87
						87:leaf=0.141330674
						88:leaf=0.587947786
					52:[precipProbability<0.860000014] yes=89,no=90,missing=89
						89:leaf=0.0258752089
						90:leaf=0.235545903
booster[13]:
0:[hour_x<9] yes=1,no=2,missing=1
	1:[windGust<9.93999958] yes=3,no=4,missing=3
		3:[pressure<1033.62] yes=7,no=8,missing=8
			7:[windSpeed<5.05000019] yes=15,no=16,missing=15
				15:[pressure<1010.39001] yes=31,no=32,missing=32
					31:[windGust<7.05999994] yes=59,no=60,missing=59
						59:leaf=-0.0661776066
						60:leaf=0.363144249
					32:[pressure<1013.65002] yes=61,no=62,missing=61
						61:leaf=0.959611595
						62:leaf=0.187321469
				16:[dewPoint<0.519999981] yes=33,no=34,missing=33
					33:leaf=0.587728381
					34:[dewPoint<6.05000019] yes=63,no=64,missing=63
						63:leaf=-0.0228012726
						64:leaf=-0.31575352
			8:[cloudCover<0.639999986] yes=17,no=18,missing=18
				17:[pressure<1035.69995] yes=35,no=36,missing=36
					35:[dewPoint<3.76999998] yes=65,no=66,missing=65
						65:leaf=0.559622705
						66:leaf=0.0209029205
					36:[windSpeed<3.06999993] yes=67,no=68,missing=68
						67:leaf=0.198060662
						68:leaf=-0.340179175
				18:[visibility<10.5100002] yes=37,no=38,missing=38
					37:[hour_x<6] yes=69,no=70,missing=69
						69:leaf=0.179025814
						70:leaf=-0.31999132
					38:[cloudCover<0.660000026] yes=71,no=72,missing=71
						71:leaf=1.16854954
						72:leaf=0.585612237
		4:[pressure<1024.97998] yes=9,no=10,missing=9
			9:[temperature<3.22000003] yes=19,no=20,missing=19
				19:[windSpeed<5.61000013] yes=39,no=40,missing=39
					39:[visibility<14.6099997] yes=73,no=74,missing=73
						73:leaf=0.803653061
						74:leaf=0.25632751
					40:[hour_x<2] yes=75,no=76,missing=75
						75:leaf=0.15698716
						76:leaf=0.514405608
				20:[temperature<4.01000023] yes=41,no=42,missing=41
					41:[dewPoint<0.119999997] yes=77,no=78,missing=77
						77:leaf=0.413697869
						78:leaf=-0.291055113
					42:[hour_x<6] yes=79,no=80,missing=79
						79:leaf=0.238882169
						80:leaf=0.47621727
			10:[pressure<1025.96997] yes=21,no=22,missing=21
				21:[dewPoint<2.75] yes=43,no=44,missing=44
					43:[cloudCover<0.850000024] yes=81,no=82,missing=82
						81:leaf=0.0934447572
						82:leaf=0.639838874
					44:[apparentTemperature<4.69999981] yes=83,no=84,missing=83
						83:leaf=-0.194539696
						84:leaf=-0.0647399053
				22:[windSpeed<5.15999985] yes=45,no=46,missing=45
					45:[apparentTemperature<1.74000001] yes=85,no=86,missing=85
						85:leaf=0.0323546901
						86:leaf=0.182056278
					46:leaf=0.298460573
	2:[pressure<1005.34998] yes=5,no=6,missing=5
		5:[windGust<5.36999989] yes=11,no=12,missing=11
			11:[weekday<1] yes=23,no=24,missing=23
				23:leaf=-0.0976821929
				24:leaf=0.87438786
			12:[weekday<1] yes=25,no=26,missing=25
				25:[hour_x<20] yes=47,no=48,missing=47
					47:[dewPoint<5.26000023] yes=87,no=88,missing=87
						87:leaf=0.653779805
						88:leaf=0.463713944
					48:leaf=0.340575367
				26:[apparentTemperature<-0.529999971] yes=49,no=50,missing=50
					49:[hour_x<10] yes=89,no=90,missing=90
						89:leaf=0.15119876
						90:leaf=0.800793648
					50:[hour_x<21] yes=91,no=92,missing=91
						91:leaf=-0.0450247563
						92:leaf=0.299912453
		6:[apparentTemperature<10.1700001] yes=13,no=14,missing=13
			13:[hour_x<15] yes=27,no=28,missing=27
				27:[pressure<1034.89001] yes=51,no=52,missing=51
					51:[temperature<6.15999985] yes=93,no=94,missing=93
						93:leaf=-0.0304656085
						94:leaf=0.234164834
					52:[windGust<4.36999989] yes=95,no=96,missing=96
						95:leaf=-0.439890534
						96:leaf=-0.247026727
				28:[pressure<1032.76001] yes=53,no=54,missing=53
					53:[precipIntensity<0.530900002] yes=97,no=98,missing=98
						97:leaf=0.0331783295
						98:leaf=0.349422544
					54:[humidity<0.819999993] yes=99,no=100,missing=99
						99:leaf=0.178062409
						100:leaf=0.588704526
			14:[weekend<1] yes=29,no=30,missing=30
				29:[windGust<4.30000019] yes=55,no=56,missing=55
					55:[hour_x<13] yes=101,no=102,missing=101
						101:leaf=0.235137746
						102:leaf=0.00515252631
					56:[hour_x<18] yes=103,no=104,missing=104
						103:leaf=-0.0257149395
						104:leaf=0.0632153153
				30:[windSpeed<2.6500001] yes=57,no=58,missing=57
					57:leaf=0.74507755
					58:[windBearing<82] yes=105,no=106,missing=105
						105:leaf=0.237912059
						106:leaf=0.0141587099
booster[14]:
0:[hour_x<9] yes=1,no=2,missing=1
	1:[visibility<1.95000005] yes=3,no=4,missing=4
		3:[hour_x<5] yes=7,no=8,missing=7
			7:[pressure<1000] yes=15,no=16,missing=15
				15:leaf=-0.373027503
				16:[apparentTemperature<-0.529999971] yes=31,no=32,missing=31
					31:leaf=-0.043661382
					32:[apparentTemperature<4.61999989] yes=59,no=60,missing=59
						59:leaf=-0.223284647
						60:leaf=-0.142507643
			8:[apparentTemperature<7.53000021] yes=17,no=18,missing=17
				17:[windGust<6.42999983] yes=33,no=34,missing=33
					33:[dewPoint<3.44000006] yes=61,no=62,missing=61
						61:leaf=0.0403327942
						62:leaf=0.0110754259
					34:[apparentTemperature<7.42999983] yes=63,no=64,missing=63
						63:leaf=-0.00573556824
						64:leaf=-0.0390689038
				18:[pressure<1010.23999] yes=35,no=36,missing=35
					35:[hour_x<6] yes=65,no=66,missing=66
						65:leaf=0.0063244584
						66:leaf=-0.0962104052
					36:leaf=0.0170056522
		4:[hour_x<5] yes=9,no=10,missing=10
			9:[pressure<1022.59003] yes=19,no=20,missing=19
				19:[temperature<6.26000023] yes=37,no=38,missing=38
					37:[apparentTemperature<-1.09000003] yes=67,no=68,missing=67
						67:leaf=0.365297526
						68:leaf=-0.0287735555
					38:[humidity<0.810000002] yes=69,no=70,missing=70
						69:leaf=0.184333965
						70:leaf=0.458682775
				20:[pressure<1028.93994] yes=39,no=40,missing=39
					39:[dewPoint<1.67999995] yes=71,no=72,missing=71
						71:leaf=0.26659447
						72:leaf=-0.16775924
					40:[windBearing<284] yes=73,no=74,missing=73
						73:leaf=0.285100728
						74:leaf=-0.26952678
			10:[uvIndex<0.5] yes=21,no=22,missing=21
				21:[weekday<1] yes=41,no=42,missing=42
					41:[temperature<7.82999992] yes=75,no=76,missing=75
						75:leaf=0.0725777373
						76:leaf=0.446308762
					42:[windGust<2.3599999] yes=77,no=78,missing=78
						77:leaf=-0.150848061
						78:leaf=0.41588074
				22:[windSpeed<1.92999995] yes=43,no=44,missing=43
					43:[apparentTemperature<5.09000015] yes=79,no=80,missing=79
						79:leaf=-0.0750625134
						80:leaf=0.484107107
					44:[dewPoint<4.28000021] yes=81,no=82,missing=81
						81:leaf=0.174170226
						82:leaf=-0.15153721
	2:[apparentTemperature<5.71000004] yes=5,no=6,missing=5
		5:[pressure<1032.76001] yes=11,no=12,missing=11
			11:[windGust<4.19000006] yes=23,no=24,missing=23
				23:[windBearing<252] yes=45,no=46,missing=45
					45:[windBearing<138] yes=83,no=84,missing=84
						83:leaf=-0.068303667
						84:leaf=-0.260620028
					46:[weekday<1] yes=85,no=86,missing=85
						85:leaf=-0.112350844
						86:leaf=0.487080246
				24:[windGust<5.61999989] yes=47,no=48,missing=47
					47:[pressure<1007.06] yes=87,no=88,missing=87
						87:leaf=0.825020134
						88:leaf=0.0445652641
					48:[humidity<0.730000019] yes=89,no=90,missing=89
						89:leaf=0.0667403042
						90:leaf=0.182223365
			12:[dewPoint<3.01999998] yes=25,no=26,missing=26
				25:[pressure<1035.12] yes=49,no=50,missing=49
					49:[dewPoint<1.11000001] yes=91,no=92,missing=92
						91:leaf=0.130698219
						92:leaf=0.391281754
					50:[cloudCover<0.519999981] yes=93,no=94,missing=93
						93:leaf=0.929483235
						94:leaf=0.0602614656
				26:[hour_x<10] yes=51,no=52,missing=51
					51:leaf=-0.177410871
					52:leaf=0.151192129
		6:[pressure<998.51001] yes=13,no=14,missing=13
			13:[temperature<9.51000023] yes=27,no=28,missing=27
				27:leaf=0.63358295
				28:[precipIntensity<0.0737000033] yes=53,no=54,missing=53
					53:leaf=0.20098789
					54:leaf=0.432473153
			14:[windBearing<70] yes=29,no=30,missing=29
				29:[hour_x<20] yes=55,no=56,missing=56
					55:[dewPoint<8.31000042] yes=95,no=96,missing=95
						95:leaf=0.089473173
						96:leaf=0.587832689
					56:[apparentTemperature<7.0999999] yes=97,no=98,missing=98
						97:leaf=-0.106381379
						98:leaf=0.855955601
				30:[hour_x<15] yes=57,no=58,missing=57
					57:[windGust<3.8599999] yes=99,no=100,missing=100
						99:leaf=0.270648122
						100:leaf=0.0396733209
					58:[precipProbability<0.860000014] yes=101,no=102,missing=101
						101:leaf=-0.0075390893
						102:leaf=0.29932785
booster[15]:
0:[hour_x<8] yes=1,no=2,missing=1
	1:[hour_x<6] yes=3,no=4,missing=3
		3:[windSpeed<2.4000001] yes=7,no=8,missing=7
			7:[dewPoint<1.11000001] yes=15,no=16,missing=15
				15:[dewPoint<-0.449999988] yes=31,no=32,missing=31
					31:[pressure<1024.65002] yes=61,no=62,missing=61
						61:leaf=-0.0129961809
						62:leaf=-0.376322299
					32:[hour_x<5] yes=63,no=64,missing=63
						63:leaf=0.0879581794
						64:leaf=0.506574035
				16:[weekday<1] yes=33,no=34,missing=33
					33:[apparentTemperature<2.69000006] yes=65,no=66,missing=66
						65:leaf=-0.00670295535
						66:leaf=0.607847393
					34:[windGust<2.30999994] yes=67,no=68,missing=67
						67:leaf=0.126716897
						68:leaf=-0.128613055
			8:[temperature<3.02999997] yes=17,no=18,missing=17
				17:[windBearing<283] yes=35,no=36,missing=36
					35:[hour_x<5] yes=69,no=70,missing=69
						69:leaf=0.144906983
						70:leaf=0.488067716
					36:[cloudCover<0.540000021] yes=71,no=72,missing=72
						71:leaf=0.339676499
						72:leaf=0.632796824
				18:[windGust<18.9099998] yes=37,no=38,missing=38
					37:[windSpeed<4.65999985] yes=73,no=74,missing=73
						73:leaf=0.239263818
						74:leaf=0.0545032024
					38:[apparentTemperature<1.29999995] yes=75,no=76,missing=75
						75:leaf=0.588042974
						76:leaf=0.321923941
		4:[weekday<1] yes=9,no=10,missing=10
			9:[dewPoint<3.55999994] yes=19,no=20,missing=19
				19:[visibility<11.8900003] yes=39,no=40,missing=39
					39:[windGust<11.4499998] yes=77,no=78,missing=78
						77:leaf=-0.0118381735
						78:leaf=0.270689607
					40:leaf=-0.4194161
				20:[cloudCover<0.689999998] yes=41,no=42,missing=41
					41:[dewPoint<4.80999994] yes=79,no=80,missing=79
						79:leaf=0.0667496249
						80:leaf=-0.0767050311
					42:[windBearing<280] yes=81,no=82,missing=81
						81:leaf=0.494931757
						82:leaf=0.0881357715
			10:[temperature<6] yes=21,no=22,missing=21
				21:[windGust<2.30999994] yes=43,no=44,missing=43
					43:[apparentTemperature<1.24000001] yes=83,no=84,missing=83
						83:leaf=-0.0286245476
						84:leaf=-0.454406798
					44:[dewPoint<2.8900001] yes=85,no=86,missing=85
						85:leaf=0.699946105
						86:leaf=0.390727341
				22:[visibility<9.09000015] yes=45,no=46,missing=45
					45:[windSpeed<6.53000021] yes=87,no=88,missing=88
						87:leaf=-0.0839572474
						88:leaf=0.585139632
					46:[cloudCover<0.75999999] yes=89,no=90,missing=89
						89:leaf=0.16712825
						90:leaf=0.586626887
	2:[apparentTemperature<4.57999992] yes=5,no=6,missing=5
		5:[dewPoint<2.47000003] yes=11,no=12,missing=11
			11:[apparentTemperature<0.680000007] yes=23,no=24,missing=24
				23:[windSpeed<7.23999977] yes=47,no=48,missing=47
					47:[windSpeed<5.86999989] yes=91,no=92,missing=91
						91:leaf=0.531605124
						92:leaf=0.273459047
					48:[windGust<11.0699997] yes=93,no=94,missing=94
						93:leaf=-0.257335335
						94:leaf=0.11991214
				24:[pressure<1022.28998] yes=49,no=50,missing=49
					49:[windGust<8.39999962] yes=95,no=96,missing=95
						95:leaf=-0.355324715
						96:leaf=0.00890045054
					50:[visibility<6.36000013] yes=97,no=98,missing=97
						97:leaf=0.686506271
						98:leaf=0.117006898
			12:[temperature<5.03000021] yes=25,no=26,missing=25
				25:[pressure<1008.94] yes=51,no=52,missing=51
					51:[precipIntensity<0.431800008] yes=99,no=100,missing=100
						99:leaf=-0.0962919965
						100:leaf=-0.245451957
					52:[windGust<3.1400001] yes=101,no=102,missing=101
						101:leaf=0.199025854
						102:leaf=0.623571515
				26:[temperature<8.35000038] yes=53,no=54,missing=54
					53:[visibility<9.40999985] yes=103,no=104,missing=103
						103:leaf=0.642426431
						104:leaf=0.276469976
					54:[windGust<17.6800003] yes=105,no=106,missing=106
						105:leaf=0.286618203
						106:leaf=-0.151119396
		6:[pressure<998.51001] yes=13,no=14,missing=13
			13:[apparentTemperature<8.28999996] yes=27,no=28,missing=27
				27:leaf=0.689612806
				28:[windSpeed<15.3699999] yes=55,no=56,missing=56
					55:leaf=0.412707537
					56:leaf=0.214488253
			14:[dewPoint<2.73000002] yes=29,no=30,missing=30
				29:[humidity<0.629999995] yes=57,no=58,missing=58
					57:[cloudCover<0.349999994] yes=107,no=108,missing=107
						107:leaf=-0.0645996034
						108:leaf=0.16201143
					58:[hour_x<15] yes=109,no=110,missing=109
						109:leaf=0.5084185
						110:leaf=0.183408007
				30:[windBearing<101] yes=59,no=60,missing=60
					59:[pressure<1009.95001] yes=111,no=112,missing=111
						111:leaf=-0.0400996432
						112:leaf=0.176897451
					60:[windGust<6.34000015] yes=113,no=114,missing=114
						113:leaf=0.0599192083
						114:leaf=-0.0289844256
booster[16]:
0:[hour_x<9] yes=1,no=2,missing=1
	1:[windGust<9.89000034] yes=3,no=4,missing=3
		3:[windGust<5.69999981] yes=7,no=8,missing=7
			7:[pressure<1017.42999] yes=15,no=16,missing=16
				15:[windGust<5.01999998] yes=31,no=32,missing=31
					31:[windSpeed<2.88000011] yes=61,no=62,missing=61
						61:leaf=-0.0589612126
						62:leaf=-0.238748536
					32:[hour_x<1] yes=63,no=64,missing=63
						63:leaf=0.672882438
						64:leaf=-0.191541895
				16:[dewPoint<3.31999993] yes=33,no=34,missing=34
					33:[cloudCover<0.129999995] yes=65,no=66,missing=65
						65:leaf=0.489391148
						66:leaf=0.12826854
					34:[uvIndex<0.5] yes=67,no=68,missing=67
						67:leaf=0.563000321
						68:leaf=0.137313113
			8:[dewPoint<0.519999981] yes=17,no=18,missing=17
				17:[weekday<1] yes=35,no=36,missing=35
					35:[hour_x<5] yes=69,no=70,missing=69
						69:leaf=0.314175516
						70:leaf=0.171618789
					36:[dewPoint<0.25999999] yes=71,no=72,missing=71
						71:leaf=0.753784716
						72:leaf=0.216612324
				18:[windBearing<74] yes=37,no=38,missing=37
					37:[pressure<1010.39001] yes=73,no=74,missing=73
						73:leaf=-0.0401743092
						74:leaf=0.688721716
					38:[humidity<0.949999988] yes=75,no=76,missing=75
						75:leaf=-0.0511453748
						76:leaf=0.840617955
		4:[temperature<3.22000003] yes=9,no=10,missing=9
			9:[windSpeed<5.61000013] yes=19,no=20,missing=19
				19:[visibility<14.6099997] yes=39,no=40,missing=40
					39:leaf=0.628496349
					40:[hour_x<1] yes=77,no=78,missing=78
						77:leaf=0.35068512
						78:leaf=-0.0769803524
				20:[hour_x<2] yes=41,no=42,missing=41
					41:[apparentTemperature<-3.94000006] yes=79,no=80,missing=80
						79:leaf=-0.244732723
						80:leaf=0.268841654
					42:[pressure<1005.15002] yes=81,no=82,missing=81
						81:leaf=0.274703443
						82:leaf=0.502924621
			10:[pressure<1019.34998] yes=21,no=22,missing=21
				21:[temperature<4.23999977] yes=43,no=44,missing=43
					43:[dewPoint<0.119999997] yes=83,no=84,missing=84
						83:leaf=0.215395331
						84:leaf=-0.294528216
					44:[humidity<0.75999999] yes=85,no=86,missing=85
						85:leaf=0.55149138
						86:leaf=0.251796693
				22:[windBearing<194] yes=45,no=46,missing=45
					45:[cloudCover<0.970000029] yes=87,no=88,missing=87
						87:leaf=-0.0618359447
						88:leaf=0.590253413
					46:[dewPoint<6.92999983] yes=89,no=90,missing=89
						89:leaf=0.311896175
						90:leaf=0.011560116
	2:[hour_x<22] yes=5,no=6,missing=5
		5:[weekday<1] yes=11,no=12,missing=11
			11:[pressure<1005.69] yes=23,no=24,missing=23
				23:[visibility<9.86999989] yes=47,no=48,missing=47
					47:[hour_x<14] yes=91,no=92,missing=92
						91:leaf=0.39013499
						92:leaf=0.635843694
					48:[humidity<0.860000014] yes=93,no=94,missing=94
						93:leaf=0.39540109
						94:leaf=0.162947759
				24:[pressure<1022.71002] yes=49,no=50,missing=49
					49:[windBearing<219] yes=95,no=96,missing=95
						95:leaf=-0.0429161042
						96:leaf=0.128596023
					50:[windBearing<280] yes=97,no=98,missing=97
						97:leaf=0.297351778
						98:leaf=-0.0448072553
			12:[visibility<5.57000017] yes=25,no=26,missing=26
				25:[windBearing<89] yes=51,no=52,missing=51
					51:[dewPoint<8.31000042] yes=99,no=100,missing=100
						99:leaf=-0.00996851455
						100:leaf=0.499703795
					52:[hour_x<18] yes=101,no=102,missing=102
						101:leaf=0.259509683
						102:leaf=0.844907463
				26:[temperature<3.27999997] yes=53,no=54,missing=54
					53:leaf=0.651037037
					54:[uvIndex<1.5] yes=103,no=104,missing=103
						103:leaf=-0.0250949319
						104:leaf=0.0783438385
		6:[windBearing<225] yes=13,no=14,missing=13
			13:[pressure<1005.69] yes=27,no=28,missing=27
				27:[visibility<9.01000023] yes=55,no=56,missing=55
					55:[windBearing<122] yes=105,no=106,missing=105
						105:leaf=0.130911738
						106:leaf=0.709518194
					56:[humidity<0.920000017] yes=107,no=108,missing=107
						107:leaf=-0.100836515
						108:leaf=0.213512525
				28:[humidity<0.709999979] yes=57,no=58,missing=58
					57:[pressure<1025.25] yes=109,no=110,missing=109
						109:leaf=0.0882599652
						110:leaf=0.471680373
					58:[humidity<0.959999979] yes=111,no=112,missing=111
						111:leaf=-0.0745086074
						112:leaf=0.392766565
			14:[apparentTemperature<-3.43000007] yes=29,no=30,missing=29
				29:leaf=-0.117054485
				30:[humidity<0.920000017] yes=59,no=60,missing=59
					59:[cloudy<1] yes=113,no=114,missing=113
						113:leaf=0.582331896
						114:leaf=0.351572186
					60:[cloudCover<0.550000012] yes=115,no=116,missing=115
						115:leaf=0.568676233
						116:leaf=-0.233185366
booster[17]:
0:[hour_x<8] yes=1,no=2,missing=2
	1:[hour_x<6] yes=3,no=4,missing=3
		3:[windSpeed<2.4000001] yes=7,no=8,missing=7
			7:[dewPoint<1.11000001] yes=15,no=16,missing=16
				15:[dewPoint<-0.449999988] yes=31,no=32,missing=31
					31:[pressure<1024.65002] yes=61,no=62,missing=62
						61:leaf=-0.0235628374
						62:leaf=-0.355060548
					32:[cloudCover<0.189999998] yes=63,no=64,missing=63
						63:leaf=0.528167009
						64:leaf=0.0996936485
				16:[weekday<1] yes=33,no=34,missing=34
					33:[apparentTemperature<2.69000006] yes=65,no=66,missing=65
						65:leaf=-0.000482157659
						66:leaf=0.507488966
					34:[windGust<2.30999994] yes=67,no=68,missing=68
						67:leaf=0.103128076
						68:leaf=-0.123294294
			8:[windGust<18.9099998] yes=17,no=18,missing=17
				17:[temperature<3.02999997] yes=35,no=36,missing=36
					35:[windBearing<283] yes=69,no=70,missing=69
						69:leaf=0.192830607
						70:leaf=0.438981533
					36:[windSpeed<4.65999985] yes=71,no=72,missing=72
						71:leaf=0.199900493
						72:leaf=0.0344834737
				18:[apparentTemperature<1.29999995] yes=37,no=38,missing=37
					37:leaf=0.502729416
					38:leaf=0.269767493
		4:[weekday<1] yes=9,no=10,missing=9
			9:[temperature<7.82999992] yes=19,no=20,missing=19
				19:[visibility<11.8900003] yes=39,no=40,missing=40
					39:[temperature<2.47000003] yes=73,no=74,missing=73
						73:leaf=0.225537926
						74:leaf=0.0271727033
					40:[apparentTemperature<0.0700000003] yes=75,no=76,missing=75
						75:leaf=-0.399721622
						76:leaf=-0.152412757
				20:[windGust<11.3699999] yes=41,no=42,missing=41
					41:[windSpeed<5.23999977] yes=77,no=78,missing=77
						77:leaf=0.0272510834
						78:leaf=-0.145468816
					42:[pressure<1025.04004] yes=79,no=80,missing=79
						79:leaf=0.582200885
						80:leaf=0.0560143851
			10:[apparentTemperature<6.15999985] yes=21,no=22,missing=22
				21:[windGust<2.30999994] yes=43,no=44,missing=43
					43:[apparentTemperature<1.24000001] yes=81,no=82,missing=81
						81:leaf=-0.0374822207
						82:leaf=-0.432664245
					44:[windSpeed<2.6500001] yes=83,no=84,missing=83
						83:leaf=0.695107698
						84:leaf=0.376738846
				22:[windGust<5.65999985] yes=45,no=46,missing=46
					45:[dewPoint<8.35999966] yes=85,no=86,missing=85
						85:leaf=0.550832629
						86:leaf=0.201935887
					46:[humidity<0.769999981] yes=87,no=88,missing=88
						87:leaf=0.480224192
						88:leaf=-0.083247155
	2:[apparentTemperature<4.57999992] yes=5,no=6,missing=6
		5:[dewPoint<2.47000003] yes=11,no=12,missing=12
			11:[apparentTemperature<1.03999996] yes=23,no=24,missing=23
				23:[pressure<1004.47998] yes=47,no=48,missing=47
					47:[visibility<5.57000017] yes=89,no=90,missing=90
						89:leaf=-0.0358358473
						90:leaf=0.372555077
					48:[pressure<1021.96002] yes=91,no=92,missing=91
						91:leaf=-0.0126152327
						92:leaf=0.254577965
				24:[pressure<1011.87] yes=49,no=50,missing=49
					49:[windSpeed<11.6499996] yes=93,no=94,missing=93
						93:leaf=-0.118643038
						94:leaf=0.089806065
					50:[visibility<6.36000013] yes=95,no=96,missing=96
						95:leaf=0.72768265
						96:leaf=0.0710953549
			12:[temperature<6.28000021] yes=25,no=26,missing=26
				25:[visibility<8.5] yes=51,no=52,missing=52
					51:[uvIndex<0.5] yes=97,no=98,missing=97
						97:leaf=-0.13408117
						98:leaf=-0.370212525
					52:[pressure<996.669983] yes=99,no=100,missing=99
						99:leaf=-0.0620489679
						100:leaf=0.254567295
				26:[temperature<8.25] yes=53,no=54,missing=53
					53:[pressure<1011.13] yes=101,no=102,missing=101
						101:leaf=0.57912153
						102:leaf=0.256119698
					54:[windGust<17.6800003] yes=103,no=104,missing=104
						103:leaf=0.227092132
						104:leaf=-0.139079511
		6:[pressure<998.640015] yes=13,no=14,missing=14
			13:[apparentTemperature<8.28999996] yes=27,no=28,missing=28
				27:leaf=0.614283442
				28:[windBearing<295] yes=55,no=56,missing=56
					55:[humidity<0.74000001] yes=105,no=106,missing=105
						105:leaf=0.08852797
						106:leaf=0.338106275
					56:[apparentTemperature<10.29] yes=107,no=108,missing=107
						107:leaf=0.0488062389
						108:leaf=0.181679964
			14:[dewPoint<2.73000002] yes=29,no=30,missing=30
				29:[dewPoint<1.88999999] yes=57,no=58,missing=57
					57:[cloudy<1] yes=109,no=110,missing=110
						109:leaf=-0.117672376
						110:leaf=0.134772599
					58:[temperature<9.26000023] yes=111,no=112,missing=111
						111:leaf=0.371941656
						112:leaf=0.011589543
				30:[windBearing<101] yes=59,no=60,missing=60
					59:[pressure<1011.53998] yes=113,no=114,missing=113
						113:leaf=-0.00205381541
						114:leaf=0.172709674
					60:[windGust<6.34000015] yes=115,no=116,missing=116
						115:leaf=0.0483765453
						116:leaf=-0.0300013721
booster[18]:
0:[hour_x<8] yes=1,no=2,missing=1
	1:[hour_x<6] yes=3,no=4,missing=4
		3:[cloudCover<0.129999995] yes=7,no=8,missing=7
			7:[weekday<1] yes=15,no=16,missing=15
				15:leaf=0.156830594
				16:leaf=0.417788357
			8:[pressure<1022.59003] yes=17,no=18,missing=17
				17:[temperature<6.15999985] yes=31,no=32,missing=31
					31:[temperature<3.02999997] yes=57,no=58,missing=57
						57:leaf=0.257455558
						58:leaf=-0.0812422708
					32:[visibility<1.95000005] yes=59,no=60,missing=59
						59:leaf=-0.172982603
						60:leaf=0.269506216
				18:[pressure<1033.12] yes=33,no=34,missing=33
					33:[dewPoint<0.660000026] yes=61,no=62,missing=61
						61:leaf=0.154442325
						62:leaf=-0.0747511536
					34:[windGust<3.69000006] yes=63,no=64,missing=63
						63:leaf=0.0229639523
						64:leaf=0.361770928
		4:[weekday<1] yes=9,no=10,missing=10
			9:[temperature<7.82999992] yes=19,no=20,missing=20
				19:[visibility<11.8900003] yes=35,no=36,missing=35
					35:[dewPoint<3.55999994] yes=65,no=66,missing=65
						65:leaf=0.0278693419
						66:leaf=0.226263717
					36:[apparentTemperature<0.0700000003] yes=67,no=68,missing=67
						67:leaf=-0.366411477
						68:leaf=-0.142251909
				20:[windGust<11.3699999] yes=37,no=38,missing=37
					37:[windSpeed<5.23999977] yes=69,no=70,missing=69
						69:leaf=0.0252072159
						70:leaf=-0.135770902
					38:[pressure<1025.04004] yes=71,no=72,missing=71
						71:leaf=0.528832376
						72:leaf=0.0532136671
			10:[apparentTemperature<1.82000005] yes=21,no=22,missing=21
				21:[windGust<2.30999994] yes=39,no=40,missing=40
					39:[apparentTemperature<1.24000001] yes=73,no=74,missing=73
						73:leaf=-0.0341505893
						74:leaf=-0.403819948
					40:[dewPoint<-0.769999981] yes=75,no=76,missing=76
						75:leaf=-0.2882801
						76:leaf=0.535017133
				22:[windGust<3.27999997] yes=41,no=42,missing=41
					41:[temperature<3.22000003] yes=77,no=78,missing=78
						77:leaf=0.478543818
						78:leaf=0.882267654
					42:[dewPoint<3.31999993] yes=79,no=80,missing=80
						79:leaf=-0.291409999
						80:leaf=0.212069392
	2:[apparentTemperature<4.57999992] yes=5,no=6,missing=6
		5:[dewPoint<2.47000003] yes=11,no=12,missing=11
			11:[windBearing<134] yes=23,no=24,missing=23
				23:[windSpeed<8.22000027] yes=43,no=44,missing=44
					43:[windGust<6.46000004] yes=81,no=82,missing=81
						81:leaf=-0.102943614
						82:leaf=0.156657681
					44:[dewPoint<-0.0399999991] yes=83,no=84,missing=83
						83:leaf=-0.380343765
						84:leaf=-0.143989787
				24:[apparentTemperature<1.24000001] yes=45,no=46,missing=45
					45:[pressure<1004.47998] yes=85,no=86,missing=85
						85:leaf=0.352790266
						86:leaf=0.0476729795
					46:[pressure<1011.87] yes=87,no=88,missing=87
						87:leaf=-0.0674192831
						88:leaf=0.15106149
			12:[temperature<5.03000021] yes=25,no=26,missing=25
				25:[cloudCover<0.519999981] yes=47,no=48,missing=48
					47:[pressure<1035.12] yes=89,no=90,missing=90
						89:leaf=0.294106305
						90:leaf=0.686264038
					48:[humidity<0.899999976] yes=91,no=92,missing=91
						91:leaf=-0.174056754
						92:leaf=0.00110166986
				26:[windBearing<300] yes=49,no=50,missing=49
					49:[temperature<8.25] yes=93,no=94,missing=93
						93:leaf=0.33863911
						94:leaf=0.0582090579
					50:[pressure<997.210022] yes=95,no=96,missing=95
						95:leaf=-0.216225728
						96:leaf=0.207712293
		6:[pressure<998.640015] yes=13,no=14,missing=14
			13:[apparentTemperature<8.28999996] yes=27,no=28,missing=27
				27:leaf=0.556267738
				28:[windSpeed<15.3699999] yes=51,no=52,missing=51
					51:[humidity<0.74000001] yes=97,no=98,missing=97
						97:leaf=0.0841019675
						98:leaf=0.305668443
					52:leaf=0.150691539
			14:[dewPoint<2.73000002] yes=29,no=30,missing=30
				29:[dewPoint<1.88999999] yes=53,no=54,missing=53
					53:[cloudy<1] yes=99,no=100,missing=100
						99:leaf=-0.106232002
						100:leaf=0.12142618
					54:[windBearing<86] yes=101,no=102,missing=101
						101:leaf=0.571656823
						102:leaf=0.163394749
				30:[windBearing<101] yes=55,no=56,missing=56
					55:[hour_x<15] yes=103,no=104,missing=103
						103:leaf=0.179935709
						104:leaf=0.017373085
					56:[visibility<5.57000017] yes=105,no=106,missing=106
						105:leaf=0.253929853
						106:leaf=0.000260518718
booster[19]:
0:[hour_x<12] yes=1,no=2,missing=1
	1:[windGust<16.3999996] yes=3,no=4,missing=3
		3:[temperature<3.02999997] yes=7,no=8,missing=8
			7:[temperature<1.33000004] yes=15,no=16,missing=15
				15:[dewPoint<-0.449999988] yes=31,no=32,missing=32
					31:[windBearing<326] yes=63,no=64,missing=63
						63:leaf=-0.243159294
						64:leaf=0.00807334483
					32:[pressure<1027.34998] yes=65,no=66,missing=66
						65:leaf=0.0899404883
						66:leaf=0.269152492
				16:[humidity<0.920000017] yes=33,no=34,missing=33
					33:[weekday<1] yes=67,no=68,missing=67
						67:leaf=0.177863196
						68:leaf=0.379914999
					34:[pressure<1009.78998] yes=69,no=70,missing=70
						69:leaf=-0.10585288
						70:leaf=0.127823576
			8:[windGust<4.30000019] yes=17,no=18,missing=18
				17:[pressure<1017.42999] yes=35,no=36,missing=35
					35:[windGust<3.73000002] yes=71,no=72,missing=71
						71:leaf=-0.0266700145
						72:leaf=-0.181870252
					36:[cloudCover<0.800000012] yes=73,no=74,missing=73
						73:leaf=0.150806412
						74:leaf=0.460601002
				18:[pressure<1019.97998] yes=37,no=38,missing=38
					37:[pressure<1011.75] yes=75,no=76,missing=75
						75:leaf=0.0452655144
						76:leaf=0.308889359
					38:[pressure<1023.97998] yes=77,no=78,missing=77
						77:leaf=-0.0819358751
						78:leaf=0.0708883032
		4:[apparentTemperature<1.58000004] yes=9,no=10,missing=10
			9:[apparentTemperature<-2.70000005] yes=19,no=20,missing=19
				19:[weekday<1] yes=39,no=40,missing=39
					39:leaf=-0.216035843
					40:leaf=0.226857528
				20:[pressure<1009.95001] yes=41,no=42,missing=41
					41:[temperature<6.42000008] yes=79,no=80,missing=79
						79:leaf=0.636316717
						80:leaf=0.442865819
					42:[visibility<12.8900003] yes=81,no=82,missing=81
						81:leaf=0.127426013
						82:leaf=0.353035301
			10:[dewPoint<8.77000046] yes=21,no=22,missing=21
				21:[hour_x<3] yes=43,no=44,missing=43
					43:[cloudCover<0.620000005] yes=83,no=84,missing=84
						83:leaf=0.0457140319
						84:leaf=-0.451417923
					44:[dewPoint<6.25] yes=85,no=86,missing=85
						85:leaf=0.225449681
						86:leaf=0.0368579254
				22:[cloudCover<0.75] yes=45,no=46,missing=45
					45:[windBearing<225] yes=87,no=88,missing=87
						87:leaf=0.311930925
						88:leaf=0.21274069
					46:[visibility<9.65999985] yes=89,no=90,missing=89
						89:leaf=0.512658834
						90:leaf=0.200995162
	2:[hour_x<22] yes=5,no=6,missing=5
		5:[weekend<1] yes=11,no=12,missing=11
			11:[apparentTemperature<-0.219999999] yes=23,no=24,missing=24
				23:[apparentTemperature<-1.09000003] yes=47,no=48,missing=47
					47:leaf=0.525911272
					48:leaf=0.133218482
				24:[precipIntensity<0.543600023] yes=49,no=50,missing=49
					49:[hour_x<15] yes=91,no=92,missing=92
						91:leaf=0.0509859622
						92:leaf=-0.0350133404
					50:[windGust<9.18999958] yes=93,no=94,missing=93
						93:leaf=0.443517119
						94:leaf=-0.0643215105
			12:[pressure<993.72998] yes=25,no=26,missing=25
				25:[apparentTemperature<4.23000002] yes=51,no=52,missing=51
					51:[apparentTemperature<0.0700000003] yes=95,no=96,missing=96
						95:leaf=0.240258291
						96:leaf=0.503413498
					52:[precipIntensity<0.0737000033] yes=97,no=98,missing=98
						97:leaf=0.0806796402
						98:leaf=0.274936557
				26:[pressure<1011.87] yes=53,no=54,missing=53
					53:[pressure<1009.09998] yes=99,no=100,missing=100
						99:leaf=0.0625126585
						100:leaf=-0.135425672
					54:[dewPoint<4.6500001] yes=101,no=102,missing=102
						101:leaf=0.0864096731
						102:leaf=0.31172809
		6:[windBearing<225] yes=13,no=14,missing=14
			13:[pressure<1005.69] yes=27,no=28,missing=27
				27:[visibility<9.01000023] yes=55,no=56,missing=55
					55:[windBearing<122] yes=103,no=104,missing=104
						103:leaf=0.0830858648
						104:leaf=0.561966181
					56:[humidity<0.920000017] yes=105,no=106,missing=105
						105:leaf=-0.087229602
						106:leaf=0.151228055
				28:[humidity<0.699999988] yes=57,no=58,missing=58
					57:[cloudCover<0.720000029] yes=107,no=108,missing=108
						107:leaf=0.415134579
						108:leaf=0.0795344859
					58:[humidity<0.959999979] yes=109,no=110,missing=109
						109:leaf=-0.076028347
						110:leaf=0.339188427
			14:[cloudCover<0.469999999] yes=29,no=30,missing=29
				29:[windGust<5.36999989] yes=59,no=60,missing=59
					59:[windGust<3] yes=111,no=112,missing=112
						111:leaf=0.145233676
						112:leaf=0.654364347
					60:[apparentTemperature<3.88000011] yes=113,no=114,missing=113
						113:leaf=0.206673026
						114:leaf=-0.136319682
				30:[windGust<9.80000019] yes=61,no=62,missing=61
					61:[pressure<1028.39001] yes=115,no=116,missing=115
						115:leaf=-0.243565232
						116:leaf=0.142581984
					62:[apparentTemperature<-3.43000007] yes=117,no=118,missing=117
						117:leaf=-0.109485485
						118:leaf=0.415866196
booster[20]:
0:[hour_x<8] yes=1,no=2,missing=1
	1:[hour_x<6] yes=3,no=4,missing=3
		3:[dewPoint<8.06000042] yes=7,no=8,missing=7
			7:[windBearing<228] yes=15,no=16,missing=15
				15:[cloudCover<0.74000001] yes=29,no=30,missing=29
					29:[dewPoint<0.970000029] yes=57,no=58,missing=58
						57:leaf=0.216847852
						58:leaf=-0.125668362
					30:[temperature<5.03000021] yes=59,no=60,missing=60
						59:leaf=-0.250495464
						60:leaf=0.131902501
				16:[precipIntensity<0.688300014] yes=31,no=32,missing=32
					31:[dewPoint<6.09000015] yes=61,no=62,missing=61
						61:leaf=0.180438176
						62:leaf=-0.0718661174
					32:[windSpeed<11.6499996] yes=63,no=64,missing=63
						63:leaf=-0.555803001
						64:leaf=0.144683227
			8:[windBearing<226] yes=17,no=18,missing=17
				17:[cloudCover<0.629999995] yes=33,no=34,missing=34
					33:leaf=0.244793251
					34:leaf=0.582475245
				18:[windGust<6.53999996] yes=35,no=36,missing=36
					35:leaf=-0.225141197
					36:[weekday<1] yes=65,no=66,missing=65
						65:leaf=0.388903886
						66:leaf=0.13258031
		4:[pressure<1035.90002] yes=9,no=10,missing=9
			9:[windSpeed<5.53000021] yes=19,no=20,missing=19
				19:[pressure<1022.71002] yes=37,no=38,missing=37
					37:[cloudCover<0.810000002] yes=67,no=68,missing=67
						67:leaf=-0.160935208
						68:leaf=0.0968352482
					38:[pressure<1024.72998] yes=69,no=70,missing=69
						69:leaf=0.527688861
						70:leaf=0.165989995
				20:[windBearing<86] yes=39,no=40,missing=39
					39:[cloudCover<0.49000001] yes=71,no=72,missing=72
						71:leaf=0.339328557
						72:leaf=0.644803703
					40:[windGust<11.4499998] yes=73,no=74,missing=73
						73:leaf=0.027811775
						74:leaf=0.294955909
			10:leaf=0.794554293
	2:[apparentTemperature<4.57999992] yes=5,no=6,missing=6
		5:[dewPoint<2.47000003] yes=11,no=12,missing=11
			11:[windBearing<134] yes=21,no=22,missing=21
				21:[windSpeed<7.23999977] yes=41,no=42,missing=41
					41:[dewPoint<0.970000029] yes=75,no=76,missing=76
						75:leaf=0.211966872
						76:leaf=-0.0757171363
					42:[hour_x<13] yes=77,no=78,missing=77
						77:leaf=-0.262394249
						78:leaf=-0.0169369243
				22:[apparentTemperature<1.24000001] yes=43,no=44,missing=43
					43:[pressure<1004.47998] yes=79,no=80,missing=79
						79:leaf=0.297978014
						80:leaf=0.0362219475
					44:[windBearing<177] yes=81,no=82,missing=81
						81:leaf=0.224614859
						82:leaf=-0.0189828854
			12:[temperature<6.28000021] yes=23,no=24,missing=23
				23:[pressure<1025.41003] yes=45,no=46,missing=45
					45:[hour_x<12] yes=83,no=84,missing=84
						83:leaf=0.230229959
						84:leaf=-0.0855183527
					46:[humidity<0.810000002] yes=85,no=86,missing=85
						85:leaf=-0.135970205
						86:leaf=0.368098825
				24:[precipProbability<0.949999988] yes=47,no=48,missing=48
					47:[pressure<999.080017] yes=87,no=88,missing=88
						87:leaf=0.638400376
						88:leaf=0.140519857
					48:[windGust<9.44999981] yes=89,no=90,missing=90
						89:leaf=0.75331825
						90:leaf=0.282473505
		6:[pressure<998.780029] yes=13,no=14,missing=14
			13:[apparentTemperature<8.28999996] yes=25,no=26,missing=25
				25:[temperature<7.71000004] yes=49,no=50,missing=49
					49:leaf=0.625454366
					50:leaf=0.380580276
				26:[windBearing<278] yes=51,no=52,missing=51
					51:[precipIntensity<1.03629994] yes=91,no=92,missing=92
						91:leaf=0.258788317
						92:leaf=0.126743346
					52:leaf=0.133411929
			14:[windBearing<95] yes=27,no=28,missing=28
				27:[hour_x<14] yes=53,no=54,missing=53
					53:[pressure<1016.54999] yes=93,no=94,missing=93
						93:leaf=0.0711769909
						94:leaf=0.398174018
					54:[windBearing<51] yes=95,no=96,missing=95
						95:leaf=0.2213943
						96:leaf=-0.0220994558
				28:[windGust<3.21000004] yes=55,no=56,missing=56
					55:[cloudCover<0.819999993] yes=97,no=98,missing=98
						97:leaf=0.0791346878
						98:leaf=0.449251741
					56:[pressure<1020.31] yes=99,no=100,missing=100
						99:leaf=0.0498616174
						100:leaf=-0.0212587025
booster[21]:
0:[hour_x<12] yes=1,no=2,missing=1
	1:[visibility<1.95000005] yes=3,no=4,missing=4
		3:[windSpeed<3.22000003] yes=7,no=8,missing=7
			7:[hour_x<4] yes=15,no=16,missing=16
				15:[windBearing<200] yes=31,no=32,missing=31
					31:leaf=-0.0919168517
					32:leaf=-0.182968423
				16:[windGust<6.42999983] yes=33,no=34,missing=33
					33:[apparentTemperature<7.53000021] yes=57,no=58,missing=57
						57:leaf=0.0264090542
						58:leaf=-0.0555652678
					34:[pressure<1010.06] yes=59,no=60,missing=59
						59:leaf=-0.112192743
						60:leaf=-0.00539699802
			8:[apparentTemperature<3.80999994] yes=17,no=18,missing=18
				17:leaf=-0.172503367
				18:leaf=-0.366571695
		4:[windSpeed<9.72999954] yes=9,no=10,missing=9
			9:[windSpeed<1.77999997] yes=19,no=20,missing=19
				19:[windGust<2.76999998] yes=35,no=36,missing=36
					35:[temperature<3.63000011] yes=61,no=62,missing=61
						61:leaf=0.170355469
						62:leaf=-0.184953079
					36:[hour_x<5] yes=63,no=64,missing=64
						63:leaf=0.0251915697
						64:leaf=0.475476235
				20:[humidity<0.899999976] yes=37,no=38,missing=37
					37:[pressure<1035.69995] yes=65,no=66,missing=65
						65:leaf=0.0718205795
						66:leaf=-0.218717501
					38:[cloudCover<0.74000001] yes=67,no=68,missing=67
						67:leaf=0.0748045594
						68:leaf=0.288010478
			10:[cloudCover<0.870000005] yes=21,no=22,missing=21
				21:[humidity<0.829999983] yes=39,no=40,missing=39
					39:[temperature<7.01999998] yes=69,no=70,missing=69
						69:leaf=0.353671968
						70:leaf=0.196918532
					40:[precipIntensity<0.838199973] yes=71,no=72,missing=71
						71:leaf=0.143796489
						72:leaf=-0.345622241
				22:[dewPoint<4.5999999] yes=41,no=42,missing=41
					41:[apparentTemperature<1.88] yes=73,no=74,missing=73
						73:leaf=0.0618116371
						74:leaf=-0.110001937
					42:leaf=-0.386884958
	2:[hour_x<22] yes=5,no=6,missing=6
		5:[weekday<1] yes=11,no=12,missing=12
			11:[pressure<993.72998] yes=23,no=24,missing=23
				23:[apparentTemperature<4.23000002] yes=43,no=44,missing=43
					43:[apparentTemperature<0.0700000003] yes=75,no=76,missing=75
						75:leaf=0.197199389
						76:leaf=0.421552658
					44:[precipIntensity<0.0737000033] yes=77,no=78,missing=77
						77:leaf=0.0664068237
						78:leaf=0.228562862
				24:[pressure<1011.87] yes=45,no=46,missing=45
					45:[pressure<1009.09998] yes=79,no=80,missing=79
						79:leaf=0.0505593419
						80:leaf=-0.122180454
					46:[windSpeed<6.07000017] yes=81,no=82,missing=82
						81:leaf=0.191138729
						82:leaf=0.0389821343
			12:[hour_x<20] yes=25,no=26,missing=25
				25:[hour_x<15] yes=47,no=48,missing=47
					47:[apparentTemperature<11.6099997] yes=83,no=84,missing=84
						83:leaf=0.100189522
						84:leaf=-0.0462783836
					48:[windBearing<108] yes=85,no=86,missing=85
						85:leaf=-0.148486361
						86:leaf=-0.0359991714
				26:[pressure<1013.03003] yes=49,no=50,missing=50
					49:[windGust<6.5] yes=87,no=88,missing=87
						87:leaf=0.834574878
						88:leaf=0.139103994
					50:[pressure<1031] yes=89,no=90,missing=89
						89:leaf=-0.0868621171
						90:leaf=0.161265865
		6:[windBearing<234] yes=13,no=14,missing=14
			13:[cloudCover<0.0199999996] yes=27,no=28,missing=28
				27:leaf=0.458504021
				28:[pressure<1005.69] yes=51,no=52,missing=51
					51:[visibility<9.01000023] yes=91,no=92,missing=91
						91:leaf=0.328098744
						92:leaf=-0.0381790064
					52:[windBearing<51] yes=93,no=94,missing=93
						93:leaf=0.167299405
						94:leaf=-0.0479840413
			14:[cloudy<1] yes=29,no=30,missing=29
				29:[humidity<0.870000005] yes=53,no=54,missing=53
					53:leaf=0.508086622
					54:leaf=-0.00979473628
				30:[cloudCover<0.469999999] yes=55,no=56,missing=55
					55:[windGust<5.07999992] yes=95,no=96,missing=95
						95:leaf=0.589032412
						96:leaf=0.134097531
					56:[windGust<9.80000019] yes=97,no=98,missing=98
						97:leaf=-0.0455903523
						98:leaf=0.207029298
booster[22]:
0:[hour_x<8] yes=1,no=2,missing=1
	1:[hour_x<6] yes=3,no=4,missing=4
		3:[cloudCover<0.129999995] yes=7,no=8,missing=8
			7:[weekday<1] yes=15,no=16,missing=16
				15:leaf=0.112809062
				16:leaf=0.331793606
			8:[pressure<1022.59003] yes=17,no=18,missing=17
				17:[temperature<6.15999985] yes=31,no=32,missing=31
					31:[pressure<1002.52002] yes=57,no=58,missing=57
						57:leaf=-0.17892918
						58:leaf=0.11770469
					32:[visibility<1.95000005] yes=59,no=60,missing=59
						59:leaf=-0.147908196
						60:leaf=0.201252773
				18:[pressure<1033.12] yes=33,no=34,missing=33
					33:[dewPoint<0.660000026] yes=61,no=62,missing=61
						61:leaf=0.1025052
						62:leaf=-0.0850811452
					34:[windGust<3.69000006] yes=63,no=64,missing=63
						63:leaf=-0.00219757203
						64:leaf=0.289704889
		4:[weekday<1] yes=9,no=10,missing=9
			9:[temperature<7.82999992] yes=19,no=20,missing=20
				19:[visibility<11.8900003] yes=35,no=36,missing=35
					35:[dewPoint<3.55999994] yes=65,no=66,missing=66
						65:leaf=-0.00904041063
						66:leaf=0.179702774
					36:[apparentTemperature<0.0700000003] yes=67,no=68,missing=67
						67:leaf=-0.344363481
						68:leaf=-0.129845172
				20:[windGust<11.3699999] yes=37,no=38,missing=38
					37:[windSpeed<5.23999977] yes=69,no=70,missing=69
						69:leaf=0.00977766514
						70:leaf=-0.1418394
					38:[cloudCover<0.850000024] yes=71,no=72,missing=72
						71:leaf=0.2932522
						72:leaf=0.671998441
			10:[apparentTemperature<6.15999985] yes=21,no=22,missing=21
				21:[windGust<2.30999994] yes=39,no=40,missing=39
					39:[apparentTemperature<1.24000001] yes=73,no=74,missing=73
						73:leaf=-0.0649006292
						74:leaf=-0.424649298
					40:[windSpeed<2.6500001] yes=75,no=76,missing=75
						75:leaf=0.490575701
						76:leaf=0.250330746
				22:[windGust<5.65999985] yes=41,no=42,missing=41
					41:[dewPoint<8.35999966] yes=77,no=78,missing=77
						77:leaf=0.417152256
						78:leaf=0.139342949
					42:[humidity<0.709999979] yes=79,no=80,missing=79
						79:leaf=0.396101773
						80:leaf=-0.105275869
	2:[hour_x<22] yes=5,no=6,missing=6
		5:[weekday<1] yes=11,no=12,missing=11
			11:[pressure<1004.84003] yes=23,no=24,missing=23
				23:[visibility<14.0299997] yes=43,no=44,missing=43
					43:[apparentTemperature<4.23000002] yes=81,no=82,missing=81
						81:leaf=0.338743955
						82:leaf=0.204073653
					44:[apparentTemperature<-1.09000003] yes=83,no=84,missing=83
						83:leaf=0.00939582195
						84:leaf=0.16262266
				24:[pressure<1022.71002] yes=45,no=46,missing=45
					45:[windBearing<219] yes=85,no=86,missing=86
						85:leaf=-0.0531632081
						86:leaf=0.0962027609
					46:[windBearing<280] yes=87,no=88,missing=87
						87:leaf=0.203659996
						88:leaf=-0.066060327
			12:[visibility<6.36000013] yes=25,no=26,missing=26
				25:[windBearing<87] yes=47,no=48,missing=48
					47:[dewPoint<8.46000004] yes=89,no=90,missing=89
						89:leaf=-0.0240473803
						90:leaf=0.4035227
					48:[pressure<1010.84998] yes=91,no=92,missing=91
						91:leaf=0.454272717
						92:leaf=0.127585143
				26:[temperature<3.22000003] yes=49,no=50,missing=50
					49:[windBearing<295] yes=93,no=94,missing=93
						93:leaf=0.387754977
						94:leaf=0.1391242
					50:[dewPoint<1.82000005] yes=95,no=96,missing=95
						95:leaf=-0.0933539271
						96:leaf=0.0125328945
		6:[windBearing<234] yes=13,no=14,missing=14
			13:[cloudCover<0.0199999996] yes=27,no=28,missing=27
				27:leaf=0.419203669
				28:[pressure<1005.69] yes=51,no=52,missing=51
					51:[visibility<9.01000023] yes=97,no=98,missing=97
						97:leaf=0.296780258
						98:leaf=-0.034562055
					52:[humidity<0.959999979] yes=99,no=100,missing=99
						99:leaf=-0.0313564092
						100:leaf=0.277683675
			14:[cloudy<1] yes=29,no=30,missing=29
				29:[humidity<0.870000005] yes=53,no=54,missing=53
					53:leaf=0.459030062
					54:leaf=-0.00930500031
				30:[cloudCover<0.469999999] yes=55,no=56,missing=56
					55:[windGust<5.07999992] yes=101,no=102,missing=101
						101:leaf=0.533594131
						102:leaf=0.121719316
					56:[pressure<1028.39001] yes=103,no=104,missing=103
						103:leaf=-0.000820831105
						104:leaf=0.238981605
booster[23]:
0:[hour_x<15] yes=1,no=2,missing=1
	1:[temperature<3.02999997] yes=3,no=4,missing=4
		3:[temperature<1.33000004] yes=7,no=8,missing=7
			7:[dewPoint<-0.449999988] yes=15,no=16,missing=16
				15:[windBearing<326] yes=31,no=32,missing=31
					31:[windBearing<306] yes=61,no=62,missing=61
						61:leaf=-0.110189214
						62:leaf=-0.555496156
					32:[visibility<10.1999998] yes=63,no=64,missing=63
						63:leaf=0.0444992892
						64:leaf=-0.157295436
				16:[weekday<1] yes=33,no=34,missing=34
					33:[apparentTemperature<0.879999995] yes=65,no=66,missing=65
						65:leaf=0.0724542663
						66:leaf=-0.0186812878
					34:leaf=0.319751024
			8:[humidity<0.920000017] yes=17,no=18,missing=17
				17:[windGust<2.30999994] yes=35,no=36,missing=36
					35:[windSpeed<1.44000006] yes=67,no=68,missing=67
						67:leaf=-0.344709337
						68:leaf=0.0169199239
					36:[weekday<1] yes=69,no=70,missing=69
						69:leaf=0.133538589
						70:leaf=0.312631667
				18:[pressure<1009.78998] yes=37,no=38,missing=38
					37:[cloudCover<0.519999981] yes=71,no=72,missing=71
						71:leaf=-0.15002887
						72:leaf=-0.0261915214
					38:[apparentTemperature<0.620000005] yes=73,no=74,missing=73
						73:leaf=0.157907009
						74:leaf=-0.0764396191
		4:[cloudCover<0.74000001] yes=9,no=10,missing=9
			9:[windSpeed<1.99000001] yes=19,no=20,missing=20
				19:[visibility<9.5] yes=39,no=40,missing=40
					39:[windGust<3.02999997] yes=75,no=76,missing=75
						75:leaf=0.187915176
						76:leaf=0.689044297
					40:[pressure<1031.76001] yes=77,no=78,missing=77
						77:leaf=-0.00953101739
						78:leaf=0.436359227
				20:[pressure<1035.64001] yes=41,no=42,missing=42
					41:[windBearing<290] yes=79,no=80,missing=79
						79:leaf=0.0453813225
						80:leaf=-0.0623253658
					42:[cloudCover<0.289999992] yes=81,no=82,missing=81
						81:leaf=-0.461214602
						82:leaf=-0.0416574962
			10:[pressure<998.330017] yes=21,no=22,missing=22
				21:[dewPoint<4.0999999] yes=43,no=44,missing=43
					43:[apparentTemperature<2.16000009] yes=83,no=84,missing=83
						83:leaf=-0.0747538954
						84:leaf=-0.479109675
					44:[pressure<989.859985] yes=85,no=86,missing=85
						85:leaf=0.182063609
						86:leaf=0.523766935
				22:[pressure<998.640015] yes=45,no=46,missing=46
					45:[dewPoint<3.88000011] yes=87,no=88,missing=88
						87:leaf=-0.7045241
						88:leaf=-0.277698398
					46:[windGust<18.0599995] yes=89,no=90,missing=90
						89:leaf=0.0774420947
						90:leaf=0.263049722
	2:[apparentTemperature<4.01999998] yes=5,no=6,missing=5
		5:[hour_x<19] yes=11,no=12,missing=12
			11:[weekday<1] yes=23,no=24,missing=23
				23:[dewPoint<1.91999996] yes=47,no=48,missing=47
					47:[cloudCover<0.769999981] yes=91,no=92,missing=92
						91:leaf=0.120279588
						92:leaf=-0.167314529
					48:[cloudCover<0.839999974] yes=93,no=94,missing=93
						93:leaf=0.377416432
						94:leaf=0.0470787771
				24:[humidity<0.769999981] yes=49,no=50,missing=49
					49:[visibility<10.0100002] yes=95,no=96,missing=96
						95:leaf=-0.173794255
						96:leaf=-0.0193252992
					50:[visibility<11.1199999] yes=97,no=98,missing=97
						97:leaf=-0.280226678
						98:leaf=-0.152712807
			12:[temperature<6.28000021] yes=25,no=26,missing=26
				25:[visibility<8.35000038] yes=51,no=52,missing=51
					51:[dewPoint<2.91000009] yes=99,no=100,missing=99
						99:leaf=-0.262306184
						100:leaf=-0.0863447785
					52:[apparentTemperature<-3.43000007] yes=101,no=102,missing=102
						101:leaf=-0.102619126
						102:leaf=0.141224712
				26:[visibility<9.73999977] yes=53,no=54,missing=53
					53:[windBearing<185] yes=103,no=104,missing=104
						103:leaf=0.21839951
						104:leaf=0.817149639
					54:[visibility<12.0100002] yes=105,no=106,missing=105
						105:leaf=0.0406279974
						106:leaf=0.460561961
		6:[windBearing<51] yes=13,no=14,missing=13
			13:[windGust<3.95000005] yes=27,no=28,missing=27
				27:leaf=0.759455204
