booster[0]:
0:[weekday<1] yes=1,no=2,missing=1
	1:[pressure<1006.59003] yes=3,no=4,missing=3
		3:[windGust<8.94999981] yes=7,no=8,missing=7
			7:[apparentTemperature<3.06999993] yes=15,no=16,missing=15
				15:leaf=1.67763162
				16:[hour_x<2] yes=31,no=32,missing=31
					31:leaf=0.128571436
					32:leaf=0.266666681
			8:[visibility<11.6000004] yes=17,no=18,missing=17
				17:[apparentTemperature<5.03000021] yes=33,no=34,missing=33
					33:leaf=-0.0495327115
					34:[pressure<992.630005] yes=59,no=60,missing=59
						59:leaf=-0.0303571429
						60:leaf=0.104411773
				18:[temperature<4.03000021] yes=35,no=36,missing=35
					35:[pressure<998.179993] yes=61,no=62,missing=61
						61:leaf=-0.0458333343
						62:leaf=1.57647061
					36:[apparentTemperature<11.3100004] yes=63,no=64,missing=63
						63:leaf=-0.0424242429
						64:leaf=0.0625
		4:[apparentTemperature<2.28999996] yes=9,no=10,missing=9
			9:[pressure<1010.39001] yes=19,no=20,missing=19
				19:leaf=1.3728261
				20:[windBearing<281] yes=37,no=38,missing=37
					37:[windBearing<252] yes=65,no=66,missing=65
						65:leaf=0.744761884
						66:leaf=0.395049512
					38:leaf=1.15375006
			10:[hour_x<10] yes=21,no=22,missing=21
				21:[humidity<0.829999983] yes=39,no=40,missing=39
					39:[dewPoint<2.48000002] yes=67,no=68,missing=67
						67:leaf=0.761224508
						68:leaf=0.24727273
					40:leaf=1.39733338
				22:[windBearing<288] yes=41,no=42,missing=41
					41:[pressure<1034.26001] yes=69,no=70,missing=69
						69:leaf=1.56013405
						70:leaf=0.0272727292
					42:[pressure<1016.15002] yes=71,no=72,missing=71
						71:leaf=0.169230774
						72:leaf=1.28888893
	2:[hour_x<14] yes=5,no=6,missing=5
		5:[temperature<6.92000008] yes=11,no=12,missing=11
			11:[windBearing<119] yes=23,no=24,missing=23
				23:[hour_x<9] yes=43,no=44,missing=43
					43:[precipIntensity<2.01929998] yes=73,no=74,missing=73
						73:leaf=-0.0313492082
						74:leaf=0.0916666687
					44:[apparentTemperature<-0.699999988] yes=75,no=76,missing=75
						75:leaf=0.300000012
						76:leaf=0.0470588244
				24:[windBearing<167] yes=45,no=46,missing=45
					45:[pressure<1025.06995] yes=77,no=78,missing=77
						77:leaf=0.0638554245
						78:leaf=0.302222222
					46:[cloudCover<0.129999995] yes=79,no=80,missing=79
						79:leaf=0.186538458
						80:leaf=0.0359143317
			12:[hour_x<7] yes=25,no=26,missing=25
				25:[temperature<8.77999973] yes=47,no=48,missing=47
					47:[windGust<8.31000042] yes=81,no=82,missing=81
						81:leaf=0.659895837
						82:leaf=0.186206907
					48:[cloudCover<0.709999979] yes=83,no=84,missing=83
						83:leaf=0.529268324
						84:leaf=0.0912234113
				26:[windSpeed<2.26999998] yes=49,no=50,missing=49
					49:[apparentTemperature<7.19000006] yes=85,no=86,missing=85
						85:leaf=0.453125
						86:leaf=0.0767123327
					50:[windGust<4.98000002] yes=87,no=88,missing=87
						87:leaf=0.0223776232
						88:leaf=0.0776293799
		6:[pressure<1019.31] yes=13,no=14,missing=13
			13:[apparentTemperature<-1.55999994] yes=27,no=28,missing=27
				27:[cloudCover<0.550000012] yes=51,no=52,missing=51
					51:leaf=0.753125012
					52:[apparentTemperature<-1.97000003] yes=89,no=90,missing=89
						89:leaf=-0.0250000004
						90:leaf=0.328571439
				28:[precipProbability<0.980000019] yes=53,no=54,missing=53
					53:[temperature<6.86000013] yes=91,no=92,missing=91
						91:leaf=0.0783898309
						92:leaf=0.18639113
					54:[pressure<1007.64001] yes=93,no=94,missing=93
						93:leaf=0.470866174
						94:leaf=0.035576921
			14:[pressure<1025.83997] yes=29,no=30,missing=29
				29:[humidity<0.879999995] yes=55,no=56,missing=55
					55:[windSpeed<6.09000015] yes=95,no=96,missing=95
						95:leaf=0.44209677
						96:leaf=0.981000066
					56:[pressure<1020] yes=97,no=98,missing=97
						97:leaf=0.0874999985
						98:leaf=1.62125003
				30:[windBearing<167] yes=57,no=58,missing=57
					57:[hour_x<17] yes=99,no=100,missing=99
						99:leaf=0.188888893
						100:leaf=0.0398648642
					58:[apparentTemperature<10.6400003] yes=101,no=102,missing=101
						101:leaf=0.393249989
						102:leaf=0.213321164
booster[1]:
0:[weekday<1] yes=1,no=2,missing=1
	1:[pressure<1006.59003] yes=3,no=4,missing=3
		3:[windGust<8.94999981] yes=7,no=8,missing=7
			7:[apparentTemperature<3.06999993] yes=15,no=16,missing=15
				15:leaf=1.51428413
				16:[hour_x<2] yes=31,no=32,missing=31
					31:leaf=0.117551021
					32:leaf=0.248888895
			8:[visibility<11.6000004] yes=17,no=18,missing=17
				17:[apparentTemperature<5.03000021] yes=33,no=34,missing=33
					33:leaf=-0.0446257256
					34:[hour_x<5] yes=61,no=62,missing=61
						61:leaf=0.132213622
						62:leaf=-0.00173612486
				18:[temperature<4.03000021] yes=35,no=36,missing=35
					35:[pressure<998.179993] yes=63,no=64,missing=63
						63:leaf=-0.041631937
						64:leaf=1.42809689
					36:[apparentTemperature<11.3100004] yes=65,no=66,missing=66
						65:leaf=-0.0383103788
						66:leaf=0.0578125082
		4:[apparentTemperature<2.28999996] yes=9,no=10,missing=9
			9:[pressure<1010.39001] yes=19,no=20,missing=19
				19:[hour_x<9] yes=37,no=38,missing=38
					37:leaf=1.08327508
					38:leaf=1.46192408
				20:[windBearing<281] yes=39,no=40,missing=40
					39:[windBearing<230] yes=67,no=68,missing=67
						67:leaf=0.842773259
						68:leaf=0.43297258
					40:leaf=1.04125953
			10:[hour_x<10] yes=21,no=22,missing=21
				21:[humidity<0.829999983] yes=41,no=42,missing=42
					41:[apparentTemperature<4.11999989] yes=69,no=70,missing=69
						69:leaf=0.677412987
						70:leaf=0.214392215
					42:leaf=1.25946319
				22:[windBearing<288] yes=43,no=44,missing=44
					43:[pressure<1034.26001] yes=71,no=72,missing=71
						71:leaf=1.40438199
						72:leaf=0.024793392
					44:[pressure<1016.15002] yes=73,no=74,missing=73
						73:leaf=0.152741089
						74:leaf=1.16286421
	2:[hour_x<19] yes=5,no=6,missing=5
		5:[hour_x<14] yes=11,no=12,missing=11
			11:[temperature<6.98000002] yes=23,no=24,missing=24
				23:[cloudCover<0.119999997] yes=45,no=46,missing=46
					45:[apparentTemperature<-1.13999999] yes=75,no=76,missing=75
						75:leaf=0.109455101
						76:leaf=0.212767363
					46:[windSpeed<6.36000013] yes=77,no=78,missing=77
						77:leaf=0.0232647602
						78:leaf=0.0723510459
				24:[hour_x<7] yes=47,no=48,missing=47
					47:[dewPoint<6.34000015] yes=79,no=80,missing=79
						79:leaf=0.570070207
						80:leaf=0.168279871
					48:[windSpeed<2.26999998] yes=81,no=82,missing=81
						81:leaf=0.13202256
						82:leaf=0.0608233586
			12:[windBearing<264] yes=25,no=26,missing=25
				25:[humidity<0.409999996] yes=49,no=50,missing=50
					49:[pressure<1032.21997] yes=83,no=84,missing=83
						83:leaf=0.29055652
						84:leaf=0.526061714
					50:[windSpeed<1.13999999] yes=85,no=86,missing=86
						85:leaf=0.436454356
						86:leaf=0.154772624
				26:[dewPoint<6.65999985] yes=51,no=52,missing=51
					51:[windSpeed<2.1099999] yes=87,no=88,missing=88
						87:leaf=0.635975063
						88:leaf=0.185205981
					52:[dewPoint<7.51999998] yes=89,no=90,missing=89
						89:leaf=1.36575925
						90:leaf=-0.00581879495
		6:[pressure<999.52002] yes=13,no=14,missing=13
			13:[hour_x<21] yes=27,no=28,missing=28
				27:[apparentTemperature<-0.560000002] yes=53,no=54,missing=53
					53:leaf=0.261440724
					54:[temperature<6.21000004] yes=91,no=92,missing=91
						91:leaf=0.0564894378
						92:leaf=-0.0505912416
				28:[windSpeed<3.05999994] yes=55,no=56,missing=55
					55:leaf=-0.0642671138
					56:[hour_x<22] yes=93,no=94,missing=93
						93:leaf=-0.00212701946
						94:leaf=-0.0454027764
			14:[pressure<1025.83997] yes=29,no=30,missing=29
				29:[pressure<1019.81] yes=57,no=58,missing=58
					57:[pressure<1007.82001] yes=95,no=96,missing=95
						95:leaf=0.483129263
						96:leaf=0.111013927
					58:[dewPoint<3.71000004] yes=97,no=98,missing=98
						97:leaf=0.600379825
						98:leaf=1.31215096
				30:[dewPoint<4.17000008] yes=59,no=60,missing=59
					59:[windSpeed<2.91000009] yes=99,no=100,missing=100
						99:leaf=0.0275794845
						100:leaf=0.269391954
					60:[windSpeed<3.5] yes=101,no=102,missing=101
						101:leaf=0.68550849
						102:leaf=0.22536169
booster[2]:
0:[weekday<1] yes=1,no=2,missing=2
	1:[pressure<1007.02002] yes=3,no=4,missing=3
		3:[windGust<8.94999981] yes=7,no=8,missing=7
			7:[apparentTemperature<3.06999993] yes=15,no=16,missing=15
				15:leaf=1.36684012
				16:[hour_x<2] yes=31,no=32,missing=31
					31:leaf=0.107475199
					32:leaf=0.340797156
			8:[visibility<11.6000004] yes=17,no=18,missing=18
				17:[apparentTemperature<5.03000021] yes=33,no=34,missing=34
					33:[cloudCover<0.850000024] yes=59,no=60,missing=60
						59:leaf=-0.040204864
						60:leaf=-0.173226207
					34:[pressure<990.549988] yes=61,no=62,missing=62
						61:leaf=-0.0445625447
						62:leaf=0.0766469836
				18:[windSpeed<11.0100002] yes=35,no=36,missing=36
					35:[temperature<3.86999989] yes=63,no=64,missing=63
						63:leaf=0.512127876
						64:leaf=-0.02577064
					36:leaf=1.28628719
		4:[apparentTemperature<2.28999996] yes=9,no=10,missing=10
			9:[pressure<1010.39001] yes=19,no=20,missing=19
				19:leaf=1.11028981
				20:[windBearing<276] yes=37,no=38,missing=37
					37:[cloudCover<0.649999976] yes=65,no=66,missing=65
						65:leaf=0.641486824
						66:leaf=0.298648804
					38:leaf=0.916121185
			10:[hour_x<10] yes=21,no=22,missing=21
				21:[humidity<0.829999983] yes=39,no=40,missing=40
					39:[dewPoint<2.48000002] yes=67,no=68,missing=67
						67:leaf=0.621241689
						68:leaf=0.19942008
					40:[windBearing<307] yes=69,no=70,missing=69
						69:leaf=1.16280937
						70:leaf=0.700846016
				22:[windBearing<288] yes=41,no=42,missing=41
					41:[pressure<1033.69995] yes=71,no=72,missing=72
						71:leaf=1.30227172
						72:leaf=0.680565894
					42:[pressure<1016.15002] yes=73,no=74,missing=74
						73:leaf=0.137859151
						74:leaf=1.04916191
	2:[hour_x<19] yes=5,no=6,missing=5
		5:[hour_x<14] yes=11,no=12,missing=11
			11:[temperature<6.98000002] yes=23,no=24,missing=23
				23:[pressure<995.390015] yes=43,no=44,missing=43
					43:[hour_x<7] yes=75,no=76,missing=75
						75:leaf=-0.0499700233
						76:leaf=0.0326354131
					44:[pressure<1034.68005] yes=77,no=78,missing=78
						77:leaf=0.0564675406
						78:leaf=-0.00883043092
				24:[hour_x<7] yes=45,no=46,missing=45
					45:[temperature<9.43000031] yes=79,no=80,missing=79
						79:leaf=0.410554707
						80:leaf=0.0736802965
					46:[hour_x<8] yes=81,no=82,missing=81
						81:leaf=0.134173319
						82:leaf=0.0551864393
			12:[windBearing<264] yes=25,no=26,missing=25
				25:[humidity<0.430000007] yes=47,no=48,missing=48
					47:[pressure<1031.84998] yes=83,no=84,missing=84
						83:leaf=0.10879375
						84:leaf=0.426947802
					48:[windSpeed<1.13999999] yes=85,no=86,missing=85
						85:leaf=0.395106196
						86:leaf=0.13839598
				26:[dewPoint<6.48000002] yes=49,no=50,missing=49
					49:[windSpeed<2.18000007] yes=87,no=88,missing=88
						87:leaf=0.552878618
						88:leaf=0.16091001
					50:[dewPoint<7.51999998] yes=89,no=90,missing=89
						89:leaf=1.18572366
						90:leaf=-0.00526600983
		6:[apparentTemperature<4.78000021] yes=13,no=14,missing=13
			13:[pressure<1001.92999] yes=27,no=28,missing=27
				27:[hour_x<21] yes=51,no=52,missing=52
					51:[apparentTemperature<-0.560000002] yes=91,no=92,missing=91
						91:leaf=0.244011313
						92:leaf=0.03873346
					52:[dewPoint<2.69000006] yes=93,no=94,missing=94
						93:leaf=-0.023642689
						94:leaf=-0.0476686023
				28:[pressure<1007.82001] yes=53,no=54,missing=53
					53:[windGust<9.42000008] yes=95,no=96,missing=96
						95:leaf=0.791356981
						96:leaf=0.345190674
					54:[cloudCover<0.910000026] yes=97,no=98,missing=97
						97:leaf=0.134843379
						98:leaf=0.736601889
			14:[windBearing<80] yes=29,no=30,missing=29
				29:[humidity<0.74000001] yes=55,no=56,missing=56
					55:leaf=0.426904529
					56:[temperature<7.48000002] yes=99,no=100,missing=100
						99:leaf=0.126477122
						100:leaf=-0.0101650357
				30:[humidity<0.879999995] yes=57,no=58,missing=57
					57:[windSpeed<0.769999981] yes=101,no=102,missing=101
						101:leaf=0.909918249
						102:leaf=0.358262092
					58:[pressure<1024.13] yes=103,no=104,missing=103
						103:leaf=1.22788334
						104:leaf=0.27019152
booster[3]:
0:[weekday<1] yes=1,no=2,missing=1
	1:[pressure<1007.21997] yes=3,no=4,missing=3
		3:[windGust<8.94999981] yes=7,no=8,missing=8
			7:[apparentTemperature<3.06999993] yes=15,no=16,missing=15
				15:leaf=1.23861349
				16:[hour_x<2] yes=31,no=32,missing=31
					31:leaf=0.0982630327
					32:leaf=0.392203838
			8:[visibility<11.6000004] yes=17,no=18,missing=17
				17:[dewPoint<5.61000013] yes=33,no=34,missing=33
					33:[cloudCover<0.850000024] yes=61,no=62,missing=62
						61:leaf=-0.0340291783
						62:leaf=-0.268610388
					34:[pressure<993.77002] yes=63,no=64,missing=63
						63:leaf=-0.0171981025
						64:leaf=0.107146993
				18:[pressure<998.179993] yes=35,no=36,missing=35
					35:[apparentTemperature<11.3100004] yes=65,no=66,missing=65
						65:leaf=-0.0563787296
						66:leaf=0.0554093681
					36:[apparentTemperature<1.72000003] yes=67,no=68,missing=67
						67:leaf=1.23407114
						68:leaf=-0.0209379774
		4:[apparentTemperature<4.59000015] yes=9,no=10,missing=9
			9:[pressure<1010.25] yes=19,no=20,missing=20
				19:[hour_x<9] yes=37,no=38,missing=38
					37:leaf=0.854611218
					38:[windBearing<10] yes=69,no=70,missing=70
						69:leaf=0.618657053
						70:leaf=1.33488452
				20:[uvIndex<1.5] yes=39,no=40,missing=40
					39:[windGust<3.00999999] yes=71,no=72,missing=71
						71:leaf=1.20855272
						72:leaf=0.517497718
					40:[dewPoint<2.81999993] yes=73,no=74,missing=73
						73:leaf=1.16260743
						74:leaf=0.190771043
			10:[pressure<1033.69995] yes=21,no=22,missing=21
				21:[pressure<1012.94] yes=41,no=42,missing=41
					41:[windBearing<206] yes=75,no=76,missing=76
						75:leaf=1.06722045
						76:leaf=0.0583784841
					42:[hour_x<9] yes=77,no=78,missing=77
						77:leaf=0.819195867
						78:leaf=1.32078803
				22:[hour_x<13] yes=43,no=44,missing=44
					43:[apparentTemperature<6.28000021] yes=79,no=80,missing=79
						79:leaf=-0.0930797234
						80:leaf=0.19734405
					44:[hour_x<18] yes=81,no=82,missing=82
						81:leaf=0.534557343
						82:leaf=1.10185039
	2:[hour_x<19] yes=5,no=6,missing=5
		5:[hour_x<14] yes=11,no=12,missing=11
			11:[pressure<1027.26001] yes=23,no=24,missing=23
				23:[temperature<7.03999996] yes=45,no=46,missing=45
					45:[pressure<1025.38] yes=83,no=84,missing=84
						83:leaf=0.023854984
						84:leaf=0.294011325
					46:[hour_x<7] yes=85,no=86,missing=85
						85:leaf=0.310367703
						86:leaf=0.0701432899
				24:[cloudCover<0.150000006] yes=47,no=48,missing=48
					47:[windBearing<227] yes=87,no=88,missing=87
						87:leaf=-0.0312144402
						88:leaf=0.169281527
					48:[pressure<1031.16003] yes=89,no=90,missing=89
						89:leaf=-0.0381144136
						90:leaf=0.0312035177
			12:[windBearing<264] yes=25,no=26,missing=25
				25:[visibility<8.64000034] yes=49,no=50,missing=50
					49:[windSpeed<3.92000008] yes=91,no=92,missing=91
						91:leaf=0.00328864506
						92:leaf=0.114962928
					50:[hour_x<16] yes=93,no=94,missing=93
						93:leaf=0.227317929
						94:leaf=0.123350084
				26:[cloudCover<0.959999979] yes=51,no=52,missing=52
					51:[windBearing<277] yes=95,no=96,missing=95
						95:leaf=0.44624424
						96:leaf=0.155369416
					52:[hour_x<15] yes=97,no=98,missing=98
						97:leaf=0.197832868
						98:leaf=1.30707681
		6:[apparentTemperature<4.61999989] yes=13,no=14,missing=14
			13:[pressure<1002.10999] yes=27,no=28,missing=28
				27:[hour_x<21] yes=53,no=54,missing=53
					53:[apparentTemperature<-0.560000002] yes=99,no=100,missing=99
						99:leaf=0.227743894
						100:leaf=0.039354559
					54:[windSpeed<3.05999994] yes=101,no=102,missing=101
						101:leaf=-0.0537551604
						102:leaf=-0.0265762638
				28:[pressure<1007.82001] yes=55,no=56,missing=55
					55:[dewPoint<4.76999998] yes=103,no=104,missing=103
						103:leaf=0.531995416
						104:leaf=0.0411115661
					56:[cloudCover<0.910000026] yes=105,no=106,missing=105
						105:leaf=0.117552958
						106:leaf=0.677673757
			14:[pressure<1019.81] yes=29,no=30,missing=29
				29:[windBearing<213] yes=57,no=58,missing=57
					57:[apparentTemperature<7.34000015] yes=107,no=108,missing=107
						107:leaf=0.1975898
						108:leaf=-0.0578688197
					58:[cloudCover<0.779999971] yes=109,no=110,missing=109
						109:leaf=0.0885598809
						110:leaf=0.641133249
				30:[pressure<1025.83997] yes=59,no=60,missing=60
					59:[humidity<0.839999974] yes=111,no=112,missing=111
						111:leaf=0.622348011
						112:leaf=1.20583677
					60:[windBearing<171] yes=113,no=114,missing=113
						113:leaf=-0.0113766119
						114:leaf=0.342997104
booster[4]:
0:[weekday<1] yes=1,no=2,missing=2
	1:[pressure<1007.02002] yes=3,no=4,missing=3
		3:[windGust<8.94999981] yes=7,no=8,missing=7
			7:[apparentTemperature<3.06999993] yes=15,no=16,missing=15
				15:leaf=1.11315167
				16:[hour_x<2] yes=31,no=32,missing=31
					31:leaf=0.089840509
					32:leaf=0.282157063
			8:[visibility<11.6000004] yes=17,no=18,missing=18
				17:[apparentTemperature<5.07999992] yes=33,no=34,missing=33
					33:[temperature<8.64000034] yes=61,no=62,missing=62
						61:leaf=-0.0317125283
						62:leaf=-0.151134461
					34:[pressure<993.77002] yes=63,no=64,missing=63
						63:leaf=-0.0155304046
						64:leaf=0.0990935639
				18:[pressure<998.179993] yes=35,no=36,missing=36
					35:[apparentTemperature<11.3100004] yes=65,no=66,missing=66
						65:leaf=-0.0509170108
						66:leaf=0.0512536727
					36:[apparentTemperature<1.72000003] yes=67,no=68,missing=67
						67:leaf=1.10521877
						68:leaf=-0.0190052427
		4:[apparentTemperature<2.20000005] yes=9,no=10,missing=9
			9:[pressure<1010.39001] yes=19,no=20,missing=19
				19:[hour_x<9] yes=37,no=38,missing=37
					37:leaf=0.793834269
					38:[dewPoint<-1.77999997] yes=69,no=70,missing=69
						69:leaf=0.441917747
						70:leaf=1.1518594
				20:[windBearing<276] yes=39,no=40,missing=39
					39:[windBearing<252] yes=71,no=72,missing=71
						71:leaf=0.513544679
						72:leaf=0.178795978
					40:[windGust<8.52000046] yes=73,no=74,missing=73
						73:leaf=0.812494457
						74:leaf=0.520065665
			10:[hour_x<10] yes=21,no=22,missing=21
				21:[humidity<0.829999983] yes=41,no=42,missing=42
					41:[apparentTemperature<4.11999989] yes=75,no=76,missing=75
						75:leaf=0.488711506
						76:leaf=0.114115261
					42:[apparentTemperature<2.86999989] yes=77,no=78,missing=78
						77:leaf=0.675848067
						78:leaf=0.976767361
				22:[windBearing<288] yes=43,no=44,missing=43
					43:[pressure<1034.26001] yes=79,no=80,missing=79
						79:leaf=1.03553033
						80:leaf=-0.0335085951
					44:[pressure<1016.15002] yes=81,no=82,missing=81
						81:leaf=0.120271303
						82:leaf=0.857850075
	2:[hour_x<19] yes=5,no=6,missing=5
		5:[hour_x<14] yes=11,no=12,missing=11
			11:[pressure<1027.26001] yes=23,no=24,missing=23
				23:[temperature<6.98000002] yes=45,no=46,missing=45
					45:[pressure<1025.38] yes=83,no=84,missing=83
						83:leaf=0.0204879008
						84:leaf=0.265345126
					46:[hour_x<7] yes=85,no=86,missing=86
						85:leaf=0.279082775
						86:leaf=0.0630114898
				24:[cloudCover<0.150000006] yes=47,no=48,missing=48
					47:[windBearing<227] yes=87,no=88,missing=87
						87:leaf=-0.0284832064
						88:leaf=0.152787432
					48:[pressure<1031.16003] yes=89,no=90,missing=89
						89:leaf=-0.0343217514
						90:leaf=0.0280931033
			12:[windBearing<264] yes=25,no=26,missing=26
				25:[humidity<0.430000007] yes=49,no=50,missing=50
					49:[pressure<1032.21997] yes=91,no=92,missing=91
						91:leaf=0.226720199
						92:leaf=0.418759197
					50:[windSpeed<1.13999999] yes=93,no=94,missing=94
						93:leaf=0.345441908
						94:leaf=0.110978447
				26:[dewPoint<6.65999985] yes=51,no=52,missing=52
					51:[windSpeed<2.26999998] yes=95,no=96,missing=95
						95:leaf=0.441705912
						96:leaf=0.12065053
					52:[dewPoint<7.51999998] yes=97,no=98,missing=97
						97:leaf=1.05362034
						98:leaf=-0.0369783305
		6:[apparentTemperature<4.78000021] yes=13,no=14,missing=13
			13:[pressure<1002.10999] yes=27,no=28,missing=27
				27:[hour_x<21] yes=53,no=54,missing=54
					53:[windBearing<90] yes=99,no=100,missing=99
						99:leaf=0.136823028
						100:leaf=0.0219450202
					54:[visibility<6.94999981] yes=101,no=102,missing=101
						101:leaf=-0.0467188731
						102:leaf=-0.0226686001
				28:[pressure<1007.82001] yes=55,no=56,missing=55
					55:[windGust<10.4700003] yes=103,no=104,missing=103
						103:leaf=0.540281832
						104:leaf=0.18214111
					56:[hour_x<21] yes=105,no=106,missing=105
						105:leaf=0.28008756
						106:leaf=0.0660221279
			14:[apparentTemperature<10.6400003] yes=29,no=30,missing=29
				29:[windBearing<173] yes=57,no=58,missing=57
					57:[windSpeed<0.769999981] yes=107,no=108,missing=107
						107:leaf=0.760354757
						108:leaf=0.148463175
					58:[humidity<0.879999995] yes=109,no=110,missing=110
						109:leaf=0.435991913
						110:leaf=1.00118113
				30:[windSpeed<2.24000001] yes=59,no=60,missing=60
					59:leaf=0.967493355
					60:[precipProbability<0.910000026] yes=111,no=112,missing=111
						111:leaf=0.00928271096
						112:leaf=0.510328293
booster[5]:
0:[weekday<1] yes=1,no=2,missing=1
	1:[pressure<1007.21997] yes=3,no=4,missing=4
		3:[windGust<8.94999981] yes=7,no=8,missing=7
			7:[apparentTemperature<3.06999993] yes=15,no=16,missing=15
				15:leaf=1.00966632
				16:[visibility<7.82000017] yes=31,no=32,missing=31
					31:leaf=0.320376784
					32:leaf=0.0964884907
			8:[visibility<11.6000004] yes=17,no=18,missing=18
				17:[pressure<1006.59003] yes=33,no=34,missing=33
					33:[apparentTemperature<5.07999992] yes=61,no=62,missing=61
						61:leaf=-0.0285695978
						62:leaf=0.030134365
					34:[apparentTemperature<5.32999992] yes=63,no=64,missing=64
						63:leaf=-0.28017509
						64:leaf=-0.0523036234
				18:[pressure<998.179993] yes=35,no=36,missing=36
					35:[apparentTemperature<11.3100004] yes=65,no=66,missing=65
						65:leaf=-0.0459844247
						66:leaf=0.047409635
					36:[apparentTemperature<1.72000003] yes=67,no=68,missing=67
						67:leaf=1.01220882
						68:leaf=-0.0172509104
		4:[apparentTemperature<4.59000015] yes=9,no=10,missing=9
			9:[pressure<1010.84003] yes=19,no=20,missing=19
				19:[hour_x<13] yes=37,no=38,missing=38
					37:[pressure<1010.71002] yes=69,no=70,missing=69
						69:leaf=0.749953926
						70:leaf=0.281219602
					38:[visibility<11.0200005] yes=71,no=72,missing=71
						71:leaf=1.11756599
						72:leaf=0.393426895
				20:[uvIndex<1.5] yes=39,no=40,missing=40
					39:[windGust<3.00999999] yes=73,no=74,missing=73
						73:leaf=0.997421443
						74:leaf=0.408770382
					40:[dewPoint<2.81999993] yes=75,no=76,missing=75
						75:leaf=0.95135814
						76:leaf=0.11109525
			10:[pressure<1033.69995] yes=21,no=22,missing=22
				21:[pressure<1012.94] yes=41,no=42,missing=42
					41:[windGust<5.98000002] yes=77,no=78,missing=77
						77:leaf=1.08048654
						78:leaf=0.524686038
					42:[hour_x<9] yes=79,no=80,missing=79
						79:leaf=0.669378817
						80:leaf=1.08860946
				22:[uvIndex<0.5] yes=43,no=44,missing=43
					43:[hour_x<18] yes=81,no=82,missing=82
						81:leaf=0.495634764
						82:leaf=0.918647587
					44:[dewPoint<1.02999997] yes=83,no=84,missing=83
						83:leaf=0.326103806
						84:leaf=-0.0277584586
	2:[hour_x<19] yes=5,no=6,missing=5
		5:[hour_x<14] yes=11,no=12,missing=11
			11:[pressure<1027.26001] yes=23,no=24,missing=24
				23:[windGust<7.73000002] yes=45,no=46,missing=46
					45:[windGust<5.71999979] yes=85,no=86,missing=85
						85:leaf=0.0466880724
						86:leaf=0.279136986
					46:[dewPoint<8.75] yes=87,no=88,missing=87
						87:leaf=0.0309471339
						88:leaf=0.277754575
				24:[cloudCover<0.150000006] yes=47,no=48,missing=48
					47:[windBearing<227] yes=89,no=90,missing=90
						89:leaf=-0.0259909127
						90:leaf=0.137900457
					48:[pressure<1031.16003] yes=91,no=92,missing=91
						91:leaf=-0.0309065487
						92:leaf=0.0252927393
			12:[windBearing<264] yes=25,no=26,missing=25
				25:[hour_x<16] yes=49,no=50,missing=49
					49:[windSpeed<13.6300001] yes=93,no=94,missing=93
						93:leaf=0.146811068
						94:leaf=0.711002827
					50:[windSpeed<1.10000002] yes=95,no=96,missing=95
						95:leaf=0.322054029
						96:leaf=0.0742763504
				26:[cloudCover<0.959999979] yes=51,no=52,missing=52
					51:[dewPoint<4.26000023] yes=97,no=98,missing=97
						97:leaf=0.0670724735
						98:leaf=0.292086869
					52:[hour_x<15] yes=99,no=100,missing=100
						99:leaf=0.176600635
						100:leaf=1.09461391
		6:[pressure<1019.81] yes=13,no=14,missing=14
			13:[precipProbability<0.970000029] yes=27,no=28,missing=28
				27:[dewPoint<1.25] yes=53,no=54,missing=54
					53:[cloudCover<0.600000024] yes=101,no=102,missing=101
						101:leaf=0.521019578
						102:leaf=0.150749564
					54:[windGust<19.0699997] yes=103,no=104,missing=103
						103:leaf=0.0912114009
						104:leaf=-0.109882705
				28:[humidity<0.899999976] yes=55,no=56,missing=55
					55:[cloudCover<0.769999981] yes=105,no=106,missing=106
						105:leaf=0.0250163805
						106:leaf=0.569426417
					56:[visibility<5.53999996] yes=107,no=108,missing=107
						107:leaf=-0.0767789185
						108:leaf=0.0622991323
			14:[pressure<1025.83997] yes=29,no=30,missing=29
				29:[dewPoint<3.71000004] yes=57,no=58,missing=57
					57:[windGust<2.1500001] yes=109,no=110,missing=109
						109:leaf=-0.0309339948
						110:leaf=0.469738066
					58:[temperature<9.39999962] yes=111,no=112,missing=111
						111:leaf=0.976771653
						112:leaf=0.0463320166
				30:[dewPoint<4.17000008] yes=59,no=60,missing=59
					59:[windSpeed<2.91000009] yes=113,no=114,missing=113
						113:leaf=-0.03076737
						114:leaf=0.178764075
					60:[windBearing<213] yes=115,no=116,missing=115
						115:leaf=0.530577004
						116:leaf=0.13413097
booster[6]:
0:[weekend<1] yes=1,no=2,missing=1
	1:[hour_x<14] yes=3,no=4,missing=3
		3:[temperature<6.92000008] yes=7,no=8,missing=7
			7:[windBearing<119] yes=15,no=16,missing=15
				15:[visibility<8.21000004] yes=31,no=32,missing=32
					31:[apparentTemperature<-0.699999988] yes=61,no=62,missing=62
						61:leaf=0.215592906
						62:leaf=0.0139849065
					32:[precipIntensity<2.01929998] yes=63,no=64,missing=63
						63:leaf=-0.0493439175
						64:leaf=0.0337024555
				16:[windBearing<167] yes=33,no=34,missing=33
					33:[pressure<1025.06995] yes=65,no=66,missing=66
						65:leaf=0.039806053
						66:leaf=0.218229219
					34:[windGust<4.05000019] yes=67,no=68,missing=67
						67:leaf=-0.0193058997
						68:leaf=0.0404659323
			8:[hour_x<6] yes=17,no=18,missing=17
				17:[dewPoint<6.34000015] yes=35,no=36,missing=36
					35:[dewPoint<3.28999996] yes=69,no=70,missing=69
						69:leaf=0.145619184
						70:leaf=0.59255147
					36:[cloudCover<0.709999979] yes=71,no=72,missing=72
						71:leaf=0.435880154
						72:leaf=0.00140187924
				18:[hour_x<8] yes=37,no=38,missing=38
					37:[temperature<8.39999962] yes=73,no=74,missing=73
						73:leaf=0.270459354
						74:leaf=0.0281596836
					38:[visibility<8.78999996] yes=75,no=76,missing=75
						75:leaf=-0.0279792994
						76:leaf=0.0447119623
		4:[pressure<1019.31] yes=9,no=10,missing=9
			9:[pressure<1007.82001] yes=19,no=20,missing=20
				19:[precipProbability<0.980000019] yes=39,no=40,missing=40
					39:[apparentTemperature<-1.55999994] yes=77,no=78,missing=78
						77:leaf=0.363732308
						78:leaf=0.0845894068
					40:[dewPoint<3.68000007] yes=79,no=80,missing=80
						79:leaf=0.0955175385
						80:leaf=0.438143253
				20:[cloudCover<0.709999979] yes=41,no=42,missing=42
					41:[windBearing<71] yes=81,no=82,missing=82
						81:leaf=0.266859293
						82:leaf=0.100916684
					42:[windBearing<261] yes=83,no=84,missing=83
						83:leaf=0.00429226132
						84:leaf=0.16199632
			10:[pressure<1025.83997] yes=21,no=22,missing=22
				21:[humidity<0.879999995] yes=43,no=44,missing=43
					43:[cloudCover<0.430000007] yes=85,no=86,missing=86
						85:leaf=0.122461282
						86:leaf=0.414332867
					44:[pressure<1020] yes=87,no=88,missing=87
						87:leaf=0.0399827957
						88:leaf=0.924138725
				22:[windBearing<167] yes=45,no=46,missing=46
					45:[hour_x<17] yes=89,no=90,missing=89
						89:leaf=0.102291621
						90:leaf=-0.034236744
					46:[windBearing<219] yes=91,no=92,missing=91
						91:leaf=0.259832531
						92:leaf=0.106514864
	2:[pressure<1007.21997] yes=5,no=6,missing=5
		5:[windGust<8.94999981] yes=11,no=12,missing=11
			11:[apparentTemperature<3.06999993] yes=23,no=24,missing=23
				23:leaf=0.911289155
				24:[hour_x<2] yes=47,no=48,missing=47
					47:leaf=0.0738694593
					48:leaf=0.279711396
			12:[visibility<11.6000004] yes=25,no=26,missing=25
				25:[pressure<1006.59003] yes=49,no=50,missing=50
					49:[cloudCover<0.850000024] yes=93,no=94,missing=93
						93:leaf=-0.0154248402
						94:leaf=0.0871156752
					50:[apparentTemperature<5.32999992] yes=95,no=96,missing=95
						95:leaf=-0.261497021
						96:leaf=-0.0496884733
				26:[pressure<998.179993] yes=51,no=52,missing=51
					51:[precipIntensity<0.690900028] yes=97,no=98,missing=98
						97:leaf=-0.0443915538
						98:leaf=0.0297022015
					52:[apparentTemperature<1.72000003] yes=99,no=100,missing=99
						99:leaf=0.916315377
						100:leaf=-0.0156585183
		6:[temperature<8.21000004] yes=13,no=14,missing=13
			13:[windBearing<118] yes=27,no=28,missing=27
				27:[dewPoint<5.42999983] yes=53,no=54,missing=53
					53:[windGust<11.1400003] yes=101,no=102,missing=101
						101:leaf=0.869531453
						102:leaf=0.334427327
					54:[apparentTemperature<5.88999987] yes=103,no=104,missing=103
						103:leaf=0.480803788
						104:leaf=-0.0515378974
				28:[visibility<9.69999981] yes=55,no=56,missing=55
					55:[hour_x<18] yes=105,no=106,missing=105
						105:leaf=0.689250648
						106:leaf=1.07186484
					56:[humidity<0.589999974] yes=107,no=108,missing=107
						107:leaf=0.694417417
						108:leaf=0.358919322
			14:[pressure<1032.76001] yes=29,no=30,missing=29
				29:[windBearing<292] yes=57,no=58,missing=57
					57:[hour_x<5] yes=109,no=110,missing=109
						109:leaf=0.0188981444
						110:leaf=0.923596382
					58:[pressure<1013.07001] yes=111,no=112,missing=111
						111:leaf=0.0248865876
						112:leaf=0.990384698
				30:[uvIndex<0.5] yes=59,no=60,missing=59
					59:[apparentTemperature<8.10999966] yes=113,no=114,missing=113
						113:leaf=0.365766346
						114:leaf=0.682346523
					60:[dewPoint<1.02999997] yes=115,no=116,missing=115
						115:leaf=0.29458043
						116:leaf=0.0977319703
booster[7]:
0:[weekday<1] yes=1,no=2,missing=1
	1:[pressure<1007.21997] yes=3,no=4,missing=3
		3:[windGust<8.94999981] yes=7,no=8,missing=7
			7:[apparentTemperature<3.06999993] yes=15,no=16,missing=15
				15:leaf=0.822496593
				16:[visibility<7.82000017] yes=31,no=32,missing=31
					31:leaf=0.268940657
					32:leaf=0.0790091455
			8:[visibility<11.6000004] yes=17,no=18,missing=17
				17:[pressure<1006.59003] yes=33,no=34,missing=34
					33:[apparentTemperature<5.07999992] yes=61,no=62,missing=61
						61:leaf=-0.0242094323
						62:leaf=0.0266754925
					34:[apparentTemperature<5.32999992] yes=63,no=64,missing=63
						63:leaf=-0.24406381
						64:leaf=-0.0472040512
				18:[pressure<998.179993] yes=35,no=36,missing=35
					35:[temperature<3.31999993] yes=65,no=66,missing=66
						65:leaf=-0.0666408315
						66:leaf=-0.00999831874
					36:[apparentTemperature<1.72000003] yes=67,no=68,missing=67
						67:leaf=0.829506516
						68:leaf=-0.0142131168
		4:[apparentTemperature<2.20000005] yes=9,no=10,missing=9
			9:[cloudCover<0.469999999] yes=19,no=20,missing=19
				19:[hour_x<12] yes=37,no=38,missing=37
					37:[windGust<10.6499996] yes=69,no=70,missing=70
						69:leaf=0.6067698
						70:leaf=0.889046609
					38:[temperature<6.67999983] yes=71,no=72,missing=71
						71:leaf=0.259100646
						72:leaf=0.0453206077
				20:[pressure<1013.21002] yes=39,no=40,missing=39
					39:[dewPoint<1.11000001] yes=73,no=74,missing=74
						73:leaf=0.328726113
						74:leaf=0.677727342
					40:[dewPoint<1.17999995] yes=75,no=76,missing=76
						75:leaf=0.269731492
						76:leaf=-0.284512848
			10:[hour_x<10] yes=21,no=22,missing=21
				21:[humidity<0.829999983] yes=41,no=42,missing=42
					41:[dewPoint<2.48000002] yes=77,no=78,missing=77
						77:leaf=0.371170402
						78:leaf=0.0243940447
					42:[apparentTemperature<2.86999989] yes=79,no=80,missing=80
						79:leaf=0.481645733
						80:leaf=0.745768905
				22:[windBearing<287] yes=43,no=44,missing=43
					43:[pressure<1034.26001] yes=81,no=82,missing=81
						81:leaf=0.771154523
						82:leaf=-0.0793484077
					44:[pressure<1016.75] yes=83,no=84,missing=83
						83:leaf=0.0310485903
						84:leaf=0.653439581
	2:[hour_x<19] yes=5,no=6,missing=6
		5:[hour_x<14] yes=11,no=12,missing=12
			11:[pressure<1027.26001] yes=23,no=24,missing=23
				23:[windGust<7.73000002] yes=45,no=46,missing=45
					45:[windGust<6.63000011] yes=85,no=86,missing=86
						85:leaf=0.06524349
						86:leaf=0.295078665
					46:[dewPoint<8.75] yes=87,no=88,missing=87
						87:leaf=0.024082616
						88:leaf=0.230428576
				24:[cloudCover<0.709999979] yes=47,no=48,missing=47
					47:[windGust<3.83999991] yes=89,no=90,missing=90
						89:leaf=-0.01144219
						90:leaf=0.0491634272
					48:[windBearing<233] yes=91,no=92,missing=91
						91:leaf=0.0195260178
						92:leaf=-0.056797415
			12:[visibility<9.27000046] yes=25,no=26,missing=26
				25:[windGust<9.02000046] yes=49,no=50,missing=49
					49:[temperature<8.07999992] yes=93,no=94,missing=94
						93:leaf=0.157648891
						94:leaf=-0.0281163789
					50:[windGust<9.32999992] yes=95,no=96,missing=95
						95:leaf=0.482216269
						96:leaf=0.083243154
				26:[cloudCover<0.959999979] yes=51,no=52,missing=52
					51:[humidity<0.75] yes=97,no=98,missing=97
						97:leaf=0.104906164
						98:leaf=0.242634654
					52:[hour_x<16] yes=99,no=100,missing=100
						99:leaf=0.237669751
						100:leaf=0.958809853
		6:[pressure<999.52002] yes=13,no=14,missing=14
			13:[hour_x<21] yes=27,no=28,missing=27
				27:[apparentTemperature<-0.560000002] yes=53,no=54,missing=53
					53:leaf=0.191719383
					54:[precipIntensity<1.51890004] yes=101,no=102,missing=101
						101:leaf=0.0208891686
						102:leaf=-0.0620707646
				28:[dewPoint<2.69000006] yes=55,no=56,missing=55
					55:[windBearing<199] yes=103,no=104,missing=103
						103:leaf=0.0197436325
						104:leaf=-0.0350337289
					56:[windSpeed<2.74000001] yes=105,no=106,missing=106
						105:leaf=-0.0766270086
						106:leaf=-0.0497005582
			14:[pressure<1028.19995] yes=29,no=30,missing=29
				29:[pressure<1019.81] yes=57,no=58,missing=58
					57:[pressure<1007.82001] yes=107,no=108,missing=107
						107:leaf=0.266819447
						108:leaf=0.0409405306
					58:[cloudCover<0.289999992] yes=109,no=110,missing=110
						109:leaf=0.070785068
						110:leaf=0.519571841
				30:[windGust<8.43000031] yes=59,no=60,missing=59
					59:[humidity<0.800000012] yes=111,no=112,missing=111
						111:leaf=0.351947457
						112:leaf=-0.0113681713
					60:[dewPoint<11.21] yes=113,no=114,missing=113
						113:leaf=-0.109867871
						114:leaf=0.159101099
booster[8]:
0:[weekday<1] yes=1,no=2,missing=2
	1:[pressure<1007.21997] yes=3,no=4,missing=3
		3:[windGust<8.94999981] yes=7,no=8,missing=7
			7:[apparentTemperature<3.06999993] yes=15,no=16,missing=15
				15:leaf=0.742355764
				16:[visibility<7.82000017] yes=31,no=32,missing=31
					31:leaf=0.245888591
					32:leaf=0.0720958486
			8:[visibility<11.6000004] yes=17,no=18,missing=17
				17:[pressure<1006.59003] yes=33,no=34,missing=33
					33:[cloudCover<0.850000024] yes=61,no=62,missing=61
						61:leaf=-0.0129220365
						62:leaf=0.0766848624
					34:[apparentTemperature<5.32999992] yes=63,no=64,missing=63
						63:leaf=-0.227792665
						64:leaf=-0.0448438488
				18:[pressure<998.179993] yes=35,no=36,missing=35
					35:[apparentTemperature<11.3100004] yes=65,no=66,missing=65
						65:leaf=-0.0350082181
						66:leaf=0.0442284644
					36:[apparentTemperature<1.72000003] yes=67,no=68,missing=67
						67:leaf=0.750921667
						68:leaf=-0.0129011367
		4:[temperature<8.27999973] yes=9,no=10,missing=10
			9:[windBearing<230] yes=19,no=20,missing=20
				19:[hour_x<10] yes=37,no=38,missing=37
					37:[windGust<9.21000004] yes=69,no=70,missing=69
						69:leaf=0.61338073
						70:leaf=0.174833149
					38:[dewPoint<5.42999983] yes=71,no=72,missing=71
						71:leaf=0.703654349
						72:leaf=0.145509198
				20:[cloudCover<0.660000026] yes=39,no=40,missing=40
					39:[hour_x<12] yes=73,no=74,missing=74
						73:leaf=0.625392854
						74:leaf=0.256408304
					40:[pressure<1027.69995] yes=75,no=76,missing=76
						75:leaf=0.39338547
						76:leaf=-0.13651374
			10:[pressure<1032.76001] yes=21,no=22,missing=21
				21:[pressure<1013.07001] yes=41,no=42,missing=42
					41:[windSpeed<7.1500001] yes=77,no=78,missing=78
						77:leaf=0.740752757
						78:leaf=0.152490959
					42:[hour_x<5] yes=79,no=80,missing=80
						79:leaf=0.0154346274
						80:leaf=0.830970228
				22:[hour_x<17] yes=43,no=44,missing=43
					43:[pressure<1034.08997] yes=81,no=82,missing=81
						81:leaf=0.214984685
						82:leaf=0.0694250092
					44:[apparentTemperature<8.10999966] yes=83,no=84,missing=83
						83:leaf=0.210151747
						84:leaf=0.595125973
	2:[hour_x<19] yes=5,no=6,missing=5
		5:[temperature<6.92000008] yes=11,no=12,missing=11
			11:[windSpeed<6.36000013] yes=23,no=24,missing=23
				23:[pressure<1025.38] yes=45,no=46,missing=45
					45:[hour_x<9] yes=85,no=86,missing=85
						85:leaf=-0.044033777
						86:leaf=0.0498181842
					46:[pressure<1029.57996] yes=87,no=88,missing=87
						87:leaf=0.166697025
						88:leaf=0.00524455076
				24:[windGust<9.86999989] yes=47,no=48,missing=47
					47:[cloudCover<0.709999979] yes=89,no=90,missing=90
						89:leaf=0.0295682456
						90:leaf=-0.0863518938
					48:[pressure<1004.78003] yes=91,no=92,missing=91
						91:leaf=0.0380597599
						92:leaf=0.0895620137
			12:[pressure<1028.63] yes=25,no=26,missing=25
				25:[pressure<1019.10999] yes=49,no=50,missing=49
					49:[dewPoint<9.01000023] yes=93,no=94,missing=94
						93:leaf=0.04555903
						94:leaf=0.406644315
					50:[windBearing<258] yes=95,no=96,missing=96
						95:leaf=0.109096482
						96:leaf=0.371970505
				26:[humidity<0.419999987] yes=51,no=52,missing=51
					51:[pressure<1032.21997] yes=97,no=98,missing=98
						97:leaf=0.163075373
						98:leaf=0.347579747
					52:[pressure<1035.29004] yes=99,no=100,missing=99
						99:leaf=-0.0151800541
						100:leaf=0.0607549734
		6:[windSpeed<10.79] yes=13,no=14,missing=13
			13:[temperature<5.42999983] yes=27,no=28,missing=27
				27:[apparentTemperature<-1.13999999] yes=53,no=54,missing=53
					53:[cloudCover<0.600000024] yes=101,no=102,missing=101
						101:leaf=0.414278656
						102:leaf=0.0510767177
					54:[apparentTemperature<3.76999998] yes=103,no=104,missing=103
						103:leaf=-0.00584859261
						104:leaf=0.276162028
				28:[windBearing<80] yes=55,no=56,missing=56
					55:[humidity<0.74000001] yes=105,no=106,missing=106
						105:leaf=0.319474101
						106:leaf=-0.00859632995
					56:[cloudCover<0.779999971] yes=107,no=108,missing=108
						107:leaf=0.201454028
						108:leaf=0.453682661
			14:[windGust<14.9399996] yes=29,no=30,missing=29
				29:[apparentTemperature<1.61000001] yes=57,no=58,missing=58
					57:leaf=0.244044349
					58:[apparentTemperature<4.90999985] yes=109,no=110,missing=110
						109:leaf=0.0562794097
						110:leaf=-0.0247477591
				30:[temperature<9.02000046] yes=59,no=60,missing=59
					59:[windBearing<199] yes=111,no=112,missing=111
						111:leaf=0.0504658483
						112:leaf=-0.0438318588
					60:[windBearing<253] yes=113,no=114,missing=114
						113:leaf=-0.188444346
						114:leaf=0.0880946741
booster[9]:
0:[weekday<1] yes=1,no=2,missing=2
	1:[pressure<1007.21997] yes=3,no=4,missing=3
		3:[windGust<8.94999981] yes=7,no=8,missing=8
			7:[dewPoint<3.31999993] yes=15,no=16,missing=16
				15:leaf=0.670023441
				16:[hour_x<2] yes=31,no=32,missing=31
					31:leaf=0.0545858704
					32:leaf=0.214735657
			8:[visibility<11.6000004] yes=17,no=18,missing=17
				17:[pressure<1006.59003] yes=33,no=34,missing=34
					33:[apparentTemperature<5.03000021] yes=61,no=62,missing=62
						61:leaf=-0.02167245
						62:leaf=0.0219552647
					34:[apparentTemperature<5.32999992] yes=63,no=64,missing=63
						63:leaf=-0.212608457
						64:leaf=-0.0426016562
				18:[pressure<998.179993] yes=35,no=36,missing=35
					35:[apparentTemperature<-1.01999998] yes=65,no=66,missing=66
						65:leaf=-0.0573229976
						66:leaf=-0.00667565316
					36:[apparentTemperature<1.72000003] yes=67,no=68,missing=67
						67:leaf=0.679781735
						68:leaf=-0.0117102629
		4:[apparentTemperature<3.69000006] yes=9,no=10,missing=9
			9:[pressure<1010.39001] yes=19,no=20,missing=19
				19:[hour_x<9] yes=37,no=38,missing=38
					37:leaf=0.446120828
					38:[windBearing<10] yes=69,no=70,missing=70
						69:leaf=0.252817869
						70:leaf=0.768353999
				20:[dewPoint<1.21000004] yes=39,no=40,missing=39
					39:[pressure<1020.75] yes=71,no=72,missing=72
						71:leaf=0.181283027
						72:leaf=0.386236995
					40:[windSpeed<7.1500001] yes=73,no=74,missing=73
						73:leaf=-0.0993014798
						74:leaf=0.530076087
			10:[pressure<1033.69995] yes=21,no=22,missing=21
				21:[hour_x<9] yes=41,no=42,missing=41
					41:[pressure<1022.62] yes=75,no=76,missing=76
						75:leaf=0.596448123
						76:leaf=-0.0313624516
					42:[pressure<1020.75] yes=77,no=78,missing=77
						77:leaf=0.461584866
						78:leaf=0.720077097
				22:[hour_x<18] yes=43,no=44,missing=43
					43:[humidity<0.589999974] yes=79,no=80,missing=80
						79:leaf=0.216253787
						80:leaf=-0.0795598552
					44:leaf=0.76703918
	2:[hour_x<18] yes=5,no=6,missing=5
		5:[temperature<6.92000008] yes=11,no=12,missing=11
			11:[windGust<9.42000008] yes=23,no=24,missing=23
				23:[pressure<1025.38] yes=45,no=46,missing=45
					45:[hour_x<6] yes=81,no=82,missing=81
						81:leaf=-0.0697702989
						82:leaf=-0.00220270455
					46:[pressure<1028.28003] yes=83,no=84,missing=83
						83:leaf=0.192089528
						84:leaf=0.00410816213
				24:[cloudCover<0.610000014] yes=47,no=48,missing=47
					47:[cloudCover<0.400000006] yes=85,no=86,missing=85
						85:leaf=0.0239593014
						86:leaf=0.119912244
					48:[windSpeed<7.26000023] yes=87,no=88,missing=87
						87:leaf=-0.0181973465
						88:leaf=0.0545731075
			12:[pressure<1025.22998] yes=25,no=26,missing=25
				25:[pressure<1019.10999] yes=49,no=50,missing=49
					49:[dewPoint<9.01000023] yes=89,no=90,missing=89
						89:leaf=0.040065404
						90:leaf=0.367915988
					50:[windBearing<254] yes=91,no=92,missing=91
						91:leaf=0.102140844
						92:leaf=0.373336375
				26:[humidity<0.419999987] yes=51,no=52,missing=51
					51:[pressure<1032.21997] yes=93,no=94,missing=94
						93:leaf=0.149485752
						94:leaf=0.315495461
					52:[humidity<0.689999998] yes=95,no=96,missing=95
						95:leaf=0.050150115
						96:leaf=-0.0163321849
		6:[pressure<1020.15997] yes=13,no=14,missing=13
			13:[precipProbability<0.99000001] yes=27,no=28,missing=28
				27:[apparentTemperature<-1.69000006] yes=53,no=54,missing=53
					53:[apparentTemperature<-1.97000003] yes=97,no=98,missing=98
						97:leaf=-0.0413848236
						98:leaf=0.364312291
					54:[windGust<19.0699997] yes=99,no=100,missing=100
						99:leaf=0.0562140048
						100:leaf=-0.0815803856
				28:[humidity<0.899999976] yes=55,no=56,missing=55
					55:[pressure<1007.64001] yes=101,no=102,missing=101
						101:leaf=0.341144443
						102:leaf=-0.0104151862
					56:[apparentTemperature<4.17999983] yes=103,no=104,missing=104
						103:leaf=0.0246653557
						104:leaf=-0.0850914493
			14:[pressure<1023.06] yes=29,no=30,missing=29
				29:[humidity<0.75] yes=57,no=58,missing=58
					57:leaf=-0.0280334707
					58:leaf=0.847780883
				30:[pressure<1025.83997] yes=59,no=60,missing=59
					59:[pressure<1025.15002] yes=105,no=106,missing=105
						105:leaf=0.194562286
						106:leaf=0.543119729
					60:[dewPoint<4.17000008] yes=107,no=108,missing=107
						107:leaf=0.0209141709
						108:leaf=0.187487319
booster[10]:
0:[weekday<1] yes=1,no=2,missing=2
	1:[pressure<1007.21997] yes=3,no=4,missing=4
		3:[windGust<8.94999981] yes=7,no=8,missing=7
			7:[apparentTemperature<3.06999993] yes=15,no=16,missing=15
				15:leaf=0.60473907
				16:[apparentTemperature<4.59000015] yes=31,no=32,missing=31
					31:leaf=0.058552172
					32:[apparentTemperature<5.32999992] yes=61,no=62,missing=61
						61:leaf=0.220963076
						62:leaf=0.0613622926
			8:[visibility<11.6000004] yes=17,no=18,missing=17
				17:[pressure<1006.59003] yes=33,no=34,missing=33
					33:[cloudCover<0.850000024] yes=63,no=64,missing=63
						63:leaf=-0.0108551197
						64:leaf=0.067642808
					34:[apparentTemperature<5.32999992] yes=65,no=66,missing=66
						65:leaf=-0.198432595
						66:leaf=-0.0404715315
				18:[pressure<998.179993] yes=35,no=36,missing=35
					35:[precipIntensity<0.690900028] yes=67,no=68,missing=67
						67:leaf=-0.0314346068
						68:leaf=0.0288925618
					36:[apparentTemperature<1.72000003] yes=69,no=70,missing=69
						69:leaf=0.61538136
						70:leaf=-0.0106293149
		4:[apparentTemperature<4.59000015] yes=9,no=10,missing=9
			9:[pressure<1010.84003] yes=19,no=20,missing=19
				19:[precipIntensity<0.0456999987] yes=37,no=38,missing=38
					37:[visibility<9.98999977] yes=71,no=72,missing=71
						71:leaf=0.406120837
						72:leaf=0.602272928
					38:leaf=0.787458897
				20:[uvIndex<1.5] yes=39,no=40,missing=40
					39:[windGust<3.00999999] yes=73,no=74,missing=73
						73:leaf=0.674085259
						74:leaf=0.225540161
					40:[dewPoint<2.81999993] yes=75,no=76,missing=75
						75:leaf=0.585332334
						76:leaf=-0.126851961
			10:[pressure<1033.69995] yes=21,no=22,missing=21
				21:[pressure<1012.94] yes=41,no=42,missing=42
					41:[windGust<5.98000002] yes=77,no=78,missing=77
						77:leaf=0.693999529
						78:leaf=0.259070486
					42:[hour_x<9] yes=79,no=80,missing=79
						79:leaf=0.42996484
						80:leaf=0.66663301
				22:[uvIndex<0.5] yes=43,no=44,missing=43
					43:[hour_x<18] yes=81,no=82,missing=81
						81:leaf=0.296633184
						82:leaf=0.607771993
					44:[humidity<0.620000005] yes=83,no=84,missing=84
						83:leaf=0.145908639
						84:leaf=-0.0857773945
	2:[hour_x<19] yes=5,no=6,missing=5
		5:[hour_x<14] yes=11,no=12,missing=11
			11:[windGust<4.98000002] yes=23,no=24,missing=23
				23:[pressure<1025.31006] yes=45,no=46,missing=45
					45:[cloudCover<0.280000001] yes=85,no=86,missing=86
						85:leaf=-0.00050088024
						86:leaf=-0.0525063388
					46:[pressure<1027.12] yes=87,no=88,missing=87
						87:leaf=0.137841403
						88:leaf=-0.00366248749
				24:[windGust<7.73000002] yes=47,no=48,missing=47
					47:[pressure<1026.39001] yes=89,no=90,missing=89
						89:leaf=0.176602408
						90:leaf=0.00471833488
					48:[cloudCover<0.639999986] yes=91,no=92,missing=92
						91:leaf=0.0768345222
						92:leaf=-0.00193238573
			12:[visibility<9.60999966] yes=25,no=26,missing=25
				25:[dewPoint<5.05999994] yes=49,no=50,missing=49
					49:[windGust<6.71000004] yes=93,no=94,missing=93
						93:leaf=0.239306927
						94:leaf=0.0580704398
					50:[windBearing<270] yes=95,no=96,missing=95
						95:leaf=-0.0090097934
						96:leaf=-0.186693594
				26:[cloudCover<0.959999979] yes=51,no=52,missing=52
					51:[visibility<9.90999985] yes=97,no=98,missing=97
						97:leaf=0.346369117
						98:leaf=0.0844439194
					52:[hour_x<16] yes=99,no=100,missing=100
						99:leaf=0.20098649
						100:leaf=0.805438161
		6:[windGust<10.5200005] yes=13,no=14,missing=13
			13:[pressure<1027.88] yes=27,no=28,missing=28
				27:[pressure<1019.81] yes=53,no=54,missing=53
					53:[humidity<0.899999976] yes=101,no=102,missing=101
						101:leaf=0.204776153
						102:leaf=0.00251997914
					54:[cloudCover<0.409999996] yes=103,no=104,missing=103
						103:leaf=0.133245587
						104:leaf=0.502839983
				28:[humidity<0.800000012] yes=55,no=56,missing=56
					55:[dewPoint<4.5999999] yes=105,no=106,missing=105
						105:leaf=0.0802873001
						106:leaf=0.678329825
					56:[hour_x<21] yes=107,no=108,missing=108
						107:leaf=0.136454761
						108:leaf=-0.126415178
			14:[precipProbability<0.660000026] yes=29,no=30,missing=29
				29:[temperature<7.94999981] yes=57,no=58,missing=57
					57:[temperature<6.98000002] yes=109,no=110,missing=109
						109:leaf=-0.014789111
						110:leaf=0.192188665
					58:[visibility<7.82000017] yes=111,no=112,missing=111
						111:leaf=0.169782743
						112:leaf=-0.132577673
				30:[apparentTemperature<3.06999993] yes=59,no=60,missing=59
					59:[windGust<10.8699999] yes=113,no=114,missing=113
						113:leaf=-0.0939346179
						114:leaf=-0.0113413539
					60:[visibility<8.47999954] yes=115,no=116,missing=115
						115:leaf=0.483175099
						116:leaf=0.193728894
booster[11]:
0:[weekday<1] yes=1,no=2,missing=1
	1:[pressure<1006.59003] yes=3,no=4,missing=4
		3:[windGust<8.94999981] yes=7,no=8,missing=8
			7:[apparentTemperature<3.06999993] yes=15,no=16,missing=15
				15:leaf=0.541235864
				16:leaf=0.0636304542
			8:[visibility<11.6000004] yes=17,no=18,missing=17
				17:[cloudCover<0.850000024] yes=31,no=32,missing=31
					31:[apparentTemperature<12.3599997] yes=59,no=60,missing=59
						59:leaf=-0.0146748964
						60:leaf=0.0561263971
					32:leaf=0.0614421964
				18:[pressure<998.179993] yes=33,no=34,missing=33
					33:[apparentTemperature<11.3100004] yes=61,no=62,missing=61
						61:leaf=-0.0267494228
						62:leaf=0.0407532416
					34:[apparentTemperature<1.72000003] yes=63,no=64,missing=63
						63:leaf=0.536735952
						64:leaf=-0.00964814704
		4:[windBearing<230] yes=9,no=10,missing=9
			9:[hour_x<11] yes=19,no=20,missing=20
				19:[windGust<9.21000004] yes=35,no=36,missing=35
					35:[visibility<7.71000004] yes=65,no=66,missing=65
						65:leaf=0.306070507
						66:leaf=0.51272428
					36:[dewPoint<2.66000009] yes=67,no=68,missing=67
						67:leaf=0.279595464
						68:leaf=-0.0727233738
				20:[hour_x<22] yes=37,no=38,missing=37
					37:[dewPoint<5.40999985] yes=69,no=70,missing=69
						69:leaf=0.597462714
						70:leaf=0.429971546
					38:[windSpeed<8.13000011] yes=71,no=72,missing=71
						71:leaf=0.373227149
						72:leaf=-0.33082217
			10:[dewPoint<3.28999996] yes=21,no=22,missing=21
				21:[cloudCover<0.469999999] yes=39,no=40,missing=40
					39:[hour_x<12] yes=73,no=74,missing=73
						73:leaf=0.478931248
						74:leaf=0.168085724
					40:[visibility<9.06000042] yes=75,no=76,missing=76
						75:leaf=0.435570687
						76:leaf=0.0934541374
				22:[pressure<1008.19] yes=41,no=42,missing=42
					41:[cloudCover<0.680000007] yes=77,no=78,missing=78
						77:leaf=-0.0384479947
						78:leaf=-0.240340233
					42:[humidity<0.899999976] yes=79,no=80,missing=79
						79:leaf=0.617519915
						80:leaf=0.366591543
	2:[hour_x<18] yes=5,no=6,missing=5
		5:[temperature<6.92000008] yes=11,no=12,missing=11
			11:[windGust<12.2799997] yes=23,no=24,missing=23
				23:[pressure<1025.38] yes=43,no=44,missing=43
					43:[windGust<9.32999992] yes=81,no=82,missing=81
						81:leaf=-0.0381481759
						82:leaf=0.00893401448
					44:[pressure<1030.08997] yes=83,no=84,missing=83
						83:leaf=0.126758501
						84:leaf=0.0013754752
				24:[pressure<1015.13] yes=45,no=46,missing=46
					45:[hour_x<14] yes=85,no=86,missing=85
						85:leaf=0.006264125
						86:leaf=0.130034849
					46:[temperature<5.98999977] yes=87,no=88,missing=88
						87:leaf=0.111634888
						88:leaf=0.26393342
			12:[temperature<8.43999958] yes=25,no=26,missing=26
				25:[hour_x<7] yes=47,no=48,missing=47
					47:[dewPoint<3.68000007] yes=89,no=90,missing=90
						89:leaf=0.100998692
						90:leaf=0.40070191
					48:[windGust<6.48000002] yes=91,no=92,missing=91
						91:leaf=-0.0269745775
						92:leaf=0.0848452672
				26:[windBearing<264] yes=49,no=50,missing=49
					49:[dewPoint<4.28999996] yes=93,no=94,missing=94
						93:leaf=0.100570671
						94:leaf=0.00993231218
					50:[cloudCover<0.959999979] yes=95,no=96,missing=96
						95:leaf=0.0834397152
						96:leaf=0.691645503
		6:[pressure<1020.15997] yes=13,no=14,missing=14
			13:[pressure<1007.82001] yes=27,no=28,missing=27
				27:[pressure<999.52002] yes=51,no=52,missing=51
					51:[windBearing<54] yes=97,no=98,missing=98
						97:leaf=0.0435062312
						98:leaf=-0.0297969673
					52:[windSpeed<10.6499996] yes=99,no=100,missing=100
						99:leaf=0.215903237
						100:leaf=-0.0395335332
				28:[hour_x<22] yes=53,no=54,missing=53
					53:[dewPoint<5] yes=101,no=102,missing=101
						101:leaf=0.104754083
						102:leaf=-0.00737749366
					54:[windBearing<66] yes=103,no=104,missing=103
						103:leaf=-0.0145720262
						104:leaf=-0.137589544
			14:[pressure<1023.06] yes=29,no=30,missing=29
				29:[humidity<0.75] yes=55,no=56,missing=56
					55:leaf=-0.0332940817
					56:leaf=0.735801697
				30:[pressure<1025.83997] yes=57,no=58,missing=57
					57:[pressure<1025.15002] yes=105,no=106,missing=106
						105:leaf=0.151473075
						106:leaf=0.44541508
					58:[windBearing<167] yes=107,no=108,missing=107
						107:leaf=-0.0710547715
						108:leaf=0.115818515
booster[12]:
0:[weekday<1] yes=1,no=2,missing=1
	1:[pressure<1006.59003] yes=3,no=4,missing=3
		3:[windGust<8.94999981] yes=7,no=8,missing=8
			7:[apparentTemperature<3.06999993] yes=15,no=16,missing=15
				15:leaf=0.488536596
				16:[hour_x<2] yes=31,no=32,missing=31
					31:leaf=0.0394343473
					32:leaf=0.0819097608
			8:[visibility<11.6000004] yes=17,no=18,missing=17
				17:[apparentTemperature<5.03000021] yes=33,no=34,missing=33
					33:leaf=-0.0169963483
					34:[pressure<990.549988] yes=61,no=62,missing=61
						61:leaf=-0.0402460955
						62:leaf=0.0479270667
				18:[pressure<998.179993] yes=35,no=36,missing=35
					35:[apparentTemperature<-1.01999998] yes=63,no=64,missing=64
						63:leaf=-0.0467348546
						64:leaf=-0.00256053009
					36:[apparentTemperature<1.72000003] yes=65,no=66,missing=65
						65:leaf=0.486219704
						66:leaf=-0.00875754934
		4:[windBearing<77] yes=9,no=10,missing=10
			9:[humidity<0.850000024] yes=19,no=20,missing=19
				19:[windSpeed<7.03000021] yes=37,no=38,missing=37
					37:[windGust<4.86000013] yes=67,no=68,missing=67
						67:leaf=0.184338763
						68:leaf=0.586104393
					38:leaf=0.17179805
				20:[windSpeed<3.78999996] yes=39,no=40,missing=39
					39:[windBearing<23] yes=69,no=70,missing=69
						69:leaf=0.312684208
						70:leaf=0.475421488
					40:[hour_x<3] yes=71,no=72,missing=71
						71:leaf=0.253502995
						72:leaf=0.0774611682
			10:[cloudCover<0.75] yes=21,no=22,missing=21
				21:[cloudCover<0.660000026] yes=41,no=42,missing=42
					41:[pressure<1025.48999] yes=73,no=74,missing=74
						73:leaf=0.186338678
						74:leaf=0.466755927
					42:[apparentTemperature<3.93000007] yes=75,no=76,missing=75
						75:leaf=-0.119259559
						76:leaf=0.260115713
				22:[hour_x<11] yes=43,no=44,missing=44
					43:[pressure<1022.41998] yes=77,no=78,missing=77
						77:leaf=0.362119198
						78:leaf=-0.101422846
					44:[pressure<1033.69995] yes=79,no=80,missing=79
						79:leaf=0.516037464
						80:leaf=0.210554004
	2:[hour_x<19] yes=5,no=6,missing=5
		5:[hour_x<14] yes=11,no=12,missing=11
			11:[hour_x<8] yes=23,no=24,missing=24
				23:[temperature<6.92000008] yes=45,no=46,missing=46
					45:[windBearing<117] yes=81,no=82,missing=81
						81:leaf=-0.0517892428
						82:leaf=0.0213311203
					46:[temperature<9.43000031] yes=83,no=84,missing=83
						83:leaf=0.192703635
						84:leaf=-0.00540186232
				24:[uvIndex<2.5] yes=47,no=48,missing=47
					47:[windGust<15.0699997] yes=85,no=86,missing=86
						85:leaf=0.00741633773
						86:leaf=-0.036610689
					48:[dewPoint<1.63] yes=87,no=88,missing=87
						87:leaf=0.291308612
						88:leaf=0.0343375131
			12:[visibility<9.60999966] yes=25,no=26,missing=25
				25:[windSpeed<1.36000001] yes=49,no=50,missing=49
					49:[dewPoint<4.6500001] yes=89,no=90,missing=89
						89:leaf=0.069629766
						90:leaf=0.31920889
					50:[cloudCover<0.769999981] yes=91,no=92,missing=91
						91:leaf=-0.049766589
						92:leaf=0.0426646993
				26:[dewPoint<6.65999985] yes=51,no=52,missing=51
					51:[uvIndex<1.5] yes=93,no=94,missing=93
						93:leaf=0.0234128404
						94:leaf=0.151596963
					52:[dewPoint<7.69000006] yes=95,no=96,missing=95
						95:leaf=0.607130349
						96:leaf=0.044969108
		6:[apparentTemperature<4.78000021] yes=13,no=14,missing=13
			13:[apparentTemperature<-1.69000006] yes=27,no=28,missing=28
				27:[apparentTemperature<-1.97000003] yes=53,no=54,missing=53
					53:leaf=-0.0379517078
					54:[pressure<1003.01001] yes=97,no=98,missing=97
						97:leaf=0.318823546
						98:leaf=0.125694513
				28:[hour_x<21] yes=55,no=56,missing=56
					55:[visibility<6.26000023] yes=99,no=100,missing=99
						99:leaf=0.519994438
						100:leaf=0.0948473364
					56:[cloudCover<0.889999986] yes=101,no=102,missing=101
						101:leaf=-0.0098565286
						102:leaf=0.32899341
			14:[apparentTemperature<10.6400003] yes=29,no=30,missing=29
				29:[windBearing<171] yes=57,no=58,missing=57
					57:[windSpeed<0.769999981] yes=103,no=104,missing=104
						103:leaf=0.383029819
						104:leaf=0.0438709073
					58:[cloudy<1] yes=105,no=106,missing=105
						105:leaf=0.122570768
						106:leaf=0.399955243
				30:[windSpeed<2.24000001] yes=59,no=60,missing=59
					59:leaf=0.712141633
					60:[visibility<8.14000034] yes=107,no=108,missing=108
						107:leaf=0.29793781
						108:leaf=-0.0797568783
booster[13]:
0:[weekday<1] yes=1,no=2,missing=1
	1:[pressure<1007.21997] yes=3,no=4,missing=4
		3:[windGust<8.94999981] yes=7,no=8,missing=7
			7:[apparentTemperature<3.06999993] yes=15,no=16,missing=16
				15:leaf=0.445839167
				16:[apparentTemperature<4.59000015] yes=31,no=32,missing=32
					31:leaf=0.0395438783
					32:leaf=0.150843233
			8:[visibility<11.6000004] yes=17,no=18,missing=18
				17:[pressure<1006.59003] yes=33,no=34,missing=33
					33:[apparentTemperature<5.07999992] yes=61,no=62,missing=61
						61:leaf=-0.0146514792
						62:leaf=0.0180561952
					34:[apparentTemperature<5.32999992] yes=63,no=64,missing=63
						63:leaf=-0.203583583
						64:leaf=-0.0495313816
				18:[windSpeed<11.0100002] yes=35,no=36,missing=36
					35:[pressure<998.179993] yes=65,no=66,missing=65
						65:leaf=-0.0161421038
						66:leaf=0.173819825
					36:leaf=0.460111111
		4:[apparentTemperature<3.69000006] yes=9,no=10,missing=10
			9:[pressure<1013.21002] yes=19,no=20,missing=20
				19:[windGust<18.1900005] yes=37,no=38,missing=37
					37:[hour_x<9] yes=67,no=68,missing=67
						67:leaf=0.295063764
						68:leaf=0.504460156
					38:[visibility<9.80000019] yes=69,no=70,missing=69
						69:leaf=0.180409968
						70:leaf=0.0140877562
				20:[dewPoint<1.17999995] yes=39,no=40,missing=39
					39:[cloudCover<0.660000026] yes=71,no=72,missing=71
						71:leaf=0.337230772
						72:leaf=0.114531599
					40:[cloudCover<0.540000021] yes=73,no=74,missing=73
						73:leaf=0.229528382
						74:leaf=-0.194850788
			10:[pressure<1034.08997] yes=21,no=22,missing=21
				21:[hour_x<10] yes=41,no=42,missing=42
					41:[windGust<6.36000013] yes=75,no=76,missing=75
						75:leaf=0.436381072
						76:leaf=0.00457897922
					42:[pressure<1020.75] yes=77,no=78,missing=77
						77:leaf=0.289580911
						78:leaf=0.47588101
				22:[hour_x<14] yes=43,no=44,missing=43
					43:[apparentTemperature<4.73000002] yes=79,no=80,missing=79
						79:leaf=-0.291628569
						80:leaf=-0.0293890983
					44:leaf=0.343926728
	2:[hour_x<19] yes=5,no=6,missing=6
		5:[pressure<1028.63] yes=11,no=12,missing=11
			11:[pressure<1019.10999] yes=23,no=24,missing=24
				23:[dewPoint<9.01000023] yes=45,no=46,missing=46
					45:[cloudCover<0.639999986] yes=81,no=82,missing=82
						81:leaf=0.0605626516
						82:leaf=0.00868800934
					46:leaf=0.324177444
				24:[cloudCover<0.479999989] yes=47,no=48,missing=48
					47:[visibility<10.8100004] yes=83,no=84,missing=83
						83:leaf=-0.0247031171
						84:leaf=0.0439542346
					48:[hour_x<15] yes=85,no=86,missing=86
						85:leaf=0.0771968886
						86:leaf=0.253049642
			12:[humidity<0.419999987] yes=25,no=26,missing=25
				25:[pressure<1032.21997] yes=49,no=50,missing=49
					49:leaf=0.115386799
					50:[windBearing<237] yes=87,no=88,missing=87
						87:leaf=0.268778533
						88:leaf=0.0664836764
				26:[dewPoint<7.75] yes=51,no=52,missing=51
					51:[visibility<8.42000008] yes=89,no=90,missing=90
						89:leaf=0.176773682
						90:leaf=0.00616872823
					52:[hour_x<15] yes=91,no=92,missing=91
						91:leaf=-0.030056214
						92:leaf=-0.111828201
		6:[windGust<10.5200005] yes=13,no=14,missing=13
			13:[windBearing<164] yes=27,no=28,missing=28
				27:[humidity<0.75999999] yes=53,no=54,missing=53
					53:[windBearing<131] yes=93,no=94,missing=93
						93:leaf=0.320820987
						94:leaf=-0.0392152928
					54:[windSpeed<2.24000001] yes=95,no=96,missing=95
						95:leaf=-0.0555121377
						96:leaf=0.0426259451
				28:[dewPoint<3.93000007] yes=55,no=56,missing=56
					55:[pressure<1034.48999] yes=97,no=98,missing=98
						97:leaf=0.117161669
						98:leaf=-0.0863851234
					56:[dewPoint<8.28999996] yes=99,no=100,missing=99
						99:leaf=0.311864525
						100:leaf=-0.0734775513
			14:[precipProbability<0.959999979] yes=29,no=30,missing=29
				29:[temperature<7.94999981] yes=57,no=58,missing=57
					57:[temperature<6.98000002] yes=101,no=102,missing=101
						101:leaf=-0.0190601759
						102:leaf=0.155797943
					58:[visibility<8.14000034] yes=103,no=104,missing=103
						103:leaf=0.154447153
						104:leaf=-0.124115519
				30:[apparentTemperature<3.06999993] yes=59,no=60,missing=59
					59:[visibility<7.05000019] yes=105,no=106,missing=105
						105:leaf=0.039623607
						106:leaf=-0.0554085635
					60:[visibility<8.47999954] yes=107,no=108,missing=108
						107:leaf=0.403590292
						108:leaf=0.184113368
booster[14]:
0:[weekday<1] yes=1,no=2,missing=1
	1:[pressure<1006.59003] yes=3,no=4,missing=3
		3:[windGust<8.94999981] yes=7,no=8,missing=8
			7:[apparentTemperature<3.06999993] yes=15,no=16,missing=15
				15:leaf=0.397557914
				16:[hour_x<2] yes=31,no=32,missing=31
					31:leaf=0.032664787
					32:leaf=0.066392906
			8:[visibility<11.6000004] yes=17,no=18,missing=17
				17:[cloudCover<0.850000024] yes=33,no=34,missing=33
					33:[apparentTemperature<12.4300003] yes=61,no=62,missing=61
						61:leaf=-0.0104175676
						62:leaf=0.0682345405
					34:leaf=0.0497615449
				18:[pressure<998.179993] yes=35,no=36,missing=36
					35:[windBearing<225] yes=63,no=64,missing=63
						63:leaf=0.0226959977
						64:leaf=-0.024702087
					36:[apparentTemperature<1.72000003] yes=65,no=66,missing=65
						65:leaf=0.410625905
						66:leaf=-0.0239940658
		4:[windBearing<77] yes=9,no=10,missing=10
			9:[humidity<0.850000024] yes=19,no=20,missing=19
				19:[windSpeed<6.92999983] yes=37,no=38,missing=37
					37:[windGust<5.19000006] yes=67,no=68,missing=68
						67:leaf=0.160124704
						68:leaf=0.494780689
					38:[hour_x<14] yes=69,no=70,missing=69
						69:leaf=0.0955440253
						70:leaf=0.193950444
				20:[windSpeed<3.78999996] yes=39,no=40,missing=39
					39:[cloudCover<0.800000012] yes=71,no=72,missing=71
						71:leaf=0.262417644
						72:leaf=0.405383259
					40:[hour_x<3] yes=73,no=74,missing=73
						73:leaf=0.212360486
						74:leaf=0.044427339
			10:[cloudCover<0.75] yes=21,no=22,missing=21
				21:[cloudCover<0.660000026] yes=41,no=42,missing=41
					41:[pressure<1026.72998] yes=75,no=76,missing=76
						75:leaf=0.140523344
						76:leaf=0.388795108
					42:[temperature<8.31999969] yes=77,no=78,missing=77
						77:leaf=-0.0717104822
						78:leaf=0.261795253
				22:[hour_x<11] yes=43,no=44,missing=43
					43:[pressure<1022.41998] yes=79,no=80,missing=79
						79:leaf=0.301300496
						80:leaf=-0.0873923078
					44:[pressure<1033.69995] yes=81,no=82,missing=81
						81:leaf=0.425662756
						82:leaf=0.151177049
	2:[hour_x<14] yes=5,no=6,missing=6
		5:[hour_x<8] yes=11,no=12,missing=11
			11:[temperature<6.92000008] yes=23,no=24,missing=24
				23:[pressure<1005.41998] yes=45,no=46,missing=45
					45:[dewPoint<2.79999995] yes=83,no=84,missing=83
						83:leaf=-0.049292203
						84:leaf=0.00668721227
					46:[windGust<12.1099997] yes=85,no=86,missing=85
						85:leaf=0.00626026839
						86:leaf=0.108890891
				24:[dewPoint<6.34000015] yes=47,no=48,missing=47
					47:[windGust<8.85999966] yes=87,no=88,missing=87
						87:leaf=0.312508076
						88:leaf=0.0500136502
					48:[cloudCover<0.709999979] yes=89,no=90,missing=89
						89:leaf=0.257965863
						90:leaf=-0.0284170266
			12:[cloudCover<0.790000021] yes=25,no=26,missing=26
				25:[windGust<15.0699997] yes=49,no=50,missing=49
					49:[dewPoint<8.02000046] yes=91,no=92,missing=92
						91:leaf=0.031413503
						92:leaf=-0.0383564197
					50:[windBearing<126] yes=93,no=94,missing=93
						93:leaf=0.0165551584
						94:leaf=-0.0418655798
				26:[apparentTemperature<0.730000019] yes=51,no=52,missing=52
					51:[hour_x<10] yes=95,no=96,missing=95
						95:leaf=-0.0115836859
						96:leaf=0.202348933
					52:[humidity<0.579999983] yes=97,no=98,missing=98
						97:leaf=0.262472481
						98:leaf=-0.035074763
		6:[windSpeed<1.36000001] yes=13,no=14,missing=13
			13:[pressure<1026.15002] yes=27,no=28,missing=27
				27:[visibility<10.4300003] yes=53,no=54,missing=54
					53:[humidity<0.730000019] yes=99,no=100,missing=99
						99:leaf=0.259284228
						100:leaf=-0.0314810462
					54:[windGust<4.28999996] yes=101,no=102,missing=101
						101:leaf=0.540937662
						102:leaf=0.0748023316
				28:[cloudCover<0.709999979] yes=55,no=56,missing=55
					55:[windSpeed<0.479999989] yes=103,no=104,missing=104
						103:leaf=0.0568978302
						104:leaf=-0.0905487165
					56:[hour_x<20] yes=105,no=106,missing=105
						105:leaf=0.427213013
						106:leaf=0.133816883
			14:[humidity<0.75] yes=29,no=30,missing=29
				29:[windBearing<131] yes=57,no=58,missing=57
					57:[uvIndex<0.5] yes=107,no=108,missing=107
						107:leaf=0.208935216
						108:leaf=0.0363640375
					58:[hour_x<16] yes=109,no=110,missing=109
						109:leaf=0.0931139812
						110:leaf=-0.0102851689
				30:[windBearing<161] yes=59,no=60,missing=60
					59:[pressure<1003.23999] yes=111,no=112,missing=111
						111:leaf=0.075678885
						112:leaf=-0.0222687032
					60:[visibility<11.0699997] yes=113,no=114,missing=113
						113:leaf=0.179594576
						114:leaf=0.0193475503
booster[15]:
0:[weekday<1] yes=1,no=2,missing=1
	1:[pressure<1007.21997] yes=3,no=4,missing=4
		3:[windGust<8.94999981] yes=7,no=8,missing=7
			7:[apparentTemperature<3.06999993] yes=15,no=16,missing=16
				15:leaf=0.363589972
				16:[apparentTemperature<4.59000015] yes=31,no=32,missing=31
					31:leaf=0.0318773203
					32:leaf=0.124692716
			8:[visibility<11.6000004] yes=17,no=18,missing=17
				17:[pressure<1006.59003] yes=33,no=34,missing=34
					33:[hour_x<9] yes=61,no=62,missing=62
						61:leaf=0.00704241311
						62:leaf=-0.0209944732
					34:leaf=-0.193863943
				18:[windSpeed<11.0100002] yes=35,no=36,missing=36
					35:[pressure<998.179993] yes=63,no=64,missing=63
						63:leaf=-0.0131223425
						64:leaf=0.142993778
					36:leaf=0.385864228
		4:[apparentTemperature<3.69000006] yes=9,no=10,missing=10
			9:[pressure<1013.21002] yes=19,no=20,missing=20
				19:[windGust<18.1900005] yes=37,no=38,missing=37
					37:[humidity<0.790000021] yes=65,no=66,missing=65
						65:leaf=0.506439149
						66:leaf=0.303432196
					38:[visibility<9.80000019] yes=67,no=68,missing=67
						67:leaf=0.136539921
						68:leaf=0.00107227964
				20:[cloudCover<0.660000026] yes=39,no=40,missing=40
					39:[windGust<8.85999966] yes=69,no=70,missing=69
						69:leaf=0.380530953
						70:leaf=0.0237698387
					40:[pressure<1027.69995] yes=71,no=72,missing=72
						71:leaf=0.131173417
						72:leaf=-0.284088343
			10:[pressure<1033.69995] yes=21,no=22,missing=21
				21:[hour_x<22] yes=41,no=42,missing=41
					41:[hour_x<10] yes=73,no=74,missing=74
						73:leaf=0.185649991
						74:leaf=0.377917051
					42:[pressure<1020.32001] yes=75,no=76,missing=76
						75:leaf=-0.189934716
						76:leaf=0.22374098
				22:[hour_x<18] yes=43,no=44,missing=43
					43:[humidity<0.660000026] yes=77,no=78,missing=77
						77:leaf=0.0641334727
						78:leaf=-0.119512491
					44:leaf=0.516019225
	2:[hour_x<18] yes=5,no=6,missing=5
		5:[pressure<1028.28003] yes=11,no=12,missing=11
			11:[cloudCover<0.430000007] yes=23,no=24,missing=23
				23:[hour_x<17] yes=45,no=46,missing=45
					45:[pressure<1026.15002] yes=79,no=80,missing=80
						79:leaf=-0.0151914535
						80:leaf=0.0524041615
					46:[apparentTemperature<13.1099997] yes=81,no=82,missing=81
						81:leaf=-0.130538583
						82:leaf=0.0409233682
				24:[pressure<1019.10999] yes=47,no=48,missing=48
					47:[dewPoint<9.01000023] yes=83,no=84,missing=83
						83:leaf=0.0155336559
						84:leaf=0.274190098
					48:[dewPoint<7.75] yes=85,no=86,missing=85
						85:leaf=0.117868677
						86:leaf=-0.0535499826
			12:[humidity<0.419999987] yes=25,no=26,missing=25
				25:[pressure<1032.21997] yes=49,no=50,missing=50
					49:[dewPoint<3.3499999] yes=87,no=88,missing=87
						87:leaf=0.0570658334
						88:leaf=0.151370749
					50:[windBearing<237] yes=89,no=90,missing=89
						89:leaf=0.236633375
						90:leaf=0.0585037954
				26:[windBearing<269] yes=51,no=52,missing=52
					51:[humidity<0.670000017] yes=91,no=92,missing=92
						91:leaf=0.0319067612
						92:leaf=-0.0315989517
					52:[windSpeed<2.93000007] yes=93,no=94,missing=93
						93:leaf=-0.0357433632
						94:leaf=0.0486998707
		6:[pressure<1020.15997] yes=13,no=14,missing=13
			13:[pressure<1007.82001] yes=27,no=28,missing=27
				27:[pressure<999.52002] yes=53,no=54,missing=53
					53:[dewPoint<2.93000007] yes=95,no=96,missing=95
						95:leaf=-0.00562404795
						96:leaf=-0.064694047
					54:[windSpeed<10.6499996] yes=97,no=98,missing=97
						97:leaf=0.162466243
						98:leaf=-0.0437943637
				28:[hour_x<21] yes=55,no=56,missing=55
					55:[apparentTemperature<6.57000017] yes=99,no=100,missing=99
						99:leaf=0.0897824168
						100:leaf=-0.0529547296
					56:[apparentTemperature<5.73999977] yes=101,no=102,missing=101
						101:leaf=-0.110249035
						102:leaf=-0.00522553781
			14:[pressure<1022.87] yes=29,no=30,missing=29
				29:[windSpeed<1.26999998] yes=57,no=58,missing=57
					57:leaf=0.401988506
					58:leaf=0.652600467
				30:[windSpeed<3.52999997] yes=59,no=60,missing=59
					59:[dewPoint<6.25] yes=103,no=104,missing=104
						103:leaf=0.107520618
						104:leaf=0.649482071
					60:[windBearing<232] yes=105,no=106,missing=105
						105:leaf=0.0917430893
						106:leaf=-0.0916195512
booster[16]:
0:[weekday<1] yes=1,no=2,missing=1
	1:[windGust<8.85999966] yes=3,no=4,missing=3
		3:[pressure<1028.19995] yes=7,no=8,missing=7
			7:[windGust<6.07000017] yes=15,no=16,missing=15
				15:[cloudCover<0.959999979] yes=31,no=32,missing=31
					31:[humidity<0.829999983] yes=63,no=64,missing=63
						63:leaf=0.428796202
						64:leaf=0.31438446
					32:[apparentTemperature<5.21000004] yes=65,no=66,missing=65
						65:leaf=-0.163820967
						66:leaf=-0.0467985868
				16:[dewPoint<5.65999985] yes=33,no=34,missing=34
					33:[windBearing<56] yes=67,no=68,missing=67
						67:leaf=0.405218124
						68:leaf=0.256312788
					34:[pressure<1010.25] yes=69,no=70,missing=69
						69:leaf=-0.0275890864
						70:leaf=0.280341953
			8:[cloudCover<0.660000026] yes=17,no=18,missing=17
				17:[cloudCover<0.460000008] yes=35,no=36,missing=35
					35:leaf=0.303221375
					36:leaf=0.508622885
				18:[hour_x<17] yes=37,no=38,missing=38
					37:[apparentTemperature<4.73000002] yes=71,no=72,missing=71
						71:leaf=-0.282121181
						72:leaf=0.0170944538
					38:[hour_x<18] yes=73,no=74,missing=73
						73:leaf=0.179396763
						74:leaf=0.466328204
		4:[pressure<1020.75] yes=9,no=10,missing=9
			9:[dewPoint<1.92999995] yes=19,no=20,missing=19
				19:[hour_x<18] yes=39,no=40,missing=39
					39:[dewPoint<0.790000021] yes=75,no=76,missing=75
						75:leaf=0.0409886502
						76:leaf=0.297395438
					40:[dewPoint<0.119999997] yes=77,no=78,missing=77
						77:leaf=0.0606146343
						78:leaf=-0.15205507
				20:[windBearing<254] yes=41,no=42,missing=41
					41:[pressure<1006.44] yes=79,no=80,missing=79
						79:leaf=0.00166195969
						80:leaf=0.31981349
					42:[windGust<12.75] yes=81,no=82,missing=81
						81:leaf=-0.269748479
						82:leaf=-0.0489213616
			10:[hour_x<12] yes=21,no=22,missing=21
				21:[dewPoint<2.69000006] yes=43,no=44,missing=43
					43:[dewPoint<1.50999999] yes=83,no=84,missing=84
						83:leaf=0.127869651
						84:leaf=0.26893422
					44:[hour_x<11] yes=85,no=86,missing=86
						85:leaf=-0.0862988085
						86:leaf=0.302606851
				22:[temperature<7.0999999] yes=45,no=46,missing=45
					45:[hour_x<15] yes=87,no=88,missing=87
						87:leaf=0.141418323
						88:leaf=-0.2009615
					46:[hour_x<22] yes=89,no=90,missing=89
						89:leaf=0.47541973
						90:leaf=0.238266453
	2:[hour_x<14] yes=5,no=6,missing=5
		5:[hour_x<7] yes=11,no=12,missing=11
			11:[temperature<6.92000008] yes=23,no=24,missing=23
				23:[precipIntensity<1.7069] yes=47,no=48,missing=48
					47:[pressure<1025.38] yes=91,no=92,missing=91
						91:leaf=-0.0210795961
						92:leaf=0.0406649373
					48:[pressure<1015.38] yes=93,no=94,missing=94
						93:leaf=0.0336662009
						94:leaf=0.211163551
				24:[dewPoint<6.34000015] yes=49,no=50,missing=49
					49:[windGust<8.31000042] yes=95,no=96,missing=95
						95:leaf=0.336555243
						96:leaf=0.0532657914
					50:[cloudCover<0.709999979] yes=97,no=98,missing=97
						97:leaf=0.238138601
						98:leaf=-0.034537781
			12:[cloudCover<0.790000021] yes=25,no=26,missing=25
				25:[windBearing<298] yes=51,no=52,missing=52
					51:[visibility<10.9099998] yes=99,no=100,missing=99
						99:leaf=0.0173349716
						100:leaf=-0.019212164
					52:[visibility<14.21] yes=101,no=102,missing=102
						101:leaf=0.0508602522
						102:leaf=0.395596653
				26:[apparentTemperature<0.730000019] yes=53,no=54,missing=54
					53:[hour_x<10] yes=103,no=104,missing=103
						103:leaf=-0.0117811924
						104:leaf=0.184192047
					54:[pressure<1023.83002] yes=105,no=106,missing=106
						105:leaf=-0.0521258973
						106:leaf=0.00601693196
		6:[windSpeed<1.36000001] yes=13,no=14,missing=13
			13:[pressure<1026.15002] yes=27,no=28,missing=27
				27:[visibility<10.4300003] yes=55,no=56,missing=55
					55:[humidity<0.730000019] yes=107,no=108,missing=107
						107:leaf=0.223276287
						108:leaf=-0.0360698216
					56:[dewPoint<3.51999998] yes=109,no=110,missing=109
						109:leaf=0.179282665
						110:leaf=0.488840729
				28:[cloudCover<0.720000029] yes=57,no=58,missing=57
					57:[humidity<0.810000002] yes=111,no=112,missing=111
						111:leaf=-0.0362849459
						112:leaf=-0.147273973
					58:[hour_x<20] yes=113,no=114,missing=113
						113:leaf=0.400476277
						114:leaf=0.132255435
			14:[dewPoint<7.4000001] yes=29,no=30,missing=30
				29:[dewPoint<5.48000002] yes=59,no=60,missing=59
					59:[visibility<4.80999994] yes=115,no=116,missing=115
						115:leaf=0.251474828
						116:leaf=0.0503404327
					60:[windSpeed<6.82000017] yes=117,no=118,missing=117
						117:leaf=0.008866488
						118:leaf=-0.179853246
				30:[dewPoint<7.82999992] yes=61,no=62,missing=61
					61:[windGust<7.73000002] yes=119,no=120,missing=120
						119:leaf=0.00850361772
						120:leaf=0.554382443
					62:[windBearing<253] yes=121,no=122,missing=122
						121:leaf=0.0358108841
						122:leaf=-0.112940289
booster[17]:
0:[weekday<1] yes=1,no=2,missing=1
	1:[windGust<8.85999966] yes=3,no=4,missing=3
		3:[pressure<1028.19995] yes=7,no=8,missing=7
			7:[windSpeed<4.98999977] yes=15,no=16,missing=15
				15:[humidity<0.850000024] yes=31,no=32,missing=31
					31:[apparentTemperature<0.280000001] yes=63,no=64,missing=64
						63:leaf=0.187135458
						64:leaf=0.400772095
					32:[windGust<6.59000015] yes=65,no=66,missing=65
						65:leaf=0.264299542
						66:leaf=0.0588777959
				16:[visibility<9.81999969] yes=33,no=34,missing=33
					33:[pressure<1007.42999] yes=67,no=68,missing=68
						67:leaf=0.144895837
						68:leaf=0.501756191
					34:[windGust<7.78000021] yes=69,no=70,missing=69
						69:leaf=0.18451266
						70:leaf=0.0329703614
			8:[cloudCover<0.660000026] yes=17,no=18,missing=17
				17:[cloudCover<0.460000008] yes=35,no=36,missing=35
					35:leaf=0.274920762
					36:leaf=0.459879845
				18:[hour_x<17] yes=37,no=38,missing=37
					37:[apparentTemperature<4.73000002] yes=71,no=72,missing=71
						71:leaf=-0.254484802
						72:leaf=0.0154206101
					38:[apparentTemperature<4.61999989] yes=73,no=74,missing=73
						73:leaf=0.486801863
						74:leaf=0.260421991
		4:[pressure<1020.75] yes=9,no=10,missing=9
			9:[dewPoint<1.92999995] yes=19,no=20,missing=20
				19:[hour_x<18] yes=39,no=40,missing=39
					39:[dewPoint<0.790000021] yes=75,no=76,missing=75
						75:leaf=0.0369430222
						76:leaf=0.268250704
					40:[dewPoint<0.119999997] yes=77,no=78,missing=77
						77:leaf=0.0546633899
						78:leaf=-0.137310341
				20:[windBearing<254] yes=41,no=42,missing=42
					41:[pressure<1006.44] yes=79,no=80,missing=79
						79:leaf=0.0014971596
						80:leaf=0.291385621
					42:[windGust<12.75] yes=81,no=82,missing=81
						81:leaf=-0.243643835
						82:leaf=-0.0441355743
			10:[hour_x<12] yes=21,no=22,missing=22
				21:[dewPoint<2.69000006] yes=43,no=44,missing=43
					43:[dewPoint<1.50999999] yes=83,no=84,missing=83
						83:leaf=0.115276419
						84:leaf=0.243321374
					44:[hour_x<11] yes=85,no=86,missing=85
						85:leaf=-0.0778230354
						86:leaf=0.277389616
				22:[temperature<7.0999999] yes=45,no=46,missing=46
					45:[hour_x<15] yes=87,no=88,missing=87
						87:leaf=0.128219262
						88:leaf=-0.190913439
					46:[hour_x<22] yes=89,no=90,missing=89
						89:leaf=0.428203404
						90:leaf=0.215475798
	2:[hour_x<14] yes=5,no=6,missing=5
		5:[windGust<4.98000002] yes=11,no=12,missing=12
			11:[uvIndex<2.5] yes=23,no=24,missing=23
				23:[cloudCover<0.779999971] yes=47,no=48,missing=48
					47:[windBearing<135] yes=91,no=92,missing=91
						91:leaf=-0.0600100942
						92:leaf=0.0055132797
					48:[windGust<3.36999989] yes=93,no=94,missing=94
						93:leaf=-0.0370654128
						94:leaf=-0.0762950107
				24:[windSpeed<3.47000003] yes=49,no=50,missing=49
					49:[humidity<0.670000017] yes=95,no=96,missing=96
						95:leaf=0.1340404
						96:leaf=-0.00368331489
					50:[humidity<0.600000024] yes=97,no=98,missing=98
						97:leaf=-0.0670765936
						98:leaf=0.0483496748
			12:[windGust<7.76000023] yes=25,no=26,missing=25
				25:[pressure<1026.39001] yes=51,no=52,missing=51
					51:[windBearing<136] yes=99,no=100,missing=99
						99:leaf=0.0236078482
						100:leaf=0.241463706
					52:[windSpeed<4.88999987] yes=101,no=102,missing=101
						101:leaf=0.0198521707
						102:leaf=-0.0695550069
				26:[cloudCover<0.639999986] yes=53,no=54,missing=53
					53:[windSpeed<14.8100004] yes=103,no=104,missing=104
						103:leaf=0.0395466238
						104:leaf=0.315703839
					54:[dewPoint<5.40999985] yes=105,no=106,missing=105
						105:leaf=0.00685453182
						106:leaf=-0.0428557917
		6:[windSpeed<1.36000001] yes=13,no=14,missing=13
			13:[pressure<1026.15002] yes=27,no=28,missing=27
				27:[visibility<10.4300003] yes=55,no=56,missing=56
					55:[dewPoint<5.05999994] yes=107,no=108,missing=107
						107:leaf=0.147643223
						108:leaf=-0.145086557
					56:[windGust<4.28999996] yes=109,no=110,missing=109
						109:leaf=0.425108194
						110:leaf=0.0368033424
				28:[cloudCover<0.720000029] yes=57,no=58,missing=57
					57:[pressure<1036.15002] yes=111,no=112,missing=112
						111:leaf=-0.102301441
						112:leaf=-0.0071465685
					58:[hour_x<20] yes=113,no=114,missing=113
						113:leaf=0.380452454
						114:leaf=0.121674992
			14:[dewPoint<7.4000001] yes=29,no=30,missing=29
				29:[dewPoint<5.48000002] yes=59,no=60,missing=59
					59:[dewPoint<4.36000013] yes=115,no=116,missing=116
						115:leaf=0.0340918899
						116:leaf=0.088863492
					60:[windSpeed<6.82000017] yes=117,no=118,missing=117
						117:leaf=0.00798434019
						118:leaf=-0.162559673
				30:[dewPoint<7.82999992] yes=61,no=62,missing=61
					61:[windGust<7.73000002] yes=119,no=120,missing=119
						119:leaf=0.0076706144
						120:leaf=0.499810368
					62:[cloudCover<0.569999993] yes=121,no=122,missing=121
						121:leaf=0.138084158
						122:leaf=-0.0217786375
booster[18]:
0:[weekday<1] yes=1,no=2,missing=1
	1:[windGust<8.85999966] yes=3,no=4,missing=3
		3:[pressure<1028.19995] yes=7,no=8,missing=7
			7:[humidity<0.899999976] yes=15,no=16,missing=16
				15:[windSpeed<4.98999977] yes=31,no=32,missing=31
					31:[cloudCover<0.99000001] yes=61,no=62,missing=61
						61:leaf=0.316711217
						62:leaf=-0.00983632449
					32:[apparentTemperature<4.01999998] yes=63,no=64,missing=63
						63:leaf=0.424444526
						64:leaf=0.163746923
				16:[apparentTemperature<5.38000011] yes=33,no=34,missing=33
					33:[dewPoint<3.93000007] yes=65,no=66,missing=65
						65:leaf=0.217321858
						66:leaf=0.0787908062
					34:[apparentTemperature<5.88999987] yes=67,no=68,missing=67
						67:leaf=-0.00818157196
						68:leaf=-0.239344031
			8:[cloudCover<0.660000026] yes=17,no=18,missing=17
				17:[cloudCover<0.460000008] yes=35,no=36,missing=36
					35:leaf=0.249261424
					36:leaf=0.415808022
				18:[hour_x<16] yes=37,no=38,missing=37
					37:[apparentTemperature<4.73000002] yes=69,no=70,missing=70
						69:leaf=-0.229555681
						70:leaf=-0.000802038354
					38:[hour_x<18] yes=71,no=72,missing=71
						71:leaf=0.120891586
						72:leaf=0.385255873
		4:[pressure<1020.75] yes=9,no=10,missing=10
			9:[pressure<1016.15002] yes=19,no=20,missing=19
				19:[dewPoint<1.92999995] yes=39,no=40,missing=39
					39:[pressure<1003.23999] yes=73,no=74,missing=73
						73:leaf=-0.0127752423
						74:leaf=0.155556247
					40:[humidity<0.649999976] yes=75,no=76,missing=76
						75:leaf=-0.185163543
						76:leaf=0.00739436178
				20:[dewPoint<0.170000002] yes=41,no=42,missing=41
					41:[windGust<11.1400003] yes=77,no=78,missing=78
						77:leaf=0.253440619
						78:leaf=0.0135711348
					42:[windBearing<120] yes=79,no=80,missing=79
						79:leaf=-0.178231031
						80:leaf=-0.340366185
			10:[hour_x<13] yes=21,no=22,missing=21
				21:[windBearing<139] yes=43,no=44,missing=44
					43:[dewPoint<2.05999994] yes=81,no=82,missing=81
						81:leaf=0.101460218
						82:leaf=-0.0689974949
					44:[hour_x<1] yes=83,no=84,missing=84
						83:leaf=-0.157458663
						84:leaf=0.24034588
				22:[humidity<0.699999988] yes=45,no=46,missing=45
					45:[hour_x<22] yes=85,no=86,missing=85
						85:leaf=0.385481834
						86:leaf=0.223362356
					46:leaf=-0.142862201
	2:[hour_x<19] yes=5,no=6,missing=6
		5:[cloudCover<0.419999987] yes=11,no=12,missing=11
			11:[apparentTemperature<16.5900002] yes=23,no=24,missing=23
				23:[visibility<10.46] yes=47,no=48,missing=47
					47:[hour_x<17] yes=87,no=88,missing=88
						87:leaf=-0.0231219232
						88:leaf=-0.0811011717
					48:[uvIndex<2.5] yes=89,no=90,missing=89
						89:leaf=-0.00348705868
						90:leaf=0.094686009
				24:[cloudCover<0.170000002] yes=49,no=50,missing=49
					49:leaf=0.255823225
					50:[apparentTemperature<16.9599991] yes=91,no=92,missing=92
						91:leaf=0.157350853
						92:leaf=0.0675089583
			12:[pressure<1028.63] yes=25,no=26,missing=25
				25:[pressure<1019.10999] yes=51,no=52,missing=52
					51:[dewPoint<9.01000023] yes=93,no=94,missing=93
						93:leaf=0.00977939088
						94:leaf=0.228393957
					52:[hour_x<15] yes=95,no=96,missing=96
						95:leaf=0.0443378948
						96:leaf=0.181131512
				26:[windBearing<127] yes=53,no=54,missing=54
					53:[humidity<0.610000014] yes=97,no=98,missing=97
						97:leaf=-0.0426475629
						98:leaf=0.178999037
					54:[windBearing<269] yes=99,no=100,missing=99
						99:leaf=-0.0354123414
						100:leaf=0.0200602245
		6:[pressure<1001.23999] yes=13,no=14,missing=14
			13:[dewPoint<7.69000006] yes=27,no=28,missing=28
				27:[apparentTemperature<2.52999997] yes=55,no=56,missing=55
					55:[pressure<987.330017] yes=101,no=102,missing=101
						101:leaf=0.0544898994
						102:leaf=-0.0404789224
					56:[windBearing<125] yes=103,no=104,missing=103
						103:leaf=-0.0361077785
						104:leaf=-0.130541787
				28:leaf=0.113229394
			14:[pressure<1025.83997] yes=29,no=30,missing=29
				29:[pressure<1019.81] yes=57,no=58,missing=58
					57:[pressure<1007.82001] yes=105,no=106,missing=105
						105:leaf=0.122448556
						106:leaf=-0.0100303134
					58:[humidity<0.839999974] yes=107,no=108,missing=108
						107:leaf=0.160186112
						108:leaf=0.399410695
				30:[hour_x<21] yes=59,no=60,missing=59
					59:[cloudCover<0.74000001] yes=109,no=110,missing=109
						109:leaf=0.053028699
						110:leaf=0.477435112
					60:[cloudCover<0.00999999978] yes=111,no=112,missing=111
						111:leaf=0.284893245
						112:leaf=-0.0550690964
booster[19]:
0:[weekday<1] yes=1,no=2,missing=1
	1:[windGust<8.85999966] yes=3,no=4,missing=4
		3:[pressure<1028.19995] yes=7,no=8,missing=7
			7:[windGust<6.07000017] yes=15,no=16,missing=15
				15:[cloudCover<0.959999979] yes=31,no=32,missing=31
					31:[humidity<0.74000001] yes=61,no=62,missing=61
						61:leaf=0.347779214
						62:leaf=0.2390569
					32:[dewPoint<4.96000004] yes=63,no=64,missing=63
						63:leaf=-0.0552168563
						64:leaf=-0.156522304
				16:[dewPoint<5.65999985] yes=33,no=34,missing=33
					33:[cloudCover<0.860000014] yes=65,no=66,missing=65
						65:leaf=0.201686144
						66:leaf=0.37538594
					34:[pressure<1010.25] yes=67,no=68,missing=67
						67:leaf=-0.0484353639
						68:leaf=0.215912506
			8:[cloudCover<0.660000026] yes=17,no=18,missing=18
				17:[windBearing<267] yes=35,no=36,missing=36
					35:leaf=0.284678221
					36:leaf=0.503101528
				18:[hour_x<16] yes=37,no=38,missing=37
					37:[apparentTemperature<4.73000002] yes=69,no=70,missing=69
						69:leaf=-0.207068607
						70:leaf=-0.000723800855
					38:[hour_x<18] yes=71,no=72,missing=71
						71:leaf=0.109665923
						72:leaf=0.348564833
		4:[pressure<1020.75] yes=9,no=10,missing=9
			9:[pressure<1016.75] yes=19,no=20,missing=20
				19:[dewPoint<1.92999995] yes=39,no=40,missing=39
					39:[pressure<1003.23999] yes=73,no=74,missing=73
						73:leaf=-0.0115179988
						74:leaf=0.136465743
					40:[humidity<0.639999986] yes=75,no=76,missing=76
						75:leaf=-0.171984464
						76:leaf=0.00348744704
				20:[dewPoint<0.170000002] yes=41,no=42,missing=42
					41:[windGust<11.1400003] yes=77,no=78,missing=77
						77:leaf=0.233165368
						78:leaf=-0.0167074353
					42:leaf=-0.272889018
			10:[hour_x<13] yes=21,no=22,missing=22
				21:[windBearing<139] yes=43,no=44,missing=44
					43:[dewPoint<2.05999994] yes=79,no=80,missing=79
						79:leaf=0.0914702713
						80:leaf=-0.0622188114
					44:[temperature<5.76000023] yes=81,no=82,missing=82
						81:leaf=0.0696025416
						82:leaf=0.246389627
				22:[humidity<0.699999988] yes=45,no=46,missing=45
					45:[hour_x<22] yes=83,no=84,missing=83
						83:leaf=0.347209007
						84:leaf=0.202089787
					46:[apparentTemperature<3.51999998] yes=85,no=86,missing=85
						85:leaf=-0.17422466
						86:leaf=-0.0600469299
	2:[hour_x<19] yes=5,no=6,missing=6
		5:[cloudCover<0.439999998] yes=11,no=12,missing=11
			11:[apparentTemperature<16.5900002] yes=23,no=24,missing=24
				23:[visibility<10.46] yes=47,no=48,missing=47
					47:[windGust<8.77999973] yes=87,no=88,missing=88
						87:leaf=-0.0341072455
						88:leaf=0.0212711152
					48:[uvIndex<2.5] yes=89,no=90,missing=89
						89:leaf=-0.00179861637
						90:leaf=0.091087237
				24:[windBearing<231] yes=49,no=50,missing=49
					49:leaf=0.234504938
					50:[visibility<10.4899998] yes=91,no=92,missing=92
						91:leaf=0.140665099
						92:leaf=0.0529308133
			12:[pressure<1028.63] yes=25,no=26,missing=25
				25:[pressure<1019.10999] yes=51,no=52,missing=51
					51:[dewPoint<9.01000023] yes=93,no=94,missing=93
						93:leaf=0.00857727882
						94:leaf=0.206642136
					52:[hour_x<15] yes=95,no=96,missing=95
						95:leaf=0.0408112854
						96:leaf=0.167591617
				26:[windBearing<127] yes=53,no=54,missing=53
					53:[cloudCover<0.620000005] yes=97,no=98,missing=98
						97:leaf=0.0421087518
						98:leaf=0.219043612
					54:[windBearing<269] yes=99,no=100,missing=100
						99:leaf=-0.0322719179
						100:leaf=0.0169133898
		6:[apparentTemperature<10.6400003] yes=13,no=14,missing=13
			13:[dewPoint<7.4000001] yes=27,no=28,missing=27
				27:[windGust<6.42999983] yes=55,no=56,missing=56
					55:[temperature<5.03000021] yes=101,no=102,missing=101
						101:leaf=-0.0561978519
						102:leaf=0.146170035
					56:[pressure<1028.80005] yes=103,no=104,missing=104
						103:leaf=0.0341317616
						104:leaf=-0.132039979
				28:[windGust<7.21999979] yes=57,no=58,missing=57
					57:[apparentTemperature<10.2200003] yes=105,no=106,missing=105
						105:leaf=-0.0303462837
						106:leaf=-0.244560033
					58:[pressure<1027] yes=107,no=108,missing=108
						107:leaf=0.370609075
						108:leaf=0.583471537
			14:[windSpeed<2.24000001] yes=29,no=30,missing=30
				29:leaf=0.556141198
				30:[visibility<7.82000017] yes=59,no=60,missing=60
					59:leaf=0.276328415
					60:[dewPoint<11.21] yes=109,no=110,missing=109
						109:leaf=-0.111015856
						110:leaf=0.0696531832
booster[20]:
0:[weekday<1] yes=1,no=2,missing=1
	1:[windGust<8.85999966] yes=3,no=4,missing=3
		3:[pressure<1028.19995] yes=7,no=8,missing=7
			7:[humidity<0.899999976] yes=15,no=16,missing=15
				15:[windSpeed<4.98999977] yes=31,no=32,missing=31
					31:[humidity<0.829999983] yes=61,no=62,missing=61
						61:leaf=0.300129652
						62:leaf=0.202409372
					32:[apparentTemperature<2.24000001] yes=63,no=64,missing=63
						63:leaf=0.387593031
						64:leaf=0.130002558
				16:[apparentTemperature<5.88999987] yes=33,no=34,missing=33
					33:[dewPoint<3.93000007] yes=65,no=66,missing=65
						65:leaf=0.172706664
						66:leaf=0.0562874489
					34:leaf=-0.216321707
			8:[hour_x<18] yes=17,no=18,missing=17
				17:[cloudCover<0.649999976] yes=35,no=36,missing=35
					35:[cloudCover<0.430000007] yes=67,no=68,missing=68
						67:leaf=0.185607806
						68:leaf=0.287499309
					36:[temperature<7.0999999] yes=69,no=70,missing=69
						69:leaf=-0.18087022
						70:leaf=0.0317411013
				18:[apparentTemperature<4.61999989] yes=37,no=38,missing=37
					37:leaf=0.432116419
					38:[apparentTemperature<4.73000002] yes=71,no=72,missing=72
						71:leaf=0.0357157253
						72:leaf=0.233562663
		4:[pressure<1020.75] yes=9,no=10,missing=9
			9:[hour_x<13] yes=19,no=20,missing=20
				19:[pressure<1006.44] yes=39,no=40,missing=39
					39:[visibility<11.6000004] yes=73,no=74,missing=73
						73:leaf=-0.00428709667
						74:leaf=0.100326397
					40:[pressure<1009.83002] yes=75,no=76,missing=75
						75:leaf=0.374130458
						76:leaf=0.082485877
				20:[dewPoint<2.02999997] yes=41,no=42,missing=42
					41:[hour_x<18] yes=77,no=78,missing=77
						77:leaf=0.0882873759
						78:leaf=-0.0184733998
					42:[windGust<12.75] yes=79,no=80,missing=79
						79:leaf=-0.187630251
						80:leaf=-0.0370496921
			10:[hour_x<13] yes=21,no=22,missing=21
				21:[windBearing<139] yes=43,no=44,missing=43
					43:[humidity<0.660000026] yes=81,no=82,missing=82
						81:leaf=0.083543174
						82:leaf=-0.0549078062
					44:[hour_x<1] yes=83,no=84,missing=83
						83:leaf=-0.15306592
						84:leaf=0.196682453
				22:[humidity<0.699999988] yes=45,no=46,missing=45
					45:[temperature<6.88999987] yes=85,no=86,missing=85
						85:leaf=0.0324578285
						86:leaf=0.30423376
					46:[apparentTemperature<3.51999998] yes=87,no=88,missing=87
						87:leaf=-0.165513426
						88:leaf=-0.0560437851
	2:[hour_x<19] yes=5,no=6,missing=6
		5:[cloudCover<0.409999996] yes=11,no=12,missing=11
			11:[apparentTemperature<16.5900002] yes=23,no=24,missing=23
				23:[cloudCover<0.00999999978] yes=47,no=48,missing=47
					47:[dewPoint<3.47000003] yes=89,no=90,missing=89
						89:leaf=0.0348587446
						90:leaf=-0.0998063907
					48:[cloudCover<0.140000001] yes=91,no=92,missing=91
						91:leaf=0.0588076487
						92:leaf=-0.0177128389
				24:[windBearing<231] yes=49,no=50,missing=49
					49:leaf=0.214962527
					50:[apparentTemperature<16.9599991] yes=93,no=94,missing=94
						93:leaf=0.132651255
						94:leaf=0.0521721505
			12:[windSpeed<2.46000004] yes=25,no=26,missing=25
				25:[apparentTemperature<11.1400003] yes=51,no=52,missing=51
					51:[humidity<0.829999983] yes=95,no=96,missing=95
						95:leaf=-0.0369594321
						96:leaf=0.0619730167
					52:[pressure<1028.63] yes=97,no=98,missing=97
						97:leaf=0.26508674
						98:leaf=-0.0105637405
				26:[windGust<5.11999989] yes=53,no=54,missing=54
					53:[windBearing<303] yes=99,no=100,missing=100
						99:leaf=-0.0349146575
						100:leaf=0.116345264
					54:[dewPoint<7.96000004] yes=101,no=102,missing=102
						101:leaf=0.0296295565
						102:leaf=-0.0140967621
		6:[pressure<999.52002] yes=13,no=14,missing=14
			13:[apparentTemperature<2.52999997] yes=27,no=28,missing=27
				27:[pressure<987.330017] yes=55,no=56,missing=55
					55:[apparentTemperature<-0.560000002] yes=103,no=104,missing=103
						103:leaf=0.147139847
						104:leaf=0.00770529686
					56:[temperature<5.09000015] yes=105,no=106,missing=106
						105:leaf=-0.0580501147
						106:leaf=-0.0150562599
				28:leaf=-0.0984613821
			14:[pressure<1025.83997] yes=29,no=30,missing=29
				29:[pressure<1019.81] yes=57,no=58,missing=58
					57:[dewPoint<4.73999977] yes=107,no=108,missing=107
						107:leaf=0.120840967
						108:leaf=-0.00405334262
					58:[dewPoint<3.71000004] yes=109,no=110,missing=110
						109:leaf=0.110790096
						110:leaf=0.30056271
				30:[visibility<9.67000008] yes=59,no=60,missing=59
					59:[windGust<9.02000046] yes=111,no=112,missing=111
						111:leaf=-0.181561694
						112:leaf=-0.0402801447
					60:[visibility<9.96000004] yes=113,no=114,missing=113
						113:leaf=0.32867977
						114:leaf=0.0195859503
booster[21]:
0:[weekday<1] yes=1,no=2,missing=1
	1:[windGust<8.85999966] yes=3,no=4,missing=3
		3:[pressure<1028.19995] yes=7,no=8,missing=7
			7:[windGust<6.07000017] yes=15,no=16,missing=15
				15:[cloudCover<0.959999979] yes=31,no=32,missing=31
					31:[humidity<0.920000017] yes=61,no=62,missing=61
						61:leaf=0.237315938
						62:leaf=0.114623763
					32:leaf=-0.1391574
				16:[dewPoint<5.65999985] yes=33,no=34,missing=33
					33:[cloudCover<0.860000014] yes=63,no=64,missing=63
						63:leaf=0.1614777
						64:leaf=0.315516442
					34:[pressure<1010.25] yes=65,no=66,missing=65
						65:leaf=-0.0515270121
						66:leaf=0.181401834
			8:[cloudCover<0.660000026] yes=17,no=18,missing=18
				17:[windBearing<269] yes=35,no=36,missing=35
					35:[cloudCover<0.430000007] yes=67,no=68,missing=68
						67:leaf=0.168593749
						68:leaf=0.26004976
					36:leaf=0.448415846
				18:[hour_x<16] yes=37,no=38,missing=37
					37:[temperature<4.71000004] yes=69,no=70,missing=69
						69:leaf=-0.228679046
						70:leaf=-0.0379462726
					38:[hour_x<18] yes=71,no=72,missing=71
						71:leaf=0.0965352431
						72:leaf=0.283665776
		4:[pressure<1020.57001] yes=9,no=10,missing=9
			9:[pressure<1016.75] yes=19,no=20,missing=19
				19:[dewPoint<1.92999995] yes=39,no=40,missing=40
					39:[dewPoint<0.790000021] yes=73,no=74,missing=74
						73:leaf=0.0195397567
						74:leaf=0.153506741
					40:[humidity<0.649999976] yes=75,no=76,missing=76
						75:leaf=-0.140119702
						76:leaf=0.00269717118
				20:[dewPoint<0.170000002] yes=41,no=42,missing=41
					41:[visibility<10.54] yes=77,no=78,missing=78
						77:leaf=-0.0395042747
						78:leaf=0.0379204266
					42:leaf=-0.237890437
			10:[hour_x<12] yes=21,no=22,missing=22
				21:[dewPoint<2.69000006] yes=43,no=44,missing=44
					43:[dewPoint<2.13000011] yes=79,no=80,missing=80
						79:leaf=0.0821798965
						80:leaf=0.221473724
					44:[hour_x<11] yes=81,no=82,missing=81
						81:leaf=-0.051899679
						82:leaf=0.197322279
				22:[temperature<7.30999994] yes=45,no=46,missing=45
					45:[precipProbability<0.879999995] yes=83,no=84,missing=84
						83:leaf=-0.0607815944
						84:leaf=0.152449101
					46:[hour_x<22] yes=85,no=86,missing=85
						85:leaf=0.279141068
						86:leaf=0.153868467
	2:[hour_x<18] yes=5,no=6,missing=5
		5:[dewPoint<7.98000002] yes=11,no=12,missing=11
			11:[dewPoint<7.4000001] yes=23,no=24,missing=23
				23:[windGust<8.19999981] yes=47,no=48,missing=47
					47:[windGust<5.28999996] yes=87,no=88,missing=87
						87:leaf=0.00440590456
						88:leaf=0.0645904392
					48:[apparentTemperature<4.96999979] yes=89,no=90,missing=89
						89:leaf=0.0207251105
						90:leaf=-0.0412422754
				24:[windBearing<254] yes=49,no=50,missing=49
					49:[visibility<10.8999996] yes=91,no=92,missing=91
						91:leaf=-0.012773904
						92:leaf=0.180278286
					50:[pressure<1013.73999] yes=93,no=94,missing=93
						93:leaf=0.0898470208
						94:leaf=0.51114434
			12:[windGust<20.1200008] yes=25,no=26,missing=25
				25:[windBearing<266] yes=51,no=52,missing=52
					51:[cloudCover<0.620000005] yes=95,no=96,missing=95
						95:leaf=0.0820655748
						96:leaf=-0.026727384
					52:[humidity<0.870000005] yes=97,no=98,missing=97
						97:leaf=-0.15456216
						98:leaf=0.0855433494
				26:leaf=0.288667291
		6:[windGust<10.4700003] yes=13,no=14,missing=14
			13:[windBearing<164] yes=27,no=28,missing=27
				27:[dewPoint<1.21000004] yes=53,no=54,missing=53
					53:[temperature<4.26999998] yes=99,no=100,missing=100
						99:leaf=0.0723637566
						100:leaf=0.231585652
					54:[windSpeed<0.720000029] yes=101,no=102,missing=101
						101:leaf=0.291444957
						102:leaf=-0.00319260522
				28:[humidity<0.75999999] yes=55,no=56,missing=56
					55:[windGust<7.01999998] yes=103,no=104,missing=103
						103:leaf=0.0626801848
						104:leaf=-0.0710279495
					56:[windBearing<185] yes=105,no=106,missing=105
						105:leaf=0.397827506
						106:leaf=0.102281414
			14:[cloudCover<0.790000021] yes=29,no=30,missing=29
				29:[apparentTemperature<10.7399998] yes=57,no=58,missing=58
					57:[temperature<6.98000002] yes=107,no=108,missing=107
						107:leaf=-0.0488485768
						108:leaf=0.0194173567
					58:[windSpeed<12.2299995] yes=109,no=110,missing=109
						109:leaf=-0.162497893
						110:leaf=-0.0724956617
				30:[windBearing<209] yes=59,no=60,missing=59
					59:[pressure<1009.29999] yes=111,no=112,missing=111
						111:leaf=-0.13387233
						112:leaf=0.00437674439
					60:[apparentTemperature<5.26000023] yes=113,no=114,missing=113
						113:leaf=0.0701213256
						114:leaf=0.25156197
booster[22]:
0:[weekday<1] yes=1,no=2,missing=2
	1:[windBearing<77] yes=3,no=4,missing=3
		3:[humidity<0.850000024] yes=7,no=8,missing=7
			7:[windSpeed<6.92999983] yes=15,no=16,missing=15
				15:[cloudCover<0.569999993] yes=31,no=32,missing=31
					31:[dewPoint<2.02999997] yes=63,no=64,missing=64
						63:leaf=0.0369546898
						64:leaf=0.311287731
					32:[humidity<0.75999999] yes=65,no=66,missing=65
						65:leaf=0.237155274
						66:leaf=0.110594288
				16:[hour_x<14] yes=33,no=34,missing=33
					33:leaf=0.0268629398
					34:leaf=0.0687298998
			8:[windGust<6.59000015] yes=17,no=18,missing=17
				17:[windBearing<23] yes=35,no=36,missing=36
					35:[dewPoint<2.72000003] yes=67,no=68,missing=67
						67:leaf=0.102348723
						68:leaf=-0.0063614333
					36:[dewPoint<3.25] yes=69,no=70,missing=69
						69:leaf=0.284864187
						70:leaf=0.106686234
				18:[apparentTemperature<4.82000017] yes=37,no=38,missing=37
					37:leaf=-0.0886614546
					38:leaf=0.0211898163
		4:[pressure<1020.75] yes=9,no=10,missing=9
			9:[windGust<10.4700003] yes=19,no=20,missing=19
				19:[dewPoint<5.42999983] yes=39,no=40,missing=39
					39:[hour_x<13] yes=71,no=72,missing=72
						71:leaf=0.130165488
						72:leaf=0.311371505
					40:[pressure<1009.77002] yes=73,no=74,missing=73
						73:leaf=0.0592797883
						74:leaf=-0.162630916
				20:[cloudCover<0.370000005] yes=41,no=42,missing=42
					41:[hour_x<8] yes=75,no=76,missing=76
						75:leaf=-0.0194622334
						76:leaf=0.322387099
					42:[apparentTemperature<-3.67000008] yes=77,no=78,missing=77
						77:leaf=0.111633681
						78:leaf=-0.0203848742
			10:[pressure<1024.18005] yes=21,no=22,missing=21
