booster[0]:
0:[uvIndex<0.5] yes=1,no=2,missing=1
	1:[hour_x<6] yes=3,no=4,missing=3
		3:[pressure<1034.56995] yes=7,no=8,missing=7
			7:[weekday<1] yes=15,no=16,missing=15
				15:[windGust<9.38000011] yes=31,no=32,missing=31
					31:[windSpeed<2.96000004] yes=59,no=60,missing=59
						59:leaf=0.820161283
						60:leaf=1.27696073
					32:[pressure<1005.47998] yes=61,no=62,missing=61
						61:leaf=0.783132553
						62:leaf=0.387272716
				16:[apparentTemperature<-2.91000009] yes=33,no=34,missing=33
					33:[dewPoint<0.379999995] yes=63,no=64,missing=63
						63:leaf=0.143749997
						64:leaf=0.800000012
					34:[dewPoint<2.03999996] yes=65,no=66,missing=65
						65:leaf=1.84637678
						66:leaf=1.34927833
			8:[windGust<4.30999994] yes=17,no=18,missing=17
				17:leaf=2.41505384
				18:leaf=0.300000012
		4:[hour_x<21] yes=9,no=10,missing=9
			9:[pressure<1025.83997] yes=19,no=20,missing=19
				19:[precipIntensity<1.66120005] yes=35,no=36,missing=35
					35:[hour_x<18] yes=67,no=68,missing=67
						67:leaf=0.52794379
						68:leaf=0.820955873
					36:[temperature<6.32999992] yes=69,no=70,missing=69
						69:leaf=2.03999996
						70:leaf=0.654166639
				20:[cloudCover<0.720000029] yes=37,no=38,missing=37
					37:[windGust<4.5] yes=71,no=72,missing=71
						71:leaf=1.51544714
						72:leaf=1.02655363
					38:[hour_x<8] yes=73,no=74,missing=73
						73:leaf=1.42083335
						74:leaf=0.439919382
			10:[weekday<1] yes=21,no=22,missing=21
				21:[humidity<0.620000005] yes=39,no=40,missing=39
					39:[apparentTemperature<4.01999998] yes=75,no=76,missing=75
						75:leaf=2.58461547
						76:leaf=0.280000001
					40:[precipIntensity<0.0812999979] yes=77,no=78,missing=77
						77:leaf=0.479865789
						78:leaf=1.43611109
				22:[pressure<1026.09998] yes=41,no=42,missing=41
					41:[dewPoint<1.24000001] yes=79,no=80,missing=79
						79:leaf=2.10869575
						80:leaf=1.12203705
					42:[windBearing<243] yes=81,no=82,missing=81
						81:leaf=1.98316848
						82:leaf=1.33333337
	2:[hour_x<14] yes=5,no=6,missing=5
		5:[precipIntensity<1.17859995] yes=11,no=12,missing=11
			11:[windGust<4.55999994] yes=23,no=24,missing=23
				23:[weekday<1] yes=43,no=44,missing=43
					43:[apparentTemperature<9.68999958] yes=83,no=84,missing=83
						83:leaf=0.413095236
						84:leaf=1.41851854
					44:[hour_x<9] yes=85,no=86,missing=85
						85:leaf=0.912500024
						86:leaf=0.0605932176
				24:[temperature<9.02999973] yes=45,no=46,missing=45
					45:[uvIndex<2.5] yes=87,no=88,missing=87
						87:leaf=0.130693063
						88:leaf=0.46442309
					46:[windSpeed<2.63000011] yes=89,no=90,missing=89
						89:leaf=0.508333385
						90:leaf=0.0408977568
			12:[apparentTemperature<2.25999999] yes=25,no=26,missing=25
				25:[pressure<1012.91998] yes=47,no=48,missing=47
					47:leaf=0.533333361
					48:leaf=1.63333344
				26:[windGust<14.1599998] yes=49,no=50,missing=49
					49:[windGust<7.75] yes=91,no=92,missing=91
						91:leaf=-0
						92:leaf=-0.042857144
					50:leaf=0.412499994
		6:[dewPoint<-0.25] yes=13,no=14,missing=13
			13:[windGust<12.8199997] yes=27,no=28,missing=27
				27:[humidity<0.540000021] yes=51,no=52,missing=51
					51:[weekday<1] yes=93,no=94,missing=93
						93:leaf=0.5
						94:leaf=1.15625
					52:leaf=2.04750013
				28:[windBearing<136] yes=53,no=54,missing=53
					53:leaf=0.743750036
					54:[windBearing<137] yes=95,no=96,missing=95
						95:leaf=0.100000001
						96:leaf=0.359375
			14:[windBearing<142] yes=29,no=30,missing=29
				29:[pressure<1008.34003] yes=55,no=56,missing=55
					55:[weekday<1] yes=97,no=98,missing=97
						97:leaf=-0.0159090906
						98:leaf=0.338333338
					56:[windSpeed<3.78999996] yes=99,no=100,missing=99
						99:leaf=1.07179487
						100:leaf=0.560000002
				30:[dewPoint<2.25999999] yes=57,no=58,missing=57
					57:[pressure<1000.39001] yes=101,no=102,missing=101
						101:leaf=0.265625
						102:leaf=1.01607144
					58:[humidity<0.439999998] yes=103,no=104,missing=103
						103:leaf=0.746153831
						104:leaf=0.206045747
booster[1]:
0:[uvIndex<0.5] yes=1,no=2,missing=1
	1:[hour_x<6] yes=3,no=4,missing=3
		3:[pressure<1027.44995] yes=7,no=8,missing=7
			7:[weekday<1] yes=15,no=16,missing=15
				15:[humidity<0.75999999] yes=31,no=32,missing=32
					31:[windGust<11.1199999] yes=63,no=64,missing=63
						63:leaf=0.454381704
						64:leaf=0.319292933
					32:[cloudCover<0.75] yes=65,no=66,missing=66
						65:leaf=0.638860941
						66:leaf=0.969773889
				16:[apparentTemperature<-2.47000003] yes=33,no=34,missing=33
					33:[dewPoint<0.379999995] yes=67,no=68,missing=67
						67:leaf=0.129973784
						68:leaf=0.758351445
					34:[dewPoint<2.03999996] yes=69,no=70,missing=69
						69:leaf=1.62000525
						70:leaf=1.12931812
			8:[windGust<6.90999985] yes=17,no=18,missing=17
				17:[weekday<1] yes=35,no=36,missing=36
					35:[cloudCover<0.639999986] yes=71,no=72,missing=71
						71:leaf=0.782434642
						72:leaf=1.44618881
					36:[visibility<6.01999998] yes=73,no=74,missing=74
						73:leaf=0.209999993
						74:leaf=2.12688231
				18:[pressure<1032.16003] yes=37,no=38,missing=37
					37:leaf=1.50938213
					38:[weekday<1] yes=75,no=76,missing=75
						75:leaf=0.690546334
						76:leaf=0.302953988
		4:[hour_x<21] yes=9,no=10,missing=9
			9:[pressure<1025.83997] yes=19,no=20,missing=20
				19:[pressure<998.880005] yes=39,no=40,missing=39
					39:[dewPoint<2.69000006] yes=77,no=78,missing=78
						77:leaf=0.137224719
						78:leaf=0.5554021
					40:[precipIntensity<1.44780004] yes=79,no=80,missing=79
						79:leaf=0.630705059
						80:leaf=1.66203344
				20:[cloudCover<0.720000029] yes=41,no=42,missing=41
					41:[windGust<4.5] yes=81,no=82,missing=81
						81:leaf=1.36513519
						82:leaf=0.924478233
					42:[hour_x<9] yes=83,no=84,missing=83
						83:leaf=1.19829881
						84:leaf=0.367163152
			10:[weekday<1] yes=21,no=22,missing=21
				21:[humidity<0.620000005] yes=43,no=44,missing=43
					43:[apparentTemperature<4.01999998] yes=85,no=86,missing=85
						85:leaf=2.3460381
						86:leaf=0.257600009
					44:[precipIntensity<0.0812999979] yes=87,no=88,missing=87
						87:leaf=0.432201207
						88:leaf=1.30047834
				22:[pressure<1026.09998] yes=45,no=46,missing=45
					45:[temperature<2.81999993] yes=89,no=90,missing=89
						89:leaf=2.06616187
						90:leaf=1.01993966
					46:[windBearing<252] yes=91,no=92,missing=91
						91:leaf=1.77312887
						92:leaf=1.16625011
	2:[hour_x<14] yes=5,no=6,missing=6
		5:[precipIntensity<1.17859995] yes=11,no=12,missing=11
			11:[windGust<5.19999981] yes=23,no=24,missing=24
				23:[weekday<1] yes=47,no=48,missing=47
					47:[temperature<9.64999962] yes=93,no=94,missing=94
						93:leaf=0.352958411
						94:leaf=1.29066181
					48:[hour_x<9] yes=95,no=96,missing=95
						95:leaf=0.797770441
						96:leaf=0.0877730846
				24:[cloudCover<0.449999988] yes=49,no=50,missing=50
					49:[pressure<1032.68005] yes=97,no=98,missing=97
						97:leaf=0.181693971
						98:leaf=0.679074109
					50:[windGust<14.9700003] yes=99,no=100,missing=99
						99:leaf=0.0304248519
						100:leaf=0.179974318
			12:[apparentTemperature<2.25999999] yes=25,no=26,missing=25
				25:[pressure<1012.91998] yes=51,no=52,missing=51
					51:leaf=0.497777909
					52:leaf=1.48088884
				26:[windGust<14.1599998] yes=53,no=54,missing=54
					53:[windGust<7.75] yes=101,no=102,missing=101
						101:leaf=-1.9868216e-09
						102:leaf=-0.0391836725
					54:leaf=0.381562501
		6:[dewPoint<-0.25] yes=13,no=14,missing=13
			13:[windGust<12.8199997] yes=27,no=28,missing=27
				27:[humidity<0.540000021] yes=55,no=56,missing=56
					55:[weekday<1] yes=103,no=104,missing=103
						103:leaf=0.460000008
						104:leaf=1.05507815
					56:leaf=1.8529886
				28:[windBearing<136] yes=57,no=58,missing=57
					57:leaf=0.678671837
					58:[windSpeed<9.02999973] yes=105,no=106,missing=105
						105:leaf=0.112343729
						106:leaf=0.333124995
			14:[visibility<2.98000002] yes=29,no=30,missing=29
				29:[temperature<8.65999985] yes=59,no=60,missing=59
					59:leaf=-0.0373332165
					60:[dewPoint<7.40999985] yes=107,no=108,missing=107
						107:leaf=0.396000028
						108:leaf=1.0834744
				30:[windBearing<39] yes=61,no=62,missing=61
					61:[weekday<1] yes=109,no=110,missing=109
						109:leaf=1.24724209
						110:leaf=0.204357147
					62:[humidity<0.540000021] yes=111,no=112,missing=112
						111:leaf=0.665837824
						112:leaf=0.283441365
booster[2]:
0:[uvIndex<0.5] yes=1,no=2,missing=1
	1:[hour_x<7] yes=3,no=4,missing=3
		3:[pressure<1027.44995] yes=7,no=8,missing=7
			7:[weekday<1] yes=15,no=16,missing=15
				15:[humidity<0.75999999] yes=31,no=32,missing=31
					31:[hour_x<6] yes=63,no=64,missing=64
						63:leaf=0.334124982
						64:leaf=0.0750511736
					32:[precipIntensity<0.322600007] yes=65,no=66,missing=65
						65:leaf=0.635461092
						66:leaf=0.986720741
				16:[precipIntensity<1.60020006] yes=33,no=34,missing=33
					33:[apparentTemperature<-2.47000003] yes=67,no=68,missing=67
						67:leaf=0.346909374
						68:leaf=1.07917058
					34:[pressure<999.140015] yes=69,no=70,missing=69
						69:leaf=0.94195652
						70:leaf=2.26743507
			8:[windGust<5.80000019] yes=17,no=18,missing=17
				17:[weekday<1] yes=35,no=36,missing=35
					35:[cloudCover<0.639999986] yes=71,no=72,missing=72
						71:leaf=0.695248246
						72:leaf=1.23156166
					36:leaf=1.88612103
				18:[pressure<1032.16003] yes=37,no=38,missing=37
					37:[hour_x<6] yes=73,no=74,missing=73
						73:leaf=1.47525167
						74:leaf=0.790469468
					38:[weekday<1] yes=75,no=76,missing=76
						75:leaf=0.669907987
						76:leaf=0.233339831
		4:[hour_x<18] yes=9,no=10,missing=10
			9:[hour_x<8] yes=19,no=20,missing=19
				19:[pressure<1027.67004] yes=39,no=40,missing=40
					39:[windGust<13.6300001] yes=77,no=78,missing=77
						77:leaf=0.287729293
						78:leaf=0.844792962
					40:[windGust<5.67999983] yes=79,no=80,missing=79
						79:leaf=1.25134742
						80:leaf=0.368790001
				20:[apparentTemperature<5.30000019] yes=41,no=42,missing=42
					41:[visibility<11.6499996] yes=81,no=82,missing=81
						81:leaf=0.0918653831
						82:leaf=0.567646086
					42:[windSpeed<3.54999995] yes=83,no=84,missing=83
						83:leaf=0.220591575
						84:leaf=0.561080694
			10:[weekday<1] yes=21,no=22,missing=21
				21:[humidity<0.620000005] yes=43,no=44,missing=43
					43:[pressure<1020.96002] yes=85,no=86,missing=85
						85:leaf=2.25177169
						86:leaf=0.330607921
					44:[visibility<8.38000011] yes=87,no=88,missing=87
						87:leaf=1.02809978
						88:leaf=0.346702009
				22:[cloudCover<0.730000019] yes=45,no=46,missing=45
					45:[pressure<1029.18005] yes=89,no=90,missing=89
						89:leaf=1.02842546
						90:leaf=1.47945011
					46:[windBearing<80] yes=91,no=92,missing=91
						91:leaf=1.15585864
						92:leaf=0.712980032
	2:[hour_x<14] yes=5,no=6,missing=5
		5:[precipIntensity<1.17859995] yes=11,no=12,missing=12
			11:[windGust<5.19999981] yes=23,no=24,missing=23
				23:[weekday<1] yes=47,no=48,missing=47
					47:[temperature<9.64999962] yes=93,no=94,missing=94
						93:leaf=0.318464756
						94:leaf=1.16562891
					48:[hour_x<9] yes=95,no=96,missing=96
						95:leaf=0.7217924
						96:leaf=0.0790429637
				24:[cloudCover<0.49000001] yes=49,no=50,missing=49
					49:[windGust<7.30999994] yes=97,no=98,missing=97
						97:leaf=0.410302132
						98:leaf=0.105870523
					50:[windSpeed<8.81999969] yes=99,no=100,missing=99
						99:leaf=0.0161291398
						100:leaf=0.148468435
			12:[apparentTemperature<2.25999999] yes=25,no=26,missing=25
				25:[visibility<11.3100004] yes=51,no=52,missing=52
					51:leaf=0.764012694
					52:leaf=1.47143495
				26:[windGust<14.1599998] yes=53,no=54,missing=53
					53:[windGust<7.75] yes=101,no=102,missing=102
						101:leaf=-0
						102:leaf=-0.0358250774
					54:leaf=0.352945298
		6:[dewPoint<-0.25] yes=13,no=14,missing=13
			13:[windGust<12.8199997] yes=27,no=28,missing=27
				27:[humidity<0.540000021] yes=55,no=56,missing=55
					55:[windSpeed<2.58999991] yes=103,no=104,missing=103
						103:leaf=0.423199564
						104:leaf=0.962758839
					56:leaf=1.67695355
				28:[windBearing<136] yes=57,no=58,missing=57
					57:leaf=0.619288146
					58:[windBearing<137] yes=105,no=106,missing=106
						105:leaf=0.0830125064
						106:leaf=0.295833021
			14:[windBearing<142] yes=29,no=30,missing=29
				29:[pressure<1008.34003] yes=59,no=60,missing=59
					59:[weekday<1] yes=107,no=108,missing=107
						107:leaf=-0.0414465144
						108:leaf=0.279019296
					60:[windSpeed<3.78999996] yes=109,no=110,missing=110
						109:leaf=0.883882999
						110:leaf=0.469039679
				30:[dewPoint<2.25999999] yes=61,no=62,missing=61
					61:[pressure<997.969971] yes=111,no=112,missing=111
						111:leaf=0.0773577616
						112:leaf=0.822254181
					62:[humidity<0.439999998] yes=113,no=114,missing=113
						113:leaf=0.615816057
						114:leaf=0.157257006
booster[3]:
0:[uvIndex<0.5] yes=1,no=2,missing=1
	1:[hour_x<6] yes=3,no=4,missing=3
		3:[pressure<1034.56995] yes=7,no=8,missing=7
			7:[weekday<1] yes=15,no=16,missing=15
				15:[windGust<9.38000011] yes=29,no=30,missing=29
					29:[windSpeed<2.77999997] yes=53,no=54,missing=54
						53:leaf=0.559509993
						54:leaf=0.941595376
					30:[dewPoint<3.88000011] yes=55,no=56,missing=56
						55:leaf=0.333462
						56:leaf=0.634764731
				16:[windGust<5.71000004] yes=31,no=32,missing=31
					31:[pressure<1026.31006] yes=57,no=58,missing=58
						57:leaf=1.21731615
						58:leaf=1.69350266
					32:[temperature<2.16000009] yes=59,no=60,missing=59
						59:leaf=0.137704939
						60:leaf=1.00556648
			8:[windGust<4.30999994] yes=17,no=18,missing=17
				17:leaf=1.7791599
				18:leaf=0.186547935
		4:[hour_x<21] yes=9,no=10,missing=10
			9:[pressure<1025.83997] yes=19,no=20,missing=20
				19:[humidity<0.600000024] yes=33,no=34,missing=33
					33:[windBearing<119] yes=61,no=62,missing=61
						61:leaf=1.8831743
						62:leaf=0.281074971
					34:[precipIntensity<1.16840005] yes=63,no=64,missing=63
						63:leaf=0.440474182
						64:leaf=1.01093936
				20:[weekday<1] yes=35,no=36,missing=36
					35:[cloudCover<0.74000001] yes=65,no=66,missing=65
						65:leaf=0.538910925
						66:leaf=0.15799813
					36:[windBearing<265] yes=67,no=68,missing=67
						67:leaf=0.972364128
						68:leaf=0.516093254
			10:[weekday<1] yes=21,no=22,missing=22
				21:[humidity<0.620000005] yes=37,no=38,missing=37
					37:[apparentTemperature<4.01999998] yes=69,no=70,missing=69
						69:leaf=1.92162216
						70:leaf=0.210543379
					38:[precipIntensity<0.0812999979] yes=71,no=72,missing=71
						71:leaf=0.354833663
						72:leaf=1.08812833
				22:[pressure<1028.76001] yes=39,no=40,missing=39
					39:[temperature<2.74000001] yes=73,no=74,missing=73
						73:leaf=1.84103036
						74:leaf=0.873770356
					40:[windBearing<243] yes=75,no=76,missing=76
						75:leaf=1.60269952
						76:leaf=1.00660527
	2:[hour_x<17] yes=5,no=6,missing=6
		5:[humidity<0.560000002] yes=11,no=12,missing=11
			11:[dewPoint<3.73000002] yes=23,no=24,missing=23
				23:[precipIntensity<0.1219] yes=41,no=42,missing=42
					41:[windBearing<140] yes=77,no=78,missing=77
						77:leaf=0.307826549
						78:leaf=0.611154079
					42:[apparentTemperature<1.15999997] yes=79,no=80,missing=80
						79:leaf=0.238375023
						80:leaf=1.35330808
				24:[uvIndex<1.5] yes=43,no=44,missing=43
					43:[cloudy<1] yes=81,no=82,missing=81
						81:leaf=0.594227731
						82:leaf=0.123550393
					44:[hour_x<14] yes=83,no=84,missing=83
						83:leaf=-0.0419993848
						84:leaf=0.0980672017
			12:[precipIntensity<1.26240003] yes=25,no=26,missing=26
				25:[weekday<1] yes=45,no=46,missing=46
					45:[temperature<11.0900002] yes=85,no=86,missing=86
						85:leaf=0.199507058
						86:leaf=0.607810199
					46:[temperature<9.02999973] yes=87,no=88,missing=88
						87:leaf=0.235143185
						88:leaf=0.0604669228
				26:[visibility<11.4700003] yes=47,no=48,missing=48
					47:[windSpeed<8.93999958] yes=89,no=90,missing=89
						89:leaf=0.0886772424
						90:leaf=0.653122604
					48:leaf=1.33768165
		6:[dewPoint<-0.409999996] yes=13,no=14,missing=13
			13:leaf=1.51533926
			14:[humidity<0.680000007] yes=27,no=28,missing=27
				27:[cloudCover<0.649999976] yes=49,no=50,missing=49
					49:[pressure<1023.08002] yes=91,no=92,missing=92
						91:leaf=0.135001525
						92:leaf=0.521884263
					50:[apparentTemperature<10.2200003] yes=93,no=94,missing=93
						93:leaf=0.236042127
						94:leaf=-0.00545910466
				28:[pressure<1000.69] yes=51,no=52,missing=51
					51:leaf=0.334327728
					52:[apparentTemperature<9.68999958] yes=95,no=96,missing=95
						95:leaf=1.03311396
						96:leaf=0.52939719
booster[4]:
0:[uvIndex<0.5] yes=1,no=2,missing=2
	1:[hour_x<7] yes=3,no=4,missing=3
		3:[pressure<1027.44995] yes=7,no=8,missing=8
			7:[weekday<1] yes=15,no=16,missing=15
				15:[humidity<0.75999999] yes=31,no=32,missing=31
					31:[hour_x<6] yes=63,no=64,missing=64
						63:leaf=0.263972133
						64:leaf=0.0178159624
					32:[cloudCover<0.75] yes=65,no=66,missing=65
						65:leaf=0.454410523
						66:leaf=0.698121071
				16:[precipIntensity<0.995700002] yes=33,no=34,missing=33
					33:[windBearing<295] yes=67,no=68,missing=67
						67:leaf=0.762910247
						68:leaf=1.25018108
					34:[pressure<999.140015] yes=69,no=70,missing=70
						69:leaf=0.83410275
						70:leaf=1.93417513
			8:[windGust<6.90999985] yes=17,no=18,missing=17
				17:[weekday<1] yes=35,no=36,missing=36
					35:[cloudCover<0.639999986] yes=71,no=72,missing=71
						71:leaf=0.557588756
						72:leaf=1.06508207
					36:[visibility<9.68999958] yes=73,no=74,missing=74
						73:leaf=1.08511877
						74:leaf=1.57477033
				18:[pressure<1032.16003] yes=37,no=38,missing=37
					37:leaf=1.09517753
					38:[weekday<1] yes=75,no=76,missing=75
						75:leaf=0.50188905
						76:leaf=0.122828066
		4:[hour_x<18] yes=9,no=10,missing=9
			9:[precipIntensity<1.44780004] yes=19,no=20,missing=19
				19:[pressure<1027.35999] yes=39,no=40,missing=39
					39:[windBearing<286] yes=77,no=78,missing=77
						77:leaf=0.168180212
						78:leaf=0.420105368
					40:[hour_x<8] yes=79,no=80,missing=79
						79:leaf=0.792698801
						80:leaf=0.31488058
				20:[weekday<1] yes=41,no=42,missing=41
					41:[hour_x<8] yes=81,no=82,missing=82
						81:leaf=0.271734953
						82:leaf=-0.129564837
					42:leaf=1.64107978
			10:[weekday<1] yes=21,no=22,missing=21
				21:[humidity<0.620000005] yes=43,no=44,missing=43
					43:[pressure<1020.96002] yes=83,no=84,missing=83
						83:leaf=1.85240614
						84:leaf=0.274600476
					44:[visibility<8.38000011] yes=85,no=86,missing=85
						85:leaf=0.856253803
						86:leaf=0.274854124
				22:[cloudCover<0.730000019] yes=45,no=46,missing=45
					45:[apparentTemperature<0.360000014] yes=87,no=88,missing=87
						87:leaf=1.77832031
						88:leaf=0.916003048
					46:[visibility<4.03999996] yes=89,no=90,missing=89
						89:leaf=1.03162992
						90:leaf=0.578326046
	2:[hour_x<14] yes=5,no=6,missing=5
		5:[precipIntensity<1.17859995] yes=11,no=12,missing=11
			11:[windGust<5.19999981] yes=23,no=24,missing=24
				23:[weekday<1] yes=47,no=48,missing=47
					47:[temperature<9.64999962] yes=91,no=92,missing=91
						91:leaf=0.263856351
						92:leaf=1.00020659
					48:[hour_x<9] yes=93,no=94,missing=93
						93:leaf=0.630655706
						94:leaf=0.059831202
				24:[cloudCover<0.449999988] yes=49,no=50,missing=50
					49:[pressure<1032.68005] yes=95,no=96,missing=96
						95:leaf=0.126304552
						96:leaf=0.548025668
					50:[windGust<14.9700003] yes=97,no=98,missing=97
						97:leaf=0.00917158835
						98:leaf=0.127049521
			12:[apparentTemperature<2.25999999] yes=25,no=26,missing=25
				25:[hour_x<11] yes=51,no=52,missing=51
					51:leaf=1.16695309
					52:leaf=0.54081583
				26:[windGust<14.1599998] yes=53,no=54,missing=53
					53:[windGust<7.75] yes=99,no=100,missing=99
						99:leaf=-0.00591180148
						100:leaf=-0.0403552577
					54:[apparentTemperature<12.1700001] yes=101,no=102,missing=101
						101:leaf=0.327257276
						102:leaf=0.0872591063
		6:[dewPoint<-0.25] yes=13,no=14,missing=14
			13:[windGust<13.9799995] yes=27,no=28,missing=27
				27:[pressure<1022.02002] yes=55,no=56,missing=55
					55:[windSpeed<8.10999966] yes=103,no=104,missing=103
						103:leaf=1.39149868
						104:leaf=0.69719404
					56:[apparentTemperature<2.76999998] yes=105,no=106,missing=105
						105:leaf=0.000256919855
						106:leaf=0.554689467
				28:[humidity<0.560000002] yes=57,no=58,missing=58
					57:[visibility<10.8500004] yes=107,no=108,missing=108
						107:leaf=0.33002612
						108:leaf=0.0950257182
					58:leaf=0.144651636
			14:[visibility<2.98000002] yes=29,no=30,missing=30
				29:[temperature<8.65999985] yes=59,no=60,missing=59
					59:leaf=-0.0817901939
					60:[temperature<8.68999958] yes=109,no=110,missing=109
						109:leaf=0.302184016
						110:leaf=0.861355245
				30:[windBearing<39] yes=61,no=62,missing=62
					61:[weekday<1] yes=111,no=112,missing=111
						111:leaf=1.01934707
						112:leaf=0.142112151
					62:[temperature<6.9000001] yes=113,no=114,missing=114
						113:leaf=0.531079233
						114:leaf=0.206933364
booster[5]:
0:[uvIndex<0.5] yes=1,no=2,missing=1
	1:[hour_x<7] yes=3,no=4,missing=3
		3:[windGust<5.71000004] yes=7,no=8,missing=7
			7:[weekday<1] yes=15,no=16,missing=15
				15:[windBearing<280] yes=31,no=32,missing=32
					31:[visibility<6.38999987] yes=63,no=64,missing=64
						63:leaf=0.276973486
						64:leaf=0.784125149
					32:[hour_x<1] yes=65,no=66,missing=65
						65:leaf=0.0653560981
						66:leaf=0.34527719
				16:[pressure<1026.31006] yes=33,no=34,missing=34
					33:[visibility<8.64000034] yes=67,no=68,missing=67
						67:leaf=1.24250722
						68:leaf=0.766764879
					34:[windBearing<284] yes=69,no=70,missing=70
						69:leaf=1.43123519
						70:leaf=1.09878838
			8:[dewPoint<0.379999995] yes=17,no=18,missing=17
				17:[windSpeed<5.98999977] yes=35,no=36,missing=35
					35:[windGust<11.9499998] yes=71,no=72,missing=72
						71:leaf=0.36964789
						72:leaf=1.55822539
					36:[cloudCover<0.270000011] yes=73,no=74,missing=73
						73:leaf=-0.321190685
						74:leaf=0.141974583
				18:[windGust<11.8299999] yes=37,no=38,missing=37
					37:[dewPoint<7.13999987] yes=75,no=76,missing=75
						75:leaf=0.459178537
						76:leaf=1.06126273
					38:[pressure<1004.09998] yes=77,no=78,missing=77
						77:leaf=0.604364038
						78:leaf=1.35504866
		4:[hour_x<19] yes=9,no=10,missing=9
			9:[pressure<1035.95996] yes=19,no=20,missing=19
				19:[precipIntensity<1.44780004] yes=39,no=40,missing=39
					39:[visibility<9.93000031] yes=79,no=80,missing=79
						79:leaf=0.175164074
						80:leaf=0.35791719
					40:[temperature<6.38000011] yes=81,no=82,missing=81
						81:leaf=1.49189067
						82:leaf=0.122574031
				20:[apparentTemperature<12.3800001] yes=41,no=42,missing=41
					41:leaf=1.13424301
					42:leaf=0.442588955
			10:[weekday<1] yes=21,no=22,missing=21
				21:[humidity<0.629999995] yes=43,no=44,missing=44
					43:[apparentTemperature<4.01999998] yes=83,no=84,missing=83
						83:leaf=1.6966089
						84:leaf=0.239531323
					44:[windBearing<221] yes=85,no=86,missing=86
						85:leaf=0.43302545
						86:leaf=0.110338941
				22:[cloudCover<0.720000029] yes=45,no=46,missing=45
					45:[apparentTemperature<0.360000014] yes=87,no=88,missing=88
						87:leaf=1.6073271
						88:leaf=0.883439183
					46:[windBearing<80] yes=89,no=90,missing=89
						89:leaf=0.985441685
						90:leaf=0.539119005
	2:[hour_x<14] yes=5,no=6,missing=6
		5:[precipIntensity<1.17859995] yes=11,no=12,missing=11
			11:[windGust<5.19999981] yes=23,no=24,missing=23
				23:[weekday<1] yes=47,no=48,missing=47
					47:[temperature<9.64999962] yes=91,no=92,missing=92
						91:leaf=0.238070399
						92:leaf=0.90331167
					48:[hour_x<9] yes=93,no=94,missing=93
						93:leaf=0.570593178
						94:leaf=0.0538802519
				24:[apparentTemperature<4.48000002] yes=49,no=50,missing=49
					49:[uvIndex<2.5] yes=95,no=96,missing=96
						95:leaf=0.0581092425
						96:leaf=0.417554438
					50:[windSpeed<1.97000003] yes=97,no=98,missing=97
						97:leaf=0.277196497
						98:leaf=0.005572177
			12:[apparentTemperature<2.25999999] yes=25,no=26,missing=25
				25:[visibility<11.3100004] yes=51,no=52,missing=51
					51:leaf=0.578298688
					52:leaf=1.10997343
				26:[windGust<14.1599998] yes=53,no=54,missing=53
					53:[windGust<7.75] yes=99,no=100,missing=99
						99:leaf=-0.00551769929
						100:leaf=-0.0368962362
					54:[apparentTemperature<12.1700001] yes=101,no=102,missing=101
						101:leaf=0.305440158
						102:leaf=0.0828961506
		6:[dewPoint<-0.25] yes=13,no=14,missing=13
			13:[windGust<13.9799995] yes=27,no=28,missing=27
				27:[humidity<0.540000021] yes=55,no=56,missing=56
					55:[weekday<1] yes=103,no=104,missing=103
						103:leaf=0.296076506
						104:leaf=0.728125513
					56:[apparentTemperature<2.76999998] yes=105,no=106,missing=106
						105:leaf=0.00024398863
						106:leaf=1.29860973
				28:[humidity<0.560000002] yes=57,no=58,missing=57
					57:leaf=0.292113364
					58:[cloudy<1] yes=107,no=108,missing=107
						107:leaf=0.0700778738
						108:leaf=0.150972039
			14:[windBearing<142] yes=29,no=30,missing=29
				29:[pressure<1008.34003] yes=59,no=60,missing=60
					59:[weekday<1] yes=109,no=110,missing=109
						109:leaf=-0.0725599304
						110:leaf=0.20064114
					60:[dewPoint<2.96000004] yes=111,no=112,missing=112
						111:leaf=0.131818369
						112:leaf=0.52774781
				30:[dewPoint<2.06999993] yes=61,no=62,missing=62
					61:[pressure<999.700012] yes=113,no=114,missing=114
						113:leaf=0.0818978474
						114:leaf=0.704942524
					62:[humidity<0.540000021] yes=115,no=116,missing=116
						115:leaf=0.479006201
						116:leaf=0.108218007
booster[6]:
0:[uvIndex<0.5] yes=1,no=2,missing=1
	1:[pressure<1027.67004] yes=3,no=4,missing=3
		3:[hour_x<6] yes=7,no=8,missing=7
			7:[weekend<1] yes=15,no=16,missing=16
				15:[windBearing<132] yes=29,no=30,missing=29
					29:[pressure<1009.94] yes=57,no=58,missing=58
						57:leaf=0.311617702
						58:leaf=1.46345246
					30:[windBearing<295] yes=59,no=60,missing=59
						59:leaf=0.52943188
						60:leaf=1.01695859
				16:[windGust<9.38000011] yes=31,no=32,missing=31
					31:[pressure<1004.78003] yes=61,no=62,missing=62
						61:leaf=0.849408448
						62:leaf=0.469887972
					32:[pressure<1005.47998] yes=63,no=64,missing=63
						63:leaf=0.403534263
						64:leaf=0.149416625
			8:[hour_x<18] yes=17,no=18,missing=18
				17:[precipIntensity<0.965200007] yes=33,no=34,missing=33
					33:[hour_x<7] yes=65,no=66,missing=66
						65:leaf=0.457989365
						66:leaf=0.175085947
					34:[windBearing<121] yes=67,no=68,missing=68
						67:leaf=1.48858833
						68:leaf=0.279364824
				18:[dewPoint<1.24000001] yes=35,no=36,missing=35
					35:[apparentTemperature<-2.24000001] yes=69,no=70,missing=70
						69:leaf=0.0268649049
						70:leaf=1.04795539
					36:[cloudCover<0.430000007] yes=71,no=72,missing=71
						71:leaf=0.754677594
						72:leaf=0.425307572
		4:[humidity<0.800000012] yes=9,no=10,missing=9
			9:[cloudCover<0.419999987] yes=19,no=20,missing=19
				19:[windSpeed<3.80999994] yes=37,no=38,missing=37
					37:[apparentTemperature<3.47000003] yes=73,no=74,missing=74
						73:leaf=0.262640566
						74:leaf=1.26139581
					38:[windBearing<222] yes=75,no=76,missing=75
						75:leaf=0.660567164
						76:leaf=0.234186336
				20:[windBearing<273] yes=39,no=40,missing=39
					39:[windGust<7.73000002] yes=77,no=78,missing=77
						77:leaf=0.37649858
						78:leaf=0.786370218
					40:[pressure<1035.95996] yes=79,no=80,missing=79
						79:leaf=0.156714484
						80:leaf=0.416254967
			10:[windGust<6.90999985] yes=21,no=22,missing=21
				21:[visibility<9.57999992] yes=41,no=42,missing=41
					41:[hour_x<8] yes=81,no=82,missing=81
						81:leaf=0.791070044
						82:leaf=-0.205320582
					42:[weekday<1] yes=83,no=84,missing=83
						83:leaf=0.719354749
						84:leaf=1.21989536
				22:[pressure<1031.12] yes=43,no=44,missing=44
					43:[apparentTemperature<8.93000031] yes=85,no=86,missing=85
						85:leaf=1.23336673
						86:leaf=0.745434344
					44:[pressure<1034.56995] yes=87,no=88,missing=88
						87:leaf=0.247762829
						88:leaf=-0.230889723
	2:[hour_x<17] yes=5,no=6,missing=5
		5:[humidity<0.560000002] yes=11,no=12,missing=11
			11:[dewPoint<3.73000002] yes=23,no=24,missing=23
				23:[precipIntensity<0.1219] yes=45,no=46,missing=46
					45:[windBearing<140] yes=89,no=90,missing=90
						89:leaf=0.231655747
						90:leaf=0.479826123
					46:[apparentTemperature<1.15999997] yes=91,no=92,missing=92
						91:leaf=0.173836455
						92:leaf=1.02244985
				24:[uvIndex<1.5] yes=47,no=48,missing=47
					47:[cloudy<1] yes=93,no=94,missing=93
						93:leaf=0.485110104
						94:leaf=0.0943036079
					48:[hour_x<14] yes=95,no=96,missing=95
						95:leaf=-0.0470022671
						96:leaf=0.0613366663
			12:[precipIntensity<1.26240003] yes=25,no=26,missing=25
				25:[weekday<1] yes=49,no=50,missing=50
					49:[dewPoint<7.07000017] yes=97,no=98,missing=97
						97:leaf=0.155945972
						98:leaf=0.563697577
					50:[temperature<8.86999989] yes=99,no=100,missing=100
						99:leaf=0.186860546
						100:leaf=0.0388868041
				26:[visibility<11.4700003] yes=51,no=52,missing=51
					51:[windSpeed<8.93999958] yes=101,no=102,missing=102
						101:leaf=0.0590459779
						102:leaf=0.488478661
					52:leaf=1.0150156
		6:[dewPoint<-0.409999996] yes=13,no=14,missing=14
			13:leaf=1.14152086
			14:[humidity<0.680000007] yes=27,no=28,missing=27
				27:[cloudCover<0.649999976] yes=53,no=54,missing=54
					53:[pressure<1023.08002] yes=103,no=104,missing=103
						103:leaf=0.0971012786
						104:leaf=0.443131536
					54:[apparentTemperature<5.88000011] yes=105,no=106,missing=106
						105:leaf=0.211501867
						106:leaf=-0.00583309494
				28:[pressure<1000.69] yes=55,no=56,missing=55
					55:[precipIntensity<0.205699995] yes=107,no=108,missing=108
						107:leaf=0.298923194
						108:leaf=0.139312133
					56:[apparentTemperature<9.68999958] yes=109,no=110,missing=109
						109:leaf=0.829352081
						110:leaf=0.41782856
booster[7]:
0:[uvIndex<0.5] yes=1,no=2,missing=1
	1:[pressure<1027.54004] yes=3,no=4,missing=3
		3:[hour_x<6] yes=7,no=8,missing=7
			7:[weekday<1] yes=15,no=16,missing=15
				15:[windGust<9.38000011] yes=31,no=32,missing=32
					31:[pressure<1004.78003] yes=63,no=64,missing=63
						63:leaf=0.767207682
						64:leaf=0.423509508
					32:[dewPoint<5.42000008] yes=65,no=66,missing=65
						65:leaf=0.21586512
						66:leaf=0.516096592
				16:[windBearing<132] yes=33,no=34,missing=33
					33:[pressure<1009.94] yes=67,no=68,missing=67
						67:leaf=0.280942708
						68:leaf=1.31858504
					34:[windBearing<295] yes=69,no=70,missing=70
						69:leaf=0.476647675
						70:leaf=0.916488171
			8:[hour_x<18] yes=17,no=18,missing=18
				17:[hour_x<8] yes=35,no=36,missing=35
					35:[windGust<13.7299995] yes=71,no=72,missing=72
						71:leaf=0.246267796
						72:leaf=0.651348054
					36:[visibility<11.6499996] yes=73,no=74,missing=73
						73:leaf=0.0551770031
						74:leaf=0.386347234
				18:[dewPoint<1.24000001] yes=37,no=38,missing=37
					37:[apparentTemperature<-2.24000001] yes=75,no=76,missing=75
						75:leaf=0.0242528208
						76:leaf=0.944138825
					38:[cloudCover<0.430000007] yes=77,no=78,missing=77
						77:leaf=0.676417351
						78:leaf=0.382480621
		4:[humidity<0.800000012] yes=9,no=10,missing=9
			9:[cloudCover<0.419999987] yes=19,no=20,missing=19
				19:[apparentTemperature<3.61999989] yes=39,no=40,missing=40
					39:[cloudCover<0.129999995] yes=79,no=80,missing=79
						79:leaf=0.152742222
						80:leaf=0.321966767
					40:[humidity<0.550000012] yes=81,no=82,missing=82
						81:leaf=0.428255558
						82:leaf=1.12874377
				20:[windBearing<273] yes=41,no=42,missing=41
					41:[windBearing<237] yes=83,no=84,missing=84
						83:leaf=0.344729006
						84:leaf=0.723024666
					42:[windBearing<319] yes=85,no=86,missing=85
						85:leaf=0.183335245
						86:leaf=-0.0942031443
			10:[windGust<6.90999985] yes=21,no=22,missing=21
				21:[visibility<9.57999992] yes=43,no=44,missing=43
					43:[hour_x<8] yes=87,no=88,missing=87
						87:leaf=0.715259194
						88:leaf=-0.187069878
					44:[weekday<1] yes=89,no=90,missing=89
						89:leaf=0.576869905
						90:leaf=1.0983628
				22:[pressure<1031.12] yes=45,no=46,missing=46
					45:[apparentTemperature<8.93000031] yes=91,no=92,missing=91
						91:leaf=1.1212424
						92:leaf=0.677046835
					46:[pressure<1033] yes=93,no=94,missing=94
						93:leaf=0.342410415
						94:leaf=-0.0400216803
	2:[hour_x<14] yes=5,no=6,missing=5
		5:[precipIntensity<1.17859995] yes=11,no=12,missing=11
			11:[windGust<5.71000004] yes=23,no=24,missing=23
				23:[visibility<9.96000004] yes=47,no=48,missing=48
					47:[windBearing<267] yes=95,no=96,missing=95
						95:leaf=-0.096139729
						96:leaf=0.0656618252
					48:[humidity<0.720000029] yes=97,no=98,missing=98
						97:leaf=0.0958175361
						98:leaf=0.390019745
				24:[windBearing<167] yes=49,no=50,missing=49
					49:[windGust<15.9200001] yes=99,no=100,missing=99
						99:leaf=0.0493278541
						100:leaf=0.660672367
					50:[dewPoint<0.0799999982] yes=101,no=102,missing=101
						101:leaf=0.385773331
						102:leaf=-0.0319284871
			12:[apparentTemperature<2.25999999] yes=25,no=26,missing=25
				25:[pressure<1012.91998] yes=51,no=52,missing=51
					51:leaf=0.262943953
					52:leaf=0.846927345
				26:[windGust<14.1599998] yes=53,no=54,missing=54
					53:[windGust<7.75] yes=103,no=104,missing=103
						103:leaf=-0.00908624195
						104:leaf=-0.038794782
					54:[weekday<1] yes=105,no=106,missing=106
						105:leaf=0.086334087
						106:leaf=0.314914584
		6:[dewPoint<1.42999995] yes=13,no=14,missing=13
			13:[windGust<12.8199997] yes=27,no=28,missing=27
				27:[apparentTemperature<6.23000002] yes=55,no=56,missing=55
					55:[windBearing<287] yes=107,no=108,missing=107
						107:leaf=1.07252932
						108:leaf=0.632387877
					56:[dewPoint<1] yes=109,no=110,missing=109
						109:leaf=0.26294449
						110:leaf=-0.165800408
				28:[apparentTemperature<2.76999998] yes=57,no=58,missing=57
					57:[apparentTemperature<2.61999989] yes=111,no=112,missing=111
						111:leaf=0.132003292
						112:leaf=-0.0456457101
					58:[hour_x<15] yes=113,no=114,missing=113
						113:leaf=0.534586728
						114:leaf=0.188897014
			14:[windBearing<147] yes=29,no=30,missing=30
				29:[windGust<6.15999985] yes=59,no=60,missing=60
					59:[windSpeed<3.49000001] yes=115,no=116,missing=116
						115:leaf=0.498912811
						116:leaf=-0.107310414
					60:[windGust<7.75] yes=117,no=118,missing=117
						117:leaf=0.547604561
						118:leaf=0.281641155
				30:[humidity<0.439999998] yes=61,no=62,missing=61
					61:leaf=0.402716786
					62:[humidity<0.790000021] yes=119,no=120,missing=119
						119:leaf=0.0687182322
						120:leaf=0.286575824
booster[8]:
0:[uvIndex<0.5] yes=1,no=2,missing=1
	1:[weekday<1] yes=3,no=4,missing=3
		3:[humidity<0.620000005] yes=7,no=8,missing=7
			7:[windBearing<122] yes=15,no=16,missing=15
				15:leaf=1.33575785
				16:[pressure<1021.81] yes=31,no=32,missing=31
					31:[temperature<8.65999985] yes=57,no=58,missing=58
						57:leaf=0.0225785095
						58:leaf=0.106319368
					32:[hour_x<18] yes=59,no=60,missing=59
						59:leaf=-0.124988474
						60:leaf=0.0628294125
			8:[windGust<9.01000023] yes=17,no=18,missing=18
				17:[windSpeed<2.43000007] yes=33,no=34,missing=33
					33:[precipIntensity<0.0507999994] yes=61,no=62,missing=62
						61:leaf=0.164532676
						62:leaf=0.59813565
					34:[apparentTemperature<7.11999989] yes=63,no=64,missing=63
						63:leaf=0.476440728
						64:leaf=-0.219150066
				18:[dewPoint<5.67000008] yes=35,no=36,missing=35
					35:[pressure<994.859985] yes=65,no=66,missing=65
						65:leaf=-0.244449005
						66:leaf=0.152618811
					36:leaf=0.44940266
		4:[pressure<1027.35999] yes=9,no=10,missing=9
			9:[precipIntensity<1.11759996] yes=19,no=20,missing=19
				19:[hour_x<7] yes=37,no=38,missing=38
					37:[visibility<11.0699997] yes=67,no=68,missing=67
						67:leaf=0.630958557
						68:leaf=0.358609408
					38:[hour_x<18] yes=69,no=70,missing=69
						69:leaf=0.120200686
						70:leaf=0.465450197
				20:[windBearing<128] yes=39,no=40,missing=39
					39:[pressure<1011.41998] yes=71,no=72,missing=72
						71:leaf=0.443746895
						72:leaf=1.40596282
					40:[pressure<1012.52002] yes=73,no=74,missing=73
						73:leaf=0.557328463
						74:leaf=-0.0926635712
			10:[apparentTemperature<8.02999973] yes=21,no=22,missing=22
				21:[visibility<9.75] yes=41,no=42,missing=41
					41:[dewPoint<1.16999996] yes=75,no=76,missing=75
						75:leaf=0.85325712
						76:leaf=0.119617797
					42:[windBearing<265] yes=77,no=78,missing=77
						77:leaf=1.02122962
						78:leaf=0.651367009
				22:[windBearing<266] yes=43,no=44,missing=43
					43:[apparentTemperature<13.7200003] yes=79,no=80,missing=79
						79:leaf=0.644429803
						80:leaf=0.190283284
					44:[cloudCover<0.589999974] yes=81,no=82,missing=81
						81:leaf=0.256549388
						82:leaf=-0.0165352412
	2:[hour_x<15] yes=5,no=6,missing=5
		5:[precipIntensity<1.26240003] yes=11,no=12,missing=11
			11:[windBearing<287] yes=23,no=24,missing=23
				23:[windSpeed<2.19000006] yes=45,no=46,missing=46
					45:[pressure<1027.96997] yes=83,no=84,missing=83
						83:leaf=0.0571182556
						84:leaf=0.544173121
					46:[humidity<0.479999989] yes=85,no=86,missing=86
						85:leaf=0.39091754
						86:leaf=0.0411432944
				24:[windGust<4.42999983] yes=47,no=48,missing=48
					47:[windSpeed<2.96000004] yes=87,no=88,missing=88
						87:leaf=0.401029259
						88:leaf=0.72651279
					48:[apparentTemperature<4.30999994] yes=89,no=90,missing=90
						89:leaf=0.296439141
						90:leaf=0.0274939686
			12:[visibility<11.4700003] yes=25,no=26,missing=25
				25:[apparentTemperature<2.22000003] yes=49,no=50,missing=49
					49:[hour_x<13] yes=91,no=92,missing=91
						91:leaf=0.430952162
						92:leaf=0.150898457
					50:[windBearing<128] yes=93,no=94,missing=93
						93:leaf=-0.030414233
						94:leaf=0.0728183687
				26:leaf=0.839799106
		6:[dewPoint<-0.25] yes=13,no=14,missing=13
			13:[windGust<12.8199997] yes=27,no=28,missing=27
				27:[apparentTemperature<4.51000023] yes=51,no=52,missing=51
					51:leaf=0.947839856
					52:leaf=0.193408206
				28:[precipIntensity<0.0507999994] yes=53,no=54,missing=53
					53:leaf=0.181268841
					54:leaf=0.0474684127
			14:[visibility<2.98000002] yes=29,no=30,missing=29
				29:leaf=0.625651896
				30:[windGust<6.48000002] yes=55,no=56,missing=56
					55:[windBearing<84] yes=95,no=96,missing=95
						95:leaf=-0.116231799
						96:leaf=0.15584226
					56:[windBearing<119] yes=97,no=98,missing=97
						97:leaf=0.423826367
						98:leaf=0.150149301
booster[9]:
0:[uvIndex<0.5] yes=1,no=2,missing=1
	1:[hour_x<6] yes=3,no=4,missing=3
		3:[windGust<5.71000004] yes=7,no=8,missing=7
			7:[weekday<1] yes=15,no=16,missing=15
				15:[windGust<3.88000011] yes=31,no=32,missing=31
					31:[apparentTemperature<3.13000011] yes=63,no=64,missing=63
						63:leaf=0.182667196
						64:leaf=0.51695931
					32:[cloudCover<0.639999986] yes=65,no=66,missing=65
						65:leaf=0.261616141
						66:leaf=0.724874198
				16:[windSpeed<2.30999994] yes=33,no=34,missing=33
					33:[cloudCover<0.610000014] yes=67,no=68,missing=67
						67:leaf=0.78643173
						68:leaf=0.561821401
					34:[dewPoint<0.379999995] yes=69,no=70,missing=69
						69:leaf=-0.0344045311
						70:leaf=1.02497089
			8:[precipIntensity<1.6358] yes=17,no=18,missing=17
				17:[temperature<8.78999996] yes=35,no=36,missing=35
					35:[windBearing<295] yes=71,no=72,missing=72
						71:leaf=0.293769091
						72:leaf=0.762493551
					36:[pressure<1009.94] yes=73,no=74,missing=73
						73:leaf=0.389610857
						74:leaf=0.840584874
				18:[apparentTemperature<1.10000002] yes=37,no=38,missing=38
					37:leaf=0.546004772
					38:leaf=1.28853357
		4:[hour_x<21] yes=9,no=10,missing=10
			9:[pressure<998.880005] yes=19,no=20,missing=20
				19:[dewPoint<3.27999997] yes=39,no=40,missing=39
					39:[weekday<1] yes=75,no=76,missing=75
						75:leaf=-0.221322417
						76:leaf=0.0015407888
					40:[cloudy<1] yes=77,no=78,missing=77
						77:leaf=0.306299895
						78:leaf=-0.0199535768
				20:[cloudCover<0.769999981] yes=41,no=42,missing=41
					41:[visibility<1.22000003] yes=79,no=80,missing=80
						79:leaf=-0.299817175
						80:leaf=0.381346077
					42:[precipIntensity<1.11759996] yes=81,no=82,missing=82
						81:leaf=0.158571661
						82:leaf=0.729468167
			10:[weekday<1] yes=21,no=22,missing=21
				21:[precipIntensity<0.0812999979] yes=43,no=44,missing=43
					43:[humidity<0.610000014] yes=83,no=84,missing=84
						83:leaf=0.925086915
						84:leaf=0.172256336
					44:[apparentTemperature<3.13000011] yes=85,no=86,missing=85
						85:leaf=0.570332885
						86:leaf=1.22521055
				22:[pressure<1026.09998] yes=45,no=46,missing=46
					45:[pressure<1019.79999] yes=87,no=88,missing=87
						87:leaf=0.596363068
						88:leaf=0.262225419
					46:[windBearing<245] yes=89,no=90,missing=89
						89:leaf=0.904183507
						90:leaf=0.533848941
	2:[hour_x<14] yes=5,no=6,missing=5
		5:[precipIntensity<1.17859995] yes=11,no=12,missing=11
			11:[windGust<5.19999981] yes=23,no=24,missing=24
				23:[weekday<1] yes=47,no=48,missing=47
					47:[temperature<9.64999962] yes=91,no=92,missing=91
						91:leaf=0.162335262
						92:leaf=0.704638064
					48:[hour_x<9] yes=93,no=94,missing=93
						93:leaf=0.433201075
						94:leaf=0.0213255212
				24:[cloudCover<0.5] yes=49,no=50,missing=50
					49:[pressure<1006.71002] yes=95,no=96,missing=95
						95:leaf=-0.142321885
						96:leaf=0.172529668
					50:[windSpeed<9.89999962] yes=97,no=98,missing=97
						97:leaf=-0.0167466719
						98:leaf=0.0853044689
			12:[apparentTemperature<2.25999999] yes=25,no=26,missing=25
				25:[pressure<1013.75] yes=51,no=52,missing=51
					51:leaf=0.414736658
					52:leaf=0.783819318
				26:[windGust<14.1599998] yes=53,no=54,missing=53
					53:[windGust<7.75] yes=99,no=100,missing=100
						99:leaf=-0.00645287847
						100:leaf=-0.0328625888
					54:[weekday<1] yes=101,no=102,missing=101
						101:leaf=0.0767797753
						102:leaf=0.29711166
		6:[dewPoint<1.42999995] yes=13,no=14,missing=14
			13:[windGust<12.8199997] yes=27,no=28,missing=27
				27:[apparentTemperature<6.59000015] yes=55,no=56,missing=55
					55:[temperature<8.02000046] yes=103,no=104,missing=104
						103:leaf=0.877287984
						104:leaf=0.523686767
					56:[dewPoint<0.839999974] yes=105,no=106,missing=106
						105:leaf=0.185860366
						106:leaf=-0.127317533
				28:[uvIndex<2.5] yes=57,no=58,missing=57
					57:[pressure<996.929993] yes=107,no=108,missing=107
						107:leaf=0.021028934
						108:leaf=0.154661328
					58:[apparentTemperature<2.76999998] yes=109,no=110,missing=110
						109:leaf=0.031784907
						110:leaf=0.427387238
			14:[windBearing<51] yes=29,no=30,missing=29
				29:[dewPoint<4.67000008] yes=59,no=60,missing=60
					59:[apparentTemperature<6.73000002] yes=111,no=112,missing=111
						111:leaf=-0.132405937
						112:leaf=0.189803675
					60:[windGust<5.80000019] yes=113,no=114,missing=114
						113:leaf=0.39942652
						114:leaf=0.837419152
				30:[humidity<0.879999995] yes=61,no=62,missing=62
					61:[hour_x<17] yes=115,no=116,missing=115
						115:leaf=0.0952727646
						116:leaf=0.274572879
					62:[temperature<8.65999985] yes=117,no=118,missing=118
						117:leaf=-0.145496815
						118:leaf=0.546892405
booster[10]:
0:[uvIndex<0.5] yes=1,no=2,missing=1
	1:[weekday<1] yes=3,no=4,missing=4
		3:[precipIntensity<0.106700003] yes=7,no=8,missing=7
			7:[pressure<1018.35999] yes=15,no=16,missing=16
				15:[windSpeed<11.1300001] yes=31,no=32,missing=32
					31:[hour_x<7] yes=63,no=64,missing=63
						63:leaf=0.212639689
						64:leaf=0.0070225806
					32:[dewPoint<1.94000006] yes=65,no=66,missing=65
						65:leaf=0.675356328
						66:leaf=-0.0792951658
				16:[pressure<1020.96002] yes=33,no=34,missing=34
					33:[apparentTemperature<0.419999987] yes=67,no=68,missing=67
						67:leaf=0.177640423
						68:leaf=1.16862833
					34:[humidity<0.75999999] yes=69,no=70,missing=69
						69:leaf=0.0668255538
						70:leaf=0.356318235
			8:[windBearing<268] yes=17,no=18,missing=17
				17:[pressure<1020.78003] yes=35,no=36,missing=35
					35:[dewPoint<3.29999995] yes=71,no=72,missing=71
						71:leaf=0.723801196
						72:leaf=0.334112197
					36:[precipIntensity<0.330199987] yes=73,no=74,missing=73
						73:leaf=0.0509126745
						74:leaf=-0.27551192
				18:[hour_x<18] yes=37,no=38,missing=37
					37:[precipIntensity<0.914399981] yes=75,no=76,missing=75
						75:leaf=-0.0262044277
						76:leaf=-0.119525924
					38:leaf=-0.240290388
		4:[windGust<5.46999979] yes=9,no=10,missing=9
			9:[hour_x<7] yes=19,no=20,missing=19
				19:[windBearing<173] yes=39,no=40,missing=40
					39:[visibility<8.64000034] yes=77,no=78,missing=77
						77:leaf=0.836099744
						78:leaf=0.401145995
					40:[windGust<3.28999996] yes=79,no=80,missing=80
						79:leaf=0.75185585
						80:leaf=0.951386452
				20:[hour_x<21] yes=41,no=42,missing=41
					41:[pressure<1035.95996] yes=81,no=82,missing=82
						81:leaf=0.28881827
						82:leaf=0.731457531
					42:[windBearing<243] yes=83,no=84,missing=83
						83:leaf=0.716219962
						84:leaf=0.304762214
			10:[windSpeed<3.6400001] yes=21,no=22,missing=21
				21:[pressure<1029.14001] yes=43,no=44,missing=44
					43:[windBearing<173] yes=85,no=86,missing=85
						85:leaf=-0.0928947031
						86:leaf=0.298349738
					44:[humidity<0.839999974] yes=87,no=88,missing=87
						87:leaf=0.703668833
						88:leaf=-0.162416652
				22:[windBearing<128] yes=45,no=46,missing=45
					45:[pressure<1011.63] yes=89,no=90,missing=90
						89:leaf=0.266777724
						90:leaf=0.931830883
					46:[temperature<3.22000003] yes=91,no=92,missing=91
						91:leaf=0.615832984
						92:leaf=0.292486936
	2:[hour_x<14] yes=5,no=6,missing=5
		5:[precipIntensity<1.17859995] yes=11,no=12,missing=11
			11:[windSpeed<2.23000002] yes=23,no=24,missing=23
				23:[pressure<1027.96997] yes=47,no=48,missing=48
					47:[hour_x<13] yes=93,no=94,missing=93
						93:leaf=-0.066830121
						94:leaf=0.531373739
					48:[visibility<9.17000008] yes=95,no=96,missing=96
						95:leaf=-0.0920244679
						96:leaf=0.543934822
				24:[weekday<1] yes=49,no=50,missing=49
					49:[dewPoint<7.07000017] yes=97,no=98,missing=98
						97:leaf=0.0442476273
						98:leaf=0.434116334
					50:[windBearing<122] yes=99,no=100,missing=99
						99:leaf=0.127049431
						100:leaf=-0.0256495383
			12:[apparentTemperature<2.25999999] yes=25,no=26,missing=25
				25:[pressure<1012.91998] yes=51,no=52,missing=51
					51:leaf=0.189035133
					52:leaf=0.639548481
				26:[precipProbability<0.370000005] yes=53,no=54,missing=53
					53:leaf=0.282256097
					54:[hour_x<10] yes=101,no=102,missing=102
						101:leaf=0.0716611147
						102:leaf=-0.0253765117
		6:[dewPoint<1.42999995] yes=13,no=14,missing=13
			13:[windGust<12.8199997] yes=27,no=28,missing=27
				27:[apparentTemperature<6.59000015] yes=55,no=56,missing=55
					55:[windBearing<287] yes=103,no=104,missing=103
						103:leaf=0.796460271
						104:leaf=0.465740681
					56:[dewPoint<0.839999974] yes=105,no=106,missing=106
						105:leaf=0.168823183
						106:leaf=-0.117132142
				28:[uvIndex<2.5] yes=57,no=58,missing=57
					57:[cloudCover<0.5] yes=107,no=108,missing=107
						107:leaf=-0.0753478706
						108:leaf=0.117009453
					58:[apparentTemperature<2.76999998] yes=109,no=110,missing=110
						109:leaf=0.029242117
						110:leaf=0.388210088
			14:[windBearing<51] yes=29,no=30,missing=29
				29:[dewPoint<4.67000008] yes=59,no=60,missing=60
					59:[apparentTemperature<6.73000002] yes=111,no=112,missing=111
						111:leaf=-0.122475483
						112:leaf=0.175568417
					60:leaf=0.707049727
				30:[humidity<0.879999995] yes=61,no=62,missing=62
					61:[windSpeed<11.3299999] yes=113,no=114,missing=113
						113:leaf=0.121870831
						114:leaf=-0.115886688
					62:[temperature<8.68999958] yes=115,no=116,missing=116
						115:leaf=0.0030185699
						116:leaf=0.521565616
booster[11]:
0:[uvIndex<0.5] yes=1,no=2,missing=1
	1:[hour_x<6] yes=3,no=4,missing=3
		3:[windGust<5.71000004] yes=7,no=8,missing=7
			7:[weekday<1] yes=15,no=16,missing=16
				15:[windBearing<306] yes=29,no=30,missing=29
					29:[visibility<6.38999987] yes=57,no=58,missing=57
						57:leaf=0.112821154
						58:leaf=0.461277723
					30:[apparentTemperature<2.61999989] yes=59,no=60,missing=59
						59:leaf=0.134684071
						60:leaf=-0.102621578
				16:[windSpeed<2.30999994] yes=31,no=32,missing=32
					31:[cloudCover<0.610000014] yes=61,no=62,missing=61
						61:leaf=0.640653551
						62:leaf=0.454638541
					32:[dewPoint<0.379999995] yes=63,no=64,missing=64
						63:leaf=-0.0423856415
						64:leaf=0.840505302
			8:[dewPoint<-0.49000001] yes=17,no=18,missing=18
				17:[clear<1] yes=33,no=34,missing=33
					33:[weekday<1] yes=65,no=66,missing=65
						65:leaf=0.0117136007
						66:leaf=-0.256070465
					34:leaf=-0.515502691
				18:[windGust<11.9499998] yes=35,no=36,missing=36
					35:[dewPoint<7.13999987] yes=67,no=68,missing=67
						67:leaf=0.216805816
						68:leaf=0.667433858
					36:[windSpeed<6.69000006] yes=69,no=70,missing=69
						69:leaf=1.05515504
						70:leaf=0.404995888
		4:[hour_x<22] yes=9,no=10,missing=9
			9:[pressure<998.880005] yes=19,no=20,missing=19
				19:[dewPoint<3.27999997] yes=37,no=38,missing=37
					37:[apparentTemperature<0.810000002] yes=71,no=72,missing=71
						71:leaf=-0.127457783
						72:leaf=0.0468887947
					38:[dewPoint<3.66000009] yes=73,no=74,missing=73
						73:leaf=0.11943914
						74:leaf=0.310878426
				20:[cloudCover<0.769999981] yes=39,no=40,missing=39
					39:[pressure<1005.76001] yes=75,no=76,missing=75
						75:leaf=0.514635563
						76:leaf=0.280838281
					40:[dewPoint<7.63999987] yes=77,no=78,missing=77
						77:leaf=0.110505126
						78:leaf=0.396264225
			10:[weekday<1] yes=21,no=22,missing=21
				21:[windSpeed<8.31000042] yes=41,no=42,missing=41
					41:[apparentTemperature<-3.54999995] yes=79,no=80,missing=79
						79:leaf=-0.147499666
						80:leaf=0.24449043
					42:leaf=1.05815232
				22:[pressure<1026.18005] yes=43,no=44,missing=43
					43:[humidity<0.75] yes=81,no=82,missing=81
						81:leaf=-0.0804235861
						82:leaf=0.476874977
					44:[windSpeed<1.90999997] yes=83,no=84,missing=83
						83:leaf=0.410318524
						84:leaf=0.80364114
	2:[hour_x<17] yes=5,no=6,missing=5
		5:[humidity<0.560000002] yes=11,no=12,missing=12
			11:[dewPoint<3.73000002] yes=23,no=24,missing=23
				23:[windGust<4.88999987] yes=45,no=46,missing=45
					45:[pressure<1022.72998] yes=85,no=86,missing=86
						85:leaf=-0.144282207
						86:leaf=0.244842932
					46:[windGust<12.6099997] yes=87,no=88,missing=87
						87:leaf=0.468879193
						88:leaf=0.187171236
				24:[uvIndex<1.5] yes=47,no=48,missing=48
					47:[cloudy<1] yes=89,no=90,missing=89
						89:leaf=0.380509466
						90:leaf=0.0585697666
					48:[hour_x<14] yes=91,no=92,missing=91
						91:leaf=-0.0510066263
						92:leaf=0.0255429484
			12:[windSpeed<11.5900002] yes=25,no=26,missing=25
				25:[windSpeed<9.52999973] yes=49,no=50,missing=49
					49:[windBearing<281] yes=93,no=94,missing=93
						93:leaf=0.0506005697
						94:leaf=0.180468887
					50:[windBearing<126] yes=95,no=96,missing=96
						95:leaf=0.532226443
						96:leaf=0.11327558
				26:[dewPoint<-0.74000001] yes=51,no=52,missing=51
					51:[dewPoint<-0.829999983] yes=97,no=98,missing=97
						97:leaf=0.443503678
						98:leaf=0.107324652
					52:[cloudCover<0.839999974] yes=99,no=100,missing=99
						99:leaf=-0.120257415
						100:leaf=-0.0280887522
		6:[dewPoint<-0.409999996] yes=13,no=14,missing=13
			13:leaf=0.711686373
			14:[pressure<1024.87] yes=27,no=28,missing=27
				27:[humidity<0.680000007] yes=53,no=54,missing=53
					53:[pressure<1023.08002] yes=101,no=102,missing=101
						101:leaf=0.0562611595
						102:leaf=0.292750716
					54:[pressure<1000.69] yes=103,no=104,missing=104
						103:leaf=0.12963751
						104:leaf=0.492524385
				28:[cloudCover<0.680000007] yes=55,no=56,missing=55
					55:[hour_x<18] yes=105,no=106,missing=106
						105:leaf=0.0395491235
						106:leaf=0.147604257
					56:[cloudCover<0.779999971] yes=107,no=108,missing=107
						107:leaf=-0.0823224559
						108:leaf=0.0464196317
booster[12]:
0:[uvIndex<0.5] yes=1,no=2,missing=2
	1:[pressure<1027.35999] yes=3,no=4,missing=3
		3:[precipIntensity<1.13789999] yes=7,no=8,missing=8
			7:[windGust<3.01999998] yes=15,no=16,missing=15
				15:[apparentTemperature<7.19000006] yes=31,no=32,missing=31
					31:[pressure<1025.33997] yes=63,no=64,missing=63
						63:leaf=0.534412682
						64:leaf=0.279249132
					32:leaf=-0.217161998
				16:[pressure<1020.78003] yes=33,no=34,missing=33
					33:[pressure<998.880005] yes=65,no=66,missing=65
						65:leaf=0.122064747
						66:leaf=0.308448076
					34:[apparentTemperature<10.4399996] yes=67,no=68,missing=67
						67:leaf=0.0625382513
						68:leaf=0.471564859
			8:[windBearing<128] yes=17,no=18,missing=17
				17:[pressure<1012.15997] yes=35,no=36,missing=36
					35:[pressure<987.330017] yes=69,no=70,missing=70
						69:leaf=0.0977123305
						70:leaf=0.5195328
					36:leaf=1.07519424
				18:[dewPoint<1.88999999] yes=37,no=38,missing=37
					37:[cloudCover<0.790000021] yes=71,no=72,missing=71
						71:leaf=-0.16262649
						72:leaf=0.286545515
					38:[temperature<6.32999992] yes=73,no=74,missing=73
						73:leaf=0.485066622
						74:leaf=0.221961379
		4:[windBearing<267] yes=9,no=10,missing=9
			9:[weekday<1] yes=19,no=20,missing=19
				19:[windBearing<213] yes=39,no=40,missing=39
					39:[hour_x<1] yes=75,no=76,missing=76
						75:leaf=0.193405882
						76:leaf=-0.0919035897
					40:[cloudCover<0.670000017] yes=77,no=78,missing=77
						77:leaf=0.203115731
						78:leaf=0.581658423
				20:[apparentTemperature<10.6300001] yes=41,no=42,missing=42
					41:[visibility<9.27000046] yes=79,no=80,missing=79
						79:leaf=-0.0707999021
						80:leaf=0.689271092
					42:[apparentTemperature<13.7200003] yes=81,no=82,missing=81
						81:leaf=0.415559113
						82:leaf=0.0833070651
			10:[dewPoint<2.75] yes=21,no=22,missing=22
				21:[hour_x<7] yes=43,no=44,missing=43
					43:[windSpeed<2.98000002] yes=83,no=84,missing=83
						83:leaf=0.543144405
						84:leaf=0.813366413
					44:[cloudCover<0.769999981] yes=85,no=86,missing=86
						85:leaf=0.091537267
						86:leaf=0.479659081
				22:[windSpeed<2.8599999] yes=45,no=46,missing=46
					45:[hour_x<18] yes=87,no=88,missing=87
						87:leaf=0.603012383
						88:leaf=0.0891180038
					46:[dewPoint<3.99000001] yes=89,no=90,missing=90
						89:leaf=0.0372537263
						90:leaf=-0.192689225
	2:[hour_x<13] yes=5,no=6,missing=5
		5:[precipIntensity<1.25979996] yes=11,no=12,missing=11
			11:[hour_x<9] yes=23,no=24,missing=24
				23:[pressure<1025.33997] yes=47,no=48,missing=47
					47:[apparentTemperature<11.3999996] yes=91,no=92,missing=92
						91:leaf=-0.152087271
						92:leaf=0.284571141
					48:[windGust<5.8499999] yes=93,no=94,missing=93
						93:leaf=0.480455488
						94:leaf=0.0691217408
				24:[weekday<1] yes=49,no=50,missing=50
					49:[windGust<4.73000002] yes=95,no=96,missing=95
						95:leaf=0.359058201
						96:leaf=0.0134294955
					50:[windBearing<121] yes=97,no=98,missing=98
						97:leaf=0.063252002
						98:leaf=-0.0518030487
			12:[apparentTemperature<2.25999999] yes=25,no=26,missing=25
				25:[pressure<1013.75] yes=51,no=52,missing=52
					51:leaf=0.298511297
					52:leaf=0.607815862
				26:[hour_x<10] yes=53,no=54,missing=53
					53:leaf=0.0578912273
					54:leaf=-0.0281818695
		6:[temperature<8.57999992] yes=13,no=14,missing=13
			13:[windGust<12.8199997] yes=27,no=28,missing=27
				27:[visibility<9.53999996] yes=55,no=56,missing=55
					55:[apparentTemperature<1.75] yes=99,no=100,missing=99
						99:leaf=-0.0877527073
						100:leaf=0.295136184
					56:[temperature<8.02000046] yes=101,no=102,missing=101
						101:leaf=0.693071604
						102:leaf=0.421265274
				28:[visibility<11.1800003] yes=57,no=58,missing=58
					57:[pressure<990.179993] yes=103,no=104,missing=103
						103:leaf=-0.0083646914
						104:leaf=0.236774847
					58:[apparentTemperature<3.19000006] yes=105,no=106,missing=105
						105:leaf=-0.139406189
						106:leaf=0.0424836874
			14:[windBearing<76] yes=29,no=30,missing=29
				29:[pressure<1008.34003] yes=59,no=60,missing=59
					59:[weekday<1] yes=107,no=108,missing=108
						107:leaf=-0.0825399756
						108:leaf=0.158605978
					60:[windSpeed<4.94000006] yes=109,no=110,missing=110
						109:leaf=0.506506503
						110:leaf=0.228013068
				30:[humidity<0.589999974] yes=61,no=62,missing=62
					61:[dewPoint<4.13999987] yes=111,no=112,missing=112
						111:leaf=0.232517153
						112:leaf=0.0151004093
					62:[cloudCover<0.49000001] yes=113,no=114,missing=113
						113:leaf=-0.0911839828
						114:leaf=0.0642445683
booster[13]:
0:[hour_x<7] yes=1,no=2,missing=1
	1:[windGust<5.71000004] yes=3,no=4,missing=3
		3:[pressure<1009.09003] yes=7,no=8,missing=8
			7:[precipIntensity<0.0507999994] yes=15,no=16,missing=15
				15:[humidity<0.870000005] yes=31,no=32,missing=31
					31:[windGust<4.55999994] yes=63,no=64,missing=63
						63:leaf=-0.182407364
						64:leaf=-0.0337324142
					32:[temperature<4.63999987] yes=65,no=66,missing=66
						65:leaf=0.0602756105
						66:leaf=-0.118058674
				16:[apparentTemperature<2.00999999] yes=33,no=34,missing=33
					33:leaf=0.509675026
					34:leaf=0.0460466854
			8:[cloudCover<0.419999987] yes=17,no=18,missing=17
				17:[dewPoint<1.20000005] yes=35,no=36,missing=35
					35:[windGust<2.1400001] yes=67,no=68,missing=67
						67:leaf=0.295786023
						68:leaf=0.542314947
					36:[windSpeed<1.05999994] yes=69,no=70,missing=69
						69:leaf=0.113016836
						70:leaf=0.742424369
				18:[pressure<1034.13] yes=37,no=38,missing=37
					37:[pressure<1017.46997] yes=71,no=72,missing=71
						71:leaf=0.640061319
						72:leaf=0.375829548
					38:leaf=0.613759458
		4:[dewPoint<0.379999995] yes=9,no=10,missing=9
			9:[windSpeed<5.98999977] yes=19,no=20,missing=20
				19:[windGust<11.9499998] yes=39,no=40,missing=40
					39:[hour_x<6] yes=73,no=74,missing=74
						73:leaf=0.182797357
						74:leaf=-0.242003947
					40:leaf=0.99071753
				20:[weekday<1] yes=41,no=42,missing=42
					41:[hour_x<6] yes=75,no=76,missing=75
						75:leaf=0.085493803
						76:leaf=-0.115186095
					42:[pressure<1008.46997] yes=77,no=78,missing=78
						77:leaf=0.0884828195
						78:leaf=-0.370827734
			10:[dewPoint<2.75] yes=21,no=22,missing=21
				21:[windGust<12.1300001] yes=43,no=44,missing=43
					43:[cloudCover<0.839999974] yes=79,no=80,missing=79
						79:leaf=0.411038548
						80:leaf=-0.168891102
					44:[weekday<1] yes=81,no=82,missing=81
						81:leaf=-0.0456194207
						82:leaf=0.986403465
				22:[temperature<9.09000015] yes=45,no=46,missing=46
					45:[windBearing<87] yes=83,no=84,missing=83
						83:leaf=0.354326457
						84:leaf=0.0134498095
					46:[cloudCover<0.649999976] yes=85,no=86,missing=85
						85:leaf=0.0462663993
						86:leaf=0.524724603
	2:[hour_x<18] yes=5,no=6,missing=5
		5:[precipIntensity<1.26240003] yes=11,no=12,missing=11
			11:[humidity<0.560000002] yes=23,no=24,missing=24
				23:[apparentTemperature<4.51000023] yes=47,no=48,missing=47
					47:[hour_x<15] yes=87,no=88,missing=87
						87:leaf=0.206811741
						88:leaf=0.60038811
					48:[humidity<0.439999998] yes=89,no=90,missing=89
						89:leaf=0.301640898
						90:leaf=0.0949179307
				24:[windBearing<295] yes=49,no=50,missing=49
					49:[apparentTemperature<0.460000008] yes=91,no=92,missing=91
						91:leaf=-0.1282994
						92:leaf=0.0585659929
					50:[apparentTemperature<-1.46000004] yes=93,no=94,missing=93
						93:leaf=0.516938686
						94:leaf=0.135122061
			12:[temperature<6.38000011] yes=25,no=26,missing=25
				25:[pressure<996.929993] yes=51,no=52,missing=51
					51:leaf=0.0270370971
					52:leaf=0.781267822
				26:[visibility<11.1400003] yes=53,no=54,missing=54
					53:[windGust<15.9200001] yes=95,no=96,missing=95
						95:leaf=-0.00605517998
						96:leaf=0.203275993
					54:[apparentTemperature<11.6899996] yes=97,no=98,missing=97
						97:leaf=0.395956486
						98:leaf=0.0549966693
		6:[cloudCover<0.5] yes=13,no=14,missing=13
			13:[visibility<9.77000046] yes=27,no=28,missing=27
				27:[pressure<1027.10999] yes=55,no=56,missing=55
					55:[windBearing<263] yes=99,no=100,missing=99
						99:leaf=-0.0263515245
						100:leaf=0.146643534
					56:leaf=0.419674248
				28:[windGust<4.55999994] yes=57,no=58,missing=57
					57:[windGust<2.52999997] yes=101,no=102,missing=101
						101:leaf=0.559261203
						102:leaf=0.345752418
					58:[rain<1] yes=103,no=104,missing=103
						103:leaf=0.643262327
						104:leaf=0.0157616213
			14:[hour_x<22] yes=29,no=30,missing=29
				29:[dewPoint<7.69999981] yes=59,no=60,missing=59
					59:[humidity<0.610000014] yes=105,no=106,missing=106
						105:leaf=0.52805084
						106:leaf=0.127084956
					60:[apparentTemperature<10.7200003] yes=107,no=108,missing=108
						107:leaf=0.618615687
						108:leaf=0.304499209
				30:[weekday<1] yes=61,no=62,missing=61
					61:[windSpeed<8.10999966] yes=109,no=110,missing=109
						109:leaf=0.144444287
						110:leaf=0.937430561
					62:[pressure<1002.95001] yes=111,no=112,missing=112
						111:leaf=0.158311754
						112:leaf=0.502141297
booster[14]:
0:[hour_x<7] yes=1,no=2,missing=2
	1:[windGust<5.71000004] yes=3,no=4,missing=3
		3:[pressure<1009.09003] yes=7,no=8,missing=8
			7:[precipProbability<0.00999999978] yes=15,no=16,missing=15
				15:[humidity<0.870000005] yes=31,no=32,missing=31
					31:[windGust<4.55999994] yes=63,no=64,missing=63
						63:leaf=-0.168726847
						64:leaf=-0.0320457928
					32:[temperature<4.63999987] yes=65,no=66,missing=66
						65:leaf=0.0544364117
						66:leaf=-0.109204195
				16:[apparentTemperature<2.00999999] yes=33,no=34,missing=33
					33:leaf=0.462105423
					34:leaf=0.0437443741
			8:[weekday<1] yes=17,no=18,missing=17
				17:[humidity<0.790000021] yes=35,no=36,missing=36
					35:[cloudCover<0.639999986] yes=67,no=68,missing=67
						67:leaf=0.135700002
						68:leaf=0.378570884
					36:[cloudCover<0.709999979] yes=69,no=70,missing=69
						69:leaf=0.453399718
						70:leaf=0.303930432
				18:[windSpeed<2.30999994] yes=37,no=38,missing=38
					37:[visibility<8.80000019] yes=71,no=72,missing=71
						71:leaf=0.559000611
						72:leaf=0.3940579
					38:[cloudCover<0.819999993] yes=73,no=74,missing=73
						73:leaf=0.643780053
						74:leaf=0.477427095
		4:[dewPoint<0.379999995] yes=9,no=10,missing=9
			9:[windSpeed<5.98999977] yes=19,no=20,missing=20
				19:[windGust<11.9499998] yes=39,no=40,missing=39
					39:[weekday<1] yes=75,no=76,missing=75
						75:leaf=0.171698585
						76:leaf=-0.204705149
					40:leaf=0.908157647
				20:[weekday<1] yes=41,no=42,missing=42
					41:[hour_x<6] yes=77,no=78,missing=78
						77:leaf=0.0772497505
						78:leaf=-0.104947343
					42:[pressure<1008.46997] yes=79,no=80,missing=80
						79:leaf=0.0818466097
						80:leaf=-0.334980994
			10:[dewPoint<2.75] yes=21,no=22,missing=21
				21:[windBearing<293] yes=43,no=44,missing=43
					43:[visibility<9.35000038] yes=81,no=82,missing=82
						81:leaf=0.95969975
						82:leaf=0.322042555
					44:[cloudCover<0.579999983] yes=83,no=84,missing=83
						83:leaf=0.21296744
						84:leaf=1.05792558
				22:[temperature<8.67000008] yes=45,no=46,missing=46
					45:[pressure<1020.34003] yes=85,no=86,missing=85
						85:leaf=0.1640663
						86:leaf=-0.0756688565
					46:[pressure<1010.26001] yes=87,no=88,missing=88
						87:leaf=0.170339182
						88:leaf=0.54241097
	2:[hour_x<18] yes=5,no=6,missing=5
		5:[precipIntensity<1.26240003] yes=11,no=12,missing=11
			11:[humidity<0.560000002] yes=23,no=24,missing=24
				23:[apparentTemperature<4.51000023] yes=47,no=48,missing=47
					47:[windSpeed<8.10999966] yes=89,no=90,missing=89
						89:leaf=0.56640619
						90:leaf=0.222340092
					48:[humidity<0.439999998] yes=91,no=92,missing=92
						91:leaf=0.272449821
						92:leaf=0.085554406
				24:[hour_x<8] yes=49,no=50,missing=50
					49:[pressure<1035.06995] yes=93,no=94,missing=93
						93:leaf=0.113714434
						94:leaf=0.659386218
					50:[temperature<3.68000007] yes=95,no=96,missing=95
						95:leaf=-0.22822462
						96:leaf=0.0476093255
			12:[temperature<6.38000011] yes=25,no=26,missing=25
				25:[pressure<996.929993] yes=51,no=52,missing=52
					51:leaf=0.0256850366
					52:leaf=0.707736671
				26:[visibility<11.1400003] yes=53,no=54,missing=53
					53:[windGust<15.9200001] yes=97,no=98,missing=98
						97:leaf=-0.00547993183
						98:leaf=0.185489357
					54:[weekday<1] yes=99,no=100,missing=100
						99:leaf=0.104533426
						100:leaf=0.377122015
		6:[cloudCover<0.5] yes=13,no=14,missing=13
			13:[visibility<9.77000046] yes=27,no=28,missing=28
				27:[pressure<1027.10999] yes=55,no=56,missing=55
					55:[apparentTemperature<5.61000013] yes=101,no=102,missing=101
						101:leaf=-0.108365133
						102:leaf=0.0723428354
					56:leaf=0.383702219
				28:[windGust<4.55999994] yes=57,no=58,missing=57
					57:[windGust<2.52999997] yes=103,no=104,missing=103
						103:leaf=0.505083084
						104:leaf=0.311485857
					58:[rain<1] yes=105,no=106,missing=105
						105:leaf=0.579542935
						106:leaf=0.0144481352
			14:[hour_x<22] yes=29,no=30,missing=29
				29:[dewPoint<7.69999981] yes=59,no=60,missing=59
					59:[humidity<0.610000014] yes=107,no=108,missing=108
						107:leaf=0.476533651
						108:leaf=0.114399247
					60:[apparentTemperature<10.7200003] yes=109,no=110,missing=109
						109:leaf=0.558816135
						110:leaf=0.274919242
				30:[weekday<1] yes=61,no=62,missing=61
					61:[windSpeed<8.10999966] yes=111,no=112,missing=112
						111:leaf=0.130142853
						112:leaf=0.854103744
					62:[pressure<1002.95001] yes=113,no=114,missing=114
						113:leaf=0.142810389
						114:leaf=0.452229708
booster[15]:
0:[hour_x<7] yes=1,no=2,missing=1
	1:[windGust<5.71000004] yes=3,no=4,missing=4
		3:[pressure<1009.09003] yes=7,no=8,missing=7
			7:[precipIntensity<0.0507999994] yes=15,no=16,missing=16
				15:[humidity<0.870000005] yes=31,no=32,missing=32
					31:[windGust<4.55999994] yes=63,no=64,missing=63
						63:leaf=-0.156072289
						64:leaf=-0.0304435026
					32:[temperature<4.63999987] yes=65,no=66,missing=65
						65:leaf=0.0491629019
						66:leaf=-0.101013862
				16:[apparentTemperature<2.00999999] yes=33,no=34,missing=33
					33:leaf=0.418975741
					34:leaf=0.0415571705
			8:[cloudCover<0.419999987] yes=17,no=18,missing=17
				17:[dewPoint<1.20000005] yes=35,no=36,missing=35
					35:[windGust<2.1400001] yes=67,no=68,missing=67
						67:leaf=0.2354251
						68:leaf=0.4441019
					36:[windSpeed<1.05999994] yes=69,no=70,missing=69
						69:leaf=0.0792114586
						70:leaf=0.607543766
				18:[pressure<1034.13] yes=37,no=38,missing=37
					37:[pressure<1017.46997] yes=71,no=72,missing=72
						71:leaf=0.52674526
						72:leaf=0.301777154
					38:leaf=0.497686535
		4:[dewPoint<0.379999995] yes=9,no=10,missing=10
			9:[windSpeed<5.98999977] yes=19,no=20,missing=19
				19:[windGust<11.9499998] yes=39,no=40,missing=40
					39:[hour_x<6] yes=73,no=74,missing=74
						73:leaf=0.153392389
						74:leaf=-0.221737057
					40:leaf=0.832477987
				20:[weekday<1] yes=41,no=42,missing=41
					41:[pressure<1000.96997] yes=75,no=76,missing=75
						75:leaf=0.123340361
						76:leaf=-0.0275180135
					42:[pressure<1008.46997] yes=77,no=78,missing=77
						77:leaf=0.0757081136
						78:leaf=-0.30259946
			10:[dewPoint<2.75] yes=21,no=22,missing=21
				21:[windBearing<293] yes=43,no=44,missing=44
					43:[visibility<8.15999985] yes=79,no=80,missing=80
						79:leaf=0.898118436
						80:leaf=0.294531316
					44:[cloudCover<0.579999983] yes=81,no=82,missing=82
						81:leaf=0.19471316
						82:leaf=0.955439568
				22:[dewPoint<6.82000017] yes=45,no=46,missing=45
					45:[pressure<1022.02002] yes=83,no=84,missing=83
						83:leaf=0.180271983
						84:leaf=-0.0826423392
					46:[pressure<1010.26001] yes=85,no=86,missing=85
						85:leaf=0.096560441
						86:leaf=0.607613087
	2:[hour_x<18] yes=5,no=6,missing=5
		5:[precipIntensity<1.26240003] yes=11,no=12,missing=12
			11:[hour_x<13] yes=23,no=24,missing=23
				23:[windGust<5.90999985] yes=47,no=48,missing=47
					47:[visibility<9.98999977] yes=87,no=88,missing=88
						87:leaf=-0.0633102208
						88:leaf=0.179407522
					48:[windGust<9.86999989] yes=89,no=90,missing=89
						89:leaf=-0.100684263
						90:leaf=0.0189642534
				24:[windBearing<142] yes=49,no=50,missing=50
					49:[windGust<6.15999985] yes=91,no=92,missing=91
						91:leaf=0.060787987
						92:leaf=0.292451739
					50:[temperature<7.09000015] yes=93,no=94,missing=93
						93:leaf=0.216577634
						94:leaf=0.0210762527
			12:[temperature<6.38000011] yes=25,no=26,missing=25
				25:[pressure<996.929993] yes=51,no=52,missing=52
					51:leaf=0.0244007837
					52:leaf=0.641126335
				26:[visibility<11.6199999] yes=53,no=54,missing=53
					53:[windGust<15.9200001] yes=95,no=96,missing=95
						95:leaf=-0.00495934999
						96:leaf=0.175150827
					54:leaf=0.351563364
		6:[cloudCover<0.769999981] yes=13,no=14,missing=14
			13:[apparentTemperature<-3.54999995] yes=27,no=28,missing=27
				27:[humidity<0.870000005] yes=55,no=56,missing=55
					55:leaf=-0.190578163
					56:[visibility<11.9300003] yes=97,no=98,missing=97
						97:leaf=-0.113632381
						98:leaf=-0.0570065491
				28:[dewPoint<1.20000005] yes=57,no=58,missing=57
					57:[pressure<1020.96002] yes=99,no=100,missing=99
						99:leaf=0.865529239
						100:leaf=0.0813376382
					58:[windBearing<265] yes=101,no=102,missing=101
						101:leaf=0.304962307
						102:leaf=0.0766213387
			14:[visibility<5.05000019] yes=29,no=30,missing=29
				29:[pressure<1007.47998] yes=59,no=60,missing=60
					59:[apparentTemperature<2.67000008] yes=103,no=104,missing=104
						103:leaf=0.070455052
						104:leaf=0.21841386
					60:[cloudCover<0.810000002] yes=105,no=106,missing=105
						105:leaf=0.925616562
						106:leaf=0.538765073
				30:[humidity<0.730000019] yes=61,no=62,missing=62
					61:[apparentTemperature<3.51999998] yes=107,no=108,missing=107
						107:leaf=0.450195998
						108:leaf=-0.127100065
					62:[windBearing<59] yes=109,no=110,missing=110
						109:leaf=-0.172047585
						110:leaf=0.140331432
booster[16]:
0:[hour_x<7] yes=1,no=2,missing=1
	1:[windGust<5.71000004] yes=3,no=4,missing=4
		3:[pressure<1009.09003] yes=7,no=8,missing=7
			7:[precipIntensity<0.0507999994] yes=15,no=16,missing=15
				15:[windGust<3.42000008] yes=31,no=32,missing=31
					31:[temperature<4.63999987] yes=61,no=62,missing=61
						61:leaf=0.0712076277
						62:leaf=-0.093437843
					32:[humidity<0.870000005] yes=63,no=64,missing=64
						63:leaf=-0.127062023
						64:leaf=-0.0216967259
				16:[apparentTemperature<2.00999999] yes=33,no=34,missing=33
					33:leaf=0.3798711
					34:leaf=0.0394793041
			8:[cloudCover<0.419999987] yes=17,no=18,missing=17
				17:[windGust<3.68000007] yes=35,no=36,missing=35
					35:[humidity<0.899999976] yes=65,no=66,missing=65
						65:leaf=0.357903033
						66:leaf=0.494343251
					36:[windBearing<284] yes=67,no=68,missing=67
						67:leaf=0.587951779
						68:leaf=0.282294273
				18:[pressure<1034.13] yes=37,no=38,missing=37
					37:[dewPoint<5.73000002] yes=69,no=70,missing=69
						69:leaf=0.248480037
						70:leaf=0.403173923
					38:leaf=0.448720664
		4:[windBearing<128] yes=9,no=10,missing=10
			9:[pressure<1010.26001] yes=19,no=20,missing=19
				19:[temperature<7.65999985] yes=39,no=40,missing=40
					39:[windBearing<72] yes=71,no=72,missing=71
						71:leaf=0.301876068
						72:leaf=0.107674323
					40:[dewPoint<7.13999987] yes=73,no=74,missing=74
						73:leaf=-0.143924683
						74:leaf=-0.325800955
				20:[pressure<1019.79999] yes=41,no=42,missing=41
					41:[cloudCover<0.479999989] yes=75,no=76,missing=76
						75:leaf=0.323470891
						76:leaf=0.921496689
					42:[windGust<8.93999958] yes=77,no=78,missing=78
						77:leaf=0.432171106
						78:leaf=-0.0535406135
			10:[temperature<9.43000031] yes=21,no=22,missing=21
				21:[pressure<1011.63] yes=43,no=44,missing=44
					43:[windBearing<293] yes=79,no=80,missing=79
						79:leaf=0.191428959
						80:leaf=0.690222979
					44:[pressure<1024.60999] yes=81,no=82,missing=81
						81:leaf=-0.219981238
						82:leaf=0.131783396
				22:[cloudCover<0.649999976] yes=45,no=46,missing=45
					45:[precipIntensity<0.0812999979] yes=83,no=84,missing=84
						83:leaf=-0.0452741086
						84:leaf=0.351970881
					46:[humidity<0.779999971] yes=85,no=86,missing=85
						85:leaf=0.617967725
						86:leaf=0.329906315
	2:[hour_x<18] yes=5,no=6,missing=5
		5:[hour_x<8] yes=11,no=12,missing=12
			11:[pressure<1035.06995] yes=23,no=24,missing=24
				23:[windGust<13.6300001] yes=47,no=48,missing=47
					47:[windGust<4.09000015] yes=87,no=88,missing=88
						87:leaf=0.302575827
						88:leaf=-0.0426663868
					48:[windGust<15.7600002] yes=89,no=90,missing=89
						89:leaf=0.754189074
						90:leaf=0.0722722113
				24:leaf=0.580166936
			12:[temperature<3.68000007] yes=25,no=26,missing=25
				25:[windGust<17.4200001] yes=49,no=50,missing=49
					49:[humidity<0.889999986] yes=91,no=92,missing=91
						91:leaf=-0.296215028
						92:leaf=-0.136247858
					50:leaf=0.232684568
				26:[hour_x<13] yes=51,no=52,missing=51
					51:[precipIntensity<0.866100013] yes=93,no=94,missing=94
						93:leaf=0.00322287693
						94:leaf=0.305330724
					52:[windBearing<142] yes=95,no=96,missing=95
						95:leaf=0.167071015
						96:leaf=0.0401972234
		6:[cloudCover<0.5] yes=13,no=14,missing=13
			13:[visibility<9.77000046] yes=27,no=28,missing=28
				27:[pressure<1027.10999] yes=53,no=54,missing=53
					53:[windBearing<263] yes=97,no=98,missing=98
						97:leaf=-0.046680402
						98:leaf=0.115293078
					54:leaf=0.324673831
				28:[windGust<4.55999994] yes=55,no=56,missing=55
					55:[windBearing<222] yes=99,no=100,missing=99
						99:leaf=0.334143966
						100:leaf=0.158716977
					56:[visibility<10.0100002] yes=101,no=102,missing=102
						101:leaf=0.136149049
						102:leaf=0.507627785
			14:[hour_x<22] yes=29,no=30,missing=29
				29:[dewPoint<7.69999981] yes=57,no=58,missing=57
					57:[humidity<0.610000014] yes=103,no=104,missing=104
						103:leaf=0.391677409
						104:leaf=0.0867857262
					58:[apparentTemperature<10.7200003] yes=105,no=106,missing=105
						105:leaf=0.465043157
						106:leaf=0.218587905
				30:[weekday<1] yes=59,no=60,missing=59
					59:[windSpeed<8.10999966] yes=107,no=108,missing=108
						107:leaf=0.0997730717
						108:leaf=0.701247394
					60:[cloudCover<0.810000002] yes=109,no=110,missing=109
						109:leaf=0.401026636
						110:leaf=0.152065441
booster[17]:
0:[hour_x<7] yes=1,no=2,missing=1
	1:[windGust<5.71000004] yes=3,no=4,missing=3
		3:[pressure<1009.09003] yes=7,no=8,missing=8
			7:[precipIntensity<0.0507999994] yes=15,no=16,missing=15
				15:[humidity<0.870000005] yes=31,no=32,missing=32
					31:[windGust<4.55999994] yes=61,no=62,missing=61
						61:leaf=-0.13483724
						62:leaf=-0.0225682259
					32:[temperature<4.63999987] yes=63,no=64,missing=63
						63:leaf=0.0401149504
						64:leaf=-0.0864300132
				16:[apparentTemperature<2.00999999] yes=33,no=34,missing=33
					33:leaf=0.34441644
					34:leaf=0.0375053398
			8:[cloudCover<0.419999987] yes=17,no=18,missing=17
				17:[windGust<3.68000007] yes=35,no=36,missing=36
					35:[temperature<4.80999994] yes=65,no=66,missing=65
						65:leaf=0.378261536
						66:leaf=0.110175207
					36:[windBearing<284] yes=67,no=68,missing=67
						67:leaf=0.530090094
						68:leaf=0.258097529
				18:[humidity<0.790000021] yes=37,no=38,missing=37
					37:[cloudCover<0.639999986] yes=69,no=70,missing=69
						69:leaf=0.0693844631
						70:leaf=0.31664905
					38:[pressure<1029.05005] yes=71,no=72,missing=71
						71:leaf=0.27096355
						72:leaf=0.404022753
		4:[dewPoint<0.379999995] yes=9,no=10,missing=9
			9:[windSpeed<5.98999977] yes=19,no=20,missing=20
				19:[windGust<11.9499998] yes=39,no=40,missing=39
					39:[weekday<1] yes=73,no=74,missing=73
						73:leaf=0.12695092
						74:leaf=-0.189999476
					40:leaf=0.705586135
				20:[weekday<1] yes=41,no=42,missing=42
					41:[hour_x<6] yes=75,no=76,missing=75
						75:leaf=0.0587118976
						76:leaf=-0.0919036493
					42:[pressure<1008.46997] yes=77,no=78,missing=78
						77:leaf=0.0529116504
						78:leaf=-0.25208351
			10:[dewPoint<2.72000003] yes=21,no=22,missing=21
				21:[windBearing<293] yes=43,no=44,missing=44
					43:[visibility<9.35000038] yes=79,no=80,missing=79
						79:leaf=0.724489152
						80:leaf=0.241867736
					44:[cloudCover<0.579999983] yes=81,no=82,missing=82
						81:leaf=0.142794594
						82:leaf=0.796015322
				22:[temperature<9.09000015] yes=45,no=46,missing=45
					45:[windSpeed<3.00999999] yes=83,no=84,missing=84
						83:leaf=-0.202295586
						84:leaf=0.103985004
					46:[cloudCover<0.649999976] yes=85,no=86,missing=85
						85:leaf=0.0139980419
						86:leaf=0.356867701
	2:[hour_x<18] yes=5,no=6,missing=5
		5:[hour_x<8] yes=11,no=12,missing=12
			11:[pressure<1035.06995] yes=23,no=24,missing=23
				23:[windGust<13.6300001] yes=47,no=48,missing=47
					47:[windGust<4.09000015] yes=87,no=88,missing=87
						87:leaf=0.272911519
						88:leaf=-0.038434431
					48:[windSpeed<10.2600002] yes=89,no=90,missing=89
						89:leaf=0.535060465
						90:leaf=-0.0587369092
				24:leaf=0.52537328
			12:[temperature<3.68000007] yes=25,no=26,missing=25
				25:[windGust<14.5900002] yes=49,no=50,missing=49
					49:[windSpeed<2.0999999] yes=91,no=92,missing=92
						91:leaf=-0.0783576965
						92:leaf=-0.262003511
					50:[hour_x<9] yes=93,no=94,missing=93
						93:leaf=0.221050337
						94:leaf=-0.0459655896
				26:[humidity<0.560000002] yes=51,no=52,missing=51
					51:[windGust<4.88999987] yes=95,no=96,missing=96
						95:leaf=0.0512847491
						96:leaf=0.237219974
					52:[windBearing<147] yes=97,no=98,missing=97
						97:leaf=0.0783279166
						98:leaf=0.0153942574
		6:[weekday<1] yes=13,no=14,missing=13
			13:[windBearing<122] yes=27,no=28,missing=28
				27:[windGust<7.07000017] yes=53,no=54,missing=53
					53:[dewPoint<4.98000002] yes=99,no=100,missing=99
						99:leaf=-0.132295489
						100:leaf=0.208555534
					54:[humidity<0.639999986] yes=101,no=102,missing=102
						101:leaf=0.777065635
						102:leaf=0.39151594
				28:[visibility<8.22000027] yes=55,no=56,missing=56
					55:leaf=0.390920371
					56:[pressure<994.859985] yes=103,no=104,missing=103
						103:leaf=-0.293697208
						104:leaf=-0.0582696199
			14:[dewPoint<1.24000001] yes=29,no=30,missing=29
				29:[apparentTemperature<1.32000005] yes=57,no=58,missing=57
					57:[humidity<0.879999995] yes=105,no=106,missing=105
						105:leaf=1.09289443
						106:leaf=0.734757423
					58:[pressure<1028.56006] yes=107,no=108,missing=107
						107:leaf=0.0964224562
						108:leaf=0.429922104
				30:[pressure<1025.83997] yes=59,no=60,missing=59
					59:[pressure<1024.87] yes=109,no=110,missing=109
						109:leaf=0.191913113
						110:leaf=-0.27137512
					60:[windBearing<262] yes=111,no=112,missing=111
						111:leaf=0.377348274
						112:leaf=0.0704182014
booster[18]:
0:[hour_x<7] yes=1,no=2,missing=1
	1:[windGust<5.71000004] yes=3,no=4,missing=3
		3:[pressure<1009.09003] yes=7,no=8,missing=8
			7:[precipIntensity<0.0507999994] yes=15,no=16,missing=15
				15:[windGust<3.42000008] yes=31,no=32,missing=32
					31:[temperature<4.63999987] yes=63,no=64,missing=63
						63:leaf=0.0605593883
						64:leaf=-0.0799477622
					32:[windGust<4.55999994] yes=65,no=66,missing=65
						65:leaf=-0.0926672444
						66:leaf=-0.00485475408
				16:[apparentTemperature<2.00999999] yes=33,no=34,missing=33
					33:leaf=0.31227088
					34:leaf=0.0356300846
			8:[windGust<3.68000007] yes=17,no=18,missing=18
				17:[humidity<0.899999976] yes=35,no=36,missing=35
					35:[dewPoint<2.17000008] yes=67,no=68,missing=68
						67:leaf=0.279580086
						68:leaf=0.171779424
					36:[visibility<10.1199999] yes=69,no=70,missing=69
						69:leaf=0.386624783
						70:leaf=0.287580818
				18:[weekday<1] yes=37,no=38,missing=38
					37:[cloudCover<0.639999986] yes=71,no=72,missing=71
						71:leaf=0.0572380722
						72:leaf=0.293077022
					38:[windSpeed<3.42000008] yes=73,no=74,missing=73
						73:leaf=0.483933598
						74:leaf=0.348350853
		4:[windBearing<128] yes=9,no=10,missing=9
			9:[pressure<1010.26001] yes=19,no=20,missing=19
				19:[temperature<7.65999985] yes=39,no=40,missing=39
					39:[windBearing<72] yes=75,no=76,missing=75
						75:leaf=0.248962387
						76:leaf=0.0895462334
					40:[dewPoint<7.98000002] yes=77,no=78,missing=78
						77:leaf=-0.172048464
						78:leaf=-0.430190951
				20:[pressure<1019.79999] yes=41,no=42,missing=41
					41:[precipIntensity<1.2471] yes=79,no=80,missing=79
						79:leaf=0.842725456
						80:leaf=0.582840919
					42:[windGust<8.93999958] yes=81,no=82,missing=81
						81:leaf=0.373684496
						82:leaf=-0.0568495393
			10:[temperature<9.59000015] yes=21,no=22,missing=21
				21:[pressure<1011.63] yes=43,no=44,missing=43
					43:[pressure<1003.71002] yes=83,no=84,missing=83
						83:leaf=0.10649433
						84:leaf=0.460169315
					44:[pressure<1024.77002] yes=85,no=86,missing=85
						85:leaf=-0.200689599
						86:leaf=0.110183552
				22:[cloudy<1] yes=45,no=46,missing=45
					45:[cloudCover<0.649999976] yes=87,no=88,missing=88
						87:leaf=0.0231666323
						88:leaf=0.227589488
					46:[pressure<1028.43005] yes=89,no=90,missing=89
						89:leaf=0.54614085
						90:leaf=0.19879584
	2:[hour_x<19] yes=5,no=6,missing=5
		5:[windBearing<293] yes=11,no=12,missing=12
			11:[apparentTemperature<0.460000008] yes=23,no=24,missing=23
				23:[visibility<11.3100004] yes=47,no=48,missing=48
					47:[windGust<2.1400001] yes=91,no=92,missing=92
						91:leaf=0.348982751
						92:leaf=-0.170475855
					48:[temperature<3.68000007] yes=93,no=94,missing=94
						93:leaf=-0.246295646
						94:leaf=0.366479278
				24:[cloudCover<0.100000001] yes=49,no=50,missing=49
					49:[windGust<4.86000013] yes=95,no=96,missing=95
						95:leaf=0.134473592
						96:leaf=0.355662555
					50:[windBearing<127] yes=97,no=98,missing=97
						97:leaf=0.100030802
						98:leaf=0.0231937263
			12:[dewPoint<1.13999999] yes=25,no=26,missing=25
				25:[cloudCover<0.579999983] yes=51,no=52,missing=52
					51:[windBearing<298] yes=99,no=100,missing=99
						99:leaf=0.166115135
						100:leaf=-0.213976532
					52:[windBearing<309] yes=101,no=102,missing=101
						101:leaf=0.757547557
						102:leaf=0.164808542
				26:[dewPoint<7.13999987] yes=53,no=54,missing=53
					53:[humidity<0.850000024] yes=103,no=104,missing=103
						103:leaf=0.0335974209
						104:leaf=0.232167348
					54:[apparentTemperature<10.9300003] yes=105,no=106,missing=105
						105:leaf=-0.115057625
						106:leaf=0.349433035
		6:[weekday<1] yes=13,no=14,missing=13
			13:[windBearing<122] yes=27,no=28,missing=27
				27:[windGust<7.07000017] yes=55,no=56,missing=55
					55:[dewPoint<5.03999996] yes=107,no=108,missing=108
						107:leaf=-0.105691016
						108:leaf=0.185902759
					56:[pressure<1026.68994] yes=109,no=110,missing=109
						109:leaf=0.613003433
						110:leaf=0.174021527
				28:[visibility<7.94999981] yes=57,no=58,missing=57
					57:leaf=0.342493773
					58:[pressure<994.859985] yes=111,no=112,missing=112
						111:leaf=-0.2779769
						112:leaf=-0.0450906418
			14:[apparentTemperature<-0.970000029] yes=29,no=30,missing=30
				29:[cloudCover<0.720000029] yes=59,no=60,missing=59
					59:leaf=0.772822857
					60:[apparentTemperature<-2.24000001] yes=113,no=114,missing=113
						113:leaf=-0.0131101133
						114:leaf=0.0466711223
				30:[pressure<1028.56006] yes=61,no=62,missing=61
					61:[pressure<1018.59998] yes=115,no=116,missing=115
						115:leaf=0.231067374
						116:leaf=0.0878818259
					62:[windBearing<229] yes=117,no=118,missing=118
						117:leaf=0.501522958
						118:leaf=0.21283868
booster[19]:
0:[hour_x<6] yes=1,no=2,missing=1
	1:[apparentTemperature<-2.47000003] yes=3,no=4,missing=3
		3:[pressure<1009.09003] yes=7,no=8,missing=8
			7:[cloudy<1] yes=15,no=16,missing=16
				15:leaf=0.268705577
				16:[pressure<1000.96997] yes=31,no=32,missing=31
					31:[temperature<2.43000007] yes=57,no=58,missing=57
						57:leaf=0.0702796951
						58:leaf=0.0238813609
					32:[apparentTemperature<-3.9000001] yes=59,no=60,missing=59
						59:leaf=0.00193106325
						60:leaf=-0.0516261868
			8:[windBearing<292] yes=17,no=18,missing=18
				17:leaf=-0.113848642
				18:leaf=-0.28459385
		4:[windGust<16.6700001] yes=9,no=10,missing=9
			9:[windGust<11.9499998] yes=19,no=20,missing=19
				19:[pressure<1027.44995] yes=33,no=34,missing=34
					33:[dewPoint<7.57999992] yes=61,no=62,missing=61
						61:leaf=0.127785265
						62:leaf=0.574965417
					34:[windGust<6.90999985] yes=63,no=64,missing=63
						63:leaf=0.338074058
						64:leaf=0.163008586
				20:[weekday<1] yes=35,no=36,missing=35
					35:[precipIntensity<0.0812999979] yes=65,no=66,missing=66
						65:leaf=-0.0695019215
						66:leaf=0.107318953
					36:[windSpeed<9.52999973] yes=67,no=68,missing=68
						67:leaf=0.611039817
						68:leaf=0.297566742
			10:[precipProbability<0.289999992] yes=21,no=22,missing=21
				21:[apparentTemperature<-0.860000014] yes=37,no=38,missing=37
					37:leaf=-0.339347333
					38:[cloudCover<0.870000005] yes=69,no=70,missing=69
						69:leaf=-0.0331505835
						70:leaf=0.247908667
				22:[windGust<18.9599991] yes=39,no=40,missing=39
					39:[pressure<1000.39001] yes=71,no=72,missing=71
						71:leaf=0.154512659
						72:leaf=0.320172369
					40:[weekday<1] yes=73,no=74,missing=73
						73:leaf=0.119785383
						74:leaf=-0.146867529
	2:[hour_x<19] yes=5,no=6,missing=6
		5:[hour_x<8] yes=11,no=12,missing=12
			11:[windGust<5.75] yes=23,no=24,missing=23
				23:[pressure<1021.66998] yes=41,no=42,missing=41
					41:[dewPoint<2.67000008] yes=75,no=76,missing=76
						75:leaf=-0.146081552
						76:leaf=0.0257794
					42:[windBearing<131] yes=77,no=78,missing=77
						77:leaf=0.0303853285
						78:leaf=0.355844349
				24:[pressure<1021.59998] yes=43,no=44,missing=43
					43:[visibility<6.51999998] yes=79,no=80,missing=79
						79:leaf=-0.238892958
						80:leaf=0.233685687
					44:[apparentTemperature<10.6300001] yes=81,no=82,missing=82
						81:leaf=-0.223676637
						82:leaf=0.189261794
			12:[hour_x<13] yes=25,no=26,missing=25
				25:[precipIntensity<0.866100013] yes=45,no=46,missing=45
					45:[weekday<1] yes=83,no=84,missing=84
						83:leaf=0.060123045
						84:leaf=-0.0415884182
					46:[weekday<1] yes=85,no=86,missing=86
						85:leaf=-0.0457952656
						86:leaf=0.370129704
				26:[windBearing<142] yes=47,no=48,missing=47
					47:[pressure<1008.62] yes=87,no=88,missing=87
						87:leaf=-0.0332440697
						88:leaf=0.182698697
					48:[pressure<1006.16998] yes=89,no=90,missing=90
						89:leaf=0.159891382
						90:leaf=0.00612872466
		6:[cloudCover<0.5] yes=13,no=14,missing=13
			13:[windBearing<120] yes=27,no=28,missing=28
				27:[windBearing<111] yes=49,no=50,missing=49
					49:[pressure<1024.14001] yes=91,no=92,missing=92
						91:leaf=0.087314792
						92:leaf=0.292220324
					50:[cloudCover<0.409999996] yes=93,no=94,missing=93
						93:leaf=0.2524575
						94:leaf=-0.417026252
				28:[weekday<1] yes=51,no=52,missing=52
					51:[apparentTemperature<-3.54999995] yes=95,no=96,missing=96
						95:leaf=-0.0896486491
						96:leaf=0.10740938
					52:[apparentTemperature<1.59000003] yes=97,no=98,missing=97
						97:leaf=0.668161452
						98:leaf=0.298875183
			14:[visibility<4.30000019] yes=29,no=30,missing=30
				29:[pressure<1007.28003] yes=53,no=54,missing=53
					53:[hour_x<21] yes=99,no=100,missing=100
						99:leaf=0.0566235781
						100:leaf=-0.200730965
					54:[windSpeed<2.48000002] yes=101,no=102,missing=102
						101:leaf=0.400335312
						102:leaf=0.843911767
				30:[apparentTemperature<4.01999998] yes=55,no=56,missing=56
					55:[temperature<6.98000002] yes=103,no=104,missing=104
						103:leaf=0.120394967
						104:leaf=0.454507172
					56:[temperature<9.22000027] yes=105,no=106,missing=105
						105:leaf=0.0126364101
						106:leaf=0.195713237
booster[20]:
0:[hour_x<6] yes=1,no=2,missing=1
	1:[apparentTemperature<-2.47000003] yes=3,no=4,missing=4
		3:[pressure<1009.09003] yes=7,no=8,missing=7
			7:[cloudy<1] yes=15,no=16,missing=15
				15:leaf=0.255270302
				16:[pressure<1000.96997] yes=31,no=32,missing=31
					31:[apparentTemperature<-2.91000009] yes=57,no=58,missing=57
						57:leaf=0.0683187172
						58:leaf=0.0280505009
					32:[apparentTemperature<-3.9000001] yes=59,no=60,missing=59
						59:leaf=0.00180231722
						60:leaf=-0.0481844433
			8:[windBearing<292] yes=17,no=18,missing=17
				17:leaf=-0.103033029
				18:leaf=-0.261826128
		4:[windGust<16.6700001] yes=9,no=10,missing=9
			9:[windGust<11.9499998] yes=19,no=20,missing=19
				19:[pressure<1027.44995] yes=33,no=34,missing=34
					33:[windBearing<86] yes=61,no=62,missing=61
						61:leaf=0.278109878
						62:leaf=0.0905327424
					34:[visibility<9.75] yes=63,no=64,missing=64
						63:leaf=0.137078926
						64:leaf=0.301786274
				20:[weekday<1] yes=35,no=36,missing=35
					35:[precipIntensity<0.127000004] yes=65,no=66,missing=66
						65:leaf=-0.0556849129
						66:leaf=0.106241405
					36:[pressure<1004.09998] yes=67,no=68,missing=68
						67:leaf=0.259920001
						68:leaf=0.553716123
			10:[apparentTemperature<0.769999981] yes=21,no=22,missing=21
				21:[windBearing<265] yes=37,no=38,missing=37
					37:[dewPoint<2.91000009] yes=69,no=70,missing=69
						69:leaf=-0.123417474
						70:leaf=0.0072031403
					38:leaf=-0.272778302
				22:[precipProbability<0.289999992] yes=39,no=40,missing=39
					39:[cloudCover<0.850000024] yes=71,no=72,missing=71
						71:leaf=-0.00886015408
						72:leaf=0.229315519
					40:[dewPoint<8.56999969] yes=73,no=74,missing=73
						73:leaf=0.260361582
						74:leaf=0.0937079713
	2:[hour_x<20] yes=5,no=6,missing=5
		5:[pressure<996.929993] yes=11,no=12,missing=11
			11:[apparentTemperature<11.1800003] yes=23,no=24,missing=23
				23:[hour_x<7] yes=41,no=42,missing=42
					41:[windSpeed<5.63999987] yes=75,no=76,missing=75
						75:leaf=-0.011353936
						76:leaf=0.312358141
					42:[weekday<1] yes=77,no=78,missing=77
						77:leaf=-0.181568086
						78:leaf=-0.0662627965
				24:[hour_x<10] yes=43,no=44,missing=43
					43:[precipIntensity<1.16840005] yes=79,no=80,missing=80
						79:leaf=0.224555165
						80:leaf=0.0632162765
					44:[hour_x<11] yes=81,no=82,missing=81
						81:leaf=0.0155292517
						82:leaf=-0.111495815
			12:[temperature<7.86999989] yes=25,no=26,missing=26
				25:[hour_x<14] yes=45,no=46,missing=45
					45:[pressure<1035.06995] yes=83,no=84,missing=83
						83:leaf=0.0518119521
						84:leaf=0.391552925
					46:[windGust<13.9799995] yes=85,no=86,missing=85
						85:leaf=0.359606713
						86:leaf=0.0468182676
				26:[cloudCover<0.0700000003] yes=47,no=48,missing=48
					47:[visibility<11.1999998] yes=87,no=88,missing=87
						87:leaf=0.275372446
						88:leaf=-0.0613189414
					48:[windBearing<51] yes=89,no=90,missing=90
						89:leaf=0.230699852
						90:leaf=0.0265102722
		6:[weekday<1] yes=13,no=14,missing=13
			13:[precipIntensity<0.0812999979] yes=27,no=28,missing=28
				27:[temperature<6.5] yes=49,no=50,missing=50
					49:[hour_x<21] yes=91,no=92,missing=91
						91:leaf=-0.215724617
						92:leaf=-0.0351153128
					50:[dewPoint<0.449999988] yes=93,no=94,missing=93
						93:leaf=0.636335194
						94:leaf=0.0870779976
				28:[apparentTemperature<-0.310000002] yes=51,no=52,missing=52
					51:leaf=-0.182947025
					52:[windGust<13.0500002] yes=95,no=96,missing=96
						95:leaf=0.31436339
						96:leaf=0.755047262
			14:[temperature<4.15999985] yes=29,no=30,missing=29
				29:[pressure<994.289978] yes=53,no=54,missing=54
					53:[humidity<0.920000017] yes=97,no=98,missing=97
						97:leaf=-0.0195037536
						98:leaf=0.0378660224
					54:leaf=0.665141046
				30:[pressure<1004.34998] yes=55,no=56,missing=55
					55:[pressure<1002.12] yes=99,no=100,missing=100
						99:leaf=0.0651050583
						100:leaf=-0.147999555
					56:[pressure<1018.59998] yes=101,no=102,missing=101
						101:leaf=0.351667613
						102:leaf=0.174028203
booster[21]:
0:[hour_x<7] yes=1,no=2,missing=1
	1:[windGust<5.71000004] yes=3,no=4,missing=3
		3:[pressure<1009.09003] yes=7,no=8,missing=7
			7:[precipIntensity<0.0507999994] yes=15,no=16,missing=15
				15:[windSpeed<3.51999998] yes=31,no=32,missing=32
					31:[temperature<4.63999987] yes=63,no=64,missing=63
						63:leaf=0.0175361093
						64:leaf=-0.090325512
					32:[weekday<1] yes=65,no=66,missing=66
						65:leaf=-0.0270799007
						66:leaf=-0.105966844
				16:[apparentTemperature<2.00999999] yes=33,no=34,missing=33
					33:leaf=0.256496668
					34:leaf=0.0229326729
			8:[cloudCover<0.419999987] yes=17,no=18,missing=17
				17:[windBearing<309] yes=35,no=36,missing=35
					35:[windSpeed<1.78999996] yes=67,no=68,missing=67
						67:leaf=0.222042322
						68:leaf=0.350324601
					36:[visibility<9.64000034] yes=69,no=70,missing=69
						69:leaf=0.212413341
						70:leaf=0.121914804
				18:[humidity<0.790000021] yes=37,no=38,missing=37
					37:[cloudCover<0.639999986] yes=71,no=72,missing=71
						71:leaf=-0.0106022945
						72:leaf=0.233343244
					38:[pressure<1017.46997] yes=73,no=74,missing=73
						73:leaf=0.341218114
						74:leaf=0.207456827
		4:[windBearing<128] yes=9,no=10,missing=9
			9:[pressure<1010.26001] yes=19,no=20,missing=20
				19:[temperature<7.65999985] yes=39,no=40,missing=39
					39:[windBearing<72] yes=75,no=76,missing=75
						75:leaf=0.174423441
						76:leaf=0.0557422712
					40:[dewPoint<7.13999987] yes=77,no=78,missing=77
						77:leaf=-0.134626552
						78:leaf=-0.275880992
				20:[pressure<1019.79999] yes=41,no=42,missing=41
					41:[precipIntensity<1.2471] yes=79,no=80,missing=79
						79:leaf=0.690960646
						80:leaf=0.437761456
					42:[windGust<8.93999958] yes=81,no=82,missing=81
						81:leaf=0.30804199
						82:leaf=-0.0553921238
			10:[temperature<9.61999989] yes=21,no=22,missing=21
				21:[pressure<1011.63] yes=43,no=44,missing=44
					43:[windBearing<290] yes=83,no=84,missing=83
						83:leaf=0.110853985
						84:leaf=0.443644255
					44:[pressure<1024.77002] yes=85,no=86,missing=85
						85:leaf=-0.182895467
						86:leaf=0.071596235
				22:[cloudy<1] yes=45,no=46,missing=45
					45:[windSpeed<18.2800007] yes=87,no=88,missing=88
						87:leaf=0.13230142
						88:leaf=-0.117016457
					46:[pressure<1028.43005] yes=89,no=90,missing=89
						89:leaf=0.412911028
						90:leaf=0.151618764
	2:[hour_x<17] yes=5,no=6,missing=5
		5:[windSpeed<11.5900002] yes=11,no=12,missing=12
			11:[windBearing<295] yes=23,no=24,missing=23
				23:[windGust<17.2800007] yes=47,no=48,missing=47
					47:[visibility<9.27000046] yes=91,no=92,missing=91
						91:leaf=-0.0430006273
						92:leaf=0.0354440771
					48:[windBearing<225] yes=93,no=94,missing=93
						93:leaf=0.308035642
						94:leaf=0.00148432853
				24:[cloudy<1] yes=49,no=50,missing=49
					49:[precipIntensity<0.0507999994] yes=95,no=96,missing=95
						95:leaf=-0.160453796
						96:leaf=0.0783375949
					50:[windGust<14.5900002] yes=97,no=98,missing=97
						97:leaf=0.150155202
						98:leaf=0.39879334
			12:[weekday<1] yes=25,no=26,missing=26
				25:[dewPoint<1.94000006] yes=51,no=52,missing=51
					51:[pressure<1004.09998] yes=99,no=100,missing=100
						99:leaf=-0.0589019954
						100:leaf=0.371750981
					52:[windSpeed<12.2700005] yes=101,no=102,missing=101
						101:leaf=-0.0333350822
						102:leaf=-0.145101413
				26:[temperature<9.22000027] yes=53,no=54,missing=53
					53:[uvIndex<0.5] yes=103,no=104,missing=103
						103:leaf=-0.327706546
						104:leaf=-0.114407495
					54:[dewPoint<7.63999987] yes=105,no=106,missing=106
						105:leaf=-0.0928733498
						106:leaf=0.30800721
		6:[cloudCover<0.769999981] yes=13,no=14,missing=13
			13:[apparentTemperature<-3.54999995] yes=27,no=28,missing=27
				27:[humidity<0.860000014] yes=55,no=56,missing=55
					55:leaf=-0.19090426
					56:[visibility<9.75] yes=107,no=108,missing=107
						107:leaf=-0.0346403942
						108:leaf=-0.098115854
				28:[dewPoint<1.20000005] yes=57,no=58,missing=57
					57:[windBearing<275] yes=109,no=110,missing=109
						109:leaf=0.204479441
						110:leaf=0.725866079
					58:[windBearing<265] yes=111,no=112,missing=111
						111:leaf=0.177137703
						112:leaf=0.0128764426
			14:[visibility<5.05000019] yes=29,no=30,missing=29
				29:[pressure<1007.47998] yes=59,no=60,missing=60
					59:[apparentTemperature<2.67000008] yes=113,no=114,missing=113
						113:leaf=-0.00368335261
						114:leaf=0.109879553
					60:[cloudCover<0.810000002] yes=115,no=116,missing=115
						115:leaf=0.68584305
						116:leaf=0.353049725
				30:[apparentTemperature<4.3499999] yes=61,no=62,missing=61
					61:[humidity<0.829999983] yes=117,no=118,missing=117
						117:leaf=0.191150412
						118:leaf=-0.00667473814
					62:[windSpeed<11.5900002] yes=119,no=120,missing=119
						119:leaf=-0.0643675774
						120:leaf=0.246096283
booster[22]:
0:[hour_x<6] yes=1,no=2,missing=1
	1:[windGust<16.6700001] yes=3,no=4,missing=3
		3:[apparentTemperature<-2.47000003] yes=7,no=8,missing=7
			7:[pressure<1009.09003] yes=15,no=16,missing=15
				15:[cloudy<1] yes=31,no=32,missing=31
					31:leaf=0.236964896
					32:[pressure<1000.96997] yes=61,no=62,missing=62
						61:leaf=0.037437126
						62:leaf=-0.0348423384
				16:[windBearing<292] yes=33,no=34,missing=33
					33:[windSpeed<6.51999998] yes=63,no=64,missing=63
						63:leaf=-0.0326543115
						64:leaf=-0.0741813257
					34:leaf=-0.226248384
			8:[windGust<12.1300001] yes=17,no=18,missing=17
				17:[cloudCover<0.400000006] yes=35,no=36,missing=35
					35:[weekday<1] yes=65,no=66,missing=66
						65:leaf=0.0757688731
						66:leaf=0.294602454
					36:[dewPoint<7.13999987] yes=67,no=68,missing=68
						67:leaf=0.0853850171
						68:leaf=0.253610045
				18:[weekday<1] yes=37,no=38,missing=37
					37:[precipIntensity<0.0812999979] yes=69,no=70,missing=69
						69:leaf=-0.0445953868
						70:leaf=0.0837744996
					38:[windSpeed<9.52999973] yes=71,no=72,missing=72
						71:leaf=0.468865246
						72:leaf=0.215512305
		4:[apparentTemperature<0.769999981] yes=9,no=10,missing=9
			9:[windBearing<265] yes=19,no=20,missing=19
				19:[dewPoint<2.91000009] yes=39,no=40,missing=39
					39:leaf=-0.120037794
					40:[hour_x<4] yes=73,no=74,missing=73
						73:leaf=0.00453007221
						74:leaf=-0.0146637438
				20:leaf=-0.263094634
			10:[precipProbability<0.289999992] yes=21,no=22,missing=21
				21:[cloudCover<0.850000024] yes=41,no=42,missing=41
					41:[windBearing<267] yes=75,no=76,missing=75
						75:leaf=0.00510966638
						76:leaf=-0.0870762393
					42:leaf=0.202194244
				22:[apparentTemperature<12.7799997] yes=43,no=44,missing=43
					43:[pressure<1000.39001] yes=77,no=78,missing=77
						77:leaf=0.113303758
						78:leaf=0.25437218
					44:leaf=-0.112415932
	2:[hour_x<20] yes=5,no=6,missing=6
		5:[hour_x<8] yes=11,no=12,missing=11
			11:[windGust<5.75] yes=23,no=24,missing=24
				23:[pressure<1021.66998] yes=45,no=46,missing=45
					45:[dewPoint<2.67000008] yes=79,no=80,missing=80
						79:leaf=-0.132068604
						80:leaf=0.0158962645
					46:[visibility<6.28000021] yes=81,no=82,missing=81
						81:leaf=0.6138255
						82:leaf=0.246852517
				24:[pressure<1021.59998] yes=47,no=48,missing=48
					47:[visibility<6.51999998] yes=83,no=84,missing=84
						83:leaf=-0.206338748
						84:leaf=0.192162558
					48:[apparentTemperature<10.6300001] yes=85,no=86,missing=85
						85:leaf=-0.206267104
						86:leaf=0.154780626
			12:[hour_x<13] yes=25,no=26,missing=25
				25:[pressure<1009.46002] yes=49,no=50,missing=49
					49:[apparentTemperature<-3.9000001] yes=87,no=88,missing=88
						87:leaf=0.340827972
						88:leaf=-0.0948218107
					50:[windGust<15.04] yes=89,no=90,missing=89
						89:leaf=0.00159191363
						90:leaf=0.187889427
				26:[pressure<997.429993] yes=51,no=52,missing=52
					51:[visibility<10.8299999] yes=91,no=92,missing=91
						91:leaf=-0.0396690257
						92:leaf=-0.189561412
					52:[pressure<1005.76001] yes=93,no=94,missing=93
						93:leaf=0.253486454
