booster[0]:
0:[uvIndex<0.5] yes=1,no=2,missing=1
	1:[pressure<991.780029] yes=3,no=4,missing=3
		3:[weekday<1] yes=7,no=8,missing=7
			7:leaf=-0.0466666669
			8:[windBearing<75] yes=15,no=16,missing=15
				15:leaf=2.16666675
				16:leaf=1.4606061
		4:[hour_x<7] yes=9,no=10,missing=9
			9:[apparentTemperature<1.88] yes=17,no=18,missing=17
				17:[visibility<11.7600002] yes=29,no=30,missing=29
					29:[cloudCover<0.550000012] yes=49,no=50,missing=49
						49:leaf=0.12132702
						50:leaf=0.380789489
					30:[windGust<9.93999958] yes=51,no=52,missing=51
						51:leaf=1.07500005
						52:leaf=0.424637705
				18:[precipIntensity<2.80669999] yes=31,no=32,missing=31
					31:[windGust<5.53999996] yes=53,no=54,missing=53
						53:leaf=-0.00484496122
						54:leaf=0.111764707
					32:[weekday<1] yes=55,no=56,missing=55
						55:leaf=0.65625
						56:leaf=0.208333328
			10:[hour_x<17] yes=19,no=20,missing=19
				19:[weekday<1] yes=33,no=34,missing=33
					33:[windGust<13.5500002] yes=57,no=58,missing=57
						57:leaf=0.20892857
						58:leaf=0.739285707
					34:[hour_x<8] yes=59,no=60,missing=59
						59:leaf=0.904523849
						60:leaf=1.63644445
				20:[hour_x<18] yes=35,no=36,missing=35
					35:[windBearing<319] yes=61,no=62,missing=61
						61:leaf=0.449687481
						62:leaf=1.16071427
					36:[weekday<1] yes=63,no=64,missing=63
						63:leaf=0.319543988
						64:leaf=0.14016889
	2:[weekday<1] yes=5,no=6,missing=5
		5:[pressure<1006.45001] yes=11,no=12,missing=11
			11:[pressure<1006.35999] yes=21,no=22,missing=21
				21:leaf=-0.0490909107
				22:leaf=0.100000001
			12:[pressure<1012.28003] yes=23,no=24,missing=23
				23:[windBearing<292] yes=37,no=38,missing=37
					37:[pressure<1009.39001] yes=65,no=66,missing=65
						65:leaf=0.447761208
						66:leaf=0.831451595
					38:leaf=-0.0454545468
				24:[pressure<1023.52002] yes=39,no=40,missing=39
					39:[visibility<11.1000004] yes=67,no=68,missing=67
						67:leaf=0.173015878
						68:leaf=0.302702725
					40:[clear<1] yes=69,no=70,missing=69
						69:leaf=0.466896534
						70:leaf=0.0894736871
		6:[hour_x<16] yes=13,no=14,missing=13
			13:[windSpeed<9.56000042] yes=25,no=26,missing=25
				25:[pressure<1027.33997] yes=41,no=42,missing=41
					41:[humidity<0.620000005] yes=71,no=72,missing=71
						71:leaf=1.65066659
						72:leaf=2.30559659
					42:[hour_x<9] yes=73,no=74,missing=73
						73:leaf=2
						74:leaf=2.5863502
				26:[dewPoint<5.51000023] yes=43,no=44,missing=43
					43:[dewPoint<2.1400001] yes=75,no=76,missing=75
						75:leaf=2.49083328
						76:leaf=1.66258514
					44:leaf=-0.0464285724
			14:[visibility<7.88999987] yes=27,no=28,missing=27
				27:[windGust<4.67000008] yes=45,no=46,missing=45
					45:[windBearing<52] yes=77,no=78,missing=77
						77:leaf=0.225000009
						78:leaf=0.908333302
					46:leaf=2.0328126
				28:[hour_x<17] yes=47,no=48,missing=47
					47:[windGust<3.30999994] yes=79,no=80,missing=79
						79:leaf=0.596875012
						80:leaf=1.29115045
					48:[cloudCover<0.709999979] yes=81,no=82,missing=81
						81:leaf=0.0520833321
						82:leaf=0.864516199
booster[1]:
0:[uvIndex<0.5] yes=1,no=2,missing=1
	1:[pressure<991.780029] yes=3,no=4,missing=4
		3:[weekday<1] yes=7,no=8,missing=7
			7:leaf=-0.042311199
			8:[windBearing<63] yes=15,no=16,missing=15
				15:leaf=1.97051299
				16:leaf=1.32821751
		4:[hour_x<7] yes=9,no=10,missing=9
			9:[apparentTemperature<2.27999997] yes=17,no=18,missing=18
				17:[windGust<4.36999989] yes=29,no=30,missing=29
					29:[humidity<0.829999983] yes=49,no=50,missing=50
						49:leaf=0.466152042
						50:leaf=0.0275769569
					30:[visibility<11.3000002] yes=51,no=52,missing=52
						51:leaf=0.279129118
						52:leaf=0.541374743
				18:[visibility<7.01999998] yes=31,no=32,missing=32
					31:[pressure<1000.81] yes=53,no=54,missing=53
						53:leaf=0.866606355
						54:leaf=0.111676432
					32:[windBearing<154] yes=55,no=56,missing=56
						55:leaf=0.106145337
						56:leaf=-0.000953219947
			10:[hour_x<17] yes=19,no=20,missing=19
				19:[weekday<1] yes=33,no=34,missing=33
					33:[windGust<13.5500002] yes=57,no=58,missing=58
						57:leaf=0.188284442
						58:leaf=0.670639515
					34:[hour_x<8] yes=59,no=60,missing=59
						59:leaf=0.81450218
						60:leaf=1.47352731
				20:[windSpeed<8.17000008] yes=35,no=36,missing=36
					35:[dewPoint<6.03999996] yes=61,no=62,missing=62
						61:leaf=0.197267458
						62:leaf=0.0295217074
					36:[pressure<1021.83002] yes=63,no=64,missing=64
						63:leaf=0.354791284
						64:leaf=1.05304158
	2:[weekday<1] yes=5,no=6,missing=5
		5:[pressure<1006.45001] yes=11,no=12,missing=11
			11:[pressure<1006.35999] yes=21,no=22,missing=21
				21:leaf=-0.0442722365
				22:leaf=0.0933333337
			12:[pressure<1012.28003] yes=23,no=24,missing=23
				23:[windBearing<292] yes=37,no=38,missing=38
					37:[pressure<1009.39001] yes=65,no=66,missing=65
						65:leaf=0.403653443
						66:leaf=0.749647558
					38:leaf=-0.0413228162
				24:[pressure<1023.52002] yes=39,no=40,missing=39
					39:[windSpeed<2.93000007] yes=67,no=68,missing=67
						67:leaf=0.00396123622
						68:leaf=0.218702435
					40:[clear<1] yes=69,no=70,missing=70
						69:leaf=0.420528948
						70:leaf=0.080996938
		6:[hour_x<16] yes=13,no=14,missing=13
			13:[windSpeed<9.07999992] yes=25,no=26,missing=26
				25:[pressure<1027.33997] yes=41,no=42,missing=41
					41:[humidity<0.620000005] yes=71,no=72,missing=72
						71:leaf=1.49609864
						72:leaf=2.08345366
					42:[hour_x<9] yes=73,no=74,missing=73
						73:leaf=1.80425513
						74:leaf=2.32848263
				26:[pressure<1005.88] yes=43,no=44,missing=43
					43:[hour_x<10] yes=75,no=76,missing=75
						75:leaf=1.48949373
						76:leaf=2.18925977
					44:[dewPoint<4.71999979] yes=77,no=78,missing=77
						77:leaf=1.38316166
						78:leaf=-0.0421173349
			14:[visibility<7.88999987] yes=27,no=28,missing=28
				27:[windGust<4.67000008] yes=45,no=46,missing=45
					45:[windBearing<71] yes=79,no=80,missing=80
						79:leaf=0.328888893
						80:leaf=0.88733387
					46:leaf=1.83588398
				28:[hour_x<17] yes=47,no=48,missing=47
					47:[windSpeed<1.94000006] yes=81,no=82,missing=82
						81:leaf=1.76543224
						82:leaf=1.00985503
					48:[cloudCover<0.75999999] yes=83,no=84,missing=83
						83:leaf=0.0752809271
						84:leaf=0.806184709
booster[2]:
0:[uvIndex<0.5] yes=1,no=2,missing=2
	1:[pressure<991.780029] yes=3,no=4,missing=3
		3:[weekday<1] yes=7,no=8,missing=8
			7:leaf=-0.0383620672
			8:[windBearing<75] yes=15,no=16,missing=15
				15:leaf=1.77065074
				16:leaf=1.1901747
		4:[hour_x<7] yes=9,no=10,missing=9
			9:[apparentTemperature<2.27999997] yes=17,no=18,missing=18
				17:[windGust<4.36999989] yes=29,no=30,missing=29
					29:[humidity<0.850000024] yes=49,no=50,missing=50
						49:leaf=0.299898177
						50:leaf=0.0133779319
					30:[windGust<11.1700001] yes=51,no=52,missing=51
						51:leaf=0.442671925
						52:leaf=0.213689789
				18:[visibility<7.01999998] yes=31,no=32,missing=32
					31:[pressure<1000.81] yes=53,no=54,missing=53
						53:leaf=0.786611974
						54:leaf=0.100626342
					32:[windBearing<154] yes=55,no=56,missing=56
						55:leaf=0.0955838785
						56:leaf=-0.00085796084
			10:[hour_x<17] yes=19,no=20,missing=19
				19:[weekday<1] yes=33,no=34,missing=33
					33:[windGust<13.5500002] yes=57,no=58,missing=57
						57:leaf=0.169680044
						58:leaf=0.608364046
					34:[hour_x<8] yes=59,no=60,missing=60
						59:leaf=0.733439803
						60:leaf=1.32682955
				20:[hour_x<18] yes=35,no=36,missing=35
					35:[humidity<0.629999995] yes=61,no=62,missing=61
						61:leaf=0.735524595
						62:leaf=0.329446524
					36:[weekend<1] yes=63,no=64,missing=64
						63:leaf=0.107679345
						64:leaf=0.264897555
	2:[weekday<1] yes=5,no=6,missing=5
		5:[pressure<1006.45001] yes=11,no=12,missing=12
			11:[pressure<1006.35999] yes=21,no=22,missing=21
				21:leaf=-0.0399243459
				22:leaf=0.087111108
			12:[pressure<1012.28003] yes=23,no=24,missing=23
				23:[windBearing<292] yes=37,no=38,missing=37
					37:[pressure<1008.75] yes=65,no=66,missing=66
						65:leaf=0.345444232
						66:leaf=0.660281539
					38:leaf=-0.0375656895
				24:[pressure<1023.52002] yes=39,no=40,missing=39
					39:[dewPoint<7.11999989] yes=67,no=68,missing=67
						67:leaf=0.153547093
						68:leaf=0.30715698
					40:[clear<1] yes=69,no=70,missing=69
						69:leaf=0.37876603
						70:leaf=0.0733238384
		6:[hour_x<16] yes=13,no=14,missing=13
			13:[windSpeed<8.98999977] yes=25,no=26,missing=26
				25:[pressure<1027.33997] yes=41,no=42,missing=41
					41:[windBearing<78] yes=71,no=72,missing=72
						71:leaf=2.23437381
						72:leaf=1.74941754
					42:[windBearing<17] yes=73,no=74,missing=74
						73:leaf=1.09865153
						74:leaf=2.06669402
				26:[pressure<1013.21002] yes=43,no=44,missing=43
					43:[dewPoint<2.1400001] yes=75,no=76,missing=75
						75:leaf=2.06084418
						76:leaf=1.40240467
					44:[apparentTemperature<2.27999997] yes=77,no=78,missing=77
						77:leaf=0.86360836
						78:leaf=-0.0382064544
			14:[visibility<7.88999987] yes=27,no=28,missing=27
				27:[windGust<4.67000008] yes=45,no=46,missing=45
					45:[windBearing<72] yes=79,no=80,missing=79
						79:leaf=0.372828543
						80:leaf=0.877824962
					46:[windBearing<306] yes=81,no=82,missing=81
						81:leaf=1.68044889
						82:leaf=0.481565207
				28:[hour_x<17] yes=47,no=48,missing=47
					47:[windSpeed<1.94000006] yes=83,no=84,missing=83
						83:leaf=1.60246933
						84:leaf=0.90974009
					48:[windSpeed<1.37] yes=85,no=86,missing=85
						85:leaf=0.934698999
						86:leaf=0.184243724
booster[3]:
0:[uvIndex<0.5] yes=1,no=2,missing=2
	1:[pressure<991.780029] yes=3,no=4,missing=3
		3:[weekday<1] yes=7,no=8,missing=7
			7:leaf=-0.0347823091
			8:[humidity<0.889999986] yes=15,no=16,missing=15
				15:leaf=1.68625605
				16:leaf=1.12364888
		4:[hour_x<7] yes=9,no=10,missing=9
			9:[apparentTemperature<1.88] yes=17,no=18,missing=17
				17:[dewPoint<3.02999997] yes=29,no=30,missing=30
					29:[visibility<11.7600002] yes=49,no=50,missing=49
						49:leaf=0.143883973
						50:leaf=0.442750216
					30:[pressure<1028.57996] yes=51,no=52,missing=51
						51:leaf=0.654580176
						52:leaf=0.141286537
				18:[precipIntensity<2.80669999] yes=31,no=32,missing=32
					31:[windGust<5.53999996] yes=53,no=54,missing=53
						53:leaf=-0.0109703941
						54:leaf=0.0837850347
					32:[weekday<1] yes=55,no=56,missing=55
						55:leaf=0.535670936
						56:leaf=0.173280329
			10:[hour_x<17] yes=19,no=20,missing=19
				19:[weekday<1] yes=33,no=34,missing=33
					33:[windGust<13.5500002] yes=57,no=58,missing=58
						57:leaf=0.152914152
						58:leaf=0.551873863
					34:[hour_x<8] yes=59,no=60,missing=59
						59:leaf=0.660445094
						60:leaf=1.19473624
				20:[windSpeed<8.17000008] yes=35,no=36,missing=36
					35:[dewPoint<6.03999996] yes=61,no=62,missing=61
						61:leaf=0.158526331
						62:leaf=0.0118620256
					36:[pressure<1021.83002] yes=63,no=64,missing=64
						63:leaf=0.298997015
						64:leaf=0.925111294
	2:[weekday<1] yes=5,no=6,missing=6
		5:[pressure<1006.45001] yes=11,no=12,missing=12
			11:[pressure<1006.35999] yes=21,no=22,missing=21
				21:leaf=-0.0360044986
				22:leaf=0.0813037008
			12:[pressure<1012.28003] yes=23,no=24,missing=23
				23:[windBearing<292] yes=37,no=38,missing=37
					37:[windSpeed<5.19999981] yes=65,no=66,missing=66
						65:leaf=0.236494288
						66:leaf=0.557924747
					38:leaf=-0.0341506302
				24:[pressure<1023.52002] yes=39,no=40,missing=39
					39:[windSpeed<2.93000007] yes=67,no=68,missing=67
						67:leaf=-0.0134532554
						68:leaf=0.179523334
					40:[cloudy<1] yes=69,no=70,missing=70
						69:leaf=0.094919771
						70:leaf=0.346070975
		6:[hour_x<16] yes=13,no=14,missing=13
			13:[windSpeed<8.98999977] yes=25,no=26,missing=26
				25:[hour_x<13] yes=41,no=42,missing=41
					41:[hour_x<9] yes=71,no=72,missing=72
						71:leaf=1.34882402
						72:leaf=1.83957231
					42:[pressure<1025.59998] yes=73,no=74,missing=73
						73:leaf=1.48271084
						74:leaf=1.80551183
				26:[pressure<1005.88] yes=43,no=44,missing=43
					43:[hour_x<10] yes=75,no=76,missing=76
						75:leaf=1.15830863
						76:leaf=1.79779422
					44:[dewPoint<4.71999979] yes=77,no=78,missing=78
						77:leaf=1.11364591
						78:leaf=-0.0346589573
			14:[visibility<7.88999987] yes=27,no=28,missing=27
				27:[windGust<4.67000008] yes=45,no=46,missing=45
					45:[windBearing<73] yes=79,no=80,missing=80
						79:leaf=0.392424911
						80:leaf=0.888434112
					46:[windBearing<241] yes=81,no=82,missing=81
						81:leaf=1.59142828
						82:leaf=0.941485822
				28:[hour_x<17] yes=47,no=48,missing=47
					47:[humidity<0.439999998] yes=83,no=84,missing=83
						83:leaf=1.6368233
						84:leaf=0.827046514
					48:[cloudCover<0.709999979] yes=85,no=86,missing=86
						85:leaf=0.012840216
						86:leaf=0.658250272
booster[4]:
0:[uvIndex<0.5] yes=1,no=2,missing=1
	1:[pressure<991.780029] yes=3,no=4,missing=4
		3:[weekday<1] yes=7,no=8,missing=7
			7:leaf=-0.031535238
			8:[windBearing<63] yes=15,no=16,missing=15
				15:leaf=1.46162879
				16:leaf=0.973017991
		4:[hour_x<7] yes=9,no=10,missing=9
			9:[apparentTemperature<1.88] yes=17,no=18,missing=18
				17:[dewPoint<3.02999997] yes=29,no=30,missing=29
					29:[visibility<11.7600002] yes=49,no=50,missing=49
						49:leaf=0.129533753
						50:leaf=0.399057776
					30:[windGust<16.3299999] yes=51,no=52,missing=51
						51:leaf=0.692161441
						52:leaf=0.396972299
				18:[precipIntensity<1.62559998] yes=31,no=32,missing=31
					31:[windSpeed<13.3599997] yes=53,no=54,missing=53
						53:leaf=0.0380470306
						54:leaf=0.273680419
					32:[weekday<1] yes=55,no=56,missing=56
						55:leaf=0.488799334
						56:leaf=0.166036606
			10:[hour_x<17] yes=19,no=20,missing=19
				19:[weekday<1] yes=33,no=34,missing=33
					33:[windGust<13.5500002] yes=57,no=58,missing=57
						57:leaf=0.137804762
						58:leaf=0.500627697
					34:[hour_x<8] yes=59,no=60,missing=59
						59:leaf=0.594714999
						60:leaf=1.07579362
				20:[windSpeed<8.17000008] yes=35,no=36,missing=35
					35:[pressure<1005.72998] yes=61,no=62,missing=61
						61:leaf=-0.0257633217
						62:leaf=0.136875778
					36:[pressure<1013.58002] yes=63,no=64,missing=63
						63:leaf=0.234369382
						64:leaf=0.688306093
	2:[weekday<1] yes=5,no=6,missing=5
		5:[pressure<1006.45001] yes=11,no=12,missing=12
			11:[pressure<1006.35999] yes=21,no=22,missing=21
				21:leaf=-0.032469511
				22:leaf=0.0758834556
			12:[pressure<1012.28003] yes=23,no=24,missing=23
				23:[windBearing<281] yes=37,no=38,missing=37
					37:[windSpeed<5.86000013] yes=65,no=66,missing=66
						65:leaf=0.270426482
						66:leaf=0.544261098
					38:[hour_x<10] yes=67,no=68,missing=67
						67:leaf=0.28726083
						68:leaf=-0.0472487211
				24:[pressure<1033.90002] yes=39,no=40,missing=39
					39:[windGust<10.9700003] yes=69,no=70,missing=69
						69:leaf=0.141260609
						70:leaf=0.274616897
					40:[hour_x<14] yes=71,no=72,missing=71
						71:leaf=0.437337697
						72:leaf=0.125849172
		6:[hour_x<16] yes=13,no=14,missing=13
			13:[windSpeed<8.98999977] yes=25,no=26,missing=25
				25:[visibility<5.55000019] yes=41,no=42,missing=42
					41:[windGust<14.8199997] yes=73,no=74,missing=73
						73:leaf=1.8969202
						74:leaf=0.191921428
					42:[pressure<1027.33997] yes=75,no=76,missing=75
						75:leaf=1.42074883
						76:leaf=1.66433835
				26:[dewPoint<2.74000001] yes=43,no=44,missing=43
					43:[apparentTemperature<3.8900001] yes=77,no=78,missing=77
						77:leaf=1.77640998
						78:leaf=0.946989357
					44:[dewPoint<5.51000023] yes=79,no=80,missing=80
						79:leaf=1.03076398
						80:leaf=-0.0314408317
			14:[visibility<7.88999987] yes=27,no=28,missing=27
				27:[windGust<4.67000008] yes=45,no=46,missing=45
					45:[windBearing<73] yes=81,no=82,missing=82
						81:leaf=0.361030906
						82:leaf=0.829205036
					46:[windBearing<241] yes=83,no=84,missing=83
						83:leaf=1.43840635
						84:leaf=0.860787094
				28:[hour_x<17] yes=47,no=48,missing=47
					47:[windSpeed<1.94000006] yes=85,no=86,missing=85
						85:leaf=1.37820673
						86:leaf=0.731974006
					48:[windSpeed<1.37] yes=87,no=88,missing=87
						87:leaf=0.796163738
						88:leaf=0.136180341
booster[5]:
0:[uvIndex<0.5] yes=1,no=2,missing=2
	1:[pressure<991.780029] yes=3,no=4,missing=3
		3:[weekday<1] yes=7,no=8,missing=8
			7:leaf=-0.0285919663
			8:[humidity<0.889999986] yes=15,no=16,missing=15
				15:leaf=1.38720798
				16:leaf=0.911894739
		4:[windSpeed<11.9399996] yes=9,no=10,missing=9
			9:[hour_x<7] yes=17,no=18,missing=17
				17:[apparentTemperature<2.27999997] yes=29,no=30,missing=30
					29:[windGust<4.36999989] yes=49,no=50,missing=49
						49:leaf=0.0191116519
						50:leaf=0.216201231
					30:[windBearing<135] yes=51,no=52,missing=52
						51:leaf=0.0972507298
						52:leaf=0.00302990014
				18:[hour_x<17] yes=31,no=32,missing=31
					31:[weekday<1] yes=53,no=54,missing=53
						53:leaf=0.154326186
						54:leaf=0.692339003
					32:[hour_x<18] yes=55,no=56,missing=56
						55:leaf=0.322556019
						56:leaf=0.099596791
			10:[dewPoint<1.47000003] yes=19,no=20,missing=19
				19:[temperature<7.88000011] yes=33,no=34,missing=33
					33:[dewPoint<0.980000019] yes=57,no=58,missing=58
						57:leaf=0.9769997
						58:leaf=0.374233246
					34:leaf=1.48391187
				20:[temperature<6.48999977] yes=35,no=36,missing=35
					35:[humidity<0.810000002] yes=59,no=60,missing=59
						59:leaf=1.57459033
						60:leaf=0.475230932
					36:[windBearing<309] yes=61,no=62,missing=61
						61:leaf=0.258852094
						62:leaf=0.820824265
	2:[weekday<1] yes=5,no=6,missing=6
		5:[pressure<1006.45001] yes=11,no=12,missing=11
			11:[pressure<1006.35999] yes=21,no=22,missing=22
				21:leaf=-0.0292815957
				22:leaf=0.0708247945
			12:[pressure<1012.28003] yes=23,no=24,missing=24
				23:[windBearing<281] yes=37,no=38,missing=37
					37:[windSpeed<5.19999981] yes=63,no=64,missing=63
						63:leaf=0.187136233
						64:leaf=0.462152392
					38:[hour_x<10] yes=65,no=66,missing=65
						65:leaf=0.27289778
						66:leaf=-0.0429175906
				24:[pressure<1023.52002] yes=39,no=40,missing=39
					39:[dewPoint<7.11999989] yes=67,no=68,missing=67
						67:leaf=0.099243626
						68:leaf=0.250326961
					40:[dewPoint<4.0999999] yes=69,no=70,missing=69
						69:leaf=0.306718856
						70:leaf=0.119655512
		6:[hour_x<16] yes=13,no=14,missing=13
			13:[windSpeed<8.98999977] yes=25,no=26,missing=25
				25:[visibility<9.94999981] yes=41,no=42,missing=41
					41:[hour_x<9] yes=71,no=72,missing=72
						71:leaf=0.659201562
						72:leaf=1.56712115
					42:[apparentTemperature<6.92999983] yes=73,no=74,missing=73
						73:leaf=1.10040748
						74:leaf=1.42826629
				26:[pressure<1005.88] yes=43,no=44,missing=43
					43:[pressure<1003.95001] yes=75,no=76,missing=75
						75:leaf=1.58109844
						76:leaf=1.21804881
					44:[windGust<17.5499992] yes=77,no=78,missing=77
						77:leaf=0.558464944
						78:leaf=1.15404058
			14:[visibility<8] yes=27,no=28,missing=28
				27:[windGust<4.67000008] yes=45,no=46,missing=45
					45:[windBearing<73] yes=79,no=80,missing=80
						79:leaf=0.332148433
						80:leaf=0.773924768
					46:leaf=1.2177155
				28:[humidity<0.439999998] yes=47,no=48,missing=48
					47:leaf=1.42626297
					48:[cloudCover<0.649999976] yes=81,no=82,missing=81
						81:leaf=0.106624924
						82:leaf=0.680925131
booster[6]:
0:[uvIndex<0.5] yes=1,no=2,missing=2
	1:[pressure<991.780029] yes=3,no=4,missing=3
		3:[weekday<1] yes=7,no=8,missing=7
			7:leaf=-0.0259232577
			8:[humidity<0.889999986] yes=15,no=16,missing=15
				15:leaf=1.25542247
				16:leaf=0.822984874
		4:[windSpeed<11.9399996] yes=9,no=10,missing=9
			9:[hour_x<7] yes=17,no=18,missing=17
				17:[apparentTemperature<2.27999997] yes=29,no=30,missing=30
					29:[windGust<4.36999989] yes=49,no=50,missing=49
						49:leaf=0.0172124039
						50:leaf=0.194641829
					30:[windSpeed<5.63000011] yes=51,no=52,missing=51
						51:leaf=0.00540428329
						52:leaf=0.101843134
				18:[hour_x<17] yes=31,no=32,missing=31
					31:[hour_x<8] yes=53,no=54,missing=53
						53:leaf=0.340169519
						54:leaf=0.732852161
					32:[humidity<0.790000021] yes=55,no=56,missing=55
						55:leaf=0.173251554
						56:leaf=0.0412763022
			10:[dewPoint<1.47000003] yes=19,no=20,missing=19
				19:[temperature<7.88000011] yes=33,no=34,missing=34
					33:[dewPoint<0.980000019] yes=57,no=58,missing=57
						57:leaf=0.893256843
						58:leaf=0.344294876
					34:[windSpeed<12.1800003] yes=59,no=60,missing=60
						59:leaf=0.67985487
						60:leaf=1.44594657
				20:[temperature<6.48999977] yes=35,no=36,missing=35
					35:[humidity<0.810000002] yes=61,no=62,missing=62
						61:leaf=1.42639363
						62:leaf=0.429774016
					36:[windGust<16.3299999] yes=63,no=64,missing=64
						63:leaf=0.591103673
						64:leaf=0.194160536
	2:[weekday<1] yes=5,no=6,missing=6
		5:[pressure<1006.45001] yes=11,no=12,missing=11
			11:[pressure<1006.35999] yes=21,no=22,missing=21
				21:leaf=-0.0264066998
				22:leaf=0.0661029071
			12:[pressure<1012.28003] yes=23,no=24,missing=23
				23:[pressure<1008.91998] yes=37,no=38,missing=37
					37:[humidity<0.680000007] yes=65,no=66,missing=65
						65:leaf=-0.0920414925
						66:leaf=0.256428063
					38:[windBearing<281] yes=67,no=68,missing=68
						67:leaf=0.449909031
						68:leaf=-0.0215435773
				24:[pressure<1033.90002] yes=39,no=40,missing=40
					39:[windGust<10.9700003] yes=69,no=70,missing=69
						69:leaf=0.10901048
						70:leaf=0.227096125
					40:[hour_x<14] yes=71,no=72,missing=72
						71:leaf=0.365687817
						72:leaf=0.0970111191
		6:[hour_x<16] yes=13,no=14,missing=13
			13:[windGust<10.6899996] yes=25,no=26,missing=25
				25:[dewPoint<2.28999996] yes=41,no=42,missing=42
					41:[temperature<6.48999977] yes=73,no=74,missing=73
						73:leaf=1.45817316
						74:leaf=0.496495545
					42:[windSpeed<2.98000002] yes=75,no=76,missing=76
						75:leaf=1.13661349
						76:leaf=1.38971221
				26:[dewPoint<2.77999997] yes=43,no=44,missing=43
					43:[temperature<9.31000042] yes=77,no=78,missing=77
						77:leaf=1.51120114
						78:leaf=0.739699304
					44:[windGust<12.21] yes=79,no=80,missing=79
						79:leaf=-0.706718624
						80:leaf=0.906008899
			14:[visibility<7.88999987] yes=27,no=28,missing=27
				27:[windGust<4.67000008] yes=45,no=46,missing=46
					45:[windBearing<73] yes=81,no=82,missing=81
						81:leaf=0.305576563
						82:leaf=0.722329557
					46:[windBearing<241] yes=83,no=84,missing=83
						83:leaf=1.18301034
						84:leaf=0.682629764
				28:[hour_x<17] yes=47,no=48,missing=47
					47:[windGust<3.30999994] yes=85,no=86,missing=85
						85:leaf=0.172497332
						86:leaf=0.723784387
					48:[windSpeed<1.37] yes=87,no=88,missing=87
						87:leaf=0.66727829
						88:leaf=0.0792898163
booster[7]:
0:[uvIndex<0.5] yes=1,no=2,missing=1
	1:[pressure<991.780029] yes=3,no=4,missing=4
		3:[weekday<1] yes=7,no=8,missing=7
			7:leaf=-0.0235038251
			8:[cloudCover<0.389999986] yes=15,no=16,missing=15
				15:leaf=1.32681382
				16:[windBearing<99] yes=29,no=30,missing=29
					29:leaf=0.902656496
					30:leaf=0.680361211
		4:[windSpeed<11.9399996] yes=9,no=10,missing=9
			9:[hour_x<7] yes=17,no=18,missing=17
				17:[apparentTemperature<2.27999997] yes=31,no=32,missing=32
					31:[visibility<11.5200005] yes=51,no=52,missing=51
						51:leaf=0.0897184312
						52:leaf=0.300721973
					32:[windBearing<199] yes=53,no=54,missing=54
						53:leaf=0.069716692
						54:leaf=-0.0113378447
				18:[hour_x<18] yes=33,no=34,missing=33
					33:[weekday<1] yes=55,no=56,missing=55
						55:leaf=0.121870451
						56:leaf=0.503959656
					34:[weekday<1] yes=57,no=58,missing=57
						57:leaf=0.180337653
						58:leaf=0.038336087
			10:[dewPoint<1.47000003] yes=19,no=20,missing=20
				19:[humidity<0.620000005] yes=35,no=36,missing=35
					35:leaf=1.33329201
					36:[weekday<1] yes=59,no=60,missing=60
						59:leaf=0.247378737
						60:leaf=0.819277108
				20:[temperature<6.48999977] yes=37,no=38,missing=38
					37:[humidity<0.810000002] yes=61,no=62,missing=61
						61:leaf=1.29214478
						62:leaf=0.388665289
					38:[windBearing<309] yes=63,no=64,missing=63
						63:leaf=0.205113605
						64:leaf=0.716143608
	2:[weekday<1] yes=5,no=6,missing=5
		5:[pressure<1006.45001] yes=11,no=12,missing=11
			11:[pressure<1006.35999] yes=21,no=22,missing=21
				21:leaf=-0.0238143094
				22:leaf=0.0616960488
			12:[pressure<1012.28003] yes=23,no=24,missing=23
				23:[pressure<1008.59003] yes=39,no=40,missing=40
					39:[humidity<0.689999998] yes=65,no=66,missing=66
						65:leaf=-0.0537451915
						66:leaf=0.228395984
					40:[windBearing<281] yes=67,no=68,missing=67
						67:leaf=0.39530316
						68:leaf=-0.0192259643
				24:[pressure<1023.52002] yes=41,no=42,missing=42
					41:[windSpeed<8.67000008] yes=69,no=70,missing=69
						69:leaf=0.127153322
						70:leaf=-0.00429015653
					42:[cloudy<1] yes=71,no=72,missing=71
						71:leaf=0.0251113679
						72:leaf=0.243082717
		6:[hour_x<16] yes=13,no=14,missing=13
			13:[windGust<10.6899996] yes=25,no=26,missing=25
				25:[dewPoint<2.28999996] yes=43,no=44,missing=44
					43:[temperature<6.48999977] yes=73,no=74,missing=73
						73:leaf=1.31677473
						74:leaf=0.447565556
					44:[hour_x<9] yes=75,no=76,missing=76
						75:leaf=0.798537254
						76:leaf=1.21805322
				26:[humidity<0.75999999] yes=45,no=46,missing=45
					45:[apparentTemperature<3.17000008] yes=77,no=78,missing=77
						77:leaf=1.38381004
						78:leaf=0.937993705
					46:[dewPoint<4.53999996] yes=79,no=80,missing=79
						79:leaf=0.760203779
						80:leaf=-0.503940105
			14:[visibility<7.88999987] yes=27,no=28,missing=27
				27:[windGust<4.90999985] yes=47,no=48,missing=48
					47:[windBearing<73] yes=81,no=82,missing=81
						81:leaf=0.281130463
						82:leaf=0.713101804
					48:[windBearing<238] yes=83,no=84,missing=83
						83:leaf=1.12239194
						84:leaf=0.652607501
				28:[humidity<0.439999998] yes=49,no=50,missing=49
					49:leaf=1.23514795
					50:[cloudCover<0.649999976] yes=85,no=86,missing=85
						85:leaf=0.0603604391
						86:leaf=0.557118833
booster[8]:
0:[uvIndex<0.5] yes=1,no=2,missing=1
	1:[pressure<991.780029] yes=3,no=4,missing=3
		3:[weekday<1] yes=7,no=8,missing=8
			7:leaf=-0.0213101916
			8:[humidity<0.75999999] yes=15,no=16,missing=15
				15:leaf=1.20887768
				16:[pressure<987.969971] yes=27,no=28,missing=27
					27:leaf=0.783857524
					28:leaf=0.575863957
		4:[windSpeed<12.3500004] yes=9,no=10,missing=9
			9:[hour_x<7] yes=17,no=18,missing=17
				17:[windGust<4.36999989] yes=29,no=30,missing=29
					29:[hour_x<6] yes=49,no=50,missing=49
						49:leaf=-0.0363707058
						50:leaf=0.123265855
					30:[temperature<3.6400001] yes=51,no=52,missing=51
						51:leaf=0.219569594
						52:leaf=0.0554827116
				18:[hour_x<18] yes=31,no=32,missing=31
					31:[cloudCover<0.779999971] yes=53,no=54,missing=53
						53:leaf=0.471846163
						54:leaf=0.112355702
					32:[weekday<1] yes=55,no=56,missing=55
						55:leaf=0.16236265
						56:leaf=0.0337007195
			10:[cloudCover<0.790000021] yes=19,no=20,missing=20
				19:[pressure<1008.03003] yes=33,no=34,missing=34
					33:[humidity<0.620000005] yes=57,no=58,missing=57
						57:leaf=1.38824487
						58:leaf=0.349665254
					34:[dewPoint<3] yes=59,no=60,missing=59
						59:leaf=1.16528594
						60:leaf=0.474036187
				20:[dewPoint<3.49000001] yes=35,no=36,missing=35
					35:[visibility<7.84000015] yes=61,no=62,missing=62
						61:leaf=-0.0932728574
						62:leaf=0.283321232
					36:[hour_x<4] yes=63,no=64,missing=63
						63:leaf=0.297671169
						64:leaf=-0.109278098
	2:[weekday<1] yes=5,no=6,missing=5
		5:[pressure<1006.35999] yes=11,no=12,missing=11
			11:leaf=-0.0214766357
			12:[pressure<1012.28003] yes=21,no=22,missing=21
				21:[apparentTemperature<2.01999998] yes=37,no=38,missing=37
					37:leaf=0.4015854
					38:[dewPoint<4.63000011] yes=65,no=66,missing=66
						65:leaf=-0.0761703178
						66:leaf=0.255202025
				22:[windBearing<134] yes=39,no=40,missing=39
					39:[apparentTemperature<10.0799999] yes=67,no=68,missing=68
						67:leaf=0.126539513
						68:leaf=-0.00170558656
					40:[pressure<1024.20996] yes=69,no=70,missing=69
						69:leaf=0.0934767872
						70:leaf=0.249102384
		6:[hour_x<16] yes=13,no=14,missing=13
			13:[pressure<1027.33997] yes=23,no=24,missing=24
				23:[windBearing<78] yes=41,no=42,missing=41
					41:[windBearing<45] yes=71,no=72,missing=72
						71:leaf=0.858553231
						72:leaf=1.31107509
					42:[cloudCover<0.200000003] yes=73,no=74,missing=74
						73:leaf=-0.0386538282
						74:leaf=0.883394539
				24:[cloudCover<0.720000029] yes=43,no=44,missing=44
					43:[windBearing<17] yes=75,no=76,missing=76
						75:leaf=0.308405846
						76:leaf=1.24791563
					44:[windSpeed<2.8900001] yes=77,no=78,missing=77
						77:leaf=0.511795461
						78:leaf=1.04240394
			14:[visibility<7.88999987] yes=25,no=26,missing=25
				25:[windGust<4.90999985] yes=45,no=46,missing=46
					45:[windBearing<73] yes=79,no=80,missing=79
						79:leaf=0.258640021
						80:leaf=0.653676748
					46:[windBearing<238] yes=81,no=82,missing=81
						81:leaf=1.01525462
						82:leaf=0.595504284
				26:[windSpeed<1.94000006] yes=47,no=48,missing=47
					47:[windSpeed<1.10000002] yes=83,no=84,missing=84
						83:leaf=0.206543252
						84:leaf=0.990455449
					48:[hour_x<17] yes=85,no=86,missing=85
						85:leaf=0.479308903
						86:leaf=0.0369326025
booster[9]:
0:[uvIndex<0.5] yes=1,no=2,missing=1
	1:[pressure<991.780029] yes=3,no=4,missing=3
		3:[weekday<1] yes=7,no=8,missing=8
			7:leaf=-0.0193212405
			8:[cloudCover<0.389999986] yes=15,no=16,missing=15
				15:leaf=1.10142338
				16:[windBearing<99] yes=29,no=30,missing=30
					29:leaf=0.741337895
					30:leaf=0.552615523
		4:[windSpeed<10.79] yes=9,no=10,missing=10
			9:[hour_x<6] yes=17,no=18,missing=17
				17:[windGust<4.36999989] yes=31,no=32,missing=31
					31:[weekday<1] yes=51,no=52,missing=52
						51:leaf=0.0193523001
						52:leaf=-0.0488640033
					32:[temperature<5.38000011] yes=53,no=54,missing=53
						53:leaf=0.178916752
						54:leaf=0.0205423441
				18:[hour_x<18] yes=33,no=34,missing=33
					33:[hour_x<8] yes=55,no=56,missing=55
						55:leaf=0.170478329
						56:leaf=0.429239422
					34:[weekend<1] yes=57,no=58,missing=58
						57:leaf=0.0258619525
						58:leaf=0.141413361
			10:[cloudCover<0.460000008] yes=19,no=20,missing=19
				19:[windSpeed<14.21] yes=35,no=36,missing=35
					35:[visibility<10.6499996] yes=59,no=60,missing=60
						59:leaf=0.652201712
						60:leaf=1.23093879
					36:leaf=0.162603602
				20:[windBearing<271] yes=37,no=38,missing=37
					37:[apparentTemperature<11.7200003] yes=61,no=62,missing=61
						61:leaf=0.202420905
						62:leaf=-0.128113419
					38:[humidity<0.839999974] yes=63,no=64,missing=63
						63:leaf=0.554445565
						64:leaf=-0.0198528897
	2:[weekday<1] yes=5,no=6,missing=5
		5:[pressure<1006.45001] yes=11,no=12,missing=11
			11:[windBearing<84] yes=21,no=22,missing=21
				21:leaf=0.0405697264
				22:leaf=-0.0193672683
			12:[pressure<1012.28003] yes=23,no=24,missing=23
				23:[pressure<1009.39001] yes=39,no=40,missing=40
					39:[hour_x<15] yes=65,no=66,missing=65
						65:leaf=0.196721047
						66:leaf=-0.0174596347
					40:[visibility<11.0600004] yes=67,no=68,missing=67
						67:leaf=0.382761776
						68:leaf=0.132379681
				24:[pressure<1033.90002] yes=41,no=42,missing=41
					41:[windGust<10.9700003] yes=69,no=70,missing=70
						69:leaf=0.0698653683
						70:leaf=0.17321299
					42:[hour_x<14] yes=71,no=72,missing=71
						71:leaf=0.283985704
						72:leaf=0.0618169792
		6:[hour_x<16] yes=13,no=14,missing=14
			13:[windSpeed<8.98999977] yes=25,no=26,missing=25
				25:[hour_x<13] yes=43,no=44,missing=44
					43:[hour_x<9] yes=73,no=74,missing=74
						73:leaf=0.64972192
						74:leaf=1.02259266
					44:[windBearing<283] yes=75,no=76,missing=76
						75:leaf=0.859658897
						76:leaf=0.507205665
				26:[pressure<1011.77002] yes=45,no=46,missing=45
					45:[visibility<10.4300003] yes=77,no=78,missing=77
						77:leaf=1.10574853
						78:leaf=0.606776416
					46:[windGust<17.6800003] yes=79,no=80,missing=79
						79:leaf=0.136734784
						80:leaf=0.608893335
			14:[pressure<1002.29999] yes=27,no=28,missing=27
				27:[windBearing<304] yes=47,no=48,missing=47
					47:[windSpeed<1.10000002] yes=81,no=82,missing=82
						81:leaf=0.326265603
						82:leaf=0.949430943
					48:[apparentTemperature<1.47000003] yes=83,no=84,missing=83
						83:leaf=0.193929598
						84:leaf=0.547127068
				28:[windSpeed<4.25] yes=49,no=50,missing=49
					49:[apparentTemperature<12.7200003] yes=85,no=86,missing=85
						85:leaf=0.397940189
						86:leaf=0.820930958
					50:[pressure<1017.39001] yes=87,no=88,missing=87
						87:leaf=0.595843792
						88:leaf=0.018911941
booster[10]:
0:[uvIndex<0.5] yes=1,no=2,missing=1
	1:[pressure<991.780029] yes=3,no=4,missing=4
		3:[weekday<1] yes=7,no=8,missing=7
			7:leaf=-0.0175179038
			8:[cloudCover<0.389999986] yes=15,no=16,missing=15
				15:leaf=1.00351453
				16:[windBearing<99] yes=29,no=30,missing=29
					29:leaf=0.670427263
					30:leaf=0.499259561
		4:[windSpeed<8.35000038] yes=9,no=10,missing=9
			9:[hour_x<6] yes=17,no=18,missing=17
				17:[windGust<11.21] yes=31,no=32,missing=32
					31:[pressure<1011.77002] yes=51,no=52,missing=51
						51:leaf=0.234859332
						52:leaf=0.00617440324
					32:[humidity<0.819999993] yes=53,no=54,missing=54
						53:leaf=0.0388191119
						54:leaf=-0.225752756
				18:[hour_x<17] yes=33,no=34,missing=33
					33:[hour_x<8] yes=55,no=56,missing=55
						55:leaf=0.152852356
						56:leaf=0.559909105
					34:[dewPoint<6.03999996] yes=57,no=58,missing=57
						57:leaf=0.0778731033
						58:leaf=-0.0524631217
			10:[pressure<1022.89001] yes=19,no=20,missing=19
				19:[windSpeed<13.3599997] yes=35,no=36,missing=35
					35:[visibility<6.69000006] yes=59,no=60,missing=60
						59:leaf=0.39917323
						60:leaf=0.104861163
					36:[windSpeed<14.21] yes=61,no=62,missing=61
						61:leaf=0.62831986
						62:leaf=0.222122818
				20:[pressure<1024.87] yes=37,no=38,missing=37
					37:[windGust<12.6300001] yes=63,no=64,missing=64
						63:leaf=1.04134977
						64:leaf=0.496423155
					38:leaf=0.564390957
	2:[weekday<1] yes=5,no=6,missing=5
		5:[pressure<1006.45001] yes=11,no=12,missing=11
			11:[pressure<1006.35999] yes=21,no=22,missing=21
				21:leaf=-0.0174663644
				22:leaf=0.0378648527
			12:[clear<1] yes=23,no=24,missing=23
				23:[windGust<6.53999996] yes=39,no=40,missing=40
					39:[hour_x<15] yes=65,no=66,missing=65
						65:leaf=0.150133938
						66:leaf=-0.0203953907
					40:[humidity<0.649999976] yes=67,no=68,missing=68
						67:leaf=0.140924945
						68:leaf=0.292047501
				24:[dewPoint<2.97000003] yes=41,no=42,missing=41
					41:[windBearing<233] yes=69,no=70,missing=69
						69:leaf=0.00985842571
						70:leaf=-0.0605953708
					42:leaf=0.0630108416
		6:[hour_x<16] yes=13,no=14,missing=14
			13:[pressure<1028.34998] yes=25,no=26,missing=25
				25:[visibility<9.94999981] yes=43,no=44,missing=43
					43:[pressure<1011.77002] yes=71,no=72,missing=71
						71:leaf=1.04229379
						72:leaf=0.756375134
					44:[hour_x<13] yes=73,no=74,missing=73
						73:leaf=0.735848963
						74:leaf=0.52268976
				26:[cloudCover<0.720000029] yes=45,no=46,missing=46
					45:[windBearing<309] yes=75,no=76,missing=75
						75:leaf=1.08088291
						76:leaf=0.367730886
					46:[windGust<5.73999977] yes=77,no=78,missing=77
						77:leaf=0.596863449
						78:leaf=1.10302007
			14:[pressure<1002.29999] yes=27,no=28,missing=28
				27:[windBearing<304] yes=47,no=48,missing=47
					47:[windSpeed<1.10000002] yes=79,no=80,missing=79
						79:leaf=0.300164402
						80:leaf=0.857279956
					48:[apparentTemperature<1.47000003] yes=81,no=82,missing=81
						81:leaf=0.176028386
						82:leaf=0.499253482
				28:[humidity<0.430000007] yes=49,no=50,missing=50
					49:[cloudCover<0.00999999978] yes=83,no=84,missing=83
						83:leaf=0.261750907
						84:leaf=1.13443053
					50:[cloudCover<0.730000019] yes=85,no=86,missing=85
						85:leaf=0.0825833678
						86:leaf=0.427726597
booster[11]:
0:[uvIndex<0.5] yes=1,no=2,missing=1
	1:[hour_x<7] yes=3,no=4,missing=4
		3:[apparentTemperature<1.62] yes=7,no=8,missing=8
			7:[visibility<11.8900003] yes=15,no=16,missing=15
				15:[dewPoint<3.02999997] yes=31,no=32,missing=32
					31:[apparentTemperature<-4.17999983] yes=61,no=62,missing=61
						61:leaf=0.407623976
						62:leaf=0.0304974671
					32:[hour_x<5] yes=63,no=64,missing=63
						63:leaf=0.516877592
						64:leaf=0.182080671
				16:[windGust<10.1700001] yes=33,no=34,missing=33
					33:[windBearing<175] yes=65,no=66,missing=65
						65:leaf=0.91148752
						66:leaf=0.526075721
					34:[pressure<998.330017] yes=67,no=68,missing=67
						67:leaf=-0.179383069
						68:leaf=0.233228371
			8:[dewPoint<7.92999983] yes=17,no=18,missing=17
				17:[pressure<1001.12] yes=35,no=36,missing=35
					35:[visibility<8.93000031] yes=69,no=70,missing=69
						69:leaf=0.541537464
						70:leaf=-0.0563411713
					36:[pressure<1024.93005] yes=71,no=72,missing=71
						71:leaf=-0.0138436956
						72:leaf=0.0729207918
				18:[visibility<0.5] yes=37,no=38,missing=37
					37:leaf=0.280233264
					38:[visibility<11.46] yes=73,no=74,missing=73
						73:leaf=-0.0896490812
						74:leaf=0.0113872485
		4:[hour_x<17] yes=9,no=10,missing=9
			9:[weekday<1] yes=19,no=20,missing=20
				19:[dewPoint<0.469999999] yes=39,no=40,missing=39
					39:[pressure<1021.89001] yes=75,no=76,missing=75
						75:leaf=-0.255304486
						76:leaf=0.0187364221
					40:[dewPoint<3.1400001] yes=77,no=78,missing=77
						77:leaf=0.138685569
						78:leaf=-0.0731882378
				20:[cloudCover<0.790000021] yes=41,no=42,missing=41
					41:[hour_x<8] yes=79,no=80,missing=80
						79:leaf=0.320345223
						80:leaf=0.778083324
					42:[windGust<14.2200003] yes=81,no=82,missing=81
						81:leaf=-0.172955796
						82:leaf=0.585929394
			10:[pressure<988.820007] yes=21,no=22,missing=22
				21:leaf=0.561308563
				22:[windSpeed<7.86999989] yes=43,no=44,missing=43
					43:[windBearing<145] yes=83,no=84,missing=84
						83:leaf=0.112916961
						84:leaf=0.000184548204
					44:[visibility<11.3599997] yes=85,no=86,missing=85
						85:leaf=0.265707165
						86:leaf=-0.0366924852
	2:[weekday<1] yes=5,no=6,missing=5
		5:[pressure<1007.35999] yes=11,no=12,missing=12
			11:[windBearing<90] yes=23,no=24,missing=23
				23:[windGust<8.43999958] yes=45,no=46,missing=45
					45:[apparentTemperature<4.36999989] yes=87,no=88,missing=87
						87:leaf=0.0255003925
						88:leaf=0.135282263
					46:leaf=0.0461014621
				24:[humidity<0.720000029] yes=47,no=48,missing=47
					47:leaf=-0.214630872
					48:leaf=-0.0157508757
			12:[pressure<1012.28003] yes=25,no=26,missing=25
				25:[windSpeed<5.17000008] yes=49,no=50,missing=50
					49:[hour_x<14] yes=89,no=90,missing=90
						89:leaf=0.141604707
						90:leaf=-0.0496977381
					50:[windBearing<292] yes=91,no=92,missing=91
						91:leaf=0.284878969
						92:leaf=-0.0339516662
				26:[pressure<1023.52002] yes=51,no=52,missing=52
					51:[dewPoint<7.11999989] yes=93,no=94,missing=93
						93:leaf=0.0245026816
						94:leaf=0.175035954
					52:[windGust<11.04] yes=95,no=96,missing=96
						95:leaf=0.0990655646
						96:leaf=0.238676175
		6:[hour_x<16] yes=13,no=14,missing=13
			13:[windGust<10.6899996] yes=27,no=28,missing=28
				27:[dewPoint<2.28999996] yes=53,no=54,missing=54
					53:[temperature<6.48999977] yes=97,no=98,missing=98
						97:leaf=0.914293587
						98:leaf=0.163459554
					54:[hour_x<9] yes=99,no=100,missing=100
						99:leaf=0.48182413
						100:leaf=0.824056149
				28:[humidity<0.75999999] yes=55,no=56,missing=55
					55:[temperature<9.68999958] yes=101,no=102,missing=101
						101:leaf=0.900690556
						102:leaf=0.540871441
					56:[windSpeed<6.6500001] yes=103,no=104,missing=104
						103:leaf=-1.07067466
						104:leaf=0.348527879
			14:[visibility<8] yes=29,no=30,missing=30
				29:[hour_x<17] yes=57,no=58,missing=58
					57:[windBearing<241] yes=105,no=106,missing=106
						105:leaf=0.813840389
						106:leaf=0.422891915
					58:[apparentTemperature<7.21999979] yes=107,no=108,missing=107
						107:leaf=0.542833984
						108:leaf=0.171895444
				30:[humidity<0.430000007] yes=59,no=60,missing=59
					59:[cloudCover<0.00999999978] yes=109,no=110,missing=110
						109:leaf=0.24866353
						110:leaf=1.03719413
					60:[windSpeed<1.94000006] yes=111,no=112,missing=111
						111:leaf=0.624419034
						112:leaf=0.219829708
booster[12]:
0:[uvIndex<0.5] yes=1,no=2,missing=1
	1:[pressure<991.780029] yes=3,no=4,missing=3
		3:[weekday<1] yes=7,no=8,missing=8
			7:[hour_x<9] yes=15,no=16,missing=15
				15:leaf=-0.00848626532
				16:leaf=-0.0365518443
			8:[visibility<4.63000011] yes=17,no=18,missing=17
				17:leaf=0.931916237
				18:[windBearing<99] yes=31,no=32,missing=32
					31:leaf=0.566341937
					32:leaf=0.40025267
		4:[windSpeed<6.78999996] yes=9,no=10,missing=9
			9:[windBearing<175] yes=19,no=20,missing=19
				19:[apparentTemperature<12.4899998] yes=33,no=34,missing=34
					33:[temperature<3.56999993] yes=57,no=58,missing=58
						57:leaf=0.395275652
						58:leaf=0.0913378149
					34:[pressure<1027.46997] yes=59,no=60,missing=59
						59:leaf=1.07963932
						60:leaf=0.516585827
				20:[dewPoint<4.34000015] yes=35,no=36,missing=36
					35:[hour_x<7] yes=61,no=62,missing=62
						61:leaf=0.0207894053
						62:leaf=0.151694298
					36:[pressure<1030.98999] yes=63,no=64,missing=63
						63:leaf=-0.104907408
						64:leaf=0.109173231
			10:[pressure<1022.89001] yes=21,no=22,missing=21
				21:[weekday<1] yes=37,no=38,missing=37
					37:[windGust<9.15999985] yes=65,no=66,missing=65
						65:leaf=0.467645854
						66:leaf=-0.0344715826
					38:[apparentTemperature<0.910000026] yes=67,no=68,missing=67
						67:leaf=0.387071759
						68:leaf=0.135527179
				22:[clear<1] yes=39,no=40,missing=39
					39:[hour_x<21] yes=69,no=70,missing=69
						69:leaf=0.55927974
						70:leaf=-0.092716746
					40:leaf=1.50265539
	2:[weekday<1] yes=5,no=6,missing=5
		5:[pressure<1007.35999] yes=11,no=12,missing=12
			11:[windBearing<90] yes=23,no=24,missing=23
				23:[windGust<8.43999958] yes=41,no=42,missing=42
					41:[apparentTemperature<4.36999989] yes=71,no=72,missing=71
						71:leaf=0.0242254268
						72:leaf=0.123257197
					42:leaf=0.0426438451
				24:[pressure<1006.35999] yes=43,no=44,missing=44
					43:leaf=-0.0142044267
					44:leaf=-0.200322136
			12:[pressure<1012.28003] yes=25,no=26,missing=25
				25:[apparentTemperature<10.3400002] yes=45,no=46,missing=45
					45:[windSpeed<5.55999994] yes=73,no=74,missing=74
						73:leaf=0.128281936
						74:leaf=0.298043996
					46:[dewPoint<5.30000019] yes=75,no=76,missing=75
						75:leaf=-0.0491096042
						76:leaf=0.188610241
				26:[pressure<1033.81995] yes=47,no=48,missing=48
					47:[windGust<10.9700003] yes=77,no=78,missing=77
						77:leaf=0.0368354581
						78:leaf=0.126762837
					48:[uvIndex<1.5] yes=79,no=80,missing=80
						79:leaf=0.118616238
						80:leaf=0.249400333
		6:[hour_x<16] yes=13,no=14,missing=13
			13:[windSpeed<8.98999977] yes=27,no=28,missing=27
				27:[hour_x<13] yes=49,no=50,missing=49
					49:[apparentTemperature<7] yes=81,no=82,missing=82
						81:leaf=0.625846207
						82:leaf=0.814540386
					50:[humidity<0.579999983] yes=83,no=84,missing=83
						83:leaf=0.799010217
						84:leaf=0.535560966
				28:[pressure<1011.77002] yes=51,no=52,missing=51
					51:[apparentTemperature<3.17000008] yes=85,no=86,missing=85
						85:leaf=0.886047184
						86:leaf=0.451102734
					52:[windGust<17.6800003] yes=87,no=88,missing=88
						87:leaf=0.0119330129
						88:leaf=0.42009005
			14:[hour_x<17] yes=29,no=30,missing=29
				29:[pressure<1002.29999] yes=53,no=54,missing=54
					53:[windSpeed<9.14000034] yes=89,no=90,missing=89
						89:leaf=0.731906116
						90:leaf=0.132062152
					54:[windSpeed<1.94000006] yes=91,no=92,missing=91
						91:leaf=1.00168741
						92:leaf=0.304964721
				30:[cloudCover<0.709999979] yes=55,no=56,missing=56
					55:[pressure<1025.18005] yes=93,no=94,missing=93
						93:leaf=-0.0866839811
						94:leaf=-0.301121116
					56:[dewPoint<4.82999992] yes=95,no=96,missing=95
						95:leaf=0.37898609
						96:leaf=0.122638561
booster[13]:
0:[uvIndex<0.5] yes=1,no=2,missing=1
	1:[hour_x<7] yes=3,no=4,missing=3
		3:[windGust<4.36999989] yes=7,no=8,missing=7
			7:[hour_x<6] yes=15,no=16,missing=15
				15:[weekday<1] yes=31,no=32,missing=32
					31:[humidity<0.829999983] yes=61,no=62,missing=61
						61:leaf=0.106555104
						62:leaf=-0.0216533057
					32:[visibility<9.96000004] yes=63,no=64,missing=64
						63:leaf=-0.02129828
						64:leaf=-0.0715684816
				16:[humidity<0.850000024] yes=33,no=34,missing=34
					33:[apparentTemperature<1.62] yes=65,no=66,missing=65
						65:leaf=0.311730713
						66:leaf=-0.0152015015
					34:[dewPoint<-0.540000021] yes=67,no=68,missing=67
						67:leaf=-0.105110779
						68:leaf=0.0444098786
			8:[dewPoint<4.53999996] yes=17,no=18,missing=17
				17:[windGust<11.21] yes=35,no=36,missing=35
					35:[temperature<3.56999993] yes=69,no=70,missing=69
						69:leaf=0.374460131
						70:leaf=0.0840483904
					36:[dewPoint<2.5999999] yes=71,no=72,missing=71
						71:leaf=-0.0476208404
						72:leaf=0.224485829
				18:[visibility<3.1500001] yes=37,no=38,missing=37
					37:[windGust<5.69000006] yes=73,no=74,missing=73
						73:leaf=0.172862053
						74:leaf=0.472387642
					38:[visibility<6.9000001] yes=75,no=76,missing=75
						75:leaf=0.108291999
						76:leaf=-0.0419195704
		4:[hour_x<17] yes=9,no=10,missing=10
			9:[weekday<1] yes=19,no=20,missing=19
				19:[dewPoint<0.469999999] yes=39,no=40,missing=40
					39:[pressure<1021.89001] yes=77,no=78,missing=77
						77:leaf=-0.235690579
						78:leaf=-0.00226579304
					40:[windGust<10.5900002] yes=79,no=80,missing=80
						79:leaf=-0.0448494367
						80:leaf=0.174210459
				20:[windBearing<272] yes=41,no=42,missing=42
					41:[cloudCover<0.769999981] yes=81,no=82,missing=81
						81:leaf=0.424227297
						82:leaf=0.00231113867
					42:[hour_x<8] yes=83,no=84,missing=83
						83:leaf=0.460661858
						84:leaf=0.972386956
			10:[pressure<988.820007] yes=21,no=22,missing=22
				21:leaf=0.458067149
				22:[visibility<10.54] yes=43,no=44,missing=44
					43:[windSpeed<8.25] yes=85,no=86,missing=85
						85:leaf=0.0579506159
						86:leaf=0.276446164
					44:[apparentTemperature<-3.13000011] yes=87,no=88,missing=88
						87:leaf=0.357851833
						88:leaf=-0.0138094947
	2:[weekday<1] yes=5,no=6,missing=5
		5:[pressure<1007.35999] yes=11,no=12,missing=11
			11:[windBearing<90] yes=23,no=24,missing=24
				23:[pressure<1006.45001] yes=45,no=46,missing=45
					45:leaf=0.0294241756
					46:[apparentTemperature<4.36999989] yes=89,no=90,missing=89
						89:leaf=0.0230141636
						90:leaf=0.10802187
				24:[humidity<0.720000029] yes=47,no=48,missing=47
					47:leaf=-0.186972588
					48:leaf=-0.0128098102
			12:[cloudCover<0.230000004] yes=25,no=26,missing=25
				25:[dewPoint<2.97000003] yes=49,no=50,missing=49
					49:[windGust<10.79] yes=91,no=92,missing=91
						91:leaf=-0.0680886656
						92:leaf=-0.0041115405
					50:leaf=0.0530652516
				26:[windBearing<138] yes=51,no=52,missing=51
					51:[humidity<0.699999988] yes=93,no=94,missing=93
						93:leaf=0.0331820659
						94:leaf=0.148106292
					52:[temperature<8.39000034] yes=95,no=96,missing=95
						95:leaf=0.229145393
						96:leaf=0.118462875
		6:[hour_x<16] yes=13,no=14,missing=13
			13:[visibility<9.94999981] yes=27,no=28,missing=27
				27:[hour_x<9] yes=53,no=54,missing=54
					53:[windSpeed<5.30999994] yes=97,no=98,missing=97
						97:leaf=0.7943905
						98:leaf=-0.669607103
					54:[windGust<15.8299999] yes=99,no=100,missing=99
						99:leaf=0.739130676
						100:leaf=0.522035778
				28:[pressure<1025.59998] yes=55,no=56,missing=55
					55:[hour_x<13] yes=101,no=102,missing=102
						101:leaf=0.552002609
						102:leaf=0.283983439
					56:[windSpeed<2.8900001] yes=103,no=104,missing=103
						103:leaf=0.425888985
						104:leaf=0.731509626
			14:[visibility<7.88999987] yes=29,no=30,missing=30
				29:[apparentTemperature<7.26000023] yes=57,no=58,missing=57
					57:[windBearing<306] yes=105,no=106,missing=105
						105:leaf=0.636813462
						106:leaf=0.099891521
					58:[apparentTemperature<10.71] yes=107,no=108,missing=107
						107:leaf=0.175854772
						108:leaf=0.523076773
				30:[humidity<0.439999998] yes=59,no=60,missing=59
					59:[cloudCover<0.180000007] yes=109,no=110,missing=109
						109:leaf=0.334909409
						110:leaf=0.922151268
					60:[cloudCover<0.649999976] yes=111,no=112,missing=111
						111:leaf=-0.0360607728
						112:leaf=0.299350441
booster[14]:
0:[uvIndex<0.5] yes=1,no=2,missing=1
	1:[dewPoint<8.90999985] yes=3,no=4,missing=3
		3:[windGust<5.15999985] yes=7,no=8,missing=8
			7:[precipIntensity<0.175300002] yes=15,no=16,missing=15
				15:[temperature<4.23000002] yes=31,no=32,missing=31
					31:[hour_x<8] yes=61,no=62,missing=61
						61:leaf=0.013664647
						62:leaf=0.687598288
					32:[apparentTemperature<15.6800003] yes=63,no=64,missing=63
						63:leaf=-0.0468740873
						64:leaf=0.574917734
				16:[dewPoint<3.3599999] yes=33,no=34,missing=33
					33:[windGust<3.30999994] yes=65,no=66,missing=65
						65:leaf=0.623600006
						66:leaf=0.395225853
					34:[precipProbability<0.629999995] yes=67,no=68,missing=67
						67:leaf=0.568781555
						68:leaf=-0.0226867478
			8:[hour_x<7] yes=17,no=18,missing=18
				17:[windBearing<102] yes=35,no=36,missing=35
					35:[dewPoint<5.40999985] yes=69,no=70,missing=69
						69:leaf=-0.122566544
						70:leaf=0.0841467232
					36:[pressure<995.799988] yes=71,no=72,missing=72
						71:leaf=0.582683563
						72:leaf=0.0625372455
				18:[hour_x<18] yes=37,no=38,missing=37
					37:[cloudCover<0.790000021] yes=73,no=74,missing=73
						73:leaf=0.395375073
						74:leaf=0.0185426474
					38:[pressure<1025.12] yes=75,no=76,missing=76
						75:leaf=0.0328712016
						76:leaf=0.189276785
		4:[humidity<0.75] yes=9,no=10,missing=9
			9:[hour_x<17] yes=19,no=20,missing=19
				19:leaf=-0.766568303
				20:[windGust<7.42999983] yes=39,no=40,missing=39
					39:leaf=-0.0629505292
					40:leaf=-0.26938501
			10:[apparentTemperature<11.5100002] yes=21,no=22,missing=21
				21:[visibility<11.1199999] yes=41,no=42,missing=42
					41:leaf=-0.0685834363
					42:[cloudCover<0.819999993] yes=77,no=78,missing=78
						77:leaf=-0.0270907618
						78:leaf=-0.00191842322
				22:[windGust<17.5499992] yes=43,no=44,missing=44
					43:[cloudCover<0.529999971] yes=79,no=80,missing=79
						79:leaf=-0.0281293187
						80:leaf=-0.0924458802
					44:[weekday<1] yes=81,no=82,missing=82
						81:leaf=-0.0630125031
						82:leaf=-0.167338893
	2:[weekday<1] yes=5,no=6,missing=6
		5:[pressure<1007.35999] yes=11,no=12,missing=11
			11:[windBearing<90] yes=23,no=24,missing=23
				23:[windGust<8.43999958] yes=45,no=46,missing=45
					45:[cloudCover<0.75] yes=83,no=84,missing=83
						83:leaf=0.102921166
						84:leaf=0.0208640825
					46:leaf=0.0352738015
				24:[humidity<0.720000029] yes=47,no=48,missing=47
					47:leaf=-0.174502477
					48:leaf=-0.0115521206
			12:[pressure<1012.28003] yes=25,no=26,missing=26
				25:[windSpeed<5.19999981] yes=49,no=50,missing=49
					49:[hour_x<17] yes=85,no=86,missing=86
						85:leaf=0.0770030767
						86:leaf=-0.154910922
					50:[windBearing<292] yes=87,no=88,missing=87
						87:leaf=0.21887064
						88:leaf=-0.0371699892
				26:[windBearing<258] yes=51,no=52,missing=51
					51:[temperature<9.35999966] yes=89,no=90,missing=90
						89:leaf=0.0835304186
						90:leaf=-0.00444230763
					52:[uvIndex<2.5] yes=91,no=92,missing=91
						91:leaf=0.182239234
						92:leaf=0.0121042766
		6:[hour_x<16] yes=13,no=14,missing=13
			13:[visibility<9.94999981] yes=27,no=28,missing=27
				27:[pressure<1011.77002] yes=53,no=54,missing=53
					53:[windGust<6.13000011] yes=93,no=94,missing=94
						93:leaf=0.377228916
						94:leaf=0.767520607
					54:[apparentTemperature<4.30999994] yes=95,no=96,missing=95
						95:leaf=0.0590215921
						96:leaf=0.576739967
				28:[pressure<1025.59998] yes=55,no=56,missing=55
					55:[cloudCover<0.200000003] yes=97,no=98,missing=98
						97:leaf=-0.29545328
						98:leaf=0.418317884
					56:[windSpeed<2.93000007] yes=99,no=100,missing=100
						99:leaf=0.397916645
						100:leaf=0.6640715
			14:[hour_x<17] yes=29,no=30,missing=29
				29:[pressure<1017.39001] yes=57,no=58,missing=58
					57:[windSpeed<9.14000034] yes=101,no=102,missing=101
						101:leaf=0.549022377
						102:leaf=-0.00193484162
					58:[windSpeed<6.05999994] yes=103,no=104,missing=103
						103:leaf=0.295179456
						104:leaf=-0.718535006
				30:[cloudCover<0.75999999] yes=59,no=60,missing=59
					59:[pressure<1025.18005] yes=105,no=106,missing=106
						105:leaf=-0.0718817413
						106:leaf=-0.278642356
					60:[dewPoint<4.82999992] yes=107,no=108,missing=107
						107:leaf=0.325471729
						108:leaf=0.0771021321
booster[15]:
0:[uvIndex<0.5] yes=1,no=2,missing=1
	1:[dewPoint<8.90999985] yes=3,no=4,missing=4
		3:[windGust<5.19000006] yes=7,no=8,missing=7
			7:[precipIntensity<0.175300002] yes=15,no=16,missing=16
				15:[temperature<4.23000002] yes=31,no=32,missing=31
					31:[hour_x<8] yes=61,no=62,missing=62
						61:leaf=0.0166964754
						62:leaf=0.620601594
					32:[apparentTemperature<12.6300001] yes=63,no=64,missing=63
						63:leaf=-0.0479454771
						64:leaf=0.30847618
				16:[dewPoint<3.3599999] yes=33,no=34,missing=33
					33:[pressure<1004.13] yes=65,no=66,missing=66
						65:leaf=0.346761435
						66:leaf=0.553046167
					34:[precipProbability<0.629999995] yes=67,no=68,missing=67
						67:leaf=0.521383107
						68:leaf=-0.0205441099
			8:[cloudCover<0.219999999] yes=17,no=18,missing=17
				17:[cloudCover<0.159999996] yes=35,no=36,missing=35
					35:[windBearing<142] yes=69,no=70,missing=70
						69:leaf=0.35907191
						70:leaf=-0.0130437436
					36:[windSpeed<3.75999999] yes=71,no=72,missing=72
						71:leaf=0.182745293
						72:leaf=0.778627217
				18:[pressure<1034.76001] yes=37,no=38,missing=37
					37:[windGust<15.3999996] yes=73,no=74,missing=73
						73:leaf=0.0792563409
						74:leaf=0.204260066
					38:[hour_x<7] yes=75,no=76,missing=75
						75:leaf=0.150105983
						76:leaf=0.79428786
		4:[humidity<0.75] yes=9,no=10,missing=9
			9:[hour_x<17] yes=19,no=20,missing=19
				19:leaf=-0.709080637
				20:[windGust<7.42999983] yes=39,no=40,missing=39
					39:leaf=-0.0598029606
					40:leaf=-0.244370684
			10:[apparentTemperature<11.5100002] yes=21,no=22,missing=21
				21:[visibility<11.1199999] yes=41,no=42,missing=41
					41:[visibility<9.60999966] yes=77,no=78,missing=78
						77:leaf=-0.0358600952
						78:leaf=-0.0723619908
					42:[cloudCover<0.819999993] yes=79,no=80,missing=79
						79:leaf=-0.0248331968
						80:leaf=-0.00179062691
				22:[windGust<17.5499992] yes=43,no=44,missing=44
					43:[cloudCover<0.529999971] yes=81,no=82,missing=81
						81:leaf=-0.0260196012
						82:leaf=-0.0834580809
					44:[weekday<1] yes=83,no=84,missing=84
						83:leaf=-0.0582865737
						84:leaf=-0.151589364
	2:[weekday<1] yes=5,no=6,missing=5
		5:[pressure<1007.35999] yes=11,no=12,missing=11
			11:[windBearing<90] yes=23,no=24,missing=24
				23:[windGust<8.43999958] yes=45,no=46,missing=45
					45:[apparentTemperature<4.36999989] yes=85,no=86,missing=85
						85:leaf=0.0167173874
						86:leaf=0.0944622755
					46:leaf=0.0326282643
				24:[humidity<0.720000029] yes=47,no=48,missing=47
					47:leaf=-0.162875324
					48:leaf=-0.0104179112
			12:[clear<1] yes=25,no=26,missing=25
				25:[windGust<6.63999987] yes=49,no=50,missing=49
					49:[hour_x<15] yes=87,no=88,missing=87
						87:leaf=0.0887482762
						88:leaf=-0.0362998545
					50:[humidity<0.649999976] yes=89,no=90,missing=89
						89:leaf=0.0812909156
						90:leaf=0.224912763
				26:[dewPoint<2.97000003] yes=51,no=52,missing=51
					51:[windGust<10.79] yes=91,no=92,missing=91
						91:leaf=-0.0716622025
						92:leaf=-0.0107297814
					52:leaf=0.0498067737
		6:[hour_x<13] yes=13,no=14,missing=14
			13:[dewPoint<1.47000003] yes=27,no=28,missing=27
				27:[humidity<0.629999995] yes=53,no=54,missing=54
					53:leaf=0.531572759
					54:[temperature<4.03000021] yes=93,no=94,missing=94
						93:leaf=0.153678045
						94:leaf=0.821893156
				28:[windGust<10.0100002] yes=55,no=56,missing=55
					55:[dewPoint<2.24000001] yes=95,no=96,missing=95
						95:leaf=-0.0988629386
						96:leaf=0.596599638
					56:[windSpeed<5.86000013] yes=97,no=98,missing=98
						97:leaf=-0.961767375
						98:leaf=0.371417701
			14:[humidity<0.579999983] yes=29,no=30,missing=29
				29:[apparentTemperature<10.9899998] yes=57,no=58,missing=57
					57:[cloudCover<0.449999988] yes=99,no=100,missing=99
						99:leaf=-0.0882027969
						100:leaf=0.125587657
					58:[cloudCover<0.620000005] yes=101,no=102,missing=102
						101:leaf=0.745477915
						102:leaf=0.444911778
				30:[visibility<9.96000004] yes=59,no=60,missing=60
					59:[cloudCover<0.829999983] yes=103,no=104,missing=103
						103:leaf=0.358348787
						104:leaf=0.624798834
					60:[visibility<12.25] yes=105,no=106,missing=106
						105:leaf=0.17142795
						106:leaf=0.55414933
booster[16]:
0:[uvIndex<0.5] yes=1,no=2,missing=2
	1:[pressure<991.780029] yes=3,no=4,missing=4
		3:[weekday<1] yes=7,no=8,missing=7
			7:[dewPoint<8.90999985] yes=15,no=16,missing=16
				15:leaf=-0.0958921686
				16:leaf=-0.0168628599
			8:[windBearing<75] yes=17,no=18,missing=17
				17:[windSpeed<7.15999985] yes=31,no=32,missing=31
					31:leaf=0.448909134
					32:leaf=0.766836822
				18:leaf=0.287242949
		4:[windSpeed<8.35000038] yes=9,no=10,missing=9
			9:[windBearing<175] yes=19,no=20,missing=20
				19:[temperature<12.1300001] yes=33,no=34,missing=34
					33:[temperature<3.56999993] yes=57,no=58,missing=57
						57:leaf=0.297935218
						58:leaf=0.0549368449
					34:[dewPoint<4.78000021] yes=59,no=60,missing=60
						59:leaf=0.164438725
						60:leaf=0.605276167
				20:[dewPoint<4.36999989] yes=35,no=36,missing=36
					35:[temperature<3.18000007] yes=61,no=62,missing=62
						61:leaf=-0.0278449338
						62:leaf=0.102956392
					36:[pressure<1031.22998] yes=63,no=64,missing=63
						63:leaf=-0.0953279212
						64:leaf=0.103355169
			10:[pressure<1022.89001] yes=21,no=22,missing=22
				21:[apparentTemperature<0.540000021] yes=37,no=38,missing=37
					37:[windGust<12.0600004] yes=65,no=66,missing=65
						65:leaf=-0.0705255195
						66:leaf=0.380791366
					38:[cloudCover<0.460000008] yes=67,no=68,missing=68
						67:leaf=0.443667144
						68:leaf=0.0510990731
				22:[clear<1] yes=39,no=40,missing=39
					39:[visibility<9.07999992] yes=69,no=70,missing=70
						69:leaf=0.239345625
						70:leaf=0.492458194
					40:leaf=0.966263592
	2:[weekday<1] yes=5,no=6,missing=6
		5:[pressure<1007.35999] yes=11,no=12,missing=11
			11:[windBearing<90] yes=23,no=24,missing=24
				23:[windGust<8.43999958] yes=41,no=42,missing=41
					41:[cloudCover<0.75] yes=71,no=72,missing=71
						71:leaf=0.0862397924
						72:leaf=0.0150977615
					42:leaf=0.0301811453
				24:[humidity<0.720000029] yes=43,no=44,missing=43
					43:leaf=-0.152010679
					44:leaf=-0.00939506292
			12:[humidity<0.529999971] yes=25,no=26,missing=25
				25:[pressure<1023.69] yes=45,no=46,missing=45
					45:[temperature<9.52000046] yes=73,no=74,missing=73
						73:leaf=-0.125614107
						74:leaf=-0.0462299958
					46:[apparentTemperature<4.98000002] yes=75,no=76,missing=75
						75:leaf=-0.00674169092
						76:leaf=0.0393803231
				26:[windSpeed<6.71999979] yes=47,no=48,missing=47
					47:[windGust<3.83999991] yes=77,no=78,missing=77
						77:leaf=0.153417721
						78:leaf=0.0360654853
					48:[dewPoint<3.55999994] yes=79,no=80,missing=79
						79:leaf=0.102905214
						80:leaf=0.215522841
		6:[hour_x<15] yes=13,no=14,missing=13
			13:[windGust<10.6899996] yes=27,no=28,missing=27
				27:[dewPoint<2.28999996] yes=49,no=50,missing=50
					49:[temperature<6.48999977] yes=81,no=82,missing=82
						81:leaf=0.592368007
						82:leaf=-0.0856004804
					50:[hour_x<9] yes=83,no=84,missing=84
						83:leaf=0.214006498
						84:leaf=0.535077691
				28:[windSpeed<6.6500001] yes=51,no=52,missing=51
					51:[dewPoint<2.73000002] yes=85,no=86,missing=86
						85:leaf=0.665963113
						86:leaf=-1.18185103
					52:[dewPoint<2.80999994] yes=87,no=88,missing=88
						87:leaf=0.576724529
						88:leaf=0.24779737
			14:[visibility<7.88999987] yes=29,no=30,missing=29
				29:[humidity<0.699999988] yes=53,no=54,missing=53
					53:leaf=0.670523345
					54:[pressure<1010.83002] yes=89,no=90,missing=90
						89:leaf=0.467745304
						90:leaf=0.258263469
				30:[windSpeed<2.20000005] yes=55,no=56,missing=55
					55:[windSpeed<1.10000002] yes=91,no=92,missing=91
						91:leaf=0.0301213022
						92:leaf=0.595766008
					56:[humidity<0.579999983] yes=93,no=94,missing=93
						93:leaf=0.457223177
						94:leaf=0.100375392
booster[17]:
0:[uvIndex<0.5] yes=1,no=2,missing=2
	1:[hour_x<7] yes=3,no=4,missing=3
		3:[precipIntensity<0.718800008] yes=7,no=8,missing=7
			7:[visibility<11.8900003] yes=15,no=16,missing=15
				15:[apparentTemperature<-4.17999983] yes=31,no=32,missing=32
					31:leaf=0.284206599
					32:[humidity<0.819999993] yes=63,no=64,missing=64
						63:leaf=0.0429906771
						64:leaf=-0.02291633
				16:[apparentTemperature<1.29999995] yes=33,no=34,missing=34
					33:[windGust<11.1700001] yes=65,no=66,missing=65
						65:leaf=0.406250924
						66:leaf=-0.0142484177
					34:[windBearing<117] yes=67,no=68,missing=67
						67:leaf=-0.158532128
						68:leaf=-0.0326709449
			8:[humidity<0.819999993] yes=17,no=18,missing=17
				17:[visibility<7.63000011] yes=35,no=36,missing=36
					35:[apparentTemperature<1.25999999] yes=69,no=70,missing=69
						69:leaf=-0.0249342937
						70:leaf=0.0967735276
					36:[hour_x<2] yes=71,no=72,missing=72
						71:leaf=0.0428666845
						72:leaf=-0.11309804
				18:[apparentTemperature<2.21000004] yes=37,no=38,missing=37
					37:[hour_x<2] yes=73,no=74,missing=74
						73:leaf=0.280708313
						74:leaf=0.447119713
					38:[precipIntensity<0.749300003] yes=75,no=76,missing=75
						75:leaf=0.192695171
						76:leaf=-0.0447275899
		4:[hour_x<17] yes=9,no=10,missing=10
			9:[weekday<1] yes=19,no=20,missing=20
				19:[dewPoint<0.519999981] yes=39,no=40,missing=39
					39:[pressure<1021.89001] yes=77,no=78,missing=77
						77:leaf=-0.261244595
						78:leaf=-0.0504072495
					40:[dewPoint<2.80999994] yes=79,no=80,missing=79
						79:leaf=0.0767129287
						80:leaf=-0.0975835398
				20:[windBearing<272] yes=41,no=42,missing=42
					41:[cloudCover<0.769999981] yes=81,no=82,missing=81
						81:leaf=0.322075546
						82:leaf=-0.0154137304
					42:[apparentTemperature<-2.88000011] yes=83,no=84,missing=84
						83:leaf=-0.27648896
						84:leaf=0.650648713
			10:[pressure<988.820007] yes=21,no=22,missing=22
				21:[windBearing<99] yes=43,no=44,missing=43
					43:leaf=0.399040967
					44:leaf=0.262512982
				22:[visibility<10.54] yes=45,no=46,missing=46
					45:[windSpeed<8.25] yes=85,no=86,missing=85
						85:leaf=0.0359986611
						86:leaf=0.205833673
					46:[pressure<1009.5] yes=87,no=88,missing=87
						87:leaf=-0.104833223
						88:leaf=0.011337596
	2:[weekday<1] yes=5,no=6,missing=5
		5:[pressure<1007.35999] yes=11,no=12,missing=11
			11:[windBearing<90] yes=23,no=24,missing=24
				23:[pressure<1006.45001] yes=47,no=48,missing=47
					47:leaf=0.0209236797
					48:[apparentTemperature<4.36999989] yes=89,no=90,missing=89
						89:leaf=0.0115695242
						90:leaf=0.0761612207
				24:[humidity<0.720000029] yes=49,no=50,missing=49
					49:leaf=-0.141882047
					50:leaf=-0.0084726382
			12:[clear<1] yes=25,no=26,missing=25
				25:[windBearing<136] yes=51,no=52,missing=52
					51:[humidity<0.699999988] yes=91,no=92,missing=91
						91:leaf=-0.00480785267
						92:leaf=0.099517785
					52:[pressure<1024.20996] yes=93,no=94,missing=93
						93:leaf=0.0737076178
						94:leaf=0.15881452
				26:[dewPoint<2.97000003] yes=53,no=54,missing=54
					53:[windGust<10.79] yes=95,no=96,missing=95
						95:leaf=-0.0704329535
						96:leaf=-0.0161830764
					54:leaf=0.0455131643
		6:[hour_x<13] yes=13,no=14,missing=13
			13:[dewPoint<1.47000003] yes=27,no=28,missing=27
				27:[humidity<0.629999995] yes=55,no=56,missing=56
					55:leaf=0.42813167
					56:[temperature<4.03000021] yes=97,no=98,missing=98
						97:leaf=0.116375737
						98:leaf=0.68325752
				28:[dewPoint<5.11999989] yes=57,no=58,missing=57
					57:[windBearing<124] yes=99,no=100,missing=99
						99:leaf=0.0532347523
						100:leaf=0.37252292
					58:[windBearing<203] yes=101,no=102,missing=101
						101:leaf=0.715772569
						102:leaf=0.389415592
			14:[humidity<0.5] yes=29,no=30,missing=30
				29:[cloudCover<0.00999999978] yes=59,no=60,missing=59
					59:leaf=0.129342556
					60:[windBearing<236] yes=103,no=104,missing=103
						103:leaf=0.663215399
						104:leaf=0.189742714
				30:[cloudCover<0.810000002] yes=61,no=62,missing=61
					61:[windSpeed<1.99000001] yes=105,no=106,missing=105
						105:leaf=0.506513476
						106:leaf=0.187977701
					62:[visibility<9.39999962] yes=107,no=108,missing=108
						107:leaf=0.496455729
						108:leaf=0.285869688
booster[18]:
0:[uvIndex<0.5] yes=1,no=2,missing=1
	1:[windGust<5.15999985] yes=3,no=4,missing=3
		3:[precipIntensity<0.175300002] yes=7,no=8,missing=7
			7:[hour_x<21] yes=15,no=16,missing=16
				15:[windGust<2.49000001] yes=31,no=32,missing=31
					31:[hour_x<8] yes=61,no=62,missing=62
						61:leaf=-0.046166189
						62:leaf=0.504319608
					32:[apparentTemperature<15.6800003] yes=63,no=64,missing=63
						63:leaf=-0.0198514443
						64:leaf=0.482502699
				16:[pressure<1012.82001] yes=33,no=34,missing=34
					33:[visibility<8.39999962] yes=65,no=66,missing=65
						65:leaf=0.107149459
						66:leaf=-0.0800802261
					34:[dewPoint<3.67000008] yes=67,no=68,missing=67
						67:leaf=-0.179393038
						68:leaf=-0.10762652
			8:[windGust<3.6500001] yes=17,no=18,missing=17
				17:leaf=0.518370926
				18:[hour_x<22] yes=35,no=36,missing=35
					35:[windSpeed<2.03999996] yes=69,no=70,missing=69
						69:leaf=0.0862064585
						70:leaf=0.332237899
					36:[apparentTemperature<2.77999997] yes=71,no=72,missing=72
						71:leaf=0.268108189
						72:leaf=-0.0624372326
		4:[dewPoint<6.23000002] yes=9,no=10,missing=9
			9:[pressure<1022.89001] yes=19,no=20,missing=19
				19:[windSpeed<3.63000011] yes=37,no=38,missing=38
					37:[visibility<9.47999954] yes=73,no=74,missing=74
						73:leaf=0.105684064
						74:leaf=0.568502605
					38:[windGust<15.6099997] yes=75,no=76,missing=75
						75:leaf=0.00842971541
						76:leaf=0.172179371
				20:[windGust<9.40999985] yes=39,no=40,missing=40
					39:[apparentTemperature<10.79] yes=77,no=78,missing=77
						77:leaf=0.0764859989
						78:leaf=0.437618107
					40:[pressure<1031.79004] yes=79,no=80,missing=79
						79:leaf=0.437921524
						80:leaf=0.123192921
			10:[pressure<1014.16998] yes=21,no=22,missing=22
				21:[humidity<0.790000021] yes=41,no=42,missing=41
					41:[dewPoint<6.40999985] yes=81,no=82,missing=82
						81:leaf=-0.118199341
						82:leaf=0.529743493
					42:[visibility<0.870000005] yes=83,no=84,missing=83
						83:leaf=0.418669283
						84:leaf=0.0409133248
				22:[pressure<1031.22998] yes=43,no=44,missing=43
					43:[windGust<5.26999998] yes=85,no=86,missing=86
						85:leaf=0.169460788
						86:leaf=-0.113726668
					44:[apparentTemperature<10.71] yes=87,no=88,missing=87
						87:leaf=-0.164654016
						88:leaf=0.448932856
	2:[weekday<1] yes=5,no=6,missing=5
		5:[apparentTemperature<10.71] yes=11,no=12,missing=12
			11:[humidity<0.529999971] yes=23,no=24,missing=23
				23:[pressure<1023.69] yes=45,no=46,missing=45
					45:[temperature<9.52000046] yes=89,no=90,missing=89
						89:leaf=-0.117799953
						90:leaf=-0.0459026024
					46:[dewPoint<-0.860000014] yes=91,no=92,missing=91
						91:leaf=0.0447508581
						92:leaf=-0.000941818987
				24:[hour_x<9] yes=47,no=48,missing=47
					47:[apparentTemperature<4.67000008] yes=93,no=94,missing=94
						93:leaf=-0.0364831015
						94:leaf=-0.120785974
					48:[pressure<1008.29999] yes=95,no=96,missing=95
						95:leaf=0.0244907569
						96:leaf=0.102900743
			12:[visibility<11.1000004] yes=25,no=26,missing=25
				25:[windGust<5.5999999] yes=49,no=50,missing=49
					49:[dewPoint<5.51000023] yes=97,no=98,missing=98
						97:leaf=-0.0637665465
						98:leaf=-0.162205294
					50:[pressure<1027.58997] yes=99,no=100,missing=99
						99:leaf=-0.00666486239
						100:leaf=0.10832838
				26:[pressure<1010.83002] yes=51,no=52,missing=51
					51:[cloudCover<0.49000001] yes=101,no=102,missing=102
						101:leaf=0.0603258982
						102:leaf=-0.0315918662
					52:[windSpeed<2.83999991] yes=103,no=104,missing=103
						103:leaf=0.0278296955
						104:leaf=0.133581921
		6:[hour_x<17] yes=13,no=14,missing=13
			13:[humidity<0.879999995] yes=27,no=28,missing=27
				27:[temperature<6.67000008] yes=53,no=54,missing=53
					53:[precipIntensity<0.513100028] yes=105,no=106,missing=105
						105:leaf=0.560621202
						106:leaf=0.0898884758
					54:[apparentTemperature<7.07999992] yes=107,no=108,missing=108
						107:leaf=0.212716147
						108:leaf=0.346872032
				28:[pressure<996.909973] yes=55,no=56,missing=55
					55:[cloudCover<0.720000029] yes=109,no=110,missing=110
						109:leaf=-0.0912364945
						110:leaf=0.25777778
					56:[windGust<5.36999989] yes=111,no=112,missing=111
						111:leaf=0.398884863
						112:leaf=0.617474854
			14:[cloudCover<0.75999999] yes=29,no=30,missing=29
				29:[pressure<1025.18005] yes=57,no=58,missing=58
					57:[apparentTemperature<10.6099997] yes=113,no=114,missing=113
						113:leaf=-0.143310845
						114:leaf=0.151534662
					58:leaf=-0.319731802
				30:[dewPoint<4.82999992] yes=59,no=60,missing=59
					59:[windSpeed<5.34000015] yes=115,no=116,missing=115
						115:leaf=0.309700608
						116:leaf=0.00914285891
					60:[pressure<1011.08002] yes=117,no=118,missing=118
						117:leaf=0.139446124
						118:leaf=-0.264834493
booster[19]:
0:[uvIndex<0.5] yes=1,no=2,missing=1
	1:[pressure<991.780029] yes=3,no=4,missing=4
		3:[weekday<1] yes=7,no=8,missing=7
			7:[dewPoint<8.90999985] yes=15,no=16,missing=15
				15:[cloudCover<0.720000029] yes=31,no=32,missing=32
					31:leaf=-0.115613557
					32:leaf=-0.0532337092
				16:leaf=-0.0109802429
			8:[visibility<4.63000011] yes=17,no=18,missing=18
				17:leaf=0.687902093
				18:[windBearing<99] yes=33,no=34,missing=34
					33:leaf=0.363281965
					34:[hour_x<3] yes=57,no=58,missing=57
						57:leaf=0.158464998
						58:leaf=0.238926247
		4:[dewPoint<8.90999985] yes=9,no=10,missing=10
			9:[windGust<15.3999996] yes=19,no=20,missing=19
				19:[pressure<1008.91998] yes=35,no=36,missing=35
					35:[apparentTemperature<-2.22000003] yes=59,no=60,missing=60
						59:leaf=-0.221240833
						60:leaf=0.0157685149
					36:[pressure<1011.95001] yes=61,no=62,missing=61
						61:leaf=0.319669336
						62:leaf=0.0338935219
				20:[humidity<0.610000014] yes=37,no=38,missing=38
					37:[apparentTemperature<2.86999989] yes=63,no=64,missing=63
						63:leaf=0.883885086
						64:leaf=0.425753325
					38:[apparentTemperature<0.74000001] yes=65,no=66,missing=66
						65:leaf=0.347220272
						66:leaf=0.084557645
			10:[humidity<0.75] yes=21,no=22,missing=21
				21:[hour_x<17] yes=39,no=40,missing=39
					39:leaf=-0.655942917
					40:[windGust<7.42999983] yes=67,no=68,missing=67
						67:leaf=-0.0481601022
						68:leaf=-0.20508121
				22:[windSpeed<8.56999969] yes=41,no=42,missing=41
					41:[visibility<11.1800003] yes=69,no=70,missing=69
						69:leaf=-0.0549170338
						70:leaf=0.00307734613
					42:[windGust<17.5499992] yes=71,no=72,missing=72
						71:leaf=-0.0676044598
						72:leaf=-0.138490796
	2:[weekday<1] yes=5,no=6,missing=5
		5:[dewPoint<-1.69000006] yes=11,no=12,missing=12
			11:[hour_x<14] yes=23,no=24,missing=23
				23:[humidity<0.550000012] yes=43,no=44,missing=43
					43:leaf=0.0354701392
					44:leaf=0.121554554
				24:leaf=0.261004329
			12:[cloudy<1] yes=25,no=26,missing=25
				25:[humidity<0.600000024] yes=45,no=46,missing=46
					45:[dewPoint<-0.360000014] yes=73,no=74,missing=73
						73:leaf=0.0751353726
						74:leaf=-0.0484597385
					46:[pressure<1009.09998] yes=75,no=76,missing=76
						75:leaf=-0.00164478295
						76:leaf=-0.0597645119
				26:[pressure<1028.19995] yes=47,no=48,missing=47
					47:[humidity<0.600000024] yes=77,no=78,missing=78
						77:leaf=-0.0400323942
						78:leaf=0.0617839694
					48:[pressure<1031.12] yes=79,no=80,missing=79
						79:leaf=0.2917642
						80:leaf=0.102907136
		6:[hour_x<16] yes=13,no=14,missing=14
			13:[windBearing<292] yes=27,no=28,missing=27
				27:[hour_x<9] yes=49,no=50,missing=50
					49:[visibility<8.06000042] yes=81,no=82,missing=81
						81:leaf=-0.436360508
						82:leaf=0.195524141
					50:[hour_x<10] yes=83,no=84,missing=83
						83:leaf=0.480094105
						84:leaf=0.316671938
				28:[apparentTemperature<10.54] yes=51,no=52,missing=51
					51:[dewPoint<5.21999979] yes=85,no=86,missing=85
						85:leaf=0.338755369
						86:leaf=-0.192422912
					52:[dewPoint<4.88000011] yes=87,no=88,missing=87
						87:leaf=-0.025636157
						88:leaf=-0.301310569
			14:[pressure<1002.29999] yes=29,no=30,missing=30
				29:[windBearing<287] yes=53,no=54,missing=53
					53:[visibility<10.04] yes=89,no=90,missing=89
						89:leaf=0.531089723
						90:leaf=0.272668451
					54:[precipIntensity<0.104099996] yes=91,no=92,missing=91
						91:leaf=0.300088555
						92:leaf=0.0225029495
				30:[uvIndex<1.5] yes=55,no=56,missing=55
					55:[apparentTemperature<12.4899998] yes=93,no=94,missing=93
						93:leaf=-0.0569775775
						94:leaf=0.24741374
					56:[apparentTemperature<6.92999983] yes=95,no=96,missing=95
						95:leaf=0.0543320477
						96:leaf=0.662698209
booster[20]:
0:[uvIndex<0.5] yes=1,no=2,missing=1
	1:[apparentTemperature<2.1099999] yes=3,no=4,missing=3
		3:[hour_x<7] yes=7,no=8,missing=8
			7:[dewPoint<3.47000003] yes=15,no=16,missing=15
				15:[windGust<11.21] yes=31,no=32,missing=32
					31:[pressure<1023.52002] yes=63,no=64,missing=63
						63:leaf=0.216353223
						64:leaf=-0.0137661947
					32:[windSpeed<8.56999969] yes=65,no=66,missing=65
						65:leaf=-0.143435687
						66:leaf=0.0589688011
				16:[cloudCover<0.779999971] yes=33,no=34,missing=33
					33:[hour_x<5] yes=67,no=68,missing=67
						67:leaf=0.428787053
						68:leaf=-0.039120499
					34:[apparentTemperature<0.469999999] yes=69,no=70,missing=69
						69:leaf=-0.0372332595
						70:leaf=-0.0030611835
			8:[hour_x<17] yes=17,no=18,missing=17
				17:[temperature<3.18000007] yes=35,no=36,missing=36
					35:[dewPoint<0.910000026] yes=71,no=72,missing=71
						71:leaf=-0.0233416855
						72:leaf=0.385005683
					36:[weekday<1] yes=73,no=74,missing=74
						73:leaf=0.00676486362
						74:leaf=0.55467236
				18:[windBearing<255] yes=37,no=38,missing=37
					37:[weekday<1] yes=75,no=76,missing=75
						75:leaf=0.356485337
						76:leaf=0.0725888535
					38:[dewPoint<-0.189999998] yes=77,no=78,missing=77
						77:leaf=0.318671316
						78:leaf=-0.101584449
		4:[pressure<1000.22998] yes=9,no=10,missing=9
			9:[humidity<0.620000005] yes=19,no=20,missing=19
				19:[apparentTemperature<2.93000007] yes=39,no=40,missing=39
					39:leaf=0.799082339
					40:leaf=0.391693056
				20:[visibility<8.89999962] yes=41,no=42,missing=42
					41:[humidity<0.930000007] yes=79,no=80,missing=79
						79:leaf=0.322343081
						80:leaf=-0.0984592289
					42:[dewPoint<1.47000003] yes=81,no=82,missing=82
						81:leaf=0.294799536
						82:leaf=-0.0691794679
			10:[windBearing<319] yes=21,no=22,missing=22
				21:[windBearing<75] yes=43,no=44,missing=43
					43:[pressure<1008.91998] yes=83,no=84,missing=83
						83:leaf=-0.0854182467
						84:leaf=0.13355273
					44:[pressure<1024.87] yes=85,no=86,missing=85
						85:leaf=-0.0296781864
						86:leaf=0.0443590842
				22:[dewPoint<3.42000008] yes=45,no=46,missing=46
					45:[hour_x<2] yes=87,no=88,missing=87
						87:leaf=0.0256999861
						88:leaf=-0.13626276
					46:[hour_x<2] yes=89,no=90,missing=90
						89:leaf=-0.0445595197
						90:leaf=0.414370745
	2:[weekday<1] yes=5,no=6,missing=5
		5:[apparentTemperature<10.71] yes=11,no=12,missing=12
			11:[hour_x<9] yes=23,no=24,missing=23
				23:[apparentTemperature<4.67000008] yes=47,no=48,missing=47
					47:[clear<1] yes=91,no=92,missing=91
						91:leaf=-0.0142254597
						92:leaf=-0.0568822138
					48:leaf=-0.1160658
				24:[humidity<0.529999971] yes=49,no=50,missing=49
					49:[pressure<1023.69] yes=93,no=94,missing=94
						93:leaf=-0.0801956952
						94:leaf=0.0109346909
					50:[pressure<1008.29999] yes=95,no=96,missing=96
						95:leaf=0.017705217
						96:leaf=0.0868239179
			12:[visibility<11.1000004] yes=25,no=26,missing=25
				25:[windGust<5.5999999] yes=51,no=52,missing=51
					51:[apparentTemperature<10.7700005] yes=97,no=98,missing=98
						97:leaf=0.0100749852
						98:leaf=-0.133132592
					52:[windBearing<75] yes=99,no=100,missing=99
						99:leaf=0.0696677342
						100:leaf=-0.0179852974
				26:[pressure<1010.83002] yes=53,no=54,missing=54
					53:[cloudCover<0.49000001] yes=101,no=102,missing=101
						101:leaf=0.0492249988
						102:leaf=-0.0272647645
					54:[windSpeed<2.83999991] yes=103,no=104,missing=104
						103:leaf=0.0218554344
						104:leaf=0.111694269
		6:[hour_x<15] yes=13,no=14,missing=14
			13:[windGust<10.6899996] yes=27,no=28,missing=27
				27:[dewPoint<2.28999996] yes=55,no=56,missing=55
					55:[apparentTemperature<1.77999997] yes=105,no=106,missing=105
						105:leaf=0.46053195
						106:leaf=-0.117652953
					56:[pressure<1022.5] yes=107,no=108,missing=107
						107:leaf=0.485712051
						108:leaf=0.301596731
				28:[humidity<0.75999999] yes=57,no=58,missing=57
					57:[dewPoint<4.82999992] yes=109,no=110,missing=110
						109:leaf=0.267855614
						110:leaf=0.759644866
					58:[windSpeed<6.6500001] yes=111,no=112,missing=112
						111:leaf=-1.1515646
						112:leaf=0.0275677796
			14:[windGust<3.42000008] yes=29,no=30,missing=30
				29:[pressure<1023.90997] yes=59,no=60,missing=59
					59:[visibility<10.3800001] yes=113,no=114,missing=114
						113:leaf=0.282801121
						114:leaf=-0.188239336
					60:[pressure<1035.52002] yes=115,no=116,missing=115
						115:leaf=-0.369724005
						116:leaf=0.134031042
				30:[pressure<1024.87] yes=61,no=62,missing=62
					61:[pressure<1018.45001] yes=117,no=118,missing=117
						117:leaf=0.230902389
						118:leaf=-0.12979044
					62:[windGust<7.11999989] yes=119,no=120,missing=119
						119:leaf=0.405504793
						120:leaf=-0.360523373
booster[21]:
0:[uvIndex<0.5] yes=1,no=2,missing=1
	1:[windGust<5.19000006] yes=3,no=4,missing=3
		3:[precipIntensity<0.175300002] yes=7,no=8,missing=7
			7:[temperature<4.23000002] yes=15,no=16,missing=16
				15:[hour_x<8] yes=31,no=32,missing=31
					31:[humidity<0.800000012] yes=55,no=56,missing=56
						55:leaf=0.3081581
						56:leaf=-0.0124937994
					32:[windGust<2.49000001] yes=57,no=58,missing=58
						57:leaf=0.835616291
						58:leaf=0.0591848381
				16:[apparentTemperature<12.6300001] yes=33,no=34,missing=33
					33:[dewPoint<6.94000006] yes=59,no=60,missing=59
						59:leaf=-0.0723949596
						60:leaf=0.160309464
					34:[windSpeed<3.82999992] yes=61,no=62,missing=61
						61:leaf=0.552125394
						62:leaf=-0.058944352
			8:[windGust<3.6500001] yes=17,no=18,missing=17
				17:leaf=0.456761837
				18:[precipProbability<0.629999995] yes=35,no=36,missing=36
					35:[hour_x<21] yes=63,no=64,missing=63
						63:leaf=0.452705473
						64:leaf=0.0829409137
					36:[dewPoint<3.3599999] yes=65,no=66,missing=65
						65:leaf=0.229530334
						66:leaf=-0.0890453979
		4:[pressure<1034.93005] yes=9,no=10,missing=10
			9:[dewPoint<6.23000002] yes=19,no=20,missing=19
				19:[apparentTemperature<10.9399996] yes=37,no=38,missing=37
					37:[pressure<1022.38] yes=67,no=68,missing=68
						67:leaf=0.0436917618
						68:leaf=0.142557546
					38:[visibility<10.0100002] yes=69,no=70,missing=69
						69:leaf=-0.112543575
						70:leaf=0.415885448
				20:[pressure<1014.16998] yes=39,no=40,missing=39
					39:[humidity<0.790000021] yes=71,no=72,missing=71
						71:leaf=0.379267693
						72:leaf=0.0540069453
					40:[pressure<1031.22998] yes=73,no=74,missing=73
						73:leaf=-0.0923054963
						74:leaf=0.329797983
			10:[hour_x<7] yes=21,no=22,missing=22
				21:leaf=0.153886646
				22:leaf=0.782738209
	2:[weekday<1] yes=5,no=6,missing=5
		5:[dewPoint<-1.69000006] yes=11,no=12,missing=11
			11:[hour_x<14] yes=23,no=24,missing=24
				23:[humidity<0.550000012] yes=41,no=42,missing=41
					41:leaf=0.0273171905
					42:leaf=0.103321455
				24:leaf=0.232019588
			12:[cloudy<1] yes=25,no=26,missing=26
				25:[humidity<0.600000024] yes=43,no=44,missing=44
					43:[dewPoint<-0.360000014] yes=75,no=76,missing=75
						75:leaf=0.059402179
						76:leaf=-0.0489643849
					44:[pressure<1009.09998] yes=77,no=78,missing=78
						77:leaf=-0.00137499196
						78:leaf=-0.0606999658
				26:[windGust<6.63999987] yes=45,no=46,missing=45
					45:[hour_x<16] yes=79,no=80,missing=79
						79:leaf=0.0420802087
						80:leaf=-0.0803526938
					46:[humidity<0.589999974] yes=81,no=82,missing=81
						81:leaf=-0.013251829
						82:leaf=0.117015839
		6:[hour_x<13] yes=13,no=14,missing=13
			13:[hour_x<9] yes=27,no=28,missing=27
				27:[visibility<8.06000042] yes=47,no=48,missing=47
					47:[apparentTemperature<5.4000001] yes=83,no=84,missing=83
						83:leaf=-0.844538808
						84:leaf=0.238266751
					48:[windGust<5.34000015] yes=85,no=86,missing=85
						85:leaf=-0.0316991769
						86:leaf=0.350812346
				28:[uvIndex<1.5] yes=49,no=50,missing=49
					49:[windGust<17.3400002] yes=87,no=88,missing=88
						87:leaf=0.386580825
						88:leaf=0.780145526
					50:[dewPoint<5.19000006] yes=89,no=90,missing=89
						89:leaf=0.156119749
						90:leaf=0.333820552
			14:[humidity<0.579999983] yes=29,no=30,missing=29
				29:[apparentTemperature<10.9899998] yes=51,no=52,missing=52
					51:[windGust<8.73999977] yes=91,no=92,missing=91
						91:leaf=-0.112122469
						92:leaf=0.0425271206
					52:[cloudCover<0.620000005] yes=93,no=94,missing=93
						93:leaf=0.481734663
						94:leaf=0.244012237
				30:[visibility<9.96000004] yes=53,no=54,missing=53
					53:[cloudCover<0.829999983] yes=95,no=96,missing=96
						95:leaf=0.183168933
						96:leaf=0.37481305
					54:[visibility<13.8599997] yes=97,no=98,missing=98
						97:leaf=0.0516169444
						98:leaf=0.463343114
booster[22]:
0:[uvIndex<0.5] yes=1,no=2,missing=1
	1:[hour_x<7] yes=3,no=4,missing=3
		3:[apparentTemperature<-4.17999983] yes=7,no=8,missing=8
			7:leaf=0.23438178
			8:[precipIntensity<0.718800008] yes=15,no=16,missing=15
				15:[windGust<11.8000002] yes=29,no=30,missing=30
					29:[dewPoint<2.1099999] yes=57,no=58,missing=57
						57:leaf=0.0872728229
						58:leaf=-0.0233385023
					30:[dewPoint<2.55999994] yes=59,no=60,missing=59
						59:leaf=-0.144386858
						60:leaf=0.0202212129
				16:[humidity<0.819999993] yes=31,no=32,missing=31
					31:[visibility<7.63000011] yes=61,no=62,missing=62
						61:leaf=0.0572152808
						62:leaf=-0.102664314
					32:[apparentTemperature<2.21000004] yes=63,no=64,missing=63
						63:leaf=0.318877071
						64:leaf=-0.0117713111
		4:[hour_x<17] yes=9,no=10,missing=10
			9:[weekday<1] yes=17,no=18,missing=17
				17:[cloudCover<0.569999993] yes=33,no=34,missing=34
					33:[windGust<13.5500002] yes=65,no=66,missing=66
						65:leaf=-0.233066663
						66:leaf=0.0436279587
					34:[pressure<1021.89001] yes=67,no=68,missing=68
						67:leaf=-0.0797722265
						68:leaf=0.0788789168
				18:[windBearing<272] yes=35,no=36,missing=36
					35:[cloudCover<0.769999981] yes=69,no=70,missing=69
						69:leaf=0.243976548
						70:leaf=-0.0395696349
					36:[hour_x<8] yes=71,no=72,missing=72
						71:leaf=0.256483316
						72:leaf=0.638658464
			10:[pressure<988.820007] yes=19,no=20,missing=20
				19:[hour_x<20] yes=37,no=38,missing=38
					37:leaf=0.303007334
					38:leaf=0.189698219
				20:[visibility<10.54] yes=39,no=40,missing=40
					39:[windSpeed<4.80999994] yes=73,no=74,missing=73
						73:leaf=-0.00228320807
						74:leaf=0.0976381898
					40:[apparentTemperature<-3.13000011] yes=75,no=76,missing=76
						75:leaf=0.249350578
						76:leaf=-0.0404472202
	2:[weekday<1] yes=5,no=6,missing=5
		5:[apparentTemperature<10.71] yes=11,no=12,missing=12
			11:[hour_x<9] yes=21,no=22,missing=21
				21:[apparentTemperature<4.67000008] yes=41,no=42,missing=42
					41:[windGust<10.5900002] yes=77,no=78,missing=77
						77:leaf=-0.0390382223
						78:leaf=-0.00182454835
					42:leaf=-0.110147037
				22:[cloudCover<0.75] yes=43,no=44,missing=43
					43:[windSpeed<6.55000019] yes=79,no=80,missing=80
						79:leaf=0.0289920922
						80:leaf=0.116232291
					44:[pressure<1024.20996] yes=81,no=82,missing=82
						81:leaf=0.00592622301
						82:leaf=0.0754556507
			12:[windSpeed<2.93000007] yes=23,no=24,missing=23
				23:[dewPoint<7.11999989] yes=45,no=46,missing=45
					45:leaf=-0.15087913
					46:leaf=0.0175930671
				24:[windGust<4.42000008] yes=47,no=48,missing=47
					47:[apparentTemperature<11.8999996] yes=83,no=84,missing=83
						83:leaf=0.11791452
						84:leaf=0.055048883
					48:[pressure<1027.58997] yes=85,no=86,missing=85
						85:leaf=-0.0162215885
						86:leaf=0.0904249251
		6:[hour_x<17] yes=13,no=14,missing=13
			13:[windSpeed<8.98999977] yes=25,no=26,missing=25
				25:[precipProbability<0.949999988] yes=49,no=50,missing=49
					49:[windBearing<17] yes=87,no=88,missing=87
						87:leaf=-0.170652628
						88:leaf=0.235355303
					50:[windBearing<285] yes=89,no=90,missing=89
						89:leaf=0.521763504
						90:leaf=-0.00451863604
				26:[pressure<1005.88] yes=51,no=52,missing=51
					51:[windSpeed<12.3500004] yes=91,no=92,missing=91
						91:leaf=0.223357484
						92:leaf=0.710496545
					52:[windGust<18.2800007] yes=93,no=94,missing=93
						93:leaf=-0.110601261
						94:leaf=0.268946856
			14:[cloudCover<0.75999999] yes=27,no=28,missing=27
				27:[pressure<1025.18005] yes=53,no=54,missing=54
					53:[apparentTemperature<10.6099997] yes=95,no=96,missing=95
						95:leaf=-0.130125448
						96:leaf=0.116191112
					54:leaf=-0.333862662
				28:[dewPoint<4.82999992] yes=55,no=56,missing=55
					55:[windSpeed<5.34000015] yes=97,no=98,missing=97
						97:leaf=0.217085823
						98:leaf=-0.0242013019
					56:[cloudCover<0.860000014] yes=99,no=100,missing=100
						99:leaf=-0.275716811
						100:leaf=0.0792300627
booster[23]:
0:[uvIndex<0.5] yes=1,no=2,missing=1
	1:[windGust<5.19000006] yes=3,no=4,missing=4
		3:[precipIntensity<0.175300002] yes=7,no=8,missing=7
			7:[hour_x<21] yes=15,no=16,missing=16
				15:[windGust<2.49000001] yes=31,no=32,missing=32
					31:[hour_x<8] yes=57,no=58,missing=58
						57:leaf=-0.0503226407
						58:leaf=0.393190295
					32:[dewPoint<7.55999994] yes=59,no=60,missing=59
						59:leaf=-0.0285166334
						60:leaf=0.308902591
				16:[humidity<0.839999974] yes=33,no=34,missing=33
					33:[visibility<11.1499996] yes=61,no=62,missing=62
						61:leaf=-0.169741392
						62:leaf=-0.0811978132
					34:[apparentTemperature<6.11999989] yes=63,no=64,missing=63
						63:leaf=-0.101201497
						64:leaf=0.00286422647
			8:[windGust<3.6500001] yes=17,no=18,missing=17
				17:leaf=0.41415444
				18:[precipProbability<0.629999995] yes=35,no=36,missing=35
					35:[hour_x<21] yes=65,no=66,missing=65
						65:leaf=0.416671664
						66:leaf=0.0789080262
					36:[dewPoint<3.3599999] yes=67,no=68,missing=67
						67:leaf=0.186256304
						68:leaf=-0.0803259015
		4:[pressure<1034.93005] yes=9,no=10,missing=10
			9:[temperature<6.46000004] yes=19,no=20,missing=20
				19:[weekday<1] yes=37,no=38,missing=37
					37:[pressure<1000.45001] yes=69,no=70,missing=70
						69:leaf=-0.196102902
						70:leaf=0.0351896696
					38:[hour_x<7] yes=71,no=72,missing=71
						71:leaf=0.0643426999
						72:leaf=0.249942943
				20:[humidity<0.790000021] yes=39,no=40,missing=39
					39:[dewPoint<7.65999985] yes=73,no=74,missing=73
						73:leaf=0.0798151121
						74:leaf=-0.144589946
					40:[windGust<8.01000023] yes=75,no=76,missing=75
						75:leaf=0.0723054856
						76:leaf=-0.0800451413
			10:[hour_x<7] yes=21,no=22,missing=22
				21:[apparentTemperature<2.21000004] yes=41,no=42,missing=41
					41:leaf=0.0454749353
					42:leaf=0.17230022
				22:leaf=0.682721794
	2:[weekday<1] yes=5,no=6,missing=6
		5:[pressure<1007.35999] yes=11,no=12,missing=12
			11:[humidity<0.720000029] yes=23,no=24,missing=23
				23:leaf=-0.138518795
				24:[pressure<1006.45001] yes=43,no=44,missing=43
					43:[dewPoint<4.53999996] yes=77,no=78,missing=77
						77:leaf=-0.0225385912
						78:leaf=-0.00493656425
					44:[temperature<8.09000015] yes=79,no=80,missing=79
						79:leaf=0.0078200344
						80:leaf=0.049058415
			12:[pressure<1012.28003] yes=25,no=26,missing=25
				25:[apparentTemperature<10.3400002] yes=45,no=46,missing=45
					45:[windSpeed<5.55999994] yes=81,no=82,missing=82
						81:leaf=0.0527056754
						82:leaf=0.148380637
					46:[dewPoint<5.21999979] yes=83,no=84,missing=83
						83:leaf=-0.0656180605
						84:leaf=0.0775445923
				26:[windBearing<258] yes=47,no=48,missing=48
					47:[temperature<8.55000019] yes=85,no=86,missing=85
						85:leaf=0.0289267655
						86:leaf=-0.023671519
					48:[windGust<11.21] yes=87,no=88,missing=88
						87:leaf=0.0394621417
						88:leaf=0.182719752
		6:[hour_x<13] yes=13,no=14,missing=13
			13:[dewPoint<1.50999999] yes=27,no=28,missing=27
				27:[humidity<0.819999993] yes=49,no=50,missing=49
					49:[humidity<0.629999995] yes=89,no=90,missing=90
						89:leaf=0.275016874
						90:leaf=0.452899933
					50:[dewPoint<1.38] yes=91,no=92,missing=91
						91:leaf=0.00439777365
						92:leaf=0.123523846
				28:[windGust<10.0100002] yes=51,no=52,missing=51
					51:[dewPoint<2.24000001] yes=93,no=94,missing=93
						93:leaf=-0.203542948
						94:leaf=0.294074029
					52:[windSpeed<6.98000002] yes=95,no=96,missing=95
						95:leaf=-0.607843995
						96:leaf=0.165099934
			14:[windGust<3.42000008] yes=29,no=30,missing=29
				29:[humidity<0.649999976] yes=53,no=54,missing=54
					53:[pressure<1023.90997] yes=97,no=98,missing=97
						97:leaf=0.181162804
						98:leaf=-0.247842625
					54:[cloudCover<0.200000003] yes=99,no=100,missing=100
						99:leaf=-0.142166585
						100:leaf=0.248319626
				30:[pressure<1025.59998] yes=55,no=56,missing=56
					55:[windBearing<76] yes=101,no=102,missing=102
						101:leaf=0.321401268
						102:leaf=0.0806068704
					56:[cloudCover<0.699999988] yes=103,no=104,missing=103
						103:leaf=0.424272627
						104:leaf=0.183337733
booster[24]:
0:[uvIndex<0.5] yes=1,no=2,missing=1
	1:[windGust<5.19000006] yes=3,no=4,missing=4
		3:[precipIntensity<0.0838000029] yes=7,no=8,missing=7
			7:[temperature<4.23000002] yes=15,no=16,missing=15
				15:[hour_x<8] yes=31,no=32,missing=31
					31:[humidity<0.800000012] yes=57,no=58,missing=57
						57:leaf=0.276708245
						58:leaf=-0.0164523646
					32:[windGust<2.49000001] yes=59,no=60,missing=59
						59:leaf=0.679914653
						60:leaf=0.0280191749
				16:[apparentTemperature<15.1300001] yes=33,no=34,missing=33
					33:[dewPoint<2.97000003] yes=61,no=62,missing=61
						61:leaf=-0.120679058
						62:leaf=-0.0191764999
					34:[dewPoint<3.47000003] yes=63,no=64,missing=63
						63:leaf=-0.0205669533
						64:leaf=0.556132019
			8:[windGust<3.6500001] yes=17,no=18,missing=17
				17:leaf=0.375327498
				18:[humidity<0.870000005] yes=35,no=36,missing=36
					35:[hour_x<20] yes=65,no=66,missing=65
						65:leaf=0.0627632141
						66:leaf=0.382815748
					36:[dewPoint<3.3599999] yes=67,no=68,missing=67
						67:leaf=0.161101565
						68:leaf=-0.0382996462
		4:[pressure<1034.93005] yes=9,no=10,missing=10
			9:[cloudCover<0.219999999] yes=19,no=20,missing=19
				19:[cloudCover<0.159999996] yes=37,no=38,missing=37
					37:[pressure<1027.83997] yes=69,no=70,missing=70
						69:leaf=0.112670816
						70:leaf=-0.206480548
					38:[windSpeed<3.94000006] yes=71,no=72,missing=71
						71:leaf=0.0943148509
						72:leaf=0.528874934
				20:[windSpeed<3.63000011] yes=39,no=40,missing=39
					39:[windBearing<175] yes=73,no=74,missing=73
						73:leaf=0.206221744
						74:leaf=-0.0152859958
					40:[windSpeed<6.71999979] yes=75,no=76,missing=75
						75:leaf=-0.0139803803
						76:leaf=0.0607899688
			10:[hour_x<7] yes=21,no=22,missing=22
				21:[apparentTemperature<2.21000004] yes=41,no=42,missing=41
					41:leaf=0.0432011858
					42:leaf=0.163685203
				22:leaf=0.622982979
	2:[weekday<1] yes=5,no=6,missing=5
		5:[clear<1] yes=11,no=12,missing=12
			11:[pressure<1028.19995] yes=23,no=24,missing=24
				23:[pressure<1024.40002] yes=43,no=44,missing=43
					43:[cloudCover<0.75] yes=77,no=78,missing=77
						77:leaf=0.0611042455
						78:leaf=0.00660797069
					44:[pressure<1027.58997] yes=79,no=80,missing=80
						79:leaf=-0.114450432
						80:leaf=0.0197457504
				24:[windBearing<284] yes=45,no=46,missing=46
					45:[windGust<17.6800003] yes=81,no=82,missing=81
						81:leaf=0.0458847433
						82:leaf=-0.0828124359
					46:[dewPoint<3.6099999] yes=83,no=84,missing=84
						83:leaf=0.107016779
						84:leaf=0.263216019
			12:[dewPoint<2.97000003] yes=25,no=26,missing=25
				25:[windGust<10.79] yes=47,no=48,missing=47
					47:[windBearing<233] yes=85,no=86,missing=86
						85:leaf=-0.00381069188
						86:leaf=-0.0717942491
					48:[windBearing<215] yes=87,no=88,missing=87
						87:leaf=-0.0466726646
						88:leaf=-0.00968764443
				26:leaf=0.0319897644
		6:[hour_x<17] yes=13,no=14,missing=13
			13:[windSpeed<1.64999998] yes=27,no=28,missing=28
				27:[dewPoint<5.51000023] yes=49,no=50,missing=49
					49:[cloudCover<0.850000024] yes=89,no=90,missing=89
						89:leaf=0.535609961
						90:leaf=0.166963801
					50:[dewPoint<5.73000002] yes=91,no=92,missing=91
						91:leaf=-0.0483442061
						92:leaf=0.37921986
				28:[dewPoint<1.08000004] yes=51,no=52,missing=52
					51:[windGust<9.56999969] yes=93,no=94,missing=94
						93:leaf=-0.04631567
						94:leaf=0.376622409
					52:[windGust<10.6899996] yes=95,no=96,missing=96
						95:leaf=0.18957524
						96:leaf=0.0853101611
			14:[cloudCover<0.670000017] yes=29,no=30,missing=29
				29:[pressure<1025.18005] yes=53,no=54,missing=54
					53:[apparentTemperature<10.6099997] yes=97,no=98,missing=97
						97:leaf=-0.148742393
						98:leaf=0.0950447768
					54:leaf=-0.316979021
				30:[apparentTemperature<11.8999996] yes=55,no=56,missing=55
					55:[temperature<9.03999996] yes=99,no=100,missing=99
						99:leaf=0.0747760683
						100:leaf=-0.122371018
					56:leaf=0.399386287
booster[25]:
0:[uvIndex<0.5] yes=1,no=2,missing=1
	1:[dewPoint<8.90999985] yes=3,no=4,missing=3
		3:[windGust<5.19000006] yes=7,no=8,missing=8
			7:[precipIntensity<0.0838000029] yes=15,no=16,missing=15
				15:[hour_x<21] yes=31,no=32,missing=31
					31:[windGust<2.49000001] yes=59,no=60,missing=59
						59:leaf=0.108625628
						60:leaf=-0.0171323512
					32:[pressure<1012.28003] yes=61,no=62,missing=61
						61:leaf=0.00257069222
						62:leaf=-0.109443799
				16:[windGust<3.6500001] yes=33,no=34,missing=33
					33:leaf=0.340140551
					34:[precipProbability<0.629999995] yes=63,no=64,missing=64
						63:leaf=0.28847909
						64:leaf=0.0456974581
			8:[precipProbability<0.300000012] yes=17,no=18,missing=17
				17:[visibility<4.44000006] yes=35,no=36,missing=35
					35:[humidity<0.790000021] yes=65,no=66,missing=65
						65:leaf=0.591050923
						66:leaf=0.139130309
					36:[pressure<1034.93005] yes=67,no=68,missing=67
						67:leaf=0.0538704172
						68:leaf=0.494085163
				18:[pressure<1018.75] yes=37,no=38,missing=37
					37:[cloudCover<0.920000017] yes=69,no=70,missing=69
						69:leaf=0.00249516917
						70:leaf=0.382389396
					38:[dewPoint<4.19000006] yes=71,no=72,missing=71
						71:leaf=-0.117062591
						72:leaf=-0.649929702
		4:[humidity<0.75] yes=9,no=10,missing=9
			9:[hour_x<17] yes=19,no=20,missing=19
				19:leaf=-0.602459133
				20:[windGust<7.42999983] yes=39,no=40,missing=39
					39:leaf=-0.035312105
					40:leaf=-0.165831566
			10:[windSpeed<10.79] yes=21,no=22,missing=21
				21:[windGust<19.2099991] yes=41,no=42,missing=41
					41:[visibility<11.1800003] yes=73,no=74,missing=74
						73:leaf=-0.0404045545
						74:leaf=0.00321003422
					42:[weekday<1] yes=75,no=76,missing=75
						75:leaf=-0.047644984
						76:leaf=-0.173363879
				22:[windGust<17.5499992] yes=43,no=44,missing=43
					43:leaf=-0.0569913797
					44:[dewPoint<9.03999996] yes=77,no=78,missing=77
						77:leaf=-0.0249240752
						78:leaf=-0.128971323
	2:[weekday<1] yes=5,no=6,missing=6
		5:[pressure<1007.35999] yes=11,no=12,missing=11
			11:[humidity<0.720000029] yes=23,no=24,missing=24
				23:leaf=-0.131541297
				24:[windGust<8.43999958] yes=45,no=46,missing=45
					45:[temperature<8.09000015] yes=79,no=80,missing=80
						79:leaf=0.00401310949
						80:leaf=0.0442979261
					46:[dewPoint<4.53999996] yes=81,no=82,missing=82
						81:leaf=-0.023742754
						82:leaf=-0.00732275471
			12:[pressure<1012.28003] yes=25,no=26,missing=25
				25:[apparentTemperature<10.3400002] yes=47,no=48,missing=47
					47:[windSpeed<5.55999994] yes=83,no=84,missing=83
						83:leaf=0.0441682674
						84:leaf=0.12897183
					48:[humidity<0.699999988] yes=85,no=86,missing=86
						85:leaf=-0.045566
						86:leaf=0.0802072808
				26:[temperature<6.71999979] yes=49,no=50,missing=49
					49:[windGust<3.83999991] yes=87,no=88,missing=87
						87:leaf=0.0192195363
						88:leaf=-0.0596317723
					50:[dewPoint<4.0999999] yes=89,no=90,missing=89
						89:leaf=0.0498281606
						90:leaf=-0.00447572814
		6:[hour_x<13] yes=13,no=14,missing=13
			13:[hour_x<9] yes=27,no=28,missing=28
				27:[visibility<8.06000042] yes=51,no=52,missing=51
					51:[apparentTemperature<5.4000001] yes=91,no=92,missing=91
						91:leaf=-0.820893884
						92:leaf=0.161685184
					52:[windGust<5.34000015] yes=93,no=94,missing=94
						93:leaf=-0.0992104262
						94:leaf=0.256857723
				28:[uvIndex<1.5] yes=53,no=54,missing=53
					53:[pressure<1005.42999] yes=95,no=96,missing=96
						95:leaf=0.167498887
						96:leaf=0.377406657
					54:[apparentTemperature<11.7200003] yes=97,no=98,missing=97
						97:leaf=0.101205222
						98:leaf=0.277844787
			14:[windGust<3.42000008] yes=29,no=30,missing=29
				29:[humidity<0.649999976] yes=55,no=56,missing=55
					55:[pressure<1035.52002] yes=99,no=100,missing=99
						99:leaf=-0.247896105
						100:leaf=0.106825851
					56:[cloudCover<0.200000003] yes=101,no=102,missing=101
						101:leaf=-0.145959303
						102:leaf=0.20583646
				30:[pressure<1025.59998] yes=57,no=58,missing=57
					57:[cloudCover<0.430000007] yes=103,no=104,missing=103
						103:leaf=-0.21991156
						104:leaf=0.118428133
					58:[cloudCover<0.699999988] yes=105,no=106,missing=105
						105:leaf=0.360900581
						106:leaf=0.146198779
booster[26]:
0:[uvIndex<0.5] yes=1,no=2,missing=2
	1:[hour_x<18] yes=3,no=4,missing=3
		3:[hour_x<8] yes=7,no=8,missing=7
			7:[windBearing<102] yes=15,no=16,missing=15
				15:[visibility<10.0299997] yes=31,no=32,missing=31
					31:[dewPoint<0.569999993] yes=63,no=64,missing=64
						63:leaf=0.416708797
						64:leaf=-0.0154774804
					32:[humidity<0.75] yes=65,no=66,missing=65
						65:leaf=0.0669757351
						66:leaf=-0.17488195
				16:[pressure<994.840027] yes=33,no=34,missing=34
					33:[windBearing<186] yes=67,no=68,missing=67
						67:leaf=0.599351823
						68:leaf=0.00185988832
					34:[windGust<15.4799995] yes=69,no=70,missing=69
						69:leaf=0.00271364744
						70:leaf=0.0958891436
			8:[cloudCover<0.779999971] yes=17,no=18,missing=18
				17:[weekday<1] yes=35,no=36,missing=36
					35:[windGust<13.5500002] yes=71,no=72,missing=71
						71:leaf=-0.184270129
						72:leaf=0.0826582089
					36:[windGust<9.85000038] yes=73,no=74,missing=74
						73:leaf=0.186786294
						74:leaf=0.462088734
				18:[visibility<4.44000006] yes=37,no=38,missing=38
					37:leaf=0.622329116
					38:[apparentTemperature<0.959999979] yes=75,no=76,missing=76
						75:leaf=0.495434523
						76:leaf=-0.133371964
		4:[windBearing<76] yes=9,no=10,missing=9
			9:[humidity<0.709999979] yes=19,no=20,missing=20
